FANN_FLO_2.1
num_layers=3
learning_rate=0.300000
connection_rate=1.000000
network_type=0
learning_momentum=0.000000
training_algorithm=2
train_error_function=1
train_stop_function=0
cascade_output_change_fraction=0.010000
quickprop_decay=-0.000100
quickprop_mu=1.750000
rprop_increase_factor=1.200000
rprop_decrease_factor=0.500000
rprop_delta_min=0.000000
rprop_delta_max=50.000000
rprop_delta_zero=0.100000
cascade_output_stagnation_epochs=12
cascade_candidate_change_fraction=0.010000
cascade_candidate_stagnation_epochs=12
cascade_max_out_epochs=150
cascade_min_out_epochs=50
cascade_max_cand_epochs=150
cascade_min_cand_epochs=50
cascade_num_candidate_groups=2
bit_fail_limit=3.49999994039535522461e-01
cascade_candidate_limit=1.00000000000000000000e+03
cascade_weight_multiplier=4.00000005960464477539e-01
cascade_activation_functions_count=10
cascade_activation_functions=3 5 7 8 10 11 14 15 16 17 
cascade_activation_steepnesses_count=4
cascade_activation_steepnesses=2.50000000000000000000e-01 5.00000000000000000000e-01 7.50000000000000000000e-01 1.00000000000000000000e+00 
layer_sizes=4 17 2 
scale_included=0
neurons (num_inputs, activation_function, activation_steepness)=(0, 0, 0.00000000000000000000e+00) (0, 0, 0.00000000000000000000e+00) (0, 0, 0.00000000000000000000e+00) (0, 0, 0.00000000000000000000e+00) (4, 3, 5.00000000000000000000e-01) (4, 3, 5.00000000000000000000e-01) (4, 3, 5.00000000000000000000e-01) (4, 3, 5.00000000000000000000e-01) (4, 3, 5.00000000000000000000e-01) (4, 3, 5.00000000000000000000e-01) (4, 3, 5.00000000000000000000e-01) (4, 3, 5.00000000000000000000e-01) (4, 3, 5.00000000000000000000e-01) (4, 3, 5.00000000000000000000e-01) (4, 3, 5.00000000000000000000e-01) (4, 3, 5.00000000000000000000e-01) (4, 3, 5.00000000000000000000e-01) (4, 3, 5.00000000000000000000e-01) (4, 3, 5.00000000000000000000e-01) (4, 3, 5.00000000000000000000e-01) (0, 3, 0.00000000000000000000e+00) (17, 3, 5.00000000000000000000e-01) (0, 3, 0.00000000000000000000e+00) 
connections (connected_to_neuron, weight)=(0, 3.07164878845214843750e+01) (1, 1.17004842758178710938e+01) (2, -1.42324914932250976562e+01) (3, 4.74925667047500610352e-01) (0, 3.78454685211181640625e+00) (1, -1.07787108421325683594e+00) (2, -8.83645343780517578125e+00) (3, -1.78537145256996154785e-01) (0, -1.17014608383178710938e+01) (1, 1.07773333787918090820e-01) (2, -8.67594146728515625000e+00) (3, 7.69419074058532714844e-02) (0, 1.39148795604705810547e+00) (1, -5.43116986751556396484e-01) (2, -7.13724493980407714844e-01) (3, 6.18001401424407958984e-01) (0, -2.85274177789688110352e-01) (1, 4.50237728655338287354e-02) (2, -1.75174862146377563477e-01) (3, 2.78914719820022583008e-01) (0, -3.53348165750503540039e-01) (1, 3.32475870847702026367e-01) (2, -2.88627654314041137695e-01) (3, 4.44466322660446166992e-01) (0, 3.21418571472167968750e+01) (1, 3.50738372802734375000e+01) (2, 1.27147855758666992188e+01) (3, 3.95407885313034057617e-01) (0, -2.89653033018112182617e-01) (1, 1.04346670210361480713e-01) (2, -2.35529318451881408691e-02) (3, 3.50727289915084838867e-01) (0, -3.41520011425018310547e-01) (1, 3.21519881486892700195e-01) (2, -9.88314524292945861816e-02) (3, 3.40023726224899291992e-01) (0, 4.04715967178344726562e+00) (1, -1.13390898704528808594e+00) (2, -8.86902999877929687500e+00) (3, -1.83049887418746948242e-01) (0, -3.77962172031402587891e-01) (1, 2.50814497470855712891e-01) (2, -7.38014519214630126953e-01) (3, 4.09323126077651977539e-01) (0, -1.92107036709785461426e-01) (1, -7.72952940315008163452e-03) (2, -7.31033325195312500000e-01) (3, 1.09759120941162109375e+01) (0, -1.23928537368774414062e+01) (1, -2.53197371959686279297e-01) (2, -8.68508815765380859375e+00) (3, 8.81963223218917846680e-02) (0, -6.18281029164791107178e-02) (1, 1.76247283816337585449e-02) (2, -2.16477394104003906250e-01) (3, 1.40940570831298828125e+00) (0, 3.20176391601562500000e+01) (1, 3.51185150146484375000e+01) (2, 1.27379999160766601562e+01) (3, 4.28339362144470214844e-01) (0, 3.20679168701171875000e+01) (1, 3.51990509033203125000e+01) (2, 1.27239561080932617188e+01) (3, 4.04365658760070800781e-01) (4, 1.64078488945960998535e-01) (5, 1.29090164184570312500e+02) (6, 1.50000000000000000000e+03) (7, 2.93708622455596923828e-01) (8, -5.68329858779907226562e+00) (9, 2.20035444945096969604e-02) (10, 1.76720827817916870117e-01) (11, -1.09720349311828613281e+00) (12, 3.57365831732749938965e-02) (13, -4.29713172912597656250e+01) (14, 7.52071291208267211914e-02) (15, -1.17493653297424316406e+00) (16, 1.50000000000000000000e+03) (17, -2.83980131149291992188e+00) (18, 1.76974385976791381836e-01) (19, 1.61363959312438964844e-01) (20, 1.90670445561408996582e-01) 
