FANN_FLO_2.1
num_layers=4
learning_rate=0.450000
connection_rate=1.000000
network_type=0
learning_momentum=0.000000
training_algorithm=2
train_error_function=1
train_stop_function=0
cascade_output_change_fraction=0.010000
quickprop_decay=-0.000100
quickprop_mu=1.750000
rprop_increase_factor=1.200000
rprop_decrease_factor=0.500000
rprop_delta_min=0.000000
rprop_delta_max=50.000000
rprop_delta_zero=0.100000
cascade_output_stagnation_epochs=12
cascade_candidate_change_fraction=0.010000
cascade_candidate_stagnation_epochs=12
cascade_max_out_epochs=150
cascade_min_out_epochs=50
cascade_max_cand_epochs=150
cascade_min_cand_epochs=50
cascade_num_candidate_groups=2
bit_fail_limit=3.49999994039535522461e-01
cascade_candidate_limit=1.00000000000000000000e+03
cascade_weight_multiplier=4.00000005960464477539e-01
cascade_activation_functions_count=10
cascade_activation_functions=3 5 7 8 10 11 14 15 16 17 
cascade_activation_steepnesses_count=4
cascade_activation_steepnesses=2.50000000000000000000e-01 5.00000000000000000000e-01 7.50000000000000000000e-01 1.00000000000000000000e+00 
layer_sizes=7 5 5 2 
scale_included=0
neurons (num_inputs, activation_function, activation_steepness)=(0, 0, 0.00000000000000000000e+00) (0, 0, 0.00000000000000000000e+00) (0, 0, 0.00000000000000000000e+00) (0, 0, 0.00000000000000000000e+00) (0, 0, 0.00000000000000000000e+00) (0, 0, 0.00000000000000000000e+00) (0, 0, 0.00000000000000000000e+00) (7, 3, 5.00000000000000000000e-01) (7, 3, 5.00000000000000000000e-01) (7, 3, 5.00000000000000000000e-01) (7, 3, 5.00000000000000000000e-01) (0, 3, 0.00000000000000000000e+00) (5, 3, 5.00000000000000000000e-01) (5, 3, 5.00000000000000000000e-01) (5, 3, 5.00000000000000000000e-01) (5, 3, 5.00000000000000000000e-01) (0, 3, 0.00000000000000000000e+00) (5, 0, 5.00000000000000000000e-01) (0, 0, 0.00000000000000000000e+00) 
connections (connected_to_neuron, weight)=(0, 6.08791470527648925781e-01) (1, 1.50000000000000000000e+03) (2, 7.02417075634002685547e-01) (3, 1.71056163311004638672e+00) (4, 1.50000000000000000000e+03) (5, 9.61207771301269531250e+00) (6, 8.03314447402954101562e-01) (0, 1.23976397514343261719e+00) (1, -1.45836648941040039062e+01) (2, 3.05934846401214599609e-01) (3, 4.69112968444824218750e+00) (4, 1.43665588378906250000e+02) (5, 1.64478435516357421875e+01) (6, -1.56184358596801757812e+01) (0, -4.76781398057937622070e-01) (1, -7.14870071411132812500e+00) (2, -4.16325300931930541992e-01) (3, 3.73364984989166259766e-01) (4, 2.79857945442199707031e+00) (5, 2.23611399531364440918e-01) (6, 1.09367656707763671875e+00) (0, 2.84387171268463134766e-01) (1, 1.36732667684555053711e-01) (2, 3.77877149730920791626e-03) (3, -4.51234281063079833984e-01) (4, -4.87077140808105468750e+00) (5, -5.84843814373016357422e-01) (6, -4.43574714660644531250e+00) (7, 1.03618192672729492188e+01) (8, -1.41449308395385742188e+01) (9, -3.47505340576171875000e+01) (10, 4.35240783691406250000e+02) (11, -1.74728441238403320312e+00) (7, -8.46010565757751464844e-01) (8, -6.33057594299316406250e-01) (9, 1.84980380535125732422e+00) (10, -1.50023620605468750000e+02) (11, 8.70644599199295043945e-02) (7, 1.07801246643066406250e+00) (8, 7.09379291534423828125e+00) (9, 1.39299951171875000000e+03) (10, 7.22410400390625000000e+02) (11, 9.63440179824829101562e-01) (7, -4.28786903619766235352e-01) (8, -5.90530776977539062500e+00) (9, 3.48650717735290527344e+00) (10, 4.28265563964843750000e+02) (11, 5.79247415065765380859e-01) (12, -3.03018856048583984375e+00) (13, 8.58495891094207763672e-01) (14, -9.00101214647293090820e-02) (15, -4.69347333908081054688e+00) (16, -1.36551810428500175476e-02) 
