FANN_FLO_2.1
num_layers=3
learning_rate=0.500000
connection_rate=1.000000
network_type=0
learning_momentum=0.000000
training_algorithm=2
train_error_function=1
train_stop_function=0
cascade_output_change_fraction=0.010000
quickprop_decay=-0.000100
quickprop_mu=1.750000
rprop_increase_factor=1.200000
rprop_decrease_factor=0.500000
rprop_delta_min=0.000000
rprop_delta_max=50.000000
rprop_delta_zero=0.100000
cascade_output_stagnation_epochs=12
cascade_candidate_change_fraction=0.010000
cascade_candidate_stagnation_epochs=12
cascade_max_out_epochs=150
cascade_min_out_epochs=50
cascade_max_cand_epochs=150
cascade_min_cand_epochs=50
cascade_num_candidate_groups=2
bit_fail_limit=3.49999994039535522461e-01
cascade_candidate_limit=1.00000000000000000000e+03
cascade_weight_multiplier=4.00000005960464477539e-01
cascade_activation_functions_count=10
cascade_activation_functions=3 5 7 8 10 11 14 15 16 17 
cascade_activation_steepnesses_count=4
cascade_activation_steepnesses=2.50000000000000000000e-01 5.00000000000000000000e-01 7.50000000000000000000e-01 1.00000000000000000000e+00 
layer_sizes=82 5 2 
scale_included=0
neurons (num_inputs, activation_function, activation_steepness)=(0, 0, 0.00000000000000000000e+00) (0, 0, 0.00000000000000000000e+00) (0, 0, 0.00000000000000000000e+00) (0, 0, 0.00000000000000000000e+00) (0, 0, 0.00000000000000000000e+00) (0, 0, 0.00000000000000000000e+00) (0, 0, 0.00000000000000000000e+00) (0, 0, 0.00000000000000000000e+00) (0, 0, 0.00000000000000000000e+00) (0, 0, 0.00000000000000000000e+00) (0, 0, 0.00000000000000000000e+00) (0, 0, 0.00000000000000000000e+00) (0, 0, 0.00000000000000000000e+00) (0, 0, 0.00000000000000000000e+00) (0, 0, 0.00000000000000000000e+00) (0, 0, 0.00000000000000000000e+00) (0, 0, 0.00000000000000000000e+00) (0, 0, 0.00000000000000000000e+00) (0, 0, 0.00000000000000000000e+00) (0, 0, 0.00000000000000000000e+00) (0, 0, 0.00000000000000000000e+00) (0, 0, 0.00000000000000000000e+00) (0, 0, 0.00000000000000000000e+00) (0, 0, 0.00000000000000000000e+00) (0, 0, 0.00000000000000000000e+00) (0, 0, 0.00000000000000000000e+00) (0, 0, 0.00000000000000000000e+00) (0, 0, 0.00000000000000000000e+00) (0, 0, 0.00000000000000000000e+00) (0, 0, 0.00000000000000000000e+00) (0, 0, 0.00000000000000000000e+00) (0, 0, 0.00000000000000000000e+00) (0, 0, 0.00000000000000000000e+00) (0, 0, 0.00000000000000000000e+00) (0, 0, 0.00000000000000000000e+00) (0, 0, 0.00000000000000000000e+00) (0, 0, 0.00000000000000000000e+00) (0, 0, 0.00000000000000000000e+00) (0, 0, 0.00000000000000000000e+00) (0, 0, 0.00000000000000000000e+00) (0, 0, 0.00000000000000000000e+00) (0, 0, 0.00000000000000000000e+00) (0, 0, 0.00000000000000000000e+00) (0, 0, 0.00000000000000000000e+00) (0, 0, 0.00000000000000000000e+00) (0, 0, 0.00000000000000000000e+00) (0, 0, 0.00000000000000000000e+00) (0, 0, 0.00000000000000000000e+00) (0, 0, 0.00000000000000000000e+00) (0, 0, 0.00000000000000000000e+00) (0, 0, 0.00000000000000000000e+00) (0, 0, 0.00000000000000000000e+00) (0, 0, 0.00000000000000000000e+00) (0, 0, 0.00000000000000000000e+00) (0, 0, 0.00000000000000000000e+00) (0, 0, 0.00000000000000000000e+00) (0, 0, 0.00000000000000000000e+00) (0, 0, 0.00000000000000000000e+00) (0, 0, 0.00000000000000000000e+00) (0, 0, 0.00000000000000000000e+00) (0, 0, 0.00000000000000000000e+00) (0, 0, 0.00000000000000000000e+00) (0, 0, 0.00000000000000000000e+00) (0, 0, 0.00000000000000000000e+00) (0, 0, 0.00000000000000000000e+00) (0, 0, 0.00000000000000000000e+00) (0, 0, 0.00000000000000000000e+00) (0, 0, 0.00000000000000000000e+00) (0, 0, 0.00000000000000000000e+00) (0, 0, 0.00000000000000000000e+00) (0, 0, 0.00000000000000000000e+00) (0, 0, 0.00000000000000000000e+00) (0, 0, 0.00000000000000000000e+00) (0, 0, 0.00000000000000000000e+00) (0, 0, 0.00000000000000000000e+00) (0, 0, 0.00000000000000000000e+00) (0, 0, 0.00000000000000000000e+00) (0, 0, 0.00000000000000000000e+00) (0, 0, 0.00000000000000000000e+00) (0, 0, 0.00000000000000000000e+00) (0, 0, 0.00000000000000000000e+00) (0, 0, 0.00000000000000000000e+00) (82, 3, 5.00000000000000000000e-01) (82, 3, 5.00000000000000000000e-01) (82, 3, 5.00000000000000000000e-01) (82, 3, 5.00000000000000000000e-01) (0, 3, 0.00000000000000000000e+00) (5, 3, 5.00000000000000000000e-01) (0, 3, 0.00000000000000000000e+00) 
connections (connected_to_neuron, weight)=(0, 5.27859151363372802734e-01) (1, -1.86596661806106567383e-01) (2, -1.54534146189689636230e-01) (3, -2.42039989680051803589e-02) (4, -2.29146685451269149780e-02) (5, -1.21243536472320556641e+00) (6, -9.87988412380218505859e-01) (7, 9.95097160339355468750e-01) (8, 1.90713584423065185547e-01) (9, -1.99648782610893249512e-01) (10, -5.21526002883911132812e+00) (11, -7.35188066959381103516e-01) (12, -3.00213575363159179688e+00) (13, -1.99971222877502441406e+00) (14, 4.57453995943069458008e-01) (15, -1.45739033818244934082e-01) (16, -3.41543126106262207031e+00) (17, -4.32216018438339233398e-01) (18, -8.29202294349670410156e-01) (19, -6.65804624557495117188e-01) (20, -8.97377669811248779297e-01) (21, 6.50389939546585083008e-02) (22, -2.68810898065567016602e-01) (23, -2.06198930740356445312e+00) (24, -2.70346012115478515625e+01) (25, -1.64303347468376159668e-01) (26, -1.28894901275634765625e+00) (27, -1.01590678095817565918e-01) (28, -1.90306112170219421387e-01) (29, -7.77316018939018249512e-02) (30, -5.07016815245151519775e-02) (31, -2.28115364909172058105e-01) (32, -3.91515040397644042969e+00) (33, -2.05499455332756042480e-01) (34, -1.93014413118362426758e-01) (35, -3.45911867916584014893e-02) (36, -2.02450707554817199707e-01) (37, -1.93963468074798583984e-01) (38, -3.17934656143188476562e+00) (39, -1.68360543251037597656e+00) (40, -7.31261193752288818359e-01) (41, -6.88036084175109863281e-02) (42, 7.68916845321655273438e-01) (43, 8.86170089244842529297e-01) (44, 2.38672947883605957031e+00) (45, 4.28672701120376586914e-01) (46, -1.16955995559692382812e+00) (47, -6.47557973861694335938e-02) (48, -4.00653742253780364990e-02) (49, 1.50000000000000000000e+03) (50, 1.50000000000000000000e+03) (51, 1.50000000000000000000e+03) (52, 1.50000000000000000000e+03) (53, 1.50000000000000000000e+03) (54, 1.50000000000000000000e+03) (55, 1.50000000000000000000e+03) (56, 1.50000000000000000000e+03) (57, 1.50000000000000000000e+03) (58, 1.50000000000000000000e+03) (59, 1.50000000000000000000e+03) (60, 1.50000000000000000000e+03) (61, 1.50000000000000000000e+03) (62, 1.50000000000000000000e+03) (63, 1.50000000000000000000e+03) (64, 1.50000000000000000000e+03) (65, 1.50000000000000000000e+03) (66, 1.50000000000000000000e+03) (67, 1.50000000000000000000e+03) (68, 1.50000000000000000000e+03) (69, 1.50000000000000000000e+03) (70, 1.50000000000000000000e+03) (71, 1.50000000000000000000e+03) (72, 1.50000000000000000000e+03) (73, 1.50000000000000000000e+03) (74, 1.50000000000000000000e+03) (75, 1.50000000000000000000e+03) (76, 1.50000000000000000000e+03) (77, 1.50000000000000000000e+03) (78, 1.50000000000000000000e+03) (79, 1.50000000000000000000e+03) (80, 1.50000000000000000000e+03) (81, 6.77289199829101562500e+00) (0, -1.01771362125873565674e-01) (1, -4.16392572224140167236e-02) (2, 3.43822501599788665771e-02) (3, -1.56902104616165161133e-01) (4, 7.15560168027877807617e-02) (5, 1.52334153652191162109e-01) (6, 2.02952325344085693359e-01) (7, 1.31864175200462341309e-01) (8, 1.42129808664321899414e-01) (9, -1.59376561641693115234e-01) (10, -2.42654811590909957886e-02) (11, 9.18611511588096618652e-02) (12, -7.93572515249252319336e-02) (13, 1.16613529622554779053e-01) (14, 5.97641058266162872314e-02) (15, 4.11990806460380554199e-02) (16, -1.46388575434684753418e-01) (17, -1.53164658695459365845e-03) (18, 1.70448180288076400757e-02) (19, 1.26947676762938499451e-02) (20, 9.47068631649017333984e-02) (21, 1.38702198863029479980e-01) (22, -5.41845411062240600586e-02) (23, -1.05482786893844604492e-01) (24, -4.36859178543090820312e+00) (25, -1.84062227606773376465e-01) (26, 1.86454448848962783813e-02) (27, -6.80259149521589279175e-03) (28, -1.17825351655483245850e-01) (29, -2.60513257235288619995e-02) (30, -1.65961891412734985352e-01) (31, -1.80001512169837951660e-01) (32, -1.08210653066635131836e-01) (33, 4.09890264272689819336e-02) (34, -9.78811085224151611328e-02) (35, 1.86078816652297973633e-01) (36, 1.59431472420692443848e-01) (37, -8.57312530279159545898e-02) (38, 1.02722577750682830811e-01) (39, -3.00658075138926506042e-03) (40, -1.08404485508799552917e-02) (41, 6.68342038989067077637e-02) (42, -1.09221734106540679932e-01) (43, -3.82325276732444763184e-02) (44, -1.42448723316192626953e-01) (45, 2.27628927677869796753e-02) (46, 4.60013523697853088379e-02) (47, 6.92155584692955017090e-02) (48, -7.06250220537185668945e-02) (49, 1.50000000000000000000e+03) (50, 1.50000000000000000000e+03) (51, 1.50000000000000000000e+03) (52, 1.50000000000000000000e+03) (53, 1.50000000000000000000e+03) (54, 1.50000000000000000000e+03) (55, 1.50000000000000000000e+03) (56, 1.50000000000000000000e+03) (57, 1.50000000000000000000e+03) (58, 1.50000000000000000000e+03) (59, 1.50000000000000000000e+03) (60, 1.50000000000000000000e+03) (61, 1.50000000000000000000e+03) (62, 1.50000000000000000000e+03) (63, 1.50000000000000000000e+03) (64, 1.50000000000000000000e+03) (65, 1.50000000000000000000e+03) (66, 1.50000000000000000000e+03) (67, 1.50000000000000000000e+03) (68, 1.50000000000000000000e+03) (69, 1.50000000000000000000e+03) (70, 1.50000000000000000000e+03) (71, 1.50000000000000000000e+03) (72, 1.50000000000000000000e+03) (73, 1.50000000000000000000e+03) (74, 1.50000000000000000000e+03) (75, 1.50000000000000000000e+03) (76, 1.50000000000000000000e+03) (77, 1.50000000000000000000e+03) (78, 1.50000000000000000000e+03) (79, 1.50000000000000000000e+03) (80, 1.50000000000000000000e+03) (81, 2.67356634140014648438e+00) (0, -1.30672782659530639648e-01) (1, 3.05938702076673507690e-02) (2, 1.57607942819595336914e-02) (3, -2.92146094143390655518e-02) (4, 1.08779594302177429199e-01) (5, -1.25191092491149902344e-01) (6, -1.57807096838951110840e-02) (7, 1.43534950911998748779e-02) (8, 3.75245399773120880127e-02) (9, 1.25307336449623107910e-01) (10, -1.58975273370742797852e-01) (11, 6.44049094989895820618e-03) (12, -1.36010885238647460938e-01) (13, -7.76151334866881370544e-03) (14, 6.75440132617950439453e-02) (15, -1.87423676252365112305e-01) (16, -1.08432173728942871094e-01) (17, 5.11474208906292915344e-03) (18, -7.42760896682739257812e-02) (19, 1.36801883578300476074e-01) (20, -5.01122325658798217773e-02) (21, -3.94238799810409545898e-01) (22, -2.05190390348434448242e-01) (23, -2.72698178887367248535e-02) (24, -2.28681325912475585938e+00) (25, -8.76265764236450195312e-02) (26, -2.57869511842727661133e-02) (27, -1.56503438949584960938e-01) (28, -2.87446826696395874023e-02) (29, -1.23845964670181274414e-01) (30, 8.04724916815757751465e-02) (31, -1.11353740096092224121e-01) (32, -1.16010621190071105957e-01) (33, -1.10160186886787414551e-01) (34, -3.23406793177127838135e-02) (35, -4.21880409121513366699e-02) (36, -9.78544205427169799805e-02) (37, -1.96560770273208618164e-01) (38, -8.21355506777763366699e-02) (39, -1.41680195927619934082e-01) (40, -9.70508344471454620361e-03) (41, -1.14904373884201049805e-01) (42, -8.72314274311065673828e-02) (43, -1.39536589384078979492e-01) (44, -1.67218804359436035156e-01) (45, -8.91590490937232971191e-02) (46, -1.36792391538619995117e-01) (47, 2.40672230720520019531e-02) (48, -1.39531269669532775879e-01) (49, 1.50000000000000000000e+03) (50, 1.50000000000000000000e+03) (51, 1.50000000000000000000e+03) (52, 1.50000000000000000000e+03) (53, 1.50000000000000000000e+03) (54, 1.50000000000000000000e+03) (55, 1.50000000000000000000e+03) (56, 1.50000000000000000000e+03) (57, 1.50000000000000000000e+03) (58, 1.50000000000000000000e+03) (59, 1.50000000000000000000e+03) (60, 1.50000000000000000000e+03) (61, 1.50000000000000000000e+03) (62, 1.50000000000000000000e+03) (63, 1.50000000000000000000e+03) (64, 1.50000000000000000000e+03) (65, 1.50000000000000000000e+03) (66, 1.50000000000000000000e+03) (67, 1.50000000000000000000e+03) (68, 1.50000000000000000000e+03) (69, 1.50000000000000000000e+03) (70, 1.50000000000000000000e+03) (71, 1.50000000000000000000e+03) (72, 1.50000000000000000000e+03) (73, 1.50000000000000000000e+03) (74, 1.50000000000000000000e+03) (75, 1.50000000000000000000e+03) (76, 1.50000000000000000000e+03) (77, 1.50000000000000000000e+03) (78, 1.50000000000000000000e+03) (79, 1.50000000000000000000e+03) (80, 1.50000000000000000000e+03) (81, 2.37916803359985351562e+00) (0, 1.50000000000000000000e+03) (1, 1.50000000000000000000e+03) (2, 1.50000000000000000000e+03) (3, 1.50000000000000000000e+03) (4, 1.50000000000000000000e+03) (5, 1.50000000000000000000e+03) (6, 1.50000000000000000000e+03) (7, 1.50000000000000000000e+03) (8, 1.50000000000000000000e+03) (9, 1.50000000000000000000e+03) (10, 1.50000000000000000000e+03) (11, 1.50000000000000000000e+03) (12, 1.50000000000000000000e+03) (13, 1.50000000000000000000e+03) (14, 1.50000000000000000000e+03) (15, 1.50000000000000000000e+03) (16, 1.50000000000000000000e+03) (17, 1.50000000000000000000e+03) (18, 1.50000000000000000000e+03) (19, 1.50000000000000000000e+03) (20, 1.50000000000000000000e+03) (21, 1.50000000000000000000e+03) (22, 1.50000000000000000000e+03) (23, 1.50000000000000000000e+03) (24, 1.50000000000000000000e+03) (25, 1.50000000000000000000e+03) (26, 1.50000000000000000000e+03) (27, 1.50000000000000000000e+03) (28, 1.50000000000000000000e+03) (29, 1.50000000000000000000e+03) (30, 1.50000000000000000000e+03) (31, 1.50000000000000000000e+03) (32, 1.50000000000000000000e+03) (33, 1.50000000000000000000e+03) (34, 1.50000000000000000000e+03) (35, 1.50000000000000000000e+03) (36, 1.50000000000000000000e+03) (37, 1.50000000000000000000e+03) (38, 1.50000000000000000000e+03) (39, 1.50000000000000000000e+03) (40, 1.50000000000000000000e+03) (41, 1.50000000000000000000e+03) (42, 1.50000000000000000000e+03) (43, 1.50000000000000000000e+03) (44, 1.50000000000000000000e+03) (45, 1.50000000000000000000e+03) (46, 1.50000000000000000000e+03) (47, 1.50000000000000000000e+03) (48, 1.50000000000000000000e+03) (49, 1.50000000000000000000e+03) (50, 1.50000000000000000000e+03) (51, 1.50000000000000000000e+03) (52, 1.50000000000000000000e+03) (53, 1.50000000000000000000e+03) (54, 1.50000000000000000000e+03) (55, 1.50000000000000000000e+03) (56, 1.50000000000000000000e+03) (57, 1.50000000000000000000e+03) (58, 1.50000000000000000000e+03) (59, 1.50000000000000000000e+03) (60, 1.50000000000000000000e+03) (61, 1.50000000000000000000e+03) (62, 1.50000000000000000000e+03) (63, 1.50000000000000000000e+03) (64, 1.50000000000000000000e+03) (65, 1.50000000000000000000e+03) (66, 1.50000000000000000000e+03) (67, 1.50000000000000000000e+03) (68, 1.50000000000000000000e+03) (69, 1.50000000000000000000e+03) (70, 1.50000000000000000000e+03) (71, 1.50000000000000000000e+03) (72, 1.50000000000000000000e+03) (73, 1.50000000000000000000e+03) (74, 1.50000000000000000000e+03) (75, 1.50000000000000000000e+03) (76, 1.50000000000000000000e+03) (77, 1.50000000000000000000e+03) (78, 1.50000000000000000000e+03) (79, 1.50000000000000000000e+03) (80, 1.50000000000000000000e+03) (81, 6.04693949222564697266e-01) (82, -1.20355439186096191406e+00) (83, -2.27046966552734375000e+00) (84, -1.99650406837463378906e+00) (85, 1.10628545284271240234e+00) (86, 1.06477749347686767578e+00) 
