FANN_FLO_2.1
num_layers=3
learning_rate=0.500000
connection_rate=1.000000
network_type=0
learning_momentum=0.000000
training_algorithm=2
train_error_function=1
train_stop_function=0
cascade_output_change_fraction=0.010000
quickprop_decay=-0.000100
quickprop_mu=1.750000
rprop_increase_factor=1.200000
rprop_decrease_factor=0.500000
rprop_delta_min=0.000000
rprop_delta_max=50.000000
rprop_delta_zero=0.100000
cascade_output_stagnation_epochs=12
cascade_candidate_change_fraction=0.010000
cascade_candidate_stagnation_epochs=12
cascade_max_out_epochs=150
cascade_min_out_epochs=50
cascade_max_cand_epochs=150
cascade_min_cand_epochs=50
cascade_num_candidate_groups=2
bit_fail_limit=3.49999994039535522461e-01
cascade_candidate_limit=1.00000000000000000000e+03
cascade_weight_multiplier=4.00000005960464477539e-01
cascade_activation_functions_count=10
cascade_activation_functions=3 5 7 8 10 11 14 15 16 17 
cascade_activation_steepnesses_count=4
cascade_activation_steepnesses=2.50000000000000000000e-01 5.00000000000000000000e-01 7.50000000000000000000e-01 1.00000000000000000000e+00 
layer_sizes=82 9 2 
scale_included=0
neurons (num_inputs, activation_function, activation_steepness)=(0, 0, 0.00000000000000000000e+00) (0, 0, 0.00000000000000000000e+00) (0, 0, 0.00000000000000000000e+00) (0, 0, 0.00000000000000000000e+00) (0, 0, 0.00000000000000000000e+00) (0, 0, 0.00000000000000000000e+00) (0, 0, 0.00000000000000000000e+00) (0, 0, 0.00000000000000000000e+00) (0, 0, 0.00000000000000000000e+00) (0, 0, 0.00000000000000000000e+00) (0, 0, 0.00000000000000000000e+00) (0, 0, 0.00000000000000000000e+00) (0, 0, 0.00000000000000000000e+00) (0, 0, 0.00000000000000000000e+00) (0, 0, 0.00000000000000000000e+00) (0, 0, 0.00000000000000000000e+00) (0, 0, 0.00000000000000000000e+00) (0, 0, 0.00000000000000000000e+00) (0, 0, 0.00000000000000000000e+00) (0, 0, 0.00000000000000000000e+00) (0, 0, 0.00000000000000000000e+00) (0, 0, 0.00000000000000000000e+00) (0, 0, 0.00000000000000000000e+00) (0, 0, 0.00000000000000000000e+00) (0, 0, 0.00000000000000000000e+00) (0, 0, 0.00000000000000000000e+00) (0, 0, 0.00000000000000000000e+00) (0, 0, 0.00000000000000000000e+00) (0, 0, 0.00000000000000000000e+00) (0, 0, 0.00000000000000000000e+00) (0, 0, 0.00000000000000000000e+00) (0, 0, 0.00000000000000000000e+00) (0, 0, 0.00000000000000000000e+00) (0, 0, 0.00000000000000000000e+00) (0, 0, 0.00000000000000000000e+00) (0, 0, 0.00000000000000000000e+00) (0, 0, 0.00000000000000000000e+00) (0, 0, 0.00000000000000000000e+00) (0, 0, 0.00000000000000000000e+00) (0, 0, 0.00000000000000000000e+00) (0, 0, 0.00000000000000000000e+00) (0, 0, 0.00000000000000000000e+00) (0, 0, 0.00000000000000000000e+00) (0, 0, 0.00000000000000000000e+00) (0, 0, 0.00000000000000000000e+00) (0, 0, 0.00000000000000000000e+00) (0, 0, 0.00000000000000000000e+00) (0, 0, 0.00000000000000000000e+00) (0, 0, 0.00000000000000000000e+00) (0, 0, 0.00000000000000000000e+00) (0, 0, 0.00000000000000000000e+00) (0, 0, 0.00000000000000000000e+00) (0, 0, 0.00000000000000000000e+00) (0, 0, 0.00000000000000000000e+00) (0, 0, 0.00000000000000000000e+00) (0, 0, 0.00000000000000000000e+00) (0, 0, 0.00000000000000000000e+00) (0, 0, 0.00000000000000000000e+00) (0, 0, 0.00000000000000000000e+00) (0, 0, 0.00000000000000000000e+00) (0, 0, 0.00000000000000000000e+00) (0, 0, 0.00000000000000000000e+00) (0, 0, 0.00000000000000000000e+00) (0, 0, 0.00000000000000000000e+00) (0, 0, 0.00000000000000000000e+00) (0, 0, 0.00000000000000000000e+00) (0, 0, 0.00000000000000000000e+00) (0, 0, 0.00000000000000000000e+00) (0, 0, 0.00000000000000000000e+00) (0, 0, 0.00000000000000000000e+00) (0, 0, 0.00000000000000000000e+00) (0, 0, 0.00000000000000000000e+00) (0, 0, 0.00000000000000000000e+00) (0, 0, 0.00000000000000000000e+00) (0, 0, 0.00000000000000000000e+00) (0, 0, 0.00000000000000000000e+00) (0, 0, 0.00000000000000000000e+00) (0, 0, 0.00000000000000000000e+00) (0, 0, 0.00000000000000000000e+00) (0, 0, 0.00000000000000000000e+00) (0, 0, 0.00000000000000000000e+00) (0, 0, 0.00000000000000000000e+00) (82, 3, 5.00000000000000000000e-01) (82, 3, 5.00000000000000000000e-01) (82, 3, 5.00000000000000000000e-01) (82, 3, 5.00000000000000000000e-01) (82, 3, 5.00000000000000000000e-01) (82, 3, 5.00000000000000000000e-01) (82, 3, 5.00000000000000000000e-01) (82, 3, 5.00000000000000000000e-01) (0, 3, 0.00000000000000000000e+00) (9, 3, 5.00000000000000000000e-01) (0, 3, 0.00000000000000000000e+00) 
connections (connected_to_neuron, weight)=(0, 1.46999487304687500000e+03) (1, 1.41665246582031250000e+03) (2, 1.39982019042968750000e+03) (3, 1.41665246582031250000e+03) (4, 1.39982019042968750000e+03) (5, 1.46999487304687500000e+03) (6, 1.41665246582031250000e+03) (7, 1.46999487304687500000e+03) (8, 1.41665246582031250000e+03) (9, 1.41665246582031250000e+03) (10, 1.41665246582031250000e+03) (11, 1.42798767089843750000e+03) (12, 1.46999487304687500000e+03) (13, 1.41665246582031250000e+03) (14, 1.48749792480468750000e+03) (15, 1.42798767089843750000e+03) (16, 1.41665246582031250000e+03) (17, 1.42798767089843750000e+03) (18, 1.42798767089843750000e+03) (19, 1.46999487304687500000e+03) (20, 1.42798767089843750000e+03) (21, 1.42798767089843750000e+03) (22, 1.42798767089843750000e+03) (23, 1.42798767089843750000e+03) (24, 1.44140283203125000000e+03) (25, 1.42798767089843750000e+03) (26, 1.48749792480468750000e+03) (27, 1.48982690429687500000e+03) (28, 1.41665246582031250000e+03) (29, 1.41665246582031250000e+03) (30, 1.46999487304687500000e+03) (31, 1.44140283203125000000e+03) (32, 1.47174133300781250000e+03) (33, 1.46999487304687500000e+03) (34, 1.42798767089843750000e+03) (35, 1.42798767089843750000e+03) (36, 1.48982690429687500000e+03) (37, 1.49576110839843750000e+03) (38, 1.49479064941406250000e+03) (39, 1.48982690429687500000e+03) (40, 1.48982690429687500000e+03) (41, 1.49576110839843750000e+03) (42, 1.48749792480468750000e+03) (43, 1.48982690429687500000e+03) (44, 1.49576110839843750000e+03) (45, 1.49576110839843750000e+03) (46, 1.49576110839843750000e+03) (47, 1.49576110839843750000e+03) (48, 1.49941674804687500000e+03) (49, 1.50000000000000000000e+03) (50, 1.50000000000000000000e+03) (51, 1.50000000000000000000e+03) (52, 1.50000000000000000000e+03) (53, 1.50000000000000000000e+03) (54, 1.50000000000000000000e+03) (55, 1.50000000000000000000e+03) (56, 1.50000000000000000000e+03) (57, 1.50000000000000000000e+03) (58, 1.50000000000000000000e+03) (59, 1.50000000000000000000e+03) (60, 1.50000000000000000000e+03) (61, 1.50000000000000000000e+03) (62, 1.50000000000000000000e+03) (63, 1.50000000000000000000e+03) (64, 1.50000000000000000000e+03) (65, 1.50000000000000000000e+03) (66, 1.50000000000000000000e+03) (67, 1.50000000000000000000e+03) (68, 1.50000000000000000000e+03) (69, 1.50000000000000000000e+03) (70, 1.50000000000000000000e+03) (71, 1.50000000000000000000e+03) (72, 1.50000000000000000000e+03) (73, 1.50000000000000000000e+03) (74, 1.50000000000000000000e+03) (75, 1.50000000000000000000e+03) (76, 1.50000000000000000000e+03) (77, 1.50000000000000000000e+03) (78, 1.50000000000000000000e+03) (79, 1.50000000000000000000e+03) (80, 1.50000000000000000000e+03) (81, 8.77994537353515625000e-01) (0, 1.46999487304687500000e+03) (1, 1.41665246582031250000e+03) (2, 1.39982019042968750000e+03) (3, 1.41665246582031250000e+03) (4, 1.39982019042968750000e+03) (5, 1.46999487304687500000e+03) (6, 1.41665246582031250000e+03) (7, 1.46999487304687500000e+03) (8, 1.41665246582031250000e+03) (9, 1.41665246582031250000e+03) (10, 1.41665246582031250000e+03) (11, 1.42798767089843750000e+03) (12, 1.46999487304687500000e+03) (13, 1.41665246582031250000e+03) (14, 1.48749792480468750000e+03) (15, 1.42798767089843750000e+03) (16, 1.41665246582031250000e+03) (17, 1.42798767089843750000e+03) (18, 1.42798767089843750000e+03) (19, 1.46999487304687500000e+03) (20, 1.42798767089843750000e+03) (21, 1.42798767089843750000e+03) (22, 1.42798767089843750000e+03) (23, 1.42798767089843750000e+03) (24, 1.44140283203125000000e+03) (25, 1.42798767089843750000e+03) (26, 1.48749792480468750000e+03) (27, 1.48982690429687500000e+03) (28, 1.41665246582031250000e+03) (29, 1.41665246582031250000e+03) (30, 1.46999487304687500000e+03) (31, 1.44140283203125000000e+03) (32, 1.47174133300781250000e+03) (33, 1.46999487304687500000e+03) (34, 1.42798767089843750000e+03) (35, 1.42798767089843750000e+03) (36, 1.48982690429687500000e+03) (37, 1.49576110839843750000e+03) (38, 1.49479064941406250000e+03) (39, 1.48982690429687500000e+03) (40, 1.48982690429687500000e+03) (41, 1.49576110839843750000e+03) (42, 1.48749792480468750000e+03) (43, 1.48982690429687500000e+03) (44, 1.49576110839843750000e+03) (45, 1.49576110839843750000e+03) (46, 1.49576110839843750000e+03) (47, 1.49576110839843750000e+03) (48, 1.49941674804687500000e+03) (49, 1.50000000000000000000e+03) (50, 1.50000000000000000000e+03) (51, 1.50000000000000000000e+03) (52, 1.50000000000000000000e+03) (53, 1.50000000000000000000e+03) (54, 1.50000000000000000000e+03) (55, 1.50000000000000000000e+03) (56, 1.50000000000000000000e+03) (57, 1.50000000000000000000e+03) (58, 1.50000000000000000000e+03) (59, 1.50000000000000000000e+03) (60, 1.50000000000000000000e+03) (61, 1.50000000000000000000e+03) (62, 1.50000000000000000000e+03) (63, 1.50000000000000000000e+03) (64, 1.50000000000000000000e+03) (65, 1.50000000000000000000e+03) (66, 1.50000000000000000000e+03) (67, 1.50000000000000000000e+03) (68, 1.50000000000000000000e+03) (69, 1.50000000000000000000e+03) (70, 1.50000000000000000000e+03) (71, 1.50000000000000000000e+03) (72, 1.50000000000000000000e+03) (73, 1.50000000000000000000e+03) (74, 1.50000000000000000000e+03) (75, 1.50000000000000000000e+03) (76, 1.50000000000000000000e+03) (77, 1.50000000000000000000e+03) (78, 1.50000000000000000000e+03) (79, 1.50000000000000000000e+03) (80, 1.50000000000000000000e+03) (81, 2.07261592149734497070e-01) (0, 1.46999487304687500000e+03) (1, 1.41665246582031250000e+03) (2, 1.39982019042968750000e+03) (3, 1.41665246582031250000e+03) (4, 1.39982019042968750000e+03) (5, 1.46999487304687500000e+03) (6, 1.41665246582031250000e+03) (7, 1.46999487304687500000e+03) (8, 1.41665246582031250000e+03) (9, 1.41665246582031250000e+03) (10, 1.41665246582031250000e+03) (11, 1.42798767089843750000e+03) (12, 1.46999487304687500000e+03) (13, 1.41665246582031250000e+03) (14, 1.48749792480468750000e+03) (15, 1.42798767089843750000e+03) (16, 1.41665246582031250000e+03) (17, 1.42798767089843750000e+03) (18, 1.42798767089843750000e+03) (19, 1.46999487304687500000e+03) (20, 1.42798767089843750000e+03) (21, 1.42798767089843750000e+03) (22, 1.42798767089843750000e+03) (23, 1.42798767089843750000e+03) (24, 1.44140283203125000000e+03) (25, 1.42798767089843750000e+03) (26, 1.48749792480468750000e+03) (27, 1.48982690429687500000e+03) (28, 1.41665246582031250000e+03) (29, 1.41665246582031250000e+03) (30, 1.46999487304687500000e+03) (31, 1.44140283203125000000e+03) (32, 1.47174133300781250000e+03) (33, 1.46999487304687500000e+03) (34, 1.42798767089843750000e+03) (35, 1.42798767089843750000e+03) (36, 1.48982690429687500000e+03) (37, 1.49576110839843750000e+03) (38, 1.30149194335937500000e+03) (39, 1.48982690429687500000e+03) (40, 1.48982690429687500000e+03) (41, 1.49576110839843750000e+03) (42, 1.48749792480468750000e+03) (43, 1.48982690429687500000e+03) (44, 1.49576110839843750000e+03) (45, 1.49576110839843750000e+03) (46, 1.49576110839843750000e+03) (47, 1.49576110839843750000e+03) (48, 1.49941674804687500000e+03) (49, 1.50000000000000000000e+03) (50, 1.50000000000000000000e+03) (51, 1.50000000000000000000e+03) (52, 1.50000000000000000000e+03) (53, 1.50000000000000000000e+03) (54, 1.50000000000000000000e+03) (55, 1.50000000000000000000e+03) (56, 1.50000000000000000000e+03) (57, 1.50000000000000000000e+03) (58, 1.50000000000000000000e+03) (59, 1.50000000000000000000e+03) (60, 1.50000000000000000000e+03) (61, 1.50000000000000000000e+03) (62, 1.50000000000000000000e+03) (63, 1.50000000000000000000e+03) (64, 1.50000000000000000000e+03) (65, 1.50000000000000000000e+03) (66, 1.50000000000000000000e+03) (67, 1.50000000000000000000e+03) (68, 1.50000000000000000000e+03) (69, 1.50000000000000000000e+03) (70, 1.50000000000000000000e+03) (71, 1.50000000000000000000e+03) (72, 1.50000000000000000000e+03) (73, 1.50000000000000000000e+03) (74, 1.50000000000000000000e+03) (75, 1.50000000000000000000e+03) (76, 1.50000000000000000000e+03) (77, 1.50000000000000000000e+03) (78, 1.50000000000000000000e+03) (79, 1.50000000000000000000e+03) (80, 1.50000000000000000000e+03) (81, -3.17715091705322265625e+01) (0, 1.46999487304687500000e+03) (1, 1.41665246582031250000e+03) (2, 1.39982019042968750000e+03) (3, 1.41665246582031250000e+03) (4, 1.39982019042968750000e+03) (5, 1.46999487304687500000e+03) (6, 1.41665246582031250000e+03) (7, 1.46999487304687500000e+03) (8, 1.41665246582031250000e+03) (9, 1.41665246582031250000e+03) (10, 1.41665246582031250000e+03) (11, 1.42798767089843750000e+03) (12, 1.46999487304687500000e+03) (13, 1.41665246582031250000e+03) (14, 1.48749792480468750000e+03) (15, 1.42798767089843750000e+03) (16, 1.41665246582031250000e+03) (17, 1.42798767089843750000e+03) (18, 1.42798767089843750000e+03) (19, 1.46999487304687500000e+03) (20, 1.42798767089843750000e+03) (21, 1.42798767089843750000e+03) (22, 1.42798767089843750000e+03) (23, 1.42798767089843750000e+03) (24, 1.44140283203125000000e+03) (25, 1.42798767089843750000e+03) (26, 1.48749792480468750000e+03) (27, 1.48982690429687500000e+03) (28, 1.41665246582031250000e+03) (29, 1.41665246582031250000e+03) (30, 1.46999487304687500000e+03) (31, 1.44140283203125000000e+03) (32, 1.47174133300781250000e+03) (33, 1.46999487304687500000e+03) (34, 1.42798767089843750000e+03) (35, 1.42798767089843750000e+03) (36, 1.48982690429687500000e+03) (37, 1.49576110839843750000e+03) (38, 1.49479064941406250000e+03) (39, 1.48982690429687500000e+03) (40, 1.48982690429687500000e+03) (41, 1.49576110839843750000e+03) (42, 1.48749792480468750000e+03) (43, 1.48982690429687500000e+03) (44, 1.49576110839843750000e+03) (45, 1.49576110839843750000e+03) (46, 1.49576110839843750000e+03) (47, 1.49576110839843750000e+03) (48, 1.49941674804687500000e+03) (49, 1.50000000000000000000e+03) (50, 1.50000000000000000000e+03) (51, 1.50000000000000000000e+03) (52, 1.50000000000000000000e+03) (53, 1.50000000000000000000e+03) (54, 1.50000000000000000000e+03) (55, 1.50000000000000000000e+03) (56, 1.50000000000000000000e+03) (57, 1.50000000000000000000e+03) (58, 1.50000000000000000000e+03) (59, 1.50000000000000000000e+03) (60, 1.50000000000000000000e+03) (61, 1.50000000000000000000e+03) (62, 1.50000000000000000000e+03) (63, 1.50000000000000000000e+03) (64, 1.50000000000000000000e+03) (65, 1.50000000000000000000e+03) (66, 1.50000000000000000000e+03) (67, 1.50000000000000000000e+03) (68, 1.50000000000000000000e+03) (69, 1.50000000000000000000e+03) (70, 1.50000000000000000000e+03) (71, 1.50000000000000000000e+03) (72, 1.50000000000000000000e+03) (73, 1.50000000000000000000e+03) (74, 1.50000000000000000000e+03) (75, 1.50000000000000000000e+03) (76, 1.50000000000000000000e+03) (77, 1.50000000000000000000e+03) (78, 1.50000000000000000000e+03) (79, 1.50000000000000000000e+03) (80, 1.50000000000000000000e+03) (81, 1.07360787689685821533e-01) (0, 8.46329256892204284668e-02) (1, 8.52564126253128051758e-02) (2, 3.59937213361263275146e-02) (3, 5.51611185073852539062e-04) (4, 2.61048436164855957031e-01) (5, 7.64443576335906982422e-02) (6, -5.93606643378734588623e-02) (7, -4.63068373501300811768e-02) (8, -4.59136888384819030762e-02) (9, 2.62066628783941268921e-02) (10, -3.89433242380619049072e-02) (11, 1.03849790990352630615e-01) (12, 4.71568815410137176514e-02) (13, 2.74532940238714218140e-02) (14, -8.27353633940219879150e-03) (15, -3.19543331861495971680e-02) (16, -1.35571092367172241211e-01) (17, -4.42454852163791656494e-02) (18, -5.52725465968251228333e-03) (19, 1.18525847792625427246e-01) (20, -6.70416131615638732910e-02) (21, 5.11506795883178710938e-02) (22, -1.30026802420616149902e-01) (23, -1.69978916645050048828e-01) (24, -3.35967373847961425781e+00) (25, -3.77670954912900924683e-03) (26, -1.20678290724754333496e-01) (27, 8.97236540913581848145e-02) (28, -6.15342780947685241699e-02) (29, -9.82951298356056213379e-02) (30, -5.10404966771602630615e-02) (31, -7.25884586572647094727e-02) (32, -1.37118563055992126465e-01) (33, 6.59873038530349731445e-02) (34, 2.55656074732542037964e-02) (35, 9.64910313487052917480e-02) (36, -1.35888487100601196289e-01) (37, -1.53421163558959960938e-01) (38, 3.06399306282401084900e-04) (39, -9.75478217005729675293e-02) (40, -1.26546815037727355957e-01) (41, -2.81284973025321960449e-02) (42, 6.16012364625930786133e-02) (43, -2.24760617129504680634e-04) (44, -7.74852707982063293457e-02) (45, -4.89599034190177917480e-02) (46, 1.06896892189979553223e-01) (47, 2.80908524990081787109e-01) (48, 4.94939200580120086670e-02) (49, 1.50000000000000000000e+03) (50, 1.50000000000000000000e+03) (51, 1.50000000000000000000e+03) (52, 1.50000000000000000000e+03) (53, 1.50000000000000000000e+03) (54, 1.50000000000000000000e+03) (55, 1.50000000000000000000e+03) (56, 1.50000000000000000000e+03) (57, 1.50000000000000000000e+03) (58, 1.50000000000000000000e+03) (59, 1.50000000000000000000e+03) (60, 1.50000000000000000000e+03) (61, 1.50000000000000000000e+03) (62, 1.50000000000000000000e+03) (63, 1.50000000000000000000e+03) (64, 1.50000000000000000000e+03) (65, 1.50000000000000000000e+03) (66, 1.50000000000000000000e+03) (67, 1.50000000000000000000e+03) (68, 1.50000000000000000000e+03) (69, 1.50000000000000000000e+03) (70, 1.50000000000000000000e+03) (71, 1.50000000000000000000e+03) (72, 1.50000000000000000000e+03) (73, 1.50000000000000000000e+03) (74, 1.50000000000000000000e+03) (75, 1.50000000000000000000e+03) (76, 1.50000000000000000000e+03) (77, 1.50000000000000000000e+03) (78, 1.50000000000000000000e+03) (79, 1.50000000000000000000e+03) (80, 1.50000000000000000000e+03) (81, 2.11153554916381835938e+00) (0, -5.37490272521972656250e+00) (1, -1.55054397583007812500e+01) (2, -3.75524200439453125000e+02) (3, -8.41236114501953125000e+00) (4, -9.21678222656250000000e+02) (5, -3.95426265895366668701e-02) (6, -7.25426316261291503906e-01) (7, -2.44113028049468994141e-01) (8, -1.36753129959106445312e+01) (9, -1.03781150817871093750e+02) (10, -2.95483636856079101562e+00) (11, -2.54600214958190917969e+00) (12, -2.17559948563575744629e-01) (13, -1.88163471221923828125e+01) (14, -4.04271483421325683594e-01) (15, -1.41220837831497192383e-01) (16, -2.06213851928710937500e+02) (17, -9.78753030300140380859e-01) (18, -2.95304527282714843750e+01) (19, -1.31660193204879760742e-01) (20, -2.19614505767822265625e+00) (21, -6.47822570800781250000e+00) (22, -5.08632242679595947266e-01) (23, -1.07576358318328857422e+00) (24, -4.02934980392456054688e+00) (25, -2.77210783958435058594e+00) (26, -3.81005525588989257812e-01) (27, -1.47644722461700439453e+00) (28, -3.25034599304199218750e+01) (29, -1.64711971282958984375e+01) (30, -1.89032897353172302246e-01) (31, -2.92893409729003906250e-01) (32, -6.26587867736816406250e+00) (33, -4.04686748981475830078e-01) (34, -1.41065227985382080078e+00) (35, -2.99821197986602783203e-01) (36, -3.28715443611145019531e-01) (37, -7.31770932674407958984e-01) (38, -3.53828966617584228516e-01) (39, -9.64777708053588867188e-01) (40, -5.17580151557922363281e-01) (41, 4.41970825195312500000e-02) (42, 6.24295733869075775146e-02) (43, -1.54580369591712951660e-01) (44, -2.67811685800552368164e-01) (45, 9.27224978804588317871e-02) (46, -2.18955636024475097656e-01) (47, -3.90530973672866821289e-01) (48, 7.33861252665519714355e-02) (49, 1.50000000000000000000e+03) (50, 1.50000000000000000000e+03) (51, 1.50000000000000000000e+03) (52, 1.50000000000000000000e+03) (53, 1.50000000000000000000e+03) (54, 1.50000000000000000000e+03) (55, 1.50000000000000000000e+03) (56, 1.50000000000000000000e+03) (57, 1.50000000000000000000e+03) (58, 1.50000000000000000000e+03) (59, 1.50000000000000000000e+03) (60, 1.50000000000000000000e+03) (61, 1.50000000000000000000e+03) (62, 1.50000000000000000000e+03) (63, 1.50000000000000000000e+03) (64, 1.50000000000000000000e+03) (65, 1.50000000000000000000e+03) (66, 1.50000000000000000000e+03) (67, 1.50000000000000000000e+03) (68, 1.50000000000000000000e+03) (69, 1.50000000000000000000e+03) (70, 1.50000000000000000000e+03) (71, 1.50000000000000000000e+03) (72, 1.50000000000000000000e+03) (73, 1.50000000000000000000e+03) (74, 1.50000000000000000000e+03) (75, 1.50000000000000000000e+03) (76, 1.50000000000000000000e+03) (77, 1.50000000000000000000e+03) (78, 1.50000000000000000000e+03) (79, 1.50000000000000000000e+03) (80, 1.50000000000000000000e+03) (81, 2.23897457122802734375e+00) (0, -3.08896899223327636719e-02) (1, 9.92999449372291564941e-02) (2, -1.00659802556037902832e-01) (3, -8.24488922953605651855e-02) (4, -1.52619034051895141602e-01) (5, 1.68129712343215942383e-01) (6, -1.44606539979577064514e-02) (7, -2.44519934058189392090e-02) (8, -2.79515124857425689697e-02) (9, 4.41830307245254516602e-02) (10, -7.81792625784873962402e-02) (11, -8.11750665307044982910e-02) (12, -1.21979959309101104736e-01) (13, -6.46994188427925109863e-02) (14, -5.07923550903797149658e-02) (15, 1.73095446079969406128e-02) (16, -5.63921127468347549438e-03) (17, -3.03398340940475463867e-01) (18, -8.38350951671600341797e-02) (19, -2.32131063938140869141e-01) (20, -1.20359905064105987549e-01) (21, -4.56389263272285461426e-02) (22, -2.52725731115788221359e-04) (23, -3.94262731075286865234e-01) (24, -2.81752490997314453125e+00) (25, -7.76376388967037200928e-03) (26, 3.92096601426601409912e-02) (27, -8.25686082243919372559e-02) (28, -4.72723990678787231445e-02) (29, -1.99720561504364013672e-02) (30, -4.10491712391376495361e-02) (31, 6.54243631288409233093e-04) (32, -4.91896122694015502930e-02) (33, -1.07522517442703247070e-01) (34, -1.38667762279510498047e-01) (35, -2.89625748991966247559e-02) (36, -9.66614559292793273926e-02) (37, -2.31998087838292121887e-03) (38, -1.18820659816265106201e-01) (39, 9.23989899456501007080e-03) (40, -9.54672992229461669922e-02) (41, -8.43385681509971618652e-02) (42, -8.91796573996543884277e-02) (43, -7.59819000959396362305e-02) (44, 3.15442197024822235107e-02) (45, 7.16113857924938201904e-03) (46, -5.71415610611438751221e-02) (47, 5.54321818053722381592e-02) (48, -5.62587343156337738037e-02) (49, 1.50000000000000000000e+03) (50, 1.50000000000000000000e+03) (51, 1.50000000000000000000e+03) (52, 1.50000000000000000000e+03) (53, 1.50000000000000000000e+03) (54, 1.50000000000000000000e+03) (55, 1.50000000000000000000e+03) (56, 1.50000000000000000000e+03) (57, 1.50000000000000000000e+03) (58, 1.50000000000000000000e+03) (59, 1.50000000000000000000e+03) (60, 1.50000000000000000000e+03) (61, 1.50000000000000000000e+03) (62, 1.50000000000000000000e+03) (63, 1.50000000000000000000e+03) (64, 1.50000000000000000000e+03) (65, 1.50000000000000000000e+03) (66, 1.50000000000000000000e+03) (67, 1.50000000000000000000e+03) (68, 1.50000000000000000000e+03) (69, 1.50000000000000000000e+03) (70, 1.50000000000000000000e+03) (71, 1.50000000000000000000e+03) (72, 1.50000000000000000000e+03) (73, 1.50000000000000000000e+03) (74, 1.50000000000000000000e+03) (75, 1.50000000000000000000e+03) (76, 1.50000000000000000000e+03) (77, 1.50000000000000000000e+03) (78, 1.50000000000000000000e+03) (79, 1.50000000000000000000e+03) (80, 1.50000000000000000000e+03) (81, 1.84697508811950683594e+00) (0, 1.49271682739257812500e+02) (1, -4.07815216064453125000e+02) (2, -5.43771179199218750000e+02) (3, -5.31174377441406250000e+02) (4, -6.76742126464843750000e+02) (5, 2.18338211059570312500e+02) (6, -4.86208465576171875000e+02) (7, 1.84851547241210937500e+02) (8, 2.42749298095703125000e+02) (9, -4.88995574951171875000e+02) (10, 2.60757293701171875000e+02) (11, -3.08294158935546875000e+02) (12, 4.84290344238281250000e+02) (13, -6.76742126464843750000e+02) (14, 3.83597373962402343750e+01) (15, 1.37300653457641601562e+01) (16, -6.76742126464843750000e+02) (17, 1.03806753158569335938e+01) (18, -4.18706176757812500000e+02) (19, 3.59335510253906250000e+02) (20, 6.25178575515747070312e+00) (21, 4.15400909423828125000e+02) (22, 2.01566390991210937500e+02) (23, 1.73602401733398437500e+02) (24, -7.73647033691406250000e+02) (25, 3.54654602050781250000e+02) (26, 2.30547363281250000000e+02) (27, 1.39692672729492187500e+02) (28, -1.47383956909179687500e+02) (29, -4.54989990234375000000e+02) (30, 1.84702163696289062500e+02) (31, 9.16506767272949218750e+00) (32, -4.77943267822265625000e+01) (33, 3.22260620117187500000e+02) (34, 3.47056365966796875000e+02) (35, 1.19895477294921875000e+01) (36, 2.21547770500183105469e+00) (37, 2.96401634216308593750e+01) (38, 2.13297486305236816406e+00) (39, 3.34958815574645996094e+00) (40, 5.15795803070068359375e+00) (41, 7.98297309875488281250e+00) (42, 2.96315574645996093750e+00) (43, 6.09117221832275390625e+00) (44, 5.08267927169799804688e+00) (45, 7.60704135894775390625e+00) (46, 2.96560173034667968750e+01) (47, 5.09255886077880859375e+00) (48, 1.04562115669250488281e+00) (49, 1.50000000000000000000e+03) (50, 1.50000000000000000000e+03) (51, 1.50000000000000000000e+03) (52, 1.50000000000000000000e+03) (53, 1.50000000000000000000e+03) (54, 1.50000000000000000000e+03) (55, 1.50000000000000000000e+03) (56, 1.50000000000000000000e+03) (57, 1.50000000000000000000e+03) (58, 1.50000000000000000000e+03) (59, 1.50000000000000000000e+03) (60, 1.50000000000000000000e+03) (61, 1.50000000000000000000e+03) (62, 1.50000000000000000000e+03) (63, 1.50000000000000000000e+03) (64, 1.50000000000000000000e+03) (65, 1.50000000000000000000e+03) (66, 1.50000000000000000000e+03) (67, 1.50000000000000000000e+03) (68, 1.50000000000000000000e+03) (69, 1.50000000000000000000e+03) (70, 1.50000000000000000000e+03) (71, 1.50000000000000000000e+03) (72, 1.50000000000000000000e+03) (73, 1.50000000000000000000e+03) (74, 1.50000000000000000000e+03) (75, 1.50000000000000000000e+03) (76, 1.50000000000000000000e+03) (77, 1.50000000000000000000e+03) (78, 1.50000000000000000000e+03) (79, 1.50000000000000000000e+03) (80, 1.50000000000000000000e+03) (81, 1.24483335018157958984e+00) (82, 6.77251935005187988281e-01) (83, 2.46626511216163635254e-01) (84, 8.23601663112640380859e-01) (85, 2.55624562501907348633e-01) (86, -1.91303360462188720703e+00) (87, -1.07108947753906250000e+03) (88, -3.29202032089233398438e+00) (89, -2.78243005275726318359e-01) (90, 1.50062397122383117676e-01) 
