FANN_FLO_2.1
num_layers=4
learning_rate=0.500000
connection_rate=1.000000
network_type=0
learning_momentum=0.000000
training_algorithm=2
train_error_function=1
train_stop_function=0
cascade_output_change_fraction=0.010000
quickprop_decay=-0.000100
quickprop_mu=1.750000
rprop_increase_factor=1.200000
rprop_decrease_factor=0.500000
rprop_delta_min=0.000000
rprop_delta_max=50.000000
rprop_delta_zero=0.100000
cascade_output_stagnation_epochs=12
cascade_candidate_change_fraction=0.010000
cascade_candidate_stagnation_epochs=12
cascade_max_out_epochs=150
cascade_min_out_epochs=50
cascade_max_cand_epochs=150
cascade_min_cand_epochs=50
cascade_num_candidate_groups=2
bit_fail_limit=3.49999994039535522461e-01
cascade_candidate_limit=1.00000000000000000000e+03
cascade_weight_multiplier=4.00000005960464477539e-01
cascade_activation_functions_count=10
cascade_activation_functions=3 5 7 8 10 11 14 15 16 17 
cascade_activation_steepnesses_count=4
cascade_activation_steepnesses=2.50000000000000000000e-01 5.00000000000000000000e-01 7.50000000000000000000e-01 1.00000000000000000000e+00 
layer_sizes=82 9 9 2 
scale_included=0
neurons (num_inputs, activation_function, activation_steepness)=(0, 0, 0.00000000000000000000e+00) (0, 0, 0.00000000000000000000e+00) (0, 0, 0.00000000000000000000e+00) (0, 0, 0.00000000000000000000e+00) (0, 0, 0.00000000000000000000e+00) (0, 0, 0.00000000000000000000e+00) (0, 0, 0.00000000000000000000e+00) (0, 0, 0.00000000000000000000e+00) (0, 0, 0.00000000000000000000e+00) (0, 0, 0.00000000000000000000e+00) (0, 0, 0.00000000000000000000e+00) (0, 0, 0.00000000000000000000e+00) (0, 0, 0.00000000000000000000e+00) (0, 0, 0.00000000000000000000e+00) (0, 0, 0.00000000000000000000e+00) (0, 0, 0.00000000000000000000e+00) (0, 0, 0.00000000000000000000e+00) (0, 0, 0.00000000000000000000e+00) (0, 0, 0.00000000000000000000e+00) (0, 0, 0.00000000000000000000e+00) (0, 0, 0.00000000000000000000e+00) (0, 0, 0.00000000000000000000e+00) (0, 0, 0.00000000000000000000e+00) (0, 0, 0.00000000000000000000e+00) (0, 0, 0.00000000000000000000e+00) (0, 0, 0.00000000000000000000e+00) (0, 0, 0.00000000000000000000e+00) (0, 0, 0.00000000000000000000e+00) (0, 0, 0.00000000000000000000e+00) (0, 0, 0.00000000000000000000e+00) (0, 0, 0.00000000000000000000e+00) (0, 0, 0.00000000000000000000e+00) (0, 0, 0.00000000000000000000e+00) (0, 0, 0.00000000000000000000e+00) (0, 0, 0.00000000000000000000e+00) (0, 0, 0.00000000000000000000e+00) (0, 0, 0.00000000000000000000e+00) (0, 0, 0.00000000000000000000e+00) (0, 0, 0.00000000000000000000e+00) (0, 0, 0.00000000000000000000e+00) (0, 0, 0.00000000000000000000e+00) (0, 0, 0.00000000000000000000e+00) (0, 0, 0.00000000000000000000e+00) (0, 0, 0.00000000000000000000e+00) (0, 0, 0.00000000000000000000e+00) (0, 0, 0.00000000000000000000e+00) (0, 0, 0.00000000000000000000e+00) (0, 0, 0.00000000000000000000e+00) (0, 0, 0.00000000000000000000e+00) (0, 0, 0.00000000000000000000e+00) (0, 0, 0.00000000000000000000e+00) (0, 0, 0.00000000000000000000e+00) (0, 0, 0.00000000000000000000e+00) (0, 0, 0.00000000000000000000e+00) (0, 0, 0.00000000000000000000e+00) (0, 0, 0.00000000000000000000e+00) (0, 0, 0.00000000000000000000e+00) (0, 0, 0.00000000000000000000e+00) (0, 0, 0.00000000000000000000e+00) (0, 0, 0.00000000000000000000e+00) (0, 0, 0.00000000000000000000e+00) (0, 0, 0.00000000000000000000e+00) (0, 0, 0.00000000000000000000e+00) (0, 0, 0.00000000000000000000e+00) (0, 0, 0.00000000000000000000e+00) (0, 0, 0.00000000000000000000e+00) (0, 0, 0.00000000000000000000e+00) (0, 0, 0.00000000000000000000e+00) (0, 0, 0.00000000000000000000e+00) (0, 0, 0.00000000000000000000e+00) (0, 0, 0.00000000000000000000e+00) (0, 0, 0.00000000000000000000e+00) (0, 0, 0.00000000000000000000e+00) (0, 0, 0.00000000000000000000e+00) (0, 0, 0.00000000000000000000e+00) (0, 0, 0.00000000000000000000e+00) (0, 0, 0.00000000000000000000e+00) (0, 0, 0.00000000000000000000e+00) (0, 0, 0.00000000000000000000e+00) (0, 0, 0.00000000000000000000e+00) (0, 0, 0.00000000000000000000e+00) (0, 0, 0.00000000000000000000e+00) (82, 3, 5.00000000000000000000e-01) (82, 3, 5.00000000000000000000e-01) (82, 3, 5.00000000000000000000e-01) (82, 3, 5.00000000000000000000e-01) (82, 3, 5.00000000000000000000e-01) (82, 3, 5.00000000000000000000e-01) (82, 3, 5.00000000000000000000e-01) (82, 3, 5.00000000000000000000e-01) (0, 3, 0.00000000000000000000e+00) (9, 3, 5.00000000000000000000e-01) (9, 3, 5.00000000000000000000e-01) (9, 3, 5.00000000000000000000e-01) (9, 3, 5.00000000000000000000e-01) (9, 3, 5.00000000000000000000e-01) (9, 3, 5.00000000000000000000e-01) (9, 3, 5.00000000000000000000e-01) (9, 3, 5.00000000000000000000e-01) (0, 3, 0.00000000000000000000e+00) (9, 3, 5.00000000000000000000e-01) (0, 3, 0.00000000000000000000e+00) 
connections (connected_to_neuron, weight)=(0, 2.14398307800292968750e+01) (1, 3.84002351760864257812e+00) (2, 8.51062583923339843750e+00) (3, 4.86258363723754882812e+00) (4, 4.93611001968383789062e+00) (5, 9.68572425842285156250e+00) (6, 7.63609409332275390625e+00) (7, 7.96727323532104492188e+00) (8, 8.31320953369140625000e+00) (9, 4.94463396072387695312e+00) (10, 1.58179283142089843750e+01) (11, 2.00733642578125000000e+01) (12, 5.59448194503784179688e+00) (13, 4.99008035659790039062e+00) (14, 1.64892547607421875000e+02) (15, 3.83057880401611328125e+00) (16, 5.96069431304931640625e+00) (17, 2.08309593200683593750e+01) (18, 1.38422048091888427734e+00) (19, 1.18093061447143554688e+00) (20, 1.32265102863311767578e+00) (21, 5.70163059234619140625e+00) (22, -1.33439321517944335938e+01) (23, 3.90546631813049316406e+00) (24, 1.50000000000000000000e+03) (25, 1.04644470214843750000e+01) (26, 1.41990077495574951172e+00) (27, 3.27148509025573730469e+00) (28, 7.89467287063598632812e+00) (29, 8.79768133163452148438e-01) (30, 4.19651365280151367188e+00) (31, 2.04540023803710937500e+01) (32, 4.68863391876220703125e+00) (33, 2.60584473609924316406e+00) (34, 1.87352347373962402344e+00) (35, 4.79911184310913085938e+00) (36, 4.86857748031616210938e+00) (37, 1.86671936511993408203e+00) (38, 1.09697494506835937500e+01) (39, 4.63892841339111328125e+00) (40, 1.27752602100372314453e+00) (41, -1.09210439026355743408e-01) (42, 4.96949481964111328125e+00) (43, 5.92952346801757812500e+00) (44, 1.44430267810821533203e+00) (45, 4.69082784652709960938e+00) (46, 3.45678400993347167969e+00) (47, 1.20485520362854003906e+00) (48, 2.22817683219909667969e+00) (49, 1.50000000000000000000e+03) (50, 1.50000000000000000000e+03) (51, 1.50000000000000000000e+03) (52, 1.50000000000000000000e+03) (53, 1.50000000000000000000e+03) (54, 1.50000000000000000000e+03) (55, 1.50000000000000000000e+03) (56, 1.50000000000000000000e+03) (57, 1.50000000000000000000e+03) (58, 1.50000000000000000000e+03) (59, 1.50000000000000000000e+03) (60, 1.50000000000000000000e+03) (61, 1.50000000000000000000e+03) (62, 1.50000000000000000000e+03) (63, 1.50000000000000000000e+03) (64, 1.50000000000000000000e+03) (65, 1.50000000000000000000e+03) (66, 1.50000000000000000000e+03) (67, 1.50000000000000000000e+03) (68, 1.50000000000000000000e+03) (69, 1.50000000000000000000e+03) (70, 1.50000000000000000000e+03) (71, 1.50000000000000000000e+03) (72, 1.50000000000000000000e+03) (73, 1.50000000000000000000e+03) (74, 1.50000000000000000000e+03) (75, 1.50000000000000000000e+03) (76, 1.50000000000000000000e+03) (77, 1.50000000000000000000e+03) (78, 1.50000000000000000000e+03) (79, 1.50000000000000000000e+03) (80, 1.50000000000000000000e+03) (81, 1.73462975025177001953e+00) (0, 2.29218043386936187744e-02) (1, 1.00930668413639068604e-02) (2, -3.24931591749191284180e-01) (3, -8.38179215788841247559e-02) (4, -1.50001034140586853027e-01) (5, -8.90727639198303222656e-02) (6, -6.36579394340515136719e-02) (7, -4.47322539985179901123e-02) (8, -1.52122750878334045410e-01) (9, 5.33891916275024414062e-02) (10, -1.49038031697273254395e-01) (11, -3.28167021274566650391e-01) (12, -2.72748824208974838257e-02) (13, -8.07337388396263122559e-02) (14, -3.56503218412399291992e-01) (15, -4.21089679002761840820e-03) (16, -4.29086506366729736328e-01) (17, -4.30093854665756225586e-01) (18, -2.26466238498687744141e-01) (19, 1.06284856796264648438e-01) (20, -9.49604362249374389648e-02) (21, -1.58691748976707458496e-01) (22, -2.42320716381072998047e-01) (23, -1.81148141622543334961e-01) (24, -3.06943392753601074219e+00) (25, -2.34915122389793395996e-01) (26, -2.50349156558513641357e-02) (27, 1.06832355260848999023e-01) (28, -1.97292774915695190430e-01) (29, -2.31653094291687011719e-01) (30, -2.32450410723686218262e-01) (31, -2.52435922622680664062e-01) (32, -1.96091607213020324707e-01) (33, 1.36931180953979492188e-01) (34, 6.08701780438423156738e-02) (35, -8.48753377795219421387e-02) (36, -1.42831861972808837891e-01) (37, -3.66331219673156738281e-01) (38, -3.61484408378601074219e-01) (39, -5.86085729300975799561e-02) (40, -1.22798569500446319580e-02) (41, 6.00250612478703260422e-04) (42, -1.42146691679954528809e-01) (43, -2.22261518239974975586e-01) (44, -1.77932590246200561523e-01) (45, -7.22085088491439819336e-02) (46, -5.84990382194519042969e-02) (47, 6.54325410723686218262e-02) (48, -3.78032512962818145752e-02) (49, 1.50000000000000000000e+03) (50, 1.50000000000000000000e+03) (51, 1.50000000000000000000e+03) (52, 1.50000000000000000000e+03) (53, 1.50000000000000000000e+03) (54, 1.50000000000000000000e+03) (55, 1.50000000000000000000e+03) (56, 1.50000000000000000000e+03) (57, 1.50000000000000000000e+03) (58, 1.50000000000000000000e+03) (59, 1.50000000000000000000e+03) (60, 1.50000000000000000000e+03) (61, 1.50000000000000000000e+03) (62, 1.50000000000000000000e+03) (63, 1.50000000000000000000e+03) (64, 1.50000000000000000000e+03) (65, 1.50000000000000000000e+03) (66, 1.50000000000000000000e+03) (67, 1.50000000000000000000e+03) (68, 1.50000000000000000000e+03) (69, 1.50000000000000000000e+03) (70, 1.50000000000000000000e+03) (71, 1.50000000000000000000e+03) (72, 1.50000000000000000000e+03) (73, 1.50000000000000000000e+03) (74, 1.50000000000000000000e+03) (75, 1.50000000000000000000e+03) (76, 1.50000000000000000000e+03) (77, 1.50000000000000000000e+03) (78, 1.50000000000000000000e+03) (79, 1.50000000000000000000e+03) (80, 1.50000000000000000000e+03) (81, 1.17830991744995117188e+00) (0, 3.32708656787872314453e-01) (1, 5.75295507907867431641e-01) (2, -3.51742766797542572021e-02) (3, -1.70720830559730529785e-01) (4, -6.03701055049896240234e-01) (5, -7.98358142375946044922e-01) (6, -1.72588098049163818359e+00) (7, 6.36719286441802978516e-01) (8, 4.05789352953433990479e-02) (9, 2.37963974475860595703e-01) (10, -2.88269102573394775391e-01) (11, -1.15689754486083984375e+00) (12, -1.39776766300201416016e+00) (13, -7.73165188729763031006e-03) (14, 5.23192405700683593750e-01) (15, 1.47356867790222167969e-01) (16, 8.27298879623413085938e-01) (17, -3.80851954221725463867e-01) (18, -1.36565363407135009766e+00) (19, 1.61509588360786437988e-02) (20, 9.94038581848144531250e-02) (21, 2.24134430289268493652e-01) (22, 5.59327661991119384766e-01) (23, 1.02315526455640792847e-02) (24, -7.18617200851440429688e+00) (25, -7.21723616123199462891e-01) (26, -2.43281811475753784180e-01) (27, 2.09297060966491699219e-01) (28, -5.09401224553585052490e-02) (29, -8.64089652895927429199e-02) (30, 1.67863126844167709351e-02) (31, -7.02154934406280517578e-01) (32, -5.23981630802154541016e-01) (33, -1.11403979361057281494e-01) (34, 6.30416274070739746094e-02) (35, 2.59865462779998779297e-01) (36, -7.40824863314628601074e-02) (37, 4.21236790716648101807e-02) (38, -2.69068866968154907227e-01) (39, -1.01146805286407470703e+00) (40, -3.85102555155754089355e-02) (41, -4.42451924085617065430e-01) (42, 4.17070269584655761719e-01) (43, -4.09440733492374420166e-02) (44, 1.33101036772131919861e-02) (45, -2.12624996900558471680e-01) (46, -5.65741956233978271484e-01) (47, 1.34381651878356933594e-01) (48, 9.43515598773956298828e-02) (49, 1.50000000000000000000e+03) (50, 1.50000000000000000000e+03) (51, 1.50000000000000000000e+03) (52, 1.50000000000000000000e+03) (53, 1.50000000000000000000e+03) (54, 1.50000000000000000000e+03) (55, 1.50000000000000000000e+03) (56, 1.50000000000000000000e+03) (57, 1.50000000000000000000e+03) (58, 1.50000000000000000000e+03) (59, 1.50000000000000000000e+03) (60, 1.50000000000000000000e+03) (61, 1.50000000000000000000e+03) (62, 1.50000000000000000000e+03) (63, 1.50000000000000000000e+03) (64, 1.50000000000000000000e+03) (65, 1.50000000000000000000e+03) (66, 1.50000000000000000000e+03) (67, 1.50000000000000000000e+03) (68, 1.50000000000000000000e+03) (69, 1.50000000000000000000e+03) (70, 1.50000000000000000000e+03) (71, 1.50000000000000000000e+03) (72, 1.50000000000000000000e+03) (73, 1.50000000000000000000e+03) (74, 1.50000000000000000000e+03) (75, 1.50000000000000000000e+03) (76, 1.50000000000000000000e+03) (77, 1.50000000000000000000e+03) (78, 1.50000000000000000000e+03) (79, 1.50000000000000000000e+03) (80, 1.50000000000000000000e+03) (81, 1.65204301476478576660e-01) (0, 8.90633789062500000000e+02) (1, 3.58923840522766113281e+00) (2, 1.35235872268676757812e+01) (3, 4.57183408737182617188e+00) (4, 4.60060501098632812500e+00) (5, 9.37152385711669921875e+00) (6, 7.04777860641479492188e+00) (7, 1.85847301483154296875e+01) (8, 8.09371185302734375000e+00) (9, 4.43665409088134765625e+00) (10, 3.62702140808105468750e+01) (11, 1.91791267395019531250e+01) (12, 5.41741466522216796875e+00) (13, 4.81970119476318359375e+00) (14, 1.64747802734375000000e+02) (15, 3.92010807991027832031e+00) (16, 8.67643356323242187500e+00) (17, 2.07055568695068359375e+01) (18, -1.75867486000061035156e+00) (19, 1.03057336807250976562e+00) (20, 1.17766880989074707031e+00) (21, 5.50720167160034179688e+00) (22, -1.36823291778564453125e+01) (23, 3.72061371803283691406e+00) (24, 1.50000000000000000000e+03) (25, 1.02325906753540039062e+01) (26, 1.33853554725646972656e+00) (27, 3.14369273185729980469e+00) (28, 6.36943960189819335938e+00) (29, 8.49138140678405761719e-01) (30, 4.69686508178710937500e+00) (31, 2.02960128784179687500e+01) (32, 4.52660560607910156250e+00) (33, 1.37857210636138916016e+00) (34, 1.13833701610565185547e+00) (35, 3.76381993293762207031e+00) (36, 4.64873552322387695312e+00) (37, 1.65170061588287353516e+00) (38, 1.02342586517333984375e+01) (39, 4.34174060821533203125e+00) (40, -1.89222288131713867188e+00) (41, -2.59602308273315429688e-01) (42, 4.89527988433837890625e+00) (43, 9.29116725921630859375e+00) (44, 1.26551210880279541016e+00) (45, 4.58010101318359375000e+00) (46, 3.31088495254516601562e+00) (47, 9.38050925731658935547e-01) (48, 2.15476369857788085938e+00) (49, 1.50000000000000000000e+03) (50, 1.50000000000000000000e+03) (51, 1.50000000000000000000e+03) (52, 1.50000000000000000000e+03) (53, 1.50000000000000000000e+03) (54, 1.50000000000000000000e+03) (55, 1.50000000000000000000e+03) (56, 1.50000000000000000000e+03) (57, 1.50000000000000000000e+03) (58, 1.50000000000000000000e+03) (59, 1.50000000000000000000e+03) (60, 1.50000000000000000000e+03) (61, 1.50000000000000000000e+03) (62, 1.50000000000000000000e+03) (63, 1.50000000000000000000e+03) (64, 1.50000000000000000000e+03) (65, 1.50000000000000000000e+03) (66, 1.50000000000000000000e+03) (67, 1.50000000000000000000e+03) (68, 1.50000000000000000000e+03) (69, 1.50000000000000000000e+03) (70, 1.50000000000000000000e+03) (71, 1.50000000000000000000e+03) (72, 1.50000000000000000000e+03) (73, 1.50000000000000000000e+03) (74, 1.50000000000000000000e+03) (75, 1.50000000000000000000e+03) (76, 1.50000000000000000000e+03) (77, 1.50000000000000000000e+03) (78, 1.50000000000000000000e+03) (79, 1.50000000000000000000e+03) (80, 1.50000000000000000000e+03) (81, 2.11900186538696289062e+00) (0, -1.81711092591285705566e-01) (1, 6.10829107463359832764e-02) (2, -3.26239019632339477539e-01) (3, -3.66389244794845581055e-01) (4, 1.17080938816070556641e+00) (5, 7.66890645027160644531e-02) (6, -6.80965930223464965820e-02) (7, -7.10648298263549804688e-01) (8, 1.85572624206542968750e-01) (9, -3.88771176338195800781e-01) (10, -2.41856034845113754272e-02) (11, 1.10867357254028320312e+00) (12, 1.21898323297500610352e-01) (13, 1.10056221485137939453e-01) (14, 1.82117372751235961914e-01) (15, 6.83468133211135864258e-02) (16, -2.32454031705856323242e-01) (17, -2.41150259971618652344e-01) (18, -5.22181540727615356445e-02) (19, -5.46844244003295898438e-01) (20, 2.75698423385620117188e-01) (21, 1.47623643279075622559e-01) (22, 2.12553620338439941406e-01) (23, -1.43511965870857238770e-01) (24, -6.18105745315551757812e+00) (25, -3.15756887197494506836e-01) (26, -1.54179662466049194336e-01) (27, -5.04704535007476806641e-01) (28, 2.81524747610092163086e-01) (29, -1.22347727417945861816e-01) (30, -4.93515312671661376953e-01) (31, 1.23265340924263000488e-01) (32, -2.44244769215583801270e-01) (33, -1.02988052368164062500e+00) (34, 2.70216971635818481445e-01) (35, 2.01874822378158569336e-01) (36, -2.42888510227203369141e-01) (37, -1.04891873896121978760e-01) (38, -5.17217069864273071289e-02) (39, -1.11582405865192413330e-01) (40, 5.31787388026714324951e-02) (41, 4.85128536820411682129e-02) (42, -5.00518620014190673828e-01) (43, -2.94723719358444213867e-01) (44, -2.00628206133842468262e-01) (45, -3.24006602168083190918e-02) (46, -9.98510271310806274414e-02) (47, -1.83121576905250549316e-01) (48, 2.04406753182411193848e-01) (49, 1.50000000000000000000e+03) (50, 1.50000000000000000000e+03) (51, 1.50000000000000000000e+03) (52, 1.50000000000000000000e+03) (53, 1.50000000000000000000e+03) (54, 1.50000000000000000000e+03) (55, 1.50000000000000000000e+03) (56, 1.50000000000000000000e+03) (57, 1.50000000000000000000e+03) (58, 1.50000000000000000000e+03) (59, 1.50000000000000000000e+03) (60, 1.50000000000000000000e+03) (61, 1.50000000000000000000e+03) (62, 1.50000000000000000000e+03) (63, 1.50000000000000000000e+03) (64, 1.50000000000000000000e+03) (65, 1.50000000000000000000e+03) (66, 1.50000000000000000000e+03) (67, 1.50000000000000000000e+03) (68, 1.50000000000000000000e+03) (69, 1.50000000000000000000e+03) (70, 1.50000000000000000000e+03) (71, 1.50000000000000000000e+03) (72, 1.50000000000000000000e+03) (73, 1.50000000000000000000e+03) (74, 1.50000000000000000000e+03) (75, 1.50000000000000000000e+03) (76, 1.50000000000000000000e+03) (77, 1.50000000000000000000e+03) (78, 1.50000000000000000000e+03) (79, 1.50000000000000000000e+03) (80, 1.50000000000000000000e+03) (81, 3.47123456001281738281e+00) (0, -7.41406306624412536621e-02) (1, 5.36093339323997497559e-02) (2, 1.41478993464261293411e-03) (3, -1.24568846076726913452e-02) (4, 2.55408227443695068359e-01) (5, 2.64533217996358871460e-02) (6, -2.20439005643129348755e-02) (7, 1.98797415941953659058e-03) (8, 2.83598870038986206055e-01) (9, -9.11185666918754577637e-02) (10, -3.00057053565979003906e-01) (11, 1.07194507122039794922e+00) (12, -3.58859859406948089600e-02) (13, 2.01495766639709472656e-01) (14, -7.83796459436416625977e-02) (15, -9.59687530994415283203e-02) (16, 1.85165423899888992310e-02) (17, -4.11467134952545166016e-01) (18, 3.81465218961238861084e-02) (19, -6.40673935413360595703e-02) (20, 2.45151311159133911133e-01) (21, -9.48234871029853820801e-02) (22, 6.99662864208221435547e-02) (23, -1.40805602073669433594e-01) (24, -4.85929632186889648438e+00) (25, -2.40297108888626098633e-01) (26, 9.53173488378524780273e-02) (27, 4.58334535360336303711e-02) (28, 1.07557196170091629028e-02) (29, 6.62446487694978713989e-03) (30, -6.27536237239837646484e-01) (31, -1.12897694110870361328e+00) (32, -2.78992891311645507812e-01) (33, 8.99723451584577560425e-03) (34, 5.12687526643276214600e-02) (35, 7.02623426914215087891e-02) (36, -1.05256065726280212402e-01) (37, -1.15421049296855926514e-01) (38, -2.84150183200836181641e-01) (39, -3.87873619794845581055e-01) (40, 3.03772866725921630859e-01) (41, 7.68049582839012145996e-02) (42, -4.51675876975059509277e-02) (43, -1.38269990682601928711e-01) (44, -2.11765661835670471191e-01) (45, -3.19657236337661743164e-01) (46, 3.29641476273536682129e-02) (47, 1.50581300258636474609e-01) (48, 1.69038563966751098633e-01) (49, 1.50000000000000000000e+03) (50, 1.50000000000000000000e+03) (51, 1.50000000000000000000e+03) (52, 1.50000000000000000000e+03) (53, 1.50000000000000000000e+03) (54, 1.50000000000000000000e+03) (55, 1.50000000000000000000e+03) (56, 1.50000000000000000000e+03) (57, 1.50000000000000000000e+03) (58, 1.50000000000000000000e+03) (59, 1.50000000000000000000e+03) (60, 1.50000000000000000000e+03) (61, 1.50000000000000000000e+03) (62, 1.50000000000000000000e+03) (63, 1.50000000000000000000e+03) (64, 1.50000000000000000000e+03) (65, 1.50000000000000000000e+03) (66, 1.50000000000000000000e+03) (67, 1.50000000000000000000e+03) (68, 1.50000000000000000000e+03) (69, 1.50000000000000000000e+03) (70, 1.50000000000000000000e+03) (71, 1.50000000000000000000e+03) (72, 1.50000000000000000000e+03) (73, 1.50000000000000000000e+03) (74, 1.50000000000000000000e+03) (75, 1.50000000000000000000e+03) (76, 1.50000000000000000000e+03) (77, 1.50000000000000000000e+03) (78, 1.50000000000000000000e+03) (79, 1.50000000000000000000e+03) (80, 1.50000000000000000000e+03) (81, 3.23207831382751464844e+00) (0, -3.79797160625457763672e-01) (1, -6.87452495098114013672e-01) (2, -2.46768414974212646484e-01) (3, 4.85245361924171447754e-02) (4, -2.38925032317638397217e-02) (5, 4.49001416563987731934e-02) (6, -9.22927677631378173828e-01) (7, -2.05232679843902587891e-01) (8, -1.90869152545928955078e-01) (9, -2.80060023069381713867e-01) (10, -3.42907756567001342773e-01) (11, -1.82289883494377136230e-01) (12, 4.22905292361974716187e-03) (13, -4.89229589700698852539e-01) (14, -2.41608351469039916992e-01) (15, -7.87247538566589355469e-01) (16, -1.65521904826164245605e-01) (17, -1.80435240268707275391e-01) (18, 1.36712455749511718750e+00) (19, -3.60071957111358642578e-01) (20, -3.34278166294097900391e-01) (21, -1.18890600278973579407e-02) (22, 9.95946228504180908203e-02) (23, -1.59832779318094253540e-02) (24, -4.48229360580444335938e+00) (25, -2.96940281987190246582e-02) (26, 6.93206265568733215332e-02) (27, -4.57053393125534057617e-01) (28, -2.27463059127330780029e-02) (29, 5.88245838880538940430e-02) (30, -4.21500593423843383789e-01) (31, -1.14498960971832275391e+00) (32, -3.23319613933563232422e-01) (33, -4.59701150655746459961e-01) (34, 8.87273401021957397461e-02) (35, -1.09032995998859405518e-01) (36, -1.07656277716159820557e-01) (37, -1.22151017189025878906e-01) (38, -2.01559081673622131348e-01) (39, -4.63010482490062713623e-02) (40, 2.25403428077697753906e-01) (41, 3.19963507354259490967e-02) (42, 1.08676180243492126465e-02) (43, -3.59724760055541992188e-01) (44, -4.86064292490482330322e-02) (45, -3.73106122016906738281e-01) (46, -1.59980922937393188477e-01) (47, 3.52866113185882568359e-01) (48, 1.32960468530654907227e-01) (49, 1.50000000000000000000e+03) (50, 1.50000000000000000000e+03) (51, 1.50000000000000000000e+03) (52, 1.50000000000000000000e+03) (53, 1.50000000000000000000e+03) (54, 1.50000000000000000000e+03) (55, 1.50000000000000000000e+03) (56, 1.50000000000000000000e+03) (57, 1.50000000000000000000e+03) (58, 1.50000000000000000000e+03) (59, 1.50000000000000000000e+03) (60, 1.50000000000000000000e+03) (61, 1.50000000000000000000e+03) (62, 1.50000000000000000000e+03) (63, 1.50000000000000000000e+03) (64, 1.50000000000000000000e+03) (65, 1.50000000000000000000e+03) (66, 1.50000000000000000000e+03) (67, 1.50000000000000000000e+03) (68, 1.50000000000000000000e+03) (69, 1.50000000000000000000e+03) (70, 1.50000000000000000000e+03) (71, 1.50000000000000000000e+03) (72, 1.50000000000000000000e+03) (73, 1.50000000000000000000e+03) (74, 1.50000000000000000000e+03) (75, 1.50000000000000000000e+03) (76, 1.50000000000000000000e+03) (77, 1.50000000000000000000e+03) (78, 1.50000000000000000000e+03) (79, 1.50000000000000000000e+03) (80, 1.50000000000000000000e+03) (81, 3.11487650871276855469e+00) (0, 3.50533905029296875000e+01) (1, 3.76858377456665039062e+00) (2, 2.00527839660644531250e+01) (3, 4.78084850311279296875e+00) (4, 9.70508861541748046875e+00) (5, 9.47301387786865234375e+00) (6, 5.79717159271240234375e+00) (7, 1.19250755310058593750e+01) (8, 8.19819164276123046875e+00) (9, 4.95691108703613281250e+00) (10, 3.63690490722656250000e+01) (11, 1.93912773132324218750e+01) (12, 5.49709081649780273438e+00) (13, 4.79111576080322265625e+00) (14, 1.64958374023437500000e+02) (15, 8.37625980377197265625e+00) (16, 9.40867328643798828125e+00) (17, 2.07667236328125000000e+01) (18, -7.82821083068847656250e+00) (19, 1.11457502841949462891e+00) (20, 1.15369749069213867188e+00) (21, 5.63197803497314453125e+00) (22, -4.30177841186523437500e+01) (23, 3.87585425376892089844e+00) (24, 1.50000000000000000000e+03) (25, 1.04918518066406250000e+01) (26, 1.45931863784790039062e+00) (27, 2.67107081413269042969e+00) (28, 7.76966142654418945312e+00) (29, 9.74561393260955810547e-01) (30, 4.36447715759277343750e+00) (31, 2.08478183746337890625e+01) (32, 9.30935382843017578125e+00) (33, -1.71150434017181396484e+00) (34, 1.20738852024078369141e+00) (35, 4.03906583786010742188e+00) (36, 4.80764532089233398438e+00) (37, 1.78542423248291015625e+00) (38, 1.03293523788452148438e+01) (39, 9.33133888244628906250e+00) (40, 1.15453886985778808594e+00) (41, -2.33618259429931640625e-01) (42, 4.98460340499877929688e+00) (43, 7.15172195434570312500e+00) (44, 1.38021028041839599609e+00) (45, 4.60243129730224609375e+00) (46, 3.31703233718872070312e+00) (47, 1.08242046833038330078e+00) (48, 2.77692651748657226562e+00) (49, 1.50000000000000000000e+03) (50, 1.50000000000000000000e+03) (51, 1.50000000000000000000e+03) (52, 1.50000000000000000000e+03) (53, 1.50000000000000000000e+03) (54, 1.50000000000000000000e+03) (55, 1.50000000000000000000e+03) (56, 1.50000000000000000000e+03) (57, 1.50000000000000000000e+03) (58, 1.50000000000000000000e+03) (59, 1.50000000000000000000e+03) (60, 1.50000000000000000000e+03) (61, 1.50000000000000000000e+03) (62, 1.50000000000000000000e+03) (63, 1.50000000000000000000e+03) (64, 1.50000000000000000000e+03) (65, 1.50000000000000000000e+03) (66, 1.50000000000000000000e+03) (67, 1.50000000000000000000e+03) (68, 1.50000000000000000000e+03) (69, 1.50000000000000000000e+03) (70, 1.50000000000000000000e+03) (71, 1.50000000000000000000e+03) (72, 1.50000000000000000000e+03) (73, 1.50000000000000000000e+03) (74, 1.50000000000000000000e+03) (75, 1.50000000000000000000e+03) (76, 1.50000000000000000000e+03) (77, 1.50000000000000000000e+03) (78, 1.50000000000000000000e+03) (79, 1.50000000000000000000e+03) (80, 1.50000000000000000000e+03) (81, 1.95758187770843505859e+00) (82, 1.05504661798477172852e-01) (83, -5.76032714843750000000e+01) (84, -2.04541664123535156250e+01) (85, 9.18665379285812377930e-02) (86, -7.56508290767669677734e-01) (87, -4.72129106521606445312e+00) (88, -2.27028989791870117188e+00) (89, 1.27195566892623901367e-01) (90, 6.48020356893539428711e-02) (82, -1.24726200103759765625e+00) (83, 4.52254009246826171875e+00) (84, 3.51079726219177246094e+00) (85, -1.27955126762390136719e+00) (86, 6.47066652774810791016e-01) (87, 6.64990603923797607422e-01) (88, 5.98034381866455078125e-01) (89, -1.21610987186431884766e+00) (90, -1.25002694129943847656e+00) (82, -1.11596357822418212891e+00) (83, 5.70404815673828125000e+00) (84, -4.18927192687988281250e+00) (85, -1.03112518787384033203e+00) (86, 4.91979265213012695312e+00) (87, 3.62084245681762695312e+00) (88, 1.71617758274078369141e+00) (89, -1.15321099758148193359e+00) (90, -4.37308371067047119141e-01) (82, -8.93436729907989501953e-01) (83, 5.62367391586303710938e+00) (84, 2.69782304763793945312e+00) (85, -1.05683720111846923828e+00) (86, 1.17216742038726806641e+00) (87, 2.91055750846862792969e+00) (88, 1.94929027557373046875e+00) (89, -9.93978321552276611328e-01) (90, -1.03429424762725830078e+00) (82, -5.73515176773071289062e-01) (83, 2.88280773162841796875e+00) (84, 1.28778409957885742188e+00) (85, -5.15070736408233642578e-01) (86, 4.45020467042922973633e-01) (87, 4.77654099464416503906e-01) (88, 5.05142211914062500000e-01) (89, -5.94111323356628417969e-01) (90, -5.50185561180114746094e-01) (82, -5.20017206668853759766e-01) (83, 2.79976201057434082031e+00) (84, 1.14148306846618652344e+00) (85, -5.78966736793518066406e-01) (86, 4.83426779508590698242e-01) (87, 5.10971188545227050781e-01) (88, 5.36551296710968017578e-01) (89, -5.42037844657897949219e-01) (90, -4.61300641298294067383e-01) (82, -1.46355736255645751953e+00) (83, 3.94705176353454589844e+00) (84, 4.48651838302612304688e+00) (85, -1.29495990276336669922e+00) (86, 6.70596122741699218750e-01) (87, 7.78698205947875976562e-01) (88, 7.08597600460052490234e-01) (89, -1.28873622417449951172e+00) (90, -1.35277163982391357422e+00) (82, -5.42273283004760742188e-01) (83, 2.87703394889831542969e+00) (84, 1.12386751174926757812e+00) (85, -5.37071704864501953125e-01) (86, 5.29953718185424804688e-01) (87, 5.11676490306854248047e-01) (88, 4.76842939853668212891e-01) (89, -5.26334285736083984375e-01) (90, -5.44118285179138183594e-01) (91, 1.65837097167968750000e+00) (92, -1.11108005046844482422e+00) (93, -5.42377412319183349609e-01) (94, -7.28162229061126708984e-01) (95, -1.73556879162788391113e-01) (96, -1.58493906259536743164e-01) (97, -1.11892926692962646484e+00) (98, -1.31198123097419738770e-01) (99, 3.69868427515029907227e-01) 
