FANN_FLO_2.1
num_layers=3
learning_rate=0.500000
connection_rate=1.000000
network_type=0
learning_momentum=0.000000
training_algorithm=2
train_error_function=1
train_stop_function=0
cascade_output_change_fraction=0.010000
quickprop_decay=-0.000100
quickprop_mu=1.750000
rprop_increase_factor=1.200000
rprop_decrease_factor=0.500000
rprop_delta_min=0.000000
rprop_delta_max=50.000000
rprop_delta_zero=0.100000
cascade_output_stagnation_epochs=12
cascade_candidate_change_fraction=0.010000
cascade_candidate_stagnation_epochs=12
cascade_max_out_epochs=150
cascade_min_out_epochs=50
cascade_max_cand_epochs=150
cascade_min_cand_epochs=50
cascade_num_candidate_groups=2
bit_fail_limit=3.49999994039535522461e-01
cascade_candidate_limit=1.00000000000000000000e+03
cascade_weight_multiplier=4.00000005960464477539e-01
cascade_activation_functions_count=10
cascade_activation_functions=3 5 7 8 10 11 14 15 16 17 
cascade_activation_steepnesses_count=4
cascade_activation_steepnesses=2.50000000000000000000e-01 5.00000000000000000000e-01 7.50000000000000000000e-01 1.00000000000000000000e+00 
layer_sizes=10 5 2 
scale_included=0
neurons (num_inputs, activation_function, activation_steepness)=(0, 0, 0.00000000000000000000e+00) (0, 0, 0.00000000000000000000e+00) (0, 0, 0.00000000000000000000e+00) (0, 0, 0.00000000000000000000e+00) (0, 0, 0.00000000000000000000e+00) (0, 0, 0.00000000000000000000e+00) (0, 0, 0.00000000000000000000e+00) (0, 0, 0.00000000000000000000e+00) (0, 0, 0.00000000000000000000e+00) (0, 0, 0.00000000000000000000e+00) (10, 3, 5.00000000000000000000e-01) (10, 3, 5.00000000000000000000e-01) (10, 3, 5.00000000000000000000e-01) (10, 3, 5.00000000000000000000e-01) (0, 3, 0.00000000000000000000e+00) (5, 3, 5.00000000000000000000e-01) (0, 3, 0.00000000000000000000e+00) 
connections (connected_to_neuron, weight)=(0, -4.56482768058776855469e-01) (1, -8.36001157760620117188e-01) (2, -2.41959199309349060059e-01) (3, -2.86293834447860717773e-01) (4, -1.68816566467285156250e+00) (5, -4.55576241016387939453e-01) (6, -2.20383048057556152344e-01) (7, -1.30559638142585754395e-01) (8, -2.70725011825561523438e-01) (9, 2.02257013320922851562e+00) (0, -4.26631391048431396484e-01) (1, -1.60391449928283691406e+00) (2, -2.95985549688339233398e-01) (3, -1.08852811157703399658e-01) (4, -8.79875302314758300781e-01) (5, -6.51437580585479736328e-01) (6, -4.40402358770370483398e-01) (7, 2.11094185709953308105e-01) (8, -5.33572018146514892578e-01) (9, 1.87378084659576416016e+00) (0, -6.69470667839050292969e-01) (1, 5.41274249553680419922e-01) (2, -1.15881299972534179688e+00) (3, -3.86674910783767700195e-01) (4, 5.89428842067718505859e-01) (5, -7.93543696403503417969e-01) (6, -8.07713270187377929688e-01) (7, -7.89215624332427978516e-01) (8, -8.51616203784942626953e-01) (9, 1.46662425994873046875e+00) (0, -3.59552919864654541016e-01) (1, 1.09871402382850646973e-01) (2, -2.35345542430877685547e-01) (3, -1.25798714160919189453e+00) (4, -6.64150863885879516602e-02) (5, -7.03815296292304992676e-02) (6, -3.53471785783767700195e-01) (7, -1.39685702323913574219e+00) (8, -1.63743570446968078613e-01) (9, 9.63768661022186279297e-01) (10, -7.35845088958740234375e-01) (11, -1.29350042343139648438e+00) (12, -1.02172803878784179688e+00) (13, -1.17460560798645019531e+00) (14, 1.49646353721618652344e+00) 
