FANN_FLO_2.1
num_layers=3
learning_rate=0.300000
connection_rate=1.000000
network_type=0
learning_momentum=0.000000
training_algorithm=2
train_error_function=1
train_stop_function=0
cascade_output_change_fraction=0.010000
quickprop_decay=-0.000100
quickprop_mu=1.750000
rprop_increase_factor=1.200000
rprop_decrease_factor=0.500000
rprop_delta_min=0.000000
rprop_delta_max=50.000000
rprop_delta_zero=0.100000
cascade_output_stagnation_epochs=12
cascade_candidate_change_fraction=0.010000
cascade_candidate_stagnation_epochs=12
cascade_max_out_epochs=150
cascade_min_out_epochs=50
cascade_max_cand_epochs=150
cascade_min_cand_epochs=50
cascade_num_candidate_groups=2
bit_fail_limit=3.49999994039535522461e-01
cascade_candidate_limit=1.00000000000000000000e+03
cascade_weight_multiplier=4.00000005960464477539e-01
cascade_activation_functions_count=10
cascade_activation_functions=3 5 7 8 10 11 14 15 16 17 
cascade_activation_steepnesses_count=4
cascade_activation_steepnesses=2.50000000000000000000e-01 5.00000000000000000000e-01 7.50000000000000000000e-01 1.00000000000000000000e+00 
layer_sizes=4 9 2 
scale_included=0
neurons (num_inputs, activation_function, activation_steepness)=(0, 0, 0.00000000000000000000e+00) (0, 0, 0.00000000000000000000e+00) (0, 0, 0.00000000000000000000e+00) (0, 0, 0.00000000000000000000e+00) (4, 3, 5.00000000000000000000e-01) (4, 3, 5.00000000000000000000e-01) (4, 3, 5.00000000000000000000e-01) (4, 3, 5.00000000000000000000e-01) (4, 3, 5.00000000000000000000e-01) (4, 3, 5.00000000000000000000e-01) (4, 3, 5.00000000000000000000e-01) (4, 3, 5.00000000000000000000e-01) (0, 3, 0.00000000000000000000e+00) (9, 3, 5.00000000000000000000e-01) (0, 3, 0.00000000000000000000e+00) 
connections (connected_to_neuron, weight)=(0, -1.71571874618530273438e+00) (1, 6.66088283061981201172e-01) (2, -2.33831238746643066406e+00) (3, 3.14350700378417968750e+01) (0, -8.06731319427490234375e+00) (1, 1.41954576969146728516e+00) (2, -8.90315914154052734375e+00) (3, 9.06803588867187500000e+01) (0, 7.02335968017578125000e+01) (1, -1.68179392814636230469e-01) (2, -3.82539093017578125000e+02) (3, -1.62485275268554687500e+02) (0, 4.35726852416992187500e+01) (1, 1.34573996067047119141e-01) (2, -2.28040451049804687500e+02) (3, -1.19870056152343750000e+02) (0, 1.18248472213745117188e+01) (1, 2.04287815093994140625e+00) (2, -9.91744308471679687500e+01) (3, 1.73387031555175781250e+01) (0, -2.09350395202636718750e+00) (1, 4.45124477148056030273e-01) (2, -4.14216566085815429688e+00) (3, 4.71151771545410156250e+01) (0, -1.51365005970001220703e+00) (1, 2.97614961862564086914e-01) (2, -2.79196333885192871094e+00) (3, 4.34532661437988281250e+01) (0, 5.84831237792968750000e-02) (1, -1.41181302070617675781e+00) (2, 3.89276981353759765625e+00) (3, 2.84261435270309448242e-01) (4, -7.44019091129302978516e-01) (5, -2.06317210197448730469e+00) (6, 1.77648842334747314453e-01) (7, 2.67636060714721679688e-01) (8, -5.72740018367767333984e-01) (9, -1.10867428779602050781e+00) (10, -9.18993055820465087891e-01) (11, 9.00740966796875000000e+01) (12, 4.68922346830368041992e-01) 
