FANN_FLO_2.1
num_layers=3
learning_rate=0.500000
connection_rate=1.000000
network_type=0
learning_momentum=0.000000
training_algorithm=2
train_error_function=1
train_stop_function=0
cascade_output_change_fraction=0.010000
quickprop_decay=-0.000100
quickprop_mu=1.750000
rprop_increase_factor=1.200000
rprop_decrease_factor=0.500000
rprop_delta_min=0.000000
rprop_delta_max=50.000000
rprop_delta_zero=0.100000
cascade_output_stagnation_epochs=12
cascade_candidate_change_fraction=0.010000
cascade_candidate_stagnation_epochs=12
cascade_max_out_epochs=150
cascade_min_out_epochs=50
cascade_max_cand_epochs=150
cascade_min_cand_epochs=50
cascade_num_candidate_groups=2
bit_fail_limit=3.49999994039535522461e-01
cascade_candidate_limit=1.00000000000000000000e+03
cascade_weight_multiplier=4.00000005960464477539e-01
cascade_activation_functions_count=10
cascade_activation_functions=3 5 7 8 10 11 14 15 16 17 
cascade_activation_steepnesses_count=4
cascade_activation_steepnesses=2.50000000000000000000e-01 5.00000000000000000000e-01 7.50000000000000000000e-01 1.00000000000000000000e+00 
layer_sizes=3 5 4 
scale_included=0
neurons (num_inputs, activation_function, activation_steepness)=(0, 0, 0.00000000000000000000e+00) (0, 0, 0.00000000000000000000e+00) (0, 0, 0.00000000000000000000e+00) (3, 3, 5.00000000000000000000e-01) (3, 3, 5.00000000000000000000e-01) (3, 3, 5.00000000000000000000e-01) (3, 3, 5.00000000000000000000e-01) (0, 3, 0.00000000000000000000e+00) (5, 0, 5.00000000000000000000e-01) (5, 0, 5.00000000000000000000e-01) (5, 0, 5.00000000000000000000e-01) (0, 0, 0.00000000000000000000e+00) 
connections (connected_to_neuron, weight)=(0, -1.26656615734100341797e+00) (1, -9.10369694232940673828e-01) (2, 3.89768183231353759766e-01) (0, -2.02546310424804687500e+01) (1, 1.02724199295043945312e+01) (2, -5.21044921875000000000e+00) (0, -1.00730991363525390625e+01) (1, 1.28380203247070312500e+01) (2, 5.34487104415893554688e+00) (0, -1.77874679565429687500e+01) (1, 1.41212692260742187500e+01) (2, 1.46389186382293701172e+00) (3, 5.81130170822143554688e+00) (4, 1.61636769771575927734e+00) (5, 1.02924799919128417969e+00) (6, 1.53301286697387695312e+00) (7, 7.37817645072937011719e-01) (3, 1.80377616882324218750e+01) (4, 3.74678421020507812500e+00) (5, 4.22547388076782226562e+00) (6, 4.43431091308593750000e+00) (7, 3.64140152931213378906e+00) (3, 5.47911338806152343750e+01) (4, 1.16974802017211914062e+01) (5, 1.45202932357788085938e+01) (6, 1.33250436782836914062e+01) (7, 1.74256076812744140625e+01) 
