FANN_FLO_2.1
num_layers=3
learning_rate=0.450000
connection_rate=1.000000
network_type=0
learning_momentum=0.000000
training_algorithm=2
train_error_function=1
train_stop_function=0
cascade_output_change_fraction=0.010000
quickprop_decay=-0.000100
quickprop_mu=1.750000
rprop_increase_factor=1.200000
rprop_decrease_factor=0.500000
rprop_delta_min=0.000000
rprop_delta_max=50.000000
rprop_delta_zero=0.100000
cascade_output_stagnation_epochs=12
cascade_candidate_change_fraction=0.010000
cascade_candidate_stagnation_epochs=12
cascade_max_out_epochs=150
cascade_min_out_epochs=50
cascade_max_cand_epochs=150
cascade_min_cand_epochs=50
cascade_num_candidate_groups=2
bit_fail_limit=3.49999994039535522461e-01
cascade_candidate_limit=1.00000000000000000000e+03
cascade_weight_multiplier=4.00000005960464477539e-01
cascade_activation_functions_count=10
cascade_activation_functions=3 5 7 8 10 11 14 15 16 17 
cascade_activation_steepnesses_count=4
cascade_activation_steepnesses=2.50000000000000000000e-01 5.00000000000000000000e-01 7.50000000000000000000e-01 1.00000000000000000000e+00 
layer_sizes=7 5 2 
scale_included=0
neurons (num_inputs, activation_function, activation_steepness)=(0, 0, 0.00000000000000000000e+00) (0, 0, 0.00000000000000000000e+00) (0, 0, 0.00000000000000000000e+00) (0, 0, 0.00000000000000000000e+00) (0, 0, 0.00000000000000000000e+00) (0, 0, 0.00000000000000000000e+00) (0, 0, 0.00000000000000000000e+00) (7, 3, 5.00000000000000000000e-01) (7, 3, 5.00000000000000000000e-01) (7, 3, 5.00000000000000000000e-01) (7, 3, 5.00000000000000000000e-01) (0, 3, 0.00000000000000000000e+00) (5, 0, 5.00000000000000000000e-01) (0, 0, 0.00000000000000000000e+00) 
connections (connected_to_neuron, weight)=(0, -3.06377977132797241211e-01) (1, -1.15660794079303741455e-01) (2, 5.51697552204132080078e-01) (3, -2.88206279277801513672e-01) (4, -2.35859438776969909668e-01) (5, 5.96786201000213623047e-01) (6, -7.05728709697723388672e-01) (0, -4.65864062309265136719e-01) (1, -4.97352331876754760742e-01) (2, 1.08730018138885498047e+00) (3, -5.16206443309783935547e-01) (4, -3.59374850988388061523e-01) (5, 9.85414147377014160156e-01) (6, -5.81914007663726806641e-01) (0, -9.29873287677764892578e-02) (1, 4.13223892450332641602e-01) (2, 3.55174946784973144531e+00) (3, -9.61018979549407958984e-01) (4, 4.35485601425170898438e+00) (5, 8.19675087928771972656e-01) (6, -4.48282271623611450195e-01) (0, -1.35889783501625061035e-01) (1, -1.29875779151916503906e-01) (2, 3.75748515129089355469e-01) (3, -2.00823560357093811035e-01) (4, 6.72132372856140136719e-02) (5, 2.88400590419769287109e-01) (6, 3.75928014516830444336e-01) (7, 7.88989216089248657227e-02) (8, -6.23217038810253143311e-02) (9, -1.44219234585762023926e-01) (10, -2.21819393336772918701e-02) (11, 1.57836303114891052246e-01) 
