FANN_FLO_2.1
num_layers=3
learning_rate=0.300000
connection_rate=1.000000
network_type=0
learning_momentum=0.000000
training_algorithm=2
train_error_function=1
train_stop_function=0
cascade_output_change_fraction=0.010000
quickprop_decay=-0.000100
quickprop_mu=1.750000
rprop_increase_factor=1.200000
rprop_decrease_factor=0.500000
rprop_delta_min=0.000000
rprop_delta_max=50.000000
rprop_delta_zero=0.100000
cascade_output_stagnation_epochs=12
cascade_candidate_change_fraction=0.010000
cascade_candidate_stagnation_epochs=12
cascade_max_out_epochs=150
cascade_min_out_epochs=50
cascade_max_cand_epochs=150
cascade_min_cand_epochs=50
cascade_num_candidate_groups=2
bit_fail_limit=3.49999994039535522461e-01
cascade_candidate_limit=1.00000000000000000000e+03
cascade_weight_multiplier=4.00000005960464477539e-01
cascade_activation_functions_count=10
cascade_activation_functions=3 5 7 8 10 11 14 15 16 17 
cascade_activation_steepnesses_count=4
cascade_activation_steepnesses=2.50000000000000000000e-01 5.00000000000000000000e-01 7.50000000000000000000e-01 1.00000000000000000000e+00 
layer_sizes=4 33 2 
scale_included=0
neurons (num_inputs, activation_function, activation_steepness)=(0, 0, 0.00000000000000000000e+00) (0, 0, 0.00000000000000000000e+00) (0, 0, 0.00000000000000000000e+00) (0, 0, 0.00000000000000000000e+00) (4, 3, 5.00000000000000000000e-01) (4, 3, 5.00000000000000000000e-01) (4, 3, 5.00000000000000000000e-01) (4, 3, 5.00000000000000000000e-01) (4, 3, 5.00000000000000000000e-01) (4, 3, 5.00000000000000000000e-01) (4, 3, 5.00000000000000000000e-01) (4, 3, 5.00000000000000000000e-01) (4, 3, 5.00000000000000000000e-01) (4, 3, 5.00000000000000000000e-01) (4, 3, 5.00000000000000000000e-01) (4, 3, 5.00000000000000000000e-01) (4, 3, 5.00000000000000000000e-01) (4, 3, 5.00000000000000000000e-01) (4, 3, 5.00000000000000000000e-01) (4, 3, 5.00000000000000000000e-01) (4, 3, 5.00000000000000000000e-01) (4, 3, 5.00000000000000000000e-01) (4, 3, 5.00000000000000000000e-01) (4, 3, 5.00000000000000000000e-01) (4, 3, 5.00000000000000000000e-01) (4, 3, 5.00000000000000000000e-01) (4, 3, 5.00000000000000000000e-01) (4, 3, 5.00000000000000000000e-01) (4, 3, 5.00000000000000000000e-01) (4, 3, 5.00000000000000000000e-01) (4, 3, 5.00000000000000000000e-01) (4, 3, 5.00000000000000000000e-01) (4, 3, 5.00000000000000000000e-01) (4, 3, 5.00000000000000000000e-01) (4, 3, 5.00000000000000000000e-01) (4, 3, 5.00000000000000000000e-01) (0, 3, 0.00000000000000000000e+00) (33, 3, 5.00000000000000000000e-01) (0, 3, 0.00000000000000000000e+00) 
connections (connected_to_neuron, weight)=(0, -1.09002016484737396240e-01) (1, 7.56731927394866943359e-02) (2, -9.10956025123596191406e-01) (3, 1.81319570541381835938e+00) (0, -8.15722465515136718750e-01) (1, 6.15752160549163818359e-01) (2, 2.46184721589088439941e-01) (3, 2.29664874076843261719e+00) (0, -4.86775845289230346680e-01) (1, 6.31598353385925292969e-01) (2, -1.48768281936645507812e+00) (3, 2.11673174053430557251e-02) (0, -1.93152022361755371094e+00) (1, 2.13163673877716064453e-01) (2, -1.06217294931411743164e-01) (3, 1.74967586994171142578e+00) (0, 7.12621748447418212891e-01) (1, -3.82821522653102874756e-02) (2, 9.06741097569465637207e-02) (3, -1.33863285183906555176e-01) (0, 2.68589973449707031250e+00) (1, 1.15126505494117736816e-01) (2, -1.35665225982666015625e+01) (3, -6.47499635815620422363e-02) (0, -4.07553195953369140625e-01) (1, 5.72034835815429687500e-01) (2, -1.51816380023956298828e+00) (3, -1.86338603496551513672e-01) (0, -7.57352530956268310547e-01) (1, 6.05134546756744384766e-01) (2, 1.21146924793720245361e-01) (3, 2.27433896064758300781e+00) (0, -1.61545925140380859375e+01) (1, 9.70828682184219360352e-02) (2, 8.84522914886474609375e+00) (3, 4.40110296010971069336e-01) (0, -1.35440409183502197266e+00) (1, 1.79478913545608520508e-01) (2, -9.68890905380249023438e-01) (3, -2.72950530052185058594e-01) (0, -3.79582524299621582031e-01) (1, 5.76686918735504150391e-01) (2, -7.26471006870269775391e-01) (3, 1.24386310577392578125e-01) (0, -4.70428258180618286133e-01) (1, 6.89745903015136718750e-01) (2, -1.23287785053253173828e+00) (3, 2.55012810230255126953e-02) (0, -1.85784554481506347656e+00) (1, 2.10994586348533630371e-01) (2, -2.50248640775680541992e-01) (3, 2.46542739868164062500e+00) (0, -2.41404747962951660156e+00) (1, 2.54163444042205810547e-01) (2, -2.09457442164421081543e-01) (3, -1.72099564224481582642e-03) (0, -7.01941728591918945312e-01) (1, 2.23864674568176269531e-01) (2, -2.13243556022644042969e+00) (3, 3.75289797782897949219e-01) (0, 7.89804831147193908691e-02) (1, -4.92262035608291625977e-01) (2, 2.18196773529052734375e+00) (3, -1.12680025398731231689e-01) (0, -4.21967715024948120117e-01) (1, 6.52452409267425537109e-01) (2, -1.15223145484924316406e+00) (3, 6.50596618652343750000e-02) (0, -1.31982183456420898438e+00) (1, 1.15699499845504760742e-01) (2, -2.24587954580783843994e-02) (3, -1.29430964589118957520e-01) (0, -1.53928816318511962891e+00) (1, -1.12556852400302886963e-01) (2, 1.45070898532867431641e+00) (3, -6.39734685420989990234e-01) (0, -6.18169009685516357422e-01) (1, 9.09392684698104858398e-02) (2, -7.83429086208343505859e-01) (3, 1.25241327285766601562e+01) (0, -7.28755295276641845703e-01) (1, 1.95127293467521667480e-01) (2, -1.48357295989990234375e+00) (3, 2.58157312870025634766e-01) (0, 4.51600030064582824707e-02) (1, -6.18532776832580566406e-01) (2, 3.23335671424865722656e+00) (3, -2.61782586574554443359e-01) (0, -6.96903467178344726562e-01) (1, 6.21125958859920501709e-02) (2, -3.35522145032882690430e-02) (3, -1.05025243759155273438e+00) (0, 4.67286729812622070312e+00) (1, 1.46546989679336547852e-01) (2, -2.30828266143798828125e+01) (3, -1.72893166542053222656e-01) (0, 1.44423571777343750000e+03) (1, 1.70670306682586669922e+00) (2, 1.13085563659667968750e+02) (3, -1.28808066248893737793e-01) (0, -3.48268928527832031250e+01) (1, 6.92672491073608398438e-01) (2, 1.25667877197265625000e+01) (3, 2.49696239829063415527e-01) (0, -2.22386670112609863281e+00) (1, 2.23187670111656188965e-01) (2, -2.82963186502456665039e-01) (3, 1.65862429141998291016e+00) (0, -5.29978811740875244141e-01) (1, 3.98187607526779174805e-01) (2, 6.71417057514190673828e-01) (3, 7.73086309432983398438e-01) (0, -3.66781258583068847656e+00) (1, 1.64735168218612670898e-01) (2, 1.87243625521659851074e-01) (3, 2.18417480587959289551e-01) (0, -8.80616474151611328125e+00) (1, 4.78288769721984863281e-01) (2, 1.53534257411956787109e+00) (3, 4.83341127634048461914e-01) (0, -6.85649514198303222656e-01) (1, 1.38225510716438293457e-01) (2, -1.12181079387664794922e+00) (3, 1.95378971099853515625e+01) (0, -3.17323255538940429688e+00) (1, -2.11559429764747619629e-01) (2, 3.86358571052551269531e+00) (3, 4.86191064119338989258e-01) (4, -1.54624247550964355469e+00) (5, -3.83014440536499023438e-01) (6, -1.96250476837158203125e+01) (7, 1.19314889907836914062e+01) (8, 1.30546455383300781250e+01) (9, 7.90211439132690429688e-01) (10, -1.47607126235961914062e+01) (11, -7.14782357215881347656e-01) (12, 7.41115600585937500000e+02) (13, 1.16462432861328125000e+02) (14, -1.47531681060791015625e+01) (15, -1.47443714141845703125e+01) (16, 5.99764299392700195312e+00) (17, 1.19003832340240478516e+00) (18, 2.14338469505310058594e+00) (19, -1.85231704711914062500e+01) (20, -1.47454748153686523438e+01) (21, -2.36370071411132812500e+02) (22, 6.97994873046875000000e+02) (23, -1.47941863536834716797e+00) (24, -7.17660474777221679688e+00) (25, 2.79583239555358886719e+00) (26, -6.78386764526367187500e+01) (27, -7.77686238288879394531e-01) (28, 9.04589385986328125000e+01) (29, 1.50000000000000000000e+03) (30, 4.19885730743408203125e+00) (31, -2.36889781951904296875e+01) (32, 6.37632995605468750000e+02) (33, -1.22341882324218750000e+03) (34, -1.27464580535888671875e+00) (35, -2.08789196014404296875e+01) (36, 1.99236556887626647949e-01) 
