FANN_FLO_2.1
num_layers=4
learning_rate=0.500000
connection_rate=1.000000
network_type=0
learning_momentum=0.000000
training_algorithm=2
train_error_function=1
train_stop_function=0
cascade_output_change_fraction=0.010000
quickprop_decay=-0.000100
quickprop_mu=1.750000
rprop_increase_factor=1.200000
rprop_decrease_factor=0.500000
rprop_delta_min=0.000000
rprop_delta_max=50.000000
rprop_delta_zero=0.100000
cascade_output_stagnation_epochs=12
cascade_candidate_change_fraction=0.010000
cascade_candidate_stagnation_epochs=12
cascade_max_out_epochs=150
cascade_min_out_epochs=50
cascade_max_cand_epochs=150
cascade_min_cand_epochs=50
cascade_num_candidate_groups=2
bit_fail_limit=3.49999994039535522461e-01
cascade_candidate_limit=1.00000000000000000000e+03
cascade_weight_multiplier=4.00000005960464477539e-01
cascade_activation_functions_count=10
cascade_activation_functions=3 5 7 8 10 11 14 15 16 17 
cascade_activation_steepnesses_count=4
cascade_activation_steepnesses=2.50000000000000000000e-01 5.00000000000000000000e-01 7.50000000000000000000e-01 1.00000000000000000000e+00 
layer_sizes=4 5 5 2 
scale_included=0
neurons (num_inputs, activation_function, activation_steepness)=(0, 0, 0.00000000000000000000e+00) (0, 0, 0.00000000000000000000e+00) (0, 0, 0.00000000000000000000e+00) (0, 0, 0.00000000000000000000e+00) (4, 3, 5.00000000000000000000e-01) (4, 3, 5.00000000000000000000e-01) (4, 3, 5.00000000000000000000e-01) (4, 3, 5.00000000000000000000e-01) (0, 3, 0.00000000000000000000e+00) (5, 3, 5.00000000000000000000e-01) (5, 3, 5.00000000000000000000e-01) (5, 3, 5.00000000000000000000e-01) (5, 3, 5.00000000000000000000e-01) (0, 3, 0.00000000000000000000e+00) (5, 3, 5.00000000000000000000e-01) (0, 3, 0.00000000000000000000e+00) 
connections (connected_to_neuron, weight)=(0, -2.76496386528015136719e+00) (1, 3.44155335426330566406e+00) (2, -2.44311904907226562500e+00) (3, 4.78244841098785400391e-01) (0, -3.12440752983093261719e+00) (1, -1.31681728363037109375e+00) (2, -2.91491580009460449219e+00) (3, 1.91258382797241210938e+00) (0, -4.76812887191772460938e+00) (1, -3.41976976394653320312e+00) (2, -3.59303742647171020508e-01) (3, 3.18012571334838867188e+00) (0, -3.78521251678466796875e+00) (1, -1.28547945022583007812e+01) (2, 3.22216534614562988281e+00) (3, 4.09900379180908203125e+00) (4, -4.81117677688598632812e+00) (5, -6.07694673538208007812e+00) (6, -6.44844245910644531250e+00) (7, -8.31628799438476562500e+00) (8, 5.22461366653442382812e+00) (4, 2.39746570587158203125e+01) (5, -2.58771381378173828125e+01) (6, -1.05861175060272216797e+00) (7, 2.62719058990478515625e+00) (8, -1.07035493850708007812e+00) (4, 2.07923450469970703125e+01) (5, -1.13344740867614746094e+00) (6, 3.67256760597229003906e+00) (7, -1.07128344476222991943e-01) (8, -1.34565925598144531250e+00) (4, 2.31818828582763671875e+01) (5, 1.31511902809143066406e+00) (6, -4.05436086654663085938e+00) (7, 2.49581003189086914062e+00) (8, -4.67722147703170776367e-01) (9, 5.86908292770385742188e+00) (10, -1.01850605010986328125e+00) (11, -2.23883652687072753906e+00) (12, -1.10574817657470703125e+00) (13, 1.12006163597106933594e+00) 
