FANN_FLO_2.1
num_layers=4
learning_rate=0.500000
connection_rate=1.000000
network_type=0
learning_momentum=0.000000
training_algorithm=2
train_error_function=1
train_stop_function=0
cascade_output_change_fraction=0.010000
quickprop_decay=-0.000100
quickprop_mu=1.750000
rprop_increase_factor=1.200000
rprop_decrease_factor=0.500000
rprop_delta_min=0.000000
rprop_delta_max=50.000000
rprop_delta_zero=0.100000
cascade_output_stagnation_epochs=12
cascade_candidate_change_fraction=0.010000
cascade_candidate_stagnation_epochs=12
cascade_max_out_epochs=150
cascade_min_out_epochs=50
cascade_max_cand_epochs=150
cascade_min_cand_epochs=50
cascade_num_candidate_groups=2
bit_fail_limit=3.49999994039535522461e-01
cascade_candidate_limit=1.00000000000000000000e+03
cascade_weight_multiplier=4.00000005960464477539e-01
cascade_activation_functions_count=10
cascade_activation_functions=3 5 7 8 10 11 14 15 16 17 
cascade_activation_steepnesses_count=4
cascade_activation_steepnesses=2.50000000000000000000e-01 5.00000000000000000000e-01 7.50000000000000000000e-01 1.00000000000000000000e+00 
layer_sizes=4 5 3 2 
scale_included=0
neurons (num_inputs, activation_function, activation_steepness)=(0, 0, 0.00000000000000000000e+00) (0, 0, 0.00000000000000000000e+00) (0, 0, 0.00000000000000000000e+00) (0, 0, 0.00000000000000000000e+00) (4, 3, 5.00000000000000000000e-01) (4, 3, 5.00000000000000000000e-01) (4, 3, 5.00000000000000000000e-01) (4, 3, 5.00000000000000000000e-01) (0, 3, 0.00000000000000000000e+00) (5, 3, 5.00000000000000000000e-01) (5, 3, 5.00000000000000000000e-01) (0, 3, 0.00000000000000000000e+00) (3, 3, 5.00000000000000000000e-01) (0, 3, 0.00000000000000000000e+00) 
connections (connected_to_neuron, weight)=(0, -1.76881158351898193359e+00) (1, 1.59968996047973632812e+01) (2, -2.53912448883056640625e+01) (3, 1.17223501205444335938e+00) (0, -3.13474297523498535156e+00) (1, -5.74151134490966796875e+00) (2, 2.42610406875610351562e+00) (3, 1.46540391445159912109e+00) (0, -3.22241115570068359375e+00) (1, -4.22454166412353515625e+00) (2, 6.86923027038574218750e-01) (3, 2.19627356529235839844e+00) (0, -3.14333486557006835938e+00) (1, -5.66893196105957031250e+00) (2, 1.95046031475067138672e+00) (3, 1.43370699882507324219e+00) (4, 1.53464627265930175781e+00) (5, 4.62349146604537963867e-01) (6, 7.00807571411132812500e+00) (7, 3.83519291877746582031e-01) (8, -7.72082746028900146484e-01) (4, 6.74588871002197265625e+00) (5, 1.07101554870605468750e+01) (6, 1.90735321044921875000e+01) (7, 1.08340120315551757812e+01) (8, -8.19515228271484375000e+00) (9, 2.75648283958435058594e+00) (10, -6.04970312118530273438e+00) (11, 1.09389019012451171875e+00) 
