FANN_FLO_2.1
num_layers=3
learning_rate=0.500000
connection_rate=1.000000
network_type=0
learning_momentum=0.000000
training_algorithm=2
train_error_function=1
train_stop_function=0
cascade_output_change_fraction=0.010000
quickprop_decay=-0.000100
quickprop_mu=1.750000
rprop_increase_factor=1.200000
rprop_decrease_factor=0.500000
rprop_delta_min=0.000000
rprop_delta_max=50.000000
rprop_delta_zero=0.100000
cascade_output_stagnation_epochs=12
cascade_candidate_change_fraction=0.010000
cascade_candidate_stagnation_epochs=12
cascade_max_out_epochs=150
cascade_min_out_epochs=50
cascade_max_cand_epochs=150
cascade_min_cand_epochs=50
cascade_num_candidate_groups=2
bit_fail_limit=3.49999994039535522461e-01
cascade_candidate_limit=1.00000000000000000000e+03
cascade_weight_multiplier=4.00000005960464477539e-01
cascade_activation_functions_count=10
cascade_activation_functions=3 5 7 8 10 11 14 15 16 17 
cascade_activation_steepnesses_count=4
cascade_activation_steepnesses=2.50000000000000000000e-01 5.00000000000000000000e-01 7.50000000000000000000e-01 1.00000000000000000000e+00 
layer_sizes=82 9 2 
scale_included=0
neurons (num_inputs, activation_function, activation_steepness)=(0, 0, 0.00000000000000000000e+00) (0, 0, 0.00000000000000000000e+00) (0, 0, 0.00000000000000000000e+00) (0, 0, 0.00000000000000000000e+00) (0, 0, 0.00000000000000000000e+00) (0, 0, 0.00000000000000000000e+00) (0, 0, 0.00000000000000000000e+00) (0, 0, 0.00000000000000000000e+00) (0, 0, 0.00000000000000000000e+00) (0, 0, 0.00000000000000000000e+00) (0, 0, 0.00000000000000000000e+00) (0, 0, 0.00000000000000000000e+00) (0, 0, 0.00000000000000000000e+00) (0, 0, 0.00000000000000000000e+00) (0, 0, 0.00000000000000000000e+00) (0, 0, 0.00000000000000000000e+00) (0, 0, 0.00000000000000000000e+00) (0, 0, 0.00000000000000000000e+00) (0, 0, 0.00000000000000000000e+00) (0, 0, 0.00000000000000000000e+00) (0, 0, 0.00000000000000000000e+00) (0, 0, 0.00000000000000000000e+00) (0, 0, 0.00000000000000000000e+00) (0, 0, 0.00000000000000000000e+00) (0, 0, 0.00000000000000000000e+00) (0, 0, 0.00000000000000000000e+00) (0, 0, 0.00000000000000000000e+00) (0, 0, 0.00000000000000000000e+00) (0, 0, 0.00000000000000000000e+00) (0, 0, 0.00000000000000000000e+00) (0, 0, 0.00000000000000000000e+00) (0, 0, 0.00000000000000000000e+00) (0, 0, 0.00000000000000000000e+00) (0, 0, 0.00000000000000000000e+00) (0, 0, 0.00000000000000000000e+00) (0, 0, 0.00000000000000000000e+00) (0, 0, 0.00000000000000000000e+00) (0, 0, 0.00000000000000000000e+00) (0, 0, 0.00000000000000000000e+00) (0, 0, 0.00000000000000000000e+00) (0, 0, 0.00000000000000000000e+00) (0, 0, 0.00000000000000000000e+00) (0, 0, 0.00000000000000000000e+00) (0, 0, 0.00000000000000000000e+00) (0, 0, 0.00000000000000000000e+00) (0, 0, 0.00000000000000000000e+00) (0, 0, 0.00000000000000000000e+00) (0, 0, 0.00000000000000000000e+00) (0, 0, 0.00000000000000000000e+00) (0, 0, 0.00000000000000000000e+00) (0, 0, 0.00000000000000000000e+00) (0, 0, 0.00000000000000000000e+00) (0, 0, 0.00000000000000000000e+00) (0, 0, 0.00000000000000000000e+00) (0, 0, 0.00000000000000000000e+00) (0, 0, 0.00000000000000000000e+00) (0, 0, 0.00000000000000000000e+00) (0, 0, 0.00000000000000000000e+00) (0, 0, 0.00000000000000000000e+00) (0, 0, 0.00000000000000000000e+00) (0, 0, 0.00000000000000000000e+00) (0, 0, 0.00000000000000000000e+00) (0, 0, 0.00000000000000000000e+00) (0, 0, 0.00000000000000000000e+00) (0, 0, 0.00000000000000000000e+00) (0, 0, 0.00000000000000000000e+00) (0, 0, 0.00000000000000000000e+00) (0, 0, 0.00000000000000000000e+00) (0, 0, 0.00000000000000000000e+00) (0, 0, 0.00000000000000000000e+00) (0, 0, 0.00000000000000000000e+00) (0, 0, 0.00000000000000000000e+00) (0, 0, 0.00000000000000000000e+00) (0, 0, 0.00000000000000000000e+00) (0, 0, 0.00000000000000000000e+00) (0, 0, 0.00000000000000000000e+00) (0, 0, 0.00000000000000000000e+00) (0, 0, 0.00000000000000000000e+00) (0, 0, 0.00000000000000000000e+00) (0, 0, 0.00000000000000000000e+00) (0, 0, 0.00000000000000000000e+00) (0, 0, 0.00000000000000000000e+00) (82, 3, 5.00000000000000000000e-01) (82, 3, 5.00000000000000000000e-01) (82, 3, 5.00000000000000000000e-01) (82, 3, 5.00000000000000000000e-01) (82, 3, 5.00000000000000000000e-01) (82, 3, 5.00000000000000000000e-01) (82, 3, 5.00000000000000000000e-01) (82, 3, 5.00000000000000000000e-01) (0, 3, 0.00000000000000000000e+00) (9, 3, 5.00000000000000000000e-01) (0, 3, 0.00000000000000000000e+00) 
connections (connected_to_neuron, weight)=(0, 1.50000000000000000000e+03) (1, 1.50000000000000000000e+03) (2, 1.50000000000000000000e+03) (3, 1.50000000000000000000e+03) (4, 1.50000000000000000000e+03) (5, 1.50000000000000000000e+03) (6, 1.50000000000000000000e+03) (7, 1.50000000000000000000e+03) (8, 1.50000000000000000000e+03) (9, 1.50000000000000000000e+03) (10, 1.50000000000000000000e+03) (11, 1.50000000000000000000e+03) (12, 1.50000000000000000000e+03) (13, 1.50000000000000000000e+03) (14, 1.50000000000000000000e+03) (15, 1.50000000000000000000e+03) (16, 1.50000000000000000000e+03) (17, 1.50000000000000000000e+03) (18, 1.50000000000000000000e+03) (19, 1.50000000000000000000e+03) (20, 1.50000000000000000000e+03) (21, 1.50000000000000000000e+03) (22, 1.50000000000000000000e+03) (23, 1.50000000000000000000e+03) (24, 1.50000000000000000000e+03) (25, 1.50000000000000000000e+03) (26, 1.50000000000000000000e+03) (27, 1.50000000000000000000e+03) (28, 1.50000000000000000000e+03) (29, 1.50000000000000000000e+03) (30, 1.50000000000000000000e+03) (31, 1.50000000000000000000e+03) (32, 1.50000000000000000000e+03) (33, 1.50000000000000000000e+03) (34, 1.50000000000000000000e+03) (35, 1.50000000000000000000e+03) (36, 1.50000000000000000000e+03) (37, 1.50000000000000000000e+03) (38, 1.50000000000000000000e+03) (39, 1.50000000000000000000e+03) (40, 1.50000000000000000000e+03) (41, 1.50000000000000000000e+03) (42, 1.50000000000000000000e+03) (43, 1.50000000000000000000e+03) (44, 1.50000000000000000000e+03) (45, 1.50000000000000000000e+03) (46, 1.50000000000000000000e+03) (47, 1.50000000000000000000e+03) (48, 1.50000000000000000000e+03) (49, 1.50000000000000000000e+03) (50, 1.50000000000000000000e+03) (51, 1.50000000000000000000e+03) (52, 1.50000000000000000000e+03) (53, 1.50000000000000000000e+03) (54, 1.50000000000000000000e+03) (55, 1.50000000000000000000e+03) (56, 1.50000000000000000000e+03) (57, 1.50000000000000000000e+03) (58, 1.50000000000000000000e+03) (59, 1.50000000000000000000e+03) (60, 1.50000000000000000000e+03) (61, 1.50000000000000000000e+03) (62, 1.50000000000000000000e+03) (63, 1.50000000000000000000e+03) (64, 1.50000000000000000000e+03) (65, 1.50000000000000000000e+03) (66, 1.50000000000000000000e+03) (67, 1.50000000000000000000e+03) (68, 1.50000000000000000000e+03) (69, 1.50000000000000000000e+03) (70, 1.50000000000000000000e+03) (71, 1.50000000000000000000e+03) (72, 1.50000000000000000000e+03) (73, 1.50000000000000000000e+03) (74, 1.50000000000000000000e+03) (75, 1.50000000000000000000e+03) (76, 1.50000000000000000000e+03) (77, 1.50000000000000000000e+03) (78, 1.50000000000000000000e+03) (79, 1.50000000000000000000e+03) (80, 1.50000000000000000000e+03) (81, 1.94802534580230712891e+00) (0, -8.37107449769973754883e-02) (1, 2.14811414480209350586e-02) (2, -4.74736802279949188232e-02) (3, -1.26507575623691082001e-03) (4, -1.88958067446947097778e-02) (5, 1.21313026174902915955e-02) (6, -7.65366703271865844727e-02) (7, 3.34071042016148567200e-03) (8, -8.44131112098693847656e-02) (9, 2.06896409392356872559e-01) (10, 9.28723663091659545898e-02) (11, -2.10676211863756179810e-02) (12, -9.26919132471084594727e-02) (13, -2.61324774473905563354e-02) (14, -1.53964951634407043457e-01) (15, 6.37261942028999328613e-02) (16, 2.16812323778867721558e-02) (17, -3.02109152078628540039e-01) (18, 6.26986995339393615723e-02) (19, 6.93211853504180908203e-02) (20, 1.25040132552385330200e-02) (21, -2.19473373144865036011e-02) (22, -9.72267314791679382324e-02) (23, -2.24833916872739791870e-02) (24, -2.27288174629211425781e+00) (25, -4.38261777162551879883e-02) (26, -3.92268858850002288818e-02) (27, -3.20265404880046844482e-02) (28, -3.73041704297065734863e-02) (29, -1.25375509262084960938e-01) (30, -8.92819911241531372070e-02) (31, -2.12817758321762084961e-01) (32, -8.70145857334136962891e-02) (33, -1.14710234105587005615e-01) (34, 1.50874763727188110352e-01) (35, -2.36194264143705368042e-02) (36, -2.01045066118240356445e-01) (37, 8.57273861765861511230e-02) (38, -4.82821241021156311035e-02) (39, 6.00614733994007110596e-02) (40, 1.08844079077243804932e-02) (41, 2.54801034927368164062e-01) (42, -1.50944441556930541992e-01) (43, 1.19097679853439331055e-01) (44, 5.50509020686149597168e-02) (45, -9.36559736728668212891e-02) (46, -3.78390401601791381836e-02) (47, 1.47002944722771644592e-02) (48, 2.07870185375213623047e-01) (49, 1.50000000000000000000e+03) (50, 1.50000000000000000000e+03) (51, 1.50000000000000000000e+03) (52, 1.50000000000000000000e+03) (53, 1.50000000000000000000e+03) (54, 1.50000000000000000000e+03) (55, 1.50000000000000000000e+03) (56, 1.50000000000000000000e+03) (57, 1.50000000000000000000e+03) (58, 1.50000000000000000000e+03) (59, 1.50000000000000000000e+03) (60, 1.50000000000000000000e+03) (61, 1.50000000000000000000e+03) (62, 1.50000000000000000000e+03) (63, 1.50000000000000000000e+03) (64, 1.50000000000000000000e+03) (65, 1.50000000000000000000e+03) (66, 1.50000000000000000000e+03) (67, 1.50000000000000000000e+03) (68, 1.50000000000000000000e+03) (69, 1.50000000000000000000e+03) (70, 1.50000000000000000000e+03) (71, 1.50000000000000000000e+03) (72, 1.50000000000000000000e+03) (73, 1.50000000000000000000e+03) (74, 1.50000000000000000000e+03) (75, 1.50000000000000000000e+03) (76, 1.50000000000000000000e+03) (77, 1.50000000000000000000e+03) (78, 1.50000000000000000000e+03) (79, 1.50000000000000000000e+03) (80, 1.50000000000000000000e+03) (81, 4.89717602729797363281e-01) (0, -9.99932438135147094727e-02) (1, 1.09592467546463012695e-01) (2, 9.38641056418418884277e-02) (3, 2.85948395729064941406e-01) (4, -6.33412152528762817383e-02) (5, -1.79436523467302322388e-02) (6, -6.76073804497718811035e-02) (7, -1.68244451284408569336e-01) (8, 1.46622275933623313904e-02) (9, -2.07945499569177627563e-02) (10, -1.65764912962913513184e-01) (11, 4.88921161741018295288e-03) (12, -1.07927061617374420166e-01) (13, -7.24142417311668395996e-02) (14, -6.01437389850616455078e-02) (15, 5.50036542117595672607e-02) (16, 1.64588719606399536133e-01) (17, -4.41953808069229125977e-01) (18, -3.49770188331604003906e-02) (19, -1.22838482260704040527e-01) (20, -5.17541654407978057861e-02) (21, 1.10018543899059295654e-01) (22, 6.11655674874782562256e-02) (23, -1.10690556466579437256e-01) (24, -2.62962293624877929688e+00) (25, 1.52170946821570396423e-02) (26, -1.01783059537410736084e-01) (27, -5.69290220737457275391e-02) (28, 1.62620749324560165405e-02) (29, -1.11182212829589843750e-01) (30, -7.12207779288291931152e-02) (31, -1.94949790835380554199e-01) (32, -2.19026803970336914062e-01) (33, -9.73323285579681396484e-02) (34, 1.65116816759109497070e-01) (35, -5.51324523985385894775e-03) (36, -6.11931346356868743896e-02) (37, 1.45214408636093139648e-01) (38, 3.33003029227256774902e-02) (39, 3.16203311085700988770e-02) (40, 8.42761695384979248047e-02) (41, 1.66538462042808532715e-01) (42, -2.79927533119916915894e-02) (43, 1.23970218002796173096e-01) (44, 6.56520426273345947266e-02) (45, 1.76855698227882385254e-02) (46, -1.86636280268430709839e-02) (47, -8.38737264275550842285e-02) (48, -1.40446409583091735840e-01) (49, 1.50000000000000000000e+03) (50, 1.50000000000000000000e+03) (51, 1.50000000000000000000e+03) (52, 1.50000000000000000000e+03) (53, 1.50000000000000000000e+03) (54, 1.50000000000000000000e+03) (55, 1.50000000000000000000e+03) (56, 1.50000000000000000000e+03) (57, 1.50000000000000000000e+03) (58, 1.50000000000000000000e+03) (59, 1.50000000000000000000e+03) (60, 1.50000000000000000000e+03) (61, 1.50000000000000000000e+03) (62, 1.50000000000000000000e+03) (63, 1.50000000000000000000e+03) (64, 1.50000000000000000000e+03) (65, 1.50000000000000000000e+03) (66, 1.50000000000000000000e+03) (67, 1.50000000000000000000e+03) (68, 1.50000000000000000000e+03) (69, 1.50000000000000000000e+03) (70, 1.50000000000000000000e+03) (71, 1.50000000000000000000e+03) (72, 1.50000000000000000000e+03) (73, 1.50000000000000000000e+03) (74, 1.50000000000000000000e+03) (75, 1.50000000000000000000e+03) (76, 1.50000000000000000000e+03) (77, 1.50000000000000000000e+03) (78, 1.50000000000000000000e+03) (79, 1.50000000000000000000e+03) (80, 1.50000000000000000000e+03) (81, 4.40092802047729492188e-01) (0, 1.50000000000000000000e+03) (1, 1.50000000000000000000e+03) (2, 1.50000000000000000000e+03) (3, 1.50000000000000000000e+03) (4, 1.50000000000000000000e+03) (5, 1.50000000000000000000e+03) (6, 1.50000000000000000000e+03) (7, 1.50000000000000000000e+03) (8, 1.50000000000000000000e+03) (9, 1.50000000000000000000e+03) (10, 1.50000000000000000000e+03) (11, 1.50000000000000000000e+03) (12, 1.50000000000000000000e+03) (13, 1.50000000000000000000e+03) (14, 1.50000000000000000000e+03) (15, 1.50000000000000000000e+03) (16, 1.50000000000000000000e+03) (17, 1.50000000000000000000e+03) (18, 1.50000000000000000000e+03) (19, 1.50000000000000000000e+03) (20, 1.50000000000000000000e+03) (21, 1.50000000000000000000e+03) (22, 1.50000000000000000000e+03) (23, 1.50000000000000000000e+03) (24, 1.50000000000000000000e+03) (25, 1.50000000000000000000e+03) (26, 1.50000000000000000000e+03) (27, 1.50000000000000000000e+03) (28, 1.50000000000000000000e+03) (29, 1.50000000000000000000e+03) (30, 1.50000000000000000000e+03) (31, 1.50000000000000000000e+03) (32, 1.50000000000000000000e+03) (33, 1.50000000000000000000e+03) (34, 1.50000000000000000000e+03) (35, 1.50000000000000000000e+03) (36, 1.50000000000000000000e+03) (37, 1.50000000000000000000e+03) (38, 1.50000000000000000000e+03) (39, 1.50000000000000000000e+03) (40, 1.50000000000000000000e+03) (41, 1.50000000000000000000e+03) (42, 1.50000000000000000000e+03) (43, 1.50000000000000000000e+03) (44, 1.50000000000000000000e+03) (45, 1.50000000000000000000e+03) (46, 1.50000000000000000000e+03) (47, 1.50000000000000000000e+03) (48, 1.50000000000000000000e+03) (49, 1.50000000000000000000e+03) (50, 1.50000000000000000000e+03) (51, 1.50000000000000000000e+03) (52, 1.50000000000000000000e+03) (53, 1.50000000000000000000e+03) (54, 1.50000000000000000000e+03) (55, 1.50000000000000000000e+03) (56, 1.50000000000000000000e+03) (57, 1.50000000000000000000e+03) (58, 1.50000000000000000000e+03) (59, 1.50000000000000000000e+03) (60, 1.50000000000000000000e+03) (61, 1.50000000000000000000e+03) (62, 1.50000000000000000000e+03) (63, 1.50000000000000000000e+03) (64, 1.50000000000000000000e+03) (65, 1.50000000000000000000e+03) (66, 1.50000000000000000000e+03) (67, 1.50000000000000000000e+03) (68, 1.50000000000000000000e+03) (69, 1.50000000000000000000e+03) (70, 1.50000000000000000000e+03) (71, 1.50000000000000000000e+03) (72, 1.50000000000000000000e+03) (73, 1.50000000000000000000e+03) (74, 1.50000000000000000000e+03) (75, 1.50000000000000000000e+03) (76, 1.50000000000000000000e+03) (77, 1.50000000000000000000e+03) (78, 1.50000000000000000000e+03) (79, 1.50000000000000000000e+03) (80, 1.50000000000000000000e+03) (81, 2.85575079917907714844e+00) (0, 4.67654988169670104980e-02) (1, 3.44227217137813568115e-02) (2, -1.60259008407592773438e-01) (3, 1.73660814762115478516e-01) (4, 1.06313869357109069824e-01) (5, -2.21902001649141311646e-02) (6, 8.17950293421745300293e-02) (7, 1.08399093151092529297e-01) (8, 9.06330645084381103516e-02) (9, -1.27231776714324951172e-01) (10, -1.96302369236946105957e-01) (11, -1.00424543023109436035e-01) (12, 8.28823521733283996582e-02) (13, -8.50117299705743789673e-03) (14, 1.34193480014801025391e-01) (15, 2.61293668299913406372e-02) (16, -2.21624970436096191406e-01) (17, -7.04466223716735839844e-01) (18, -2.25113913416862487793e-01) (19, -3.44780907034873962402e-02) (20, 4.98025380074977874756e-02) (21, 2.19924479722976684570e-01) (22, 1.07883311808109283447e-01) (23, -1.83474525809288024902e-01) (24, -1.81025183200836181641e+00) (25, -2.22292721271514892578e-01) (26, 1.37515559792518615723e-01) (27, 4.63961586356163024902e-02) (28, 8.53920504450798034668e-02) (29, -1.20978998020291328430e-02) (30, -3.20361554622650146484e-01) (31, -5.71351110935211181641e-01) (32, -3.71702238917350769043e-02) (33, -6.05807043612003326416e-02) (34, 4.12238426506519317627e-02) (35, 4.16569299995899200439e-02) (36, -7.57873356342315673828e-02) (37, -1.52420938014984130859e-01) (38, -4.22908812761306762695e-01) (39, 1.11156530678272247314e-01) (40, 4.86222915351390838623e-02) (41, -8.11813399195671081543e-02) (42, -4.39051575958728790283e-02) (43, 7.95334726572036743164e-02) (44, 1.79529696702957153320e-01) (45, 1.83935284614562988281e-01) (46, 1.13093078136444091797e-01) (47, -4.87088784575462341309e-02) (48, -7.05745443701744079590e-02) (49, 1.50000000000000000000e+03) (50, 1.50000000000000000000e+03) (51, 1.50000000000000000000e+03) (52, 1.50000000000000000000e+03) (53, 1.50000000000000000000e+03) (54, 1.50000000000000000000e+03) (55, 1.50000000000000000000e+03) (56, 1.50000000000000000000e+03) (57, 1.50000000000000000000e+03) (58, 1.50000000000000000000e+03) (59, 1.50000000000000000000e+03) (60, 1.50000000000000000000e+03) (61, 1.50000000000000000000e+03) (62, 1.50000000000000000000e+03) (63, 1.50000000000000000000e+03) (64, 1.50000000000000000000e+03) (65, 1.50000000000000000000e+03) (66, 1.50000000000000000000e+03) (67, 1.50000000000000000000e+03) (68, 1.50000000000000000000e+03) (69, 1.50000000000000000000e+03) (70, 1.50000000000000000000e+03) (71, 1.50000000000000000000e+03) (72, 1.50000000000000000000e+03) (73, 1.50000000000000000000e+03) (74, 1.50000000000000000000e+03) (75, 1.50000000000000000000e+03) (76, 1.50000000000000000000e+03) (77, 1.50000000000000000000e+03) (78, 1.50000000000000000000e+03) (79, 1.50000000000000000000e+03) (80, 1.50000000000000000000e+03) (81, 6.04190647602081298828e-01) (0, -7.43798092007637023926e-02) (1, 8.40521678328514099121e-02) (2, -6.70709311962127685547e-01) (3, -1.28994286060333251953e+00) (4, -1.88110864162445068359e+00) (5, -4.93882685899734497070e-01) (6, -3.95918458700180053711e-01) (7, -6.24797999858856201172e-01) (8, -2.74141967296600341797e-01) (9, -7.52747714519500732422e-01) (10, -3.12689036130905151367e-01) (11, -2.71553695201873779297e-01) (12, -9.12302196025848388672e-01) (13, -1.31791919469833374023e-01) (14, 2.25941352546215057373e-02) (15, -6.11420869827270507812e-01) (16, -1.56593596935272216797e+00) (17, 7.14774966239929199219e-01) (18, -4.57510262727737426758e-01) (19, -2.92514115571975708008e-01) (20, -7.82578065991401672363e-03) (21, -6.47518336772918701172e-02) (22, -2.00619533658027648926e-01) (23, -7.74478673934936523438e-01) (24, 5.81030607223510742188e-01) (25, -1.88283324241638183594e-01) (26, -1.98490135371685028076e-02) (27, 6.56660020351409912109e-01) (28, 3.91959622502326965332e-02) (29, -7.98076272010803222656e-01) (30, -2.62591928243637084961e-01) (31, -3.17923337221145629883e-01) (32, -2.60410964488983154297e-01) (33, -3.33828628063201904297e-01) (34, 4.10707034170627593994e-02) (35, -5.34348487854003906250e-01) (36, -3.46409589052200317383e-01) (37, -3.64593952894210815430e-01) (38, -1.46379306912422180176e-01) (39, -2.65968352556228637695e-01) (40, -3.07780294679105281830e-03) (41, -3.18076968193054199219e-01) (42, -2.54030495882034301758e-01) (43, -1.91896259784698486328e-01) (44, -2.15859079360961914062e+00) (45, -2.21470743417739868164e-01) (46, -1.83034032583236694336e-01) (47, -6.94353282451629638672e-02) (48, -3.45782965421676635742e-01) (49, 1.50000000000000000000e+03) (50, 1.50000000000000000000e+03) (51, 1.50000000000000000000e+03) (52, 1.50000000000000000000e+03) (53, 1.50000000000000000000e+03) (54, 1.50000000000000000000e+03) (55, 1.50000000000000000000e+03) (56, 1.50000000000000000000e+03) (57, 1.50000000000000000000e+03) (58, 1.50000000000000000000e+03) (59, 1.50000000000000000000e+03) (60, 1.50000000000000000000e+03) (61, 1.50000000000000000000e+03) (62, 1.50000000000000000000e+03) (63, 1.50000000000000000000e+03) (64, 1.50000000000000000000e+03) (65, 1.50000000000000000000e+03) (66, 1.50000000000000000000e+03) (67, 1.50000000000000000000e+03) (68, 1.50000000000000000000e+03) (69, 1.50000000000000000000e+03) (70, 1.50000000000000000000e+03) (71, 1.50000000000000000000e+03) (72, 1.50000000000000000000e+03) (73, 1.50000000000000000000e+03) (74, 1.50000000000000000000e+03) (75, 1.50000000000000000000e+03) (76, 1.50000000000000000000e+03) (77, 1.50000000000000000000e+03) (78, 1.50000000000000000000e+03) (79, 1.50000000000000000000e+03) (80, 1.50000000000000000000e+03) (81, 3.34703773260116577148e-01) (0, 1.50000000000000000000e+03) (1, 1.50000000000000000000e+03) (2, 1.50000000000000000000e+03) (3, 1.50000000000000000000e+03) (4, 1.50000000000000000000e+03) (5, 1.50000000000000000000e+03) (6, 1.50000000000000000000e+03) (7, 1.50000000000000000000e+03) (8, 1.50000000000000000000e+03) (9, 1.50000000000000000000e+03) (10, 1.50000000000000000000e+03) (11, 1.50000000000000000000e+03) (12, 1.50000000000000000000e+03) (13, 1.50000000000000000000e+03) (14, 1.50000000000000000000e+03) (15, 1.50000000000000000000e+03) (16, 1.50000000000000000000e+03) (17, 1.50000000000000000000e+03) (18, 1.50000000000000000000e+03) (19, 1.50000000000000000000e+03) (20, 1.50000000000000000000e+03) (21, 1.50000000000000000000e+03) (22, 1.50000000000000000000e+03) (23, 1.50000000000000000000e+03) (24, 1.50000000000000000000e+03) (25, 1.50000000000000000000e+03) (26, 1.50000000000000000000e+03) (27, 1.50000000000000000000e+03) (28, 1.50000000000000000000e+03) (29, 1.50000000000000000000e+03) (30, 1.50000000000000000000e+03) (31, 1.50000000000000000000e+03) (32, 1.50000000000000000000e+03) (33, 1.50000000000000000000e+03) (34, 1.50000000000000000000e+03) (35, 1.50000000000000000000e+03) (36, 1.50000000000000000000e+03) (37, 1.50000000000000000000e+03) (38, 1.50000000000000000000e+03) (39, 1.50000000000000000000e+03) (40, 1.50000000000000000000e+03) (41, 1.50000000000000000000e+03) (42, 1.50000000000000000000e+03) (43, 1.50000000000000000000e+03) (44, 1.50000000000000000000e+03) (45, 1.50000000000000000000e+03) (46, 1.50000000000000000000e+03) (47, 1.50000000000000000000e+03) (48, 1.50000000000000000000e+03) (49, 1.50000000000000000000e+03) (50, 1.50000000000000000000e+03) (51, 1.50000000000000000000e+03) (52, 1.50000000000000000000e+03) (53, 1.50000000000000000000e+03) (54, 1.50000000000000000000e+03) (55, 1.50000000000000000000e+03) (56, 1.50000000000000000000e+03) (57, 1.50000000000000000000e+03) (58, 1.50000000000000000000e+03) (59, 1.50000000000000000000e+03) (60, 1.50000000000000000000e+03) (61, 1.50000000000000000000e+03) (62, 1.50000000000000000000e+03) (63, 1.50000000000000000000e+03) (64, 1.50000000000000000000e+03) (65, 1.50000000000000000000e+03) (66, 1.50000000000000000000e+03) (67, 1.50000000000000000000e+03) (68, 1.50000000000000000000e+03) (69, 1.50000000000000000000e+03) (70, 1.50000000000000000000e+03) (71, 1.50000000000000000000e+03) (72, 1.50000000000000000000e+03) (73, 1.50000000000000000000e+03) (74, 1.50000000000000000000e+03) (75, 1.50000000000000000000e+03) (76, 1.50000000000000000000e+03) (77, 1.50000000000000000000e+03) (78, 1.50000000000000000000e+03) (79, 1.50000000000000000000e+03) (80, 1.50000000000000000000e+03) (81, 4.16010946035385131836e-01) (0, -1.96513161063194274902e-01) (1, 4.94808331131935119629e-02) (2, 1.07863195240497589111e-01) (3, 3.24603438377380371094e-01) (4, -1.40998840332031250000e-01) (5, 6.10610470175743103027e-02) (6, -1.50992810726165771484e-01) (7, -1.05070285499095916748e-01) (8, 5.64859136939048767090e-02) (9, 1.56146377325057983398e-01) (10, 1.04958362877368927002e-01) (11, -1.58642798662185668945e-01) (12, -5.04636056721210479736e-02) (13, -3.16120594739913940430e-01) (14, -1.15732222795486450195e-01) (15, -2.23343018442392349243e-02) (16, 1.87471449375152587891e-01) (17, -2.30361953377723693848e-01) (18, 9.56674516201019287109e-02) (19, -7.54036009311676025391e-02) (20, -6.24295361340045928955e-02) (21, -4.65789921581745147705e-02) (22, 3.49296815693378448486e-02) (23, -1.26730054616928100586e-02) (24, -2.89079475402832031250e+00) (25, -7.78976008296012878418e-02) (26, -7.45151117444038391113e-02) (27, 4.52008098363876342773e-02) (28, -1.51781305670738220215e-01) (29, -1.13244384527206420898e-01) (30, -1.21456429362297058105e-01) (31, -2.29004651308059692383e-01) (32, -5.72890751063823699951e-02) (33, -1.14561036229133605957e-01) (34, 1.62815973162651062012e-01) (35, 2.96774674206972122192e-02) (36, -1.42792195081710815430e-01) (37, 2.13205799460411071777e-01) (38, -8.72238427400588989258e-02) (39, -5.93600161373615264893e-02) (40, 5.33719956874847412109e-02) (41, 5.83275109529495239258e-02) (42, -5.24759441614151000977e-02) (43, 1.64241045713424682617e-01) (44, 3.38790208101272583008e-01) (45, 1.16942703723907470703e-01) (46, -3.38854966685175895691e-03) (47, -6.85953795909881591797e-02) (48, -7.08734244108200073242e-02) (49, 1.50000000000000000000e+03) (50, 1.50000000000000000000e+03) (51, 1.50000000000000000000e+03) (52, 1.50000000000000000000e+03) (53, 1.50000000000000000000e+03) (54, 1.50000000000000000000e+03) (55, 1.50000000000000000000e+03) (56, 1.50000000000000000000e+03) (57, 1.50000000000000000000e+03) (58, 1.50000000000000000000e+03) (59, 1.50000000000000000000e+03) (60, 1.50000000000000000000e+03) (61, 1.50000000000000000000e+03) (62, 1.50000000000000000000e+03) (63, 1.50000000000000000000e+03) (64, 1.50000000000000000000e+03) (65, 1.50000000000000000000e+03) (66, 1.50000000000000000000e+03) (67, 1.50000000000000000000e+03) (68, 1.50000000000000000000e+03) (69, 1.50000000000000000000e+03) (70, 1.50000000000000000000e+03) (71, 1.50000000000000000000e+03) (72, 1.50000000000000000000e+03) (73, 1.50000000000000000000e+03) (74, 1.50000000000000000000e+03) (75, 1.50000000000000000000e+03) (76, 1.50000000000000000000e+03) (77, 1.50000000000000000000e+03) (78, 1.50000000000000000000e+03) (79, 1.50000000000000000000e+03) (80, 1.50000000000000000000e+03) (81, 3.97637933492660522461e-01) (82, 4.09440815448760986328e-01) (83, -1.07964742183685302734e+00) (84, -1.13029730319976806641e+00) (85, 4.07208144664764404297e-01) (86, -2.67271852493286132812e+00) (87, -2.13018298149108886719e+00) (88, 4.43085759878158569336e-01) (89, -1.22487294673919677734e+00) (90, 1.74977064132690429688e-01) 
