FANN_FLO_2.1
num_layers=3
learning_rate=0.500000
connection_rate=1.000000
network_type=0
learning_momentum=0.000000
training_algorithm=2
train_error_function=1
train_stop_function=0
cascade_output_change_fraction=0.010000
quickprop_decay=-0.000100
quickprop_mu=1.750000
rprop_increase_factor=1.200000
rprop_decrease_factor=0.500000
rprop_delta_min=0.000000
rprop_delta_max=50.000000
rprop_delta_zero=0.100000
cascade_output_stagnation_epochs=12
cascade_candidate_change_fraction=0.010000
cascade_candidate_stagnation_epochs=12
cascade_max_out_epochs=150
cascade_min_out_epochs=50
cascade_max_cand_epochs=150
cascade_min_cand_epochs=50
cascade_num_candidate_groups=2
bit_fail_limit=3.49999994039535522461e-01
cascade_candidate_limit=1.00000000000000000000e+03
cascade_weight_multiplier=4.00000005960464477539e-01
cascade_activation_functions_count=10
cascade_activation_functions=3 5 7 8 10 11 14 15 16 17 
cascade_activation_steepnesses_count=4
cascade_activation_steepnesses=2.50000000000000000000e-01 5.00000000000000000000e-01 7.50000000000000000000e-01 1.00000000000000000000e+00 
layer_sizes=10 3 2 
scale_included=0
neurons (num_inputs, activation_function, activation_steepness)=(0, 0, 0.00000000000000000000e+00) (0, 0, 0.00000000000000000000e+00) (0, 0, 0.00000000000000000000e+00) (0, 0, 0.00000000000000000000e+00) (0, 0, 0.00000000000000000000e+00) (0, 0, 0.00000000000000000000e+00) (0, 0, 0.00000000000000000000e+00) (0, 0, 0.00000000000000000000e+00) (0, 0, 0.00000000000000000000e+00) (0, 0, 0.00000000000000000000e+00) (10, 3, 5.00000000000000000000e-01) (10, 3, 5.00000000000000000000e-01) (0, 3, 0.00000000000000000000e+00) (3, 3, 5.00000000000000000000e-01) (0, 3, 0.00000000000000000000e+00) 
connections (connected_to_neuron, weight)=(0, -4.78461861610412597656e-01) (1, -5.20831763744354248047e-01) (2, -1.27795648574829101562e+00) (3, -1.37386918067932128906e-01) (4, -1.87448084354400634766e-01) (5, -5.22711753845214843750e-01) (6, -4.31986063718795776367e-01) (7, -4.86462146043777465820e-01) (8, -9.93742108345031738281e-01) (9, 1.95763123035430908203e+00) (0, -5.96544384956359863281e-01) (1, -5.41910290718078613281e-01) (2, 1.08670532703399658203e+00) (3, -1.35105454921722412109e+00) (4, -1.24678063392639160156e+00) (5, -5.21085381507873535156e-01) (6, -7.27544128894805908203e-01) (7, -6.48610889911651611328e-01) (8, 4.57767009735107421875e-01) (9, 1.54078805446624755859e+00) (10, -2.62854170799255371094e+00) (11, -1.22841274738311767578e+00) (12, 1.43455946445465087891e+00) 
