FANN_FLO_2.1
num_layers=4
learning_rate=0.450000
connection_rate=1.000000
network_type=0
learning_momentum=0.000000
training_algorithm=2
train_error_function=1
train_stop_function=0
cascade_output_change_fraction=0.010000
quickprop_decay=-0.000100
quickprop_mu=1.750000
rprop_increase_factor=1.200000
rprop_decrease_factor=0.500000
rprop_delta_min=0.000000
rprop_delta_max=50.000000
rprop_delta_zero=0.100000
cascade_output_stagnation_epochs=12
cascade_candidate_change_fraction=0.010000
cascade_candidate_stagnation_epochs=12
cascade_max_out_epochs=150
cascade_min_out_epochs=50
cascade_max_cand_epochs=150
cascade_min_cand_epochs=50
cascade_num_candidate_groups=2
bit_fail_limit=3.49999994039535522461e-01
cascade_candidate_limit=1.00000000000000000000e+03
cascade_weight_multiplier=4.00000005960464477539e-01
cascade_activation_functions_count=10
cascade_activation_functions=3 5 7 8 10 11 14 15 16 17 
cascade_activation_steepnesses_count=4
cascade_activation_steepnesses=2.50000000000000000000e-01 5.00000000000000000000e-01 7.50000000000000000000e-01 1.00000000000000000000e+00 
layer_sizes=7 3 3 2 
scale_included=0
neurons (num_inputs, activation_function, activation_steepness)=(0, 0, 0.00000000000000000000e+00) (0, 0, 0.00000000000000000000e+00) (0, 0, 0.00000000000000000000e+00) (0, 0, 0.00000000000000000000e+00) (0, 0, 0.00000000000000000000e+00) (0, 0, 0.00000000000000000000e+00) (0, 0, 0.00000000000000000000e+00) (7, 3, 5.00000000000000000000e-01) (7, 3, 5.00000000000000000000e-01) (0, 3, 0.00000000000000000000e+00) (3, 3, 5.00000000000000000000e-01) (3, 3, 5.00000000000000000000e-01) (0, 3, 0.00000000000000000000e+00) (3, 0, 5.00000000000000000000e-01) (0, 0, 0.00000000000000000000e+00) 
connections (connected_to_neuron, weight)=(0, 3.98760914802551269531e-01) (1, 3.14441382884979248047e-01) (2, -4.70870018005371093750e+01) (3, -1.53158649802207946777e-01) (4, -1.24675817489624023438e+01) (5, -1.19428014755249023438e+00) (6, 7.14255094528198242188e-01) (0, 1.48488193750381469727e-01) (1, 1.03034190833568572998e-01) (2, -1.97848215699195861816e-01) (3, 5.25817796587944030762e-02) (4, 6.84227049350738525391e-01) (5, -1.05366981029510498047e+00) (6, 1.02963793277740478516e+00) (7, -1.50000000000000000000e+03) (8, -1.77575111389160156250e+01) (9, -2.08667945861816406250e+00) (7, -9.42231750488281250000e+02) (8, -1.28236169433593750000e+03) (9, -1.69047689437866210938e+00) (10, 4.20905411243438720703e-01) (11, -1.11804163455963134766e+00) (12, 1.66999921202659606934e-02) 
