FANN_FLO_2.1
num_layers=3
learning_rate=0.300000
connection_rate=1.000000
network_type=0
learning_momentum=0.000000
training_algorithm=2
train_error_function=1
train_stop_function=0
cascade_output_change_fraction=0.010000
quickprop_decay=-0.000100
quickprop_mu=1.750000
rprop_increase_factor=1.200000
rprop_decrease_factor=0.500000
rprop_delta_min=0.000000
rprop_delta_max=50.000000
rprop_delta_zero=0.100000
cascade_output_stagnation_epochs=12
cascade_candidate_change_fraction=0.010000
cascade_candidate_stagnation_epochs=12
cascade_max_out_epochs=150
cascade_min_out_epochs=50
cascade_max_cand_epochs=150
cascade_min_cand_epochs=50
cascade_num_candidate_groups=2
bit_fail_limit=3.49999994039535522461e-01
cascade_candidate_limit=1.00000000000000000000e+03
cascade_weight_multiplier=4.00000005960464477539e-01
cascade_activation_functions_count=10
cascade_activation_functions=3 5 7 8 10 11 14 15 16 17 
cascade_activation_steepnesses_count=4
cascade_activation_steepnesses=2.50000000000000000000e-01 5.00000000000000000000e-01 7.50000000000000000000e-01 1.00000000000000000000e+00 
layer_sizes=4 33 2 
scale_included=0
neurons (num_inputs, activation_function, activation_steepness)=(0, 0, 0.00000000000000000000e+00) (0, 0, 0.00000000000000000000e+00) (0, 0, 0.00000000000000000000e+00) (0, 0, 0.00000000000000000000e+00) (4, 3, 5.00000000000000000000e-01) (4, 3, 5.00000000000000000000e-01) (4, 3, 5.00000000000000000000e-01) (4, 3, 5.00000000000000000000e-01) (4, 3, 5.00000000000000000000e-01) (4, 3, 5.00000000000000000000e-01) (4, 3, 5.00000000000000000000e-01) (4, 3, 5.00000000000000000000e-01) (4, 3, 5.00000000000000000000e-01) (4, 3, 5.00000000000000000000e-01) (4, 3, 5.00000000000000000000e-01) (4, 3, 5.00000000000000000000e-01) (4, 3, 5.00000000000000000000e-01) (4, 3, 5.00000000000000000000e-01) (4, 3, 5.00000000000000000000e-01) (4, 3, 5.00000000000000000000e-01) (4, 3, 5.00000000000000000000e-01) (4, 3, 5.00000000000000000000e-01) (4, 3, 5.00000000000000000000e-01) (4, 3, 5.00000000000000000000e-01) (4, 3, 5.00000000000000000000e-01) (4, 3, 5.00000000000000000000e-01) (4, 3, 5.00000000000000000000e-01) (4, 3, 5.00000000000000000000e-01) (4, 3, 5.00000000000000000000e-01) (4, 3, 5.00000000000000000000e-01) (4, 3, 5.00000000000000000000e-01) (4, 3, 5.00000000000000000000e-01) (4, 3, 5.00000000000000000000e-01) (4, 3, 5.00000000000000000000e-01) (4, 3, 5.00000000000000000000e-01) (4, 3, 5.00000000000000000000e-01) (0, 3, 0.00000000000000000000e+00) (33, 3, 5.00000000000000000000e-01) (0, 3, 0.00000000000000000000e+00) 
connections (connected_to_neuron, weight)=(0, -3.88169556856155395508e-01) (1, 2.46468782424926757812e-01) (2, -1.03514659404754638672e+00) (3, 8.37910711765289306641e-01) (0, -8.64794349670410156250e+00) (1, -1.03626215457916259766e+00) (2, 1.68615579605102539062e+00) (3, -4.45579349994659423828e-01) (0, 4.35940122604370117188e+00) (1, -1.41545191407203674316e-01) (2, -2.37854175567626953125e+01) (3, -3.34853053092956542969e-01) (0, 3.68907904624938964844e+00) (1, -2.85560637712478637695e-01) (2, -1.82341938018798828125e+01) (3, -1.15880042314529418945e-01) (0, 2.33717486262321472168e-01) (1, 3.96170526742935180664e-01) (2, -9.16724622249603271484e-01) (3, 4.97360467910766601562e-01) (0, 3.18619561195373535156e+00) (1, -4.36583876609802246094e-01) (2, -5.00318336486816406250e+00) (3, -4.52672928571701049805e-01) (0, 5.74346399307250976562e+00) (1, -3.46788823604583740234e-01) (2, -2.80774497985839843750e+01) (3, -1.92289903759956359863e-01) (0, -9.72300842404365539551e-02) (1, 2.03791912645101547241e-02) (2, -3.20856422185897827148e-01) (3, 2.68451714515686035156e+00) (0, -4.44771736860275268555e-01) (1, 2.56488829851150512695e-01) (2, -4.23288583755493164062e-01) (3, 1.06025934219360351562e+00) (0, -4.27357196807861328125e+00) (1, -7.14959740638732910156e-01) (2, -6.00283765792846679688e+00) (3, -4.38150346279144287109e-01) (0, -4.80941861867904663086e-01) (1, 3.72663557529449462891e-01) (2, -8.42485606670379638672e-01) (3, 7.78500497341156005859e-01) (0, 5.79664850234985351562e+00) (1, -3.58885139226913452148e-01) (2, -2.82147369384765625000e+01) (3, -7.53849893808364868164e-02) (0, 4.11398839950561523438e+00) (1, -6.58164471387863159180e-02) (2, -2.37128734588623046875e+01) (3, -1.27154782414436340332e-01) (0, -5.60304880142211914062e-01) (1, 2.65264898538589477539e-01) (2, -1.98374912142753601074e-01) (3, 7.10099756717681884766e-01) (0, 5.74930667877197265625e+00) (1, -3.40838193893432617188e-01) (2, -2.82363262176513671875e+01) (3, -6.16165734827518463135e-02) (0, -6.14676594734191894531e-01) (1, 2.61058777570724487305e-01) (2, -3.15184853971004486084e-02) (3, 7.33230233192443847656e-01) (0, 6.69267797470092773438e+00) (1, -3.87071967124938964844e-01) (2, -1.43464956283569335938e+01) (3, -1.23920626938343048096e-01) (0, -5.37253916263580322266e-01) (1, 2.67303287982940673828e-01) (2, -2.67711400985717773438e-01) (3, 8.14953148365020751953e-01) (0, 6.75407886505126953125e+00) (1, -3.01480680704116821289e-01) (2, -1.40299263000488281250e+01) (3, 1.94073803722858428955e-02) (0, -4.62414681911468505859e-01) (1, 3.90948295593261718750e-01) (2, -9.76993978023529052734e-01) (3, 7.83537924289703369141e-01) (0, -4.46490436792373657227e-01) (1, 3.57000052928924560547e-01) (2, -8.43311250209808349609e-01) (3, 7.80117213726043701172e-01) (0, -4.82870668172836303711e-01) (1, 3.11464190483093261719e-01) (2, -5.60496211051940917969e-01) (3, 7.78307497501373291016e-01) (0, 6.64423084259033203125e+00) (1, -3.79689097404479980469e-01) (2, -1.42978172302246093750e+01) (3, -2.22084019333124160767e-02) (0, 3.59941422939300537109e-02) (1, 2.14517682790756225586e-01) (2, -2.46667981147766113281e+00) (3, 7.46811227872967720032e-03) (0, 5.73953199386596679688e+00) (1, -3.43588441610336303711e-01) (2, -2.81592941284179687500e+01) (3, 5.20971305668354034424e-02) (0, -4.93782132863998413086e-01) (1, 2.99643993377685546875e-01) (2, -4.92282539606094360352e-01) (3, 7.03618049621582031250e-01) (0, 6.55422353744506835938e+00) (1, -4.09648984670639038086e-01) (2, -1.45330238342285156250e+01) (3, -1.20812416076660156250e-01) (0, 4.61861753463745117188e+00) (1, -1.56404659152030944824e-01) (2, -2.45762672424316406250e+01) (3, -2.23849073052406311035e-01) (0, -4.93353664875030517578e-01) (1, 3.35236966609954833984e-01) (2, -6.42871201038360595703e-01) (3, 7.97761023044586181641e-01) (0, 3.35249018669128417969e+00) (1, -3.62989336252212524414e-01) (2, -5.56516456604003906250e+00) (3, -2.65426337718963623047e-01) (0, 4.54218578338623046875e+00) (1, -2.80888438224792480469e-01) (2, -2.47181663513183593750e+01) (3, -2.65895694494247436523e-01) (0, 5.82482290267944335938e+00) (1, -3.66232901811599731445e-01) (2, -2.82175197601318359375e+01) (3, -2.87224620580673217773e-01) (4, 3.90495121479034423828e-01) (5, -1.50000000000000000000e+03) (6, 4.83688888549804687500e+01) (7, 1.49999987792968750000e+03) (8, 3.09258513152599334717e-02) (9, 2.68573608398437500000e+02) (10, -2.22016763687133789062e+00) (11, -5.30573558807373046875e+00) (12, -4.98189404606819152832e-02) (13, -1.50000000000000000000e+03) (14, -6.90923929214477539062e-02) (15, -1.90455341339111328125e+00) (16, 1.11223516464233398438e+01) (17, -7.95476883649826049805e-02) (18, -2.31301379203796386719e+00) (19, -5.81054091453552246094e-02) (20, -1.34091949462890625000e+02) (21, -9.35110077261924743652e-02) (22, -1.34200927734375000000e+02) (23, -7.78927132487297058105e-02) (24, -1.01033493876457214355e-01) (25, -9.69269052147865295410e-02) (26, -1.34089019775390625000e+02) (27, -3.48364770412445068359e-01) (28, -5.51965093612670898438e+00) (29, -7.07055032253265380859e-02) (30, -1.34008102416992187500e+02) (31, -1.08624067306518554688e+01) (32, -4.70872037112712860107e-02) (33, 2.68873168945312500000e+02) (34, -1.49999121093750000000e+03) (35, -1.89660441875457763672e+00) (36, 1.68028309941291809082e-01) 
