FANN_FLO_2.1
num_layers=4
learning_rate=0.500000
connection_rate=1.000000
network_type=0
learning_momentum=0.000000
training_algorithm=2
train_error_function=1
train_stop_function=0
cascade_output_change_fraction=0.010000
quickprop_decay=-0.000100
quickprop_mu=1.750000
rprop_increase_factor=1.200000
rprop_decrease_factor=0.500000
rprop_delta_min=0.000000
rprop_delta_max=50.000000
rprop_delta_zero=0.100000
cascade_output_stagnation_epochs=12
cascade_candidate_change_fraction=0.010000
cascade_candidate_stagnation_epochs=12
cascade_max_out_epochs=150
cascade_min_out_epochs=50
cascade_max_cand_epochs=150
cascade_min_cand_epochs=50
cascade_num_candidate_groups=2
bit_fail_limit=3.49999994039535522461e-01
cascade_candidate_limit=1.00000000000000000000e+03
cascade_weight_multiplier=4.00000005960464477539e-01
cascade_activation_functions_count=10
cascade_activation_functions=3 5 7 8 10 11 14 15 16 17 
cascade_activation_steepnesses_count=4
cascade_activation_steepnesses=2.50000000000000000000e-01 5.00000000000000000000e-01 7.50000000000000000000e-01 1.00000000000000000000e+00 
layer_sizes=4 5 5 2 
scale_included=0
neurons (num_inputs, activation_function, activation_steepness)=(0, 0, 0.00000000000000000000e+00) (0, 0, 0.00000000000000000000e+00) (0, 0, 0.00000000000000000000e+00) (0, 0, 0.00000000000000000000e+00) (4, 3, 5.00000000000000000000e-01) (4, 3, 5.00000000000000000000e-01) (4, 3, 5.00000000000000000000e-01) (4, 3, 5.00000000000000000000e-01) (0, 3, 0.00000000000000000000e+00) (5, 3, 5.00000000000000000000e-01) (5, 3, 5.00000000000000000000e-01) (5, 3, 5.00000000000000000000e-01) (5, 3, 5.00000000000000000000e-01) (0, 3, 0.00000000000000000000e+00) (5, 3, 5.00000000000000000000e-01) (0, 3, 0.00000000000000000000e+00) 
connections (connected_to_neuron, weight)=(0, -3.77356553077697753906e+00) (1, -2.26978778839111328125e+00) (2, -2.85690832138061523438e+00) (3, 3.06700015068054199219e+00) (0, -1.45879992675781250000e+03) (1, -1.03827224731445312500e+02) (2, -1.47500000000000000000e+03) (3, -1.98131775856018066406e+00) (0, -1.45879992675781250000e+03) (1, -1.03876739501953125000e+02) (2, -1.47500000000000000000e+03) (3, -1.97881770133972167969e+00) (0, -1.45879992675781250000e+03) (1, 2.76183090209960937500e+01) (2, -1.47500000000000000000e+03) (3, -1.91777396202087402344e+00) (4, 1.50000000000000000000e+03) (5, -1.04781074523925781250e+02) (6, -1.04794120788574218750e+02) (7, -7.64601058959960937500e+01) (8, 9.38618564605712890625e+00) (4, 7.27568817138671875000e+00) (5, -8.75152969360351562500e+00) (6, -8.64441490173339843750e+00) (7, -3.47268462181091308594e+00) (8, -4.83877092599868774414e-01) (4, 2.33649806976318359375e+01) (5, 1.73637664794921875000e+02) (6, 1.73746658325195312500e+02) (7, 1.44731124877929687500e+02) (8, -4.17153978347778320312e+00) (4, 3.14586410522460937500e+01) (5, 1.73622985839843750000e+02) (6, 1.73731109619140625000e+02) (7, 3.46588562011718750000e+02) (8, -5.54767465591430664062e+00) (9, 3.01186144351959228516e-01) (10, 2.19201326370239257812e+00) (11, -2.08789682388305664062e+00) (12, -3.89040184020996093750e+00) (13, 1.32957184314727783203e+00) 
