FANN_FLO_2.1
num_layers=4
learning_rate=0.450000
connection_rate=1.000000
network_type=0
learning_momentum=0.000000
training_algorithm=2
train_error_function=1
train_stop_function=0
cascade_output_change_fraction=0.010000
quickprop_decay=-0.000100
quickprop_mu=1.750000
rprop_increase_factor=1.200000
rprop_decrease_factor=0.500000
rprop_delta_min=0.000000
rprop_delta_max=50.000000
rprop_delta_zero=0.100000
cascade_output_stagnation_epochs=12
cascade_candidate_change_fraction=0.010000
cascade_candidate_stagnation_epochs=12
cascade_max_out_epochs=150
cascade_min_out_epochs=50
cascade_max_cand_epochs=150
cascade_min_cand_epochs=50
cascade_num_candidate_groups=2
bit_fail_limit=3.49999994039535522461e-01
cascade_candidate_limit=1.00000000000000000000e+03
cascade_weight_multiplier=4.00000005960464477539e-01
cascade_activation_functions_count=10
cascade_activation_functions=3 5 7 8 10 11 14 15 16 17 
cascade_activation_steepnesses_count=4
cascade_activation_steepnesses=2.50000000000000000000e-01 5.00000000000000000000e-01 7.50000000000000000000e-01 1.00000000000000000000e+00 
layer_sizes=7 5 5 2 
scale_included=0
neurons (num_inputs, activation_function, activation_steepness)=(0, 0, 0.00000000000000000000e+00) (0, 0, 0.00000000000000000000e+00) (0, 0, 0.00000000000000000000e+00) (0, 0, 0.00000000000000000000e+00) (0, 0, 0.00000000000000000000e+00) (0, 0, 0.00000000000000000000e+00) (0, 0, 0.00000000000000000000e+00) (7, 3, 5.00000000000000000000e-01) (7, 3, 5.00000000000000000000e-01) (7, 3, 5.00000000000000000000e-01) (7, 3, 5.00000000000000000000e-01) (0, 3, 0.00000000000000000000e+00) (5, 3, 5.00000000000000000000e-01) (5, 3, 5.00000000000000000000e-01) (5, 3, 5.00000000000000000000e-01) (5, 3, 5.00000000000000000000e-01) (0, 3, 0.00000000000000000000e+00) (5, 0, 5.00000000000000000000e-01) (0, 0, 0.00000000000000000000e+00) 
connections (connected_to_neuron, weight)=(0, -1.89283895492553710938e+00) (1, 9.67914676666259765625e+00) (2, -6.55337762832641601562e+00) (3, 1.03986792266368865967e-01) (4, 3.43005204200744628906e+00) (5, -4.14498424530029296875e+00) (6, 6.21410894393920898438e+00) (0, 1.42890600585937500000e+03) (1, -1.50000000000000000000e+03) (2, 3.39006347656250000000e+01) (3, 5.13733398437500000000e+02) (4, -4.07741117477416992188e+00) (5, -5.57265075683593750000e+02) (6, 7.81105375289916992188e+00) (0, -1.50000000000000000000e+03) (1, 1.48200000000000000000e+03) (2, 8.64456253051757812500e+01) (3, -1.05572819709777832031e-01) (4, 7.25882232189178466797e-01) (5, -7.50369018554687500000e+02) (6, -7.94058620929718017578e-01) (0, 3.02975811064243316650e-02) (1, 1.28490841388702392578e+00) (2, -5.01105546951293945312e-01) (3, -2.02128991484642028809e-01) (4, 4.11277264356613159180e-01) (5, -1.02400672435760498047e+00) (6, -2.11187725067138671875e+01) (7, -2.27503108978271484375e+00) (8, -2.07837581634521484375e+00) (9, -3.21554124355316162109e-01) (10, -2.64777779579162597656e+00) (11, -2.23840999603271484375e+00) (7, -4.88618202209472656250e+01) (8, -5.83164989948272705078e-01) (9, -1.07920433044433593750e+02) (10, 2.27747535705566406250e+00) (11, -5.79392731189727783203e-01) (7, -2.10955667495727539062e+00) (8, -2.07952642440795898438e+00) (9, -4.49754208326339721680e-01) (10, -2.65822672843933105469e+00) (11, -2.19049310684204101562e+00) (7, -7.78961135074496269226e-03) (8, -2.89118975400924682617e-01) (9, 1.35715618729591369629e-01) (10, 1.78071513772010803223e-01) (11, -3.55194061994552612305e-01) (12, -1.07091927528381347656e+00) (13, 2.05814287066459655762e-01) (14, -1.06939816474914550781e+00) (15, 9.94412899017333984375e-02) (16, -2.14794185012578964233e-02) 
