FANN_FLO_2.1
num_layers=3
learning_rate=0.500000
connection_rate=1.000000
network_type=0
learning_momentum=0.000000
training_algorithm=2
train_error_function=1
train_stop_function=0
cascade_output_change_fraction=0.010000
quickprop_decay=-0.000100
quickprop_mu=1.750000
rprop_increase_factor=1.200000
rprop_decrease_factor=0.500000
rprop_delta_min=0.000000
rprop_delta_max=50.000000
rprop_delta_zero=0.100000
cascade_output_stagnation_epochs=12
cascade_candidate_change_fraction=0.010000
cascade_candidate_stagnation_epochs=12
cascade_max_out_epochs=150
cascade_min_out_epochs=50
cascade_max_cand_epochs=150
cascade_min_cand_epochs=50
cascade_num_candidate_groups=2
bit_fail_limit=3.49999994039535522461e-01
cascade_candidate_limit=1.00000000000000000000e+03
cascade_weight_multiplier=4.00000005960464477539e-01
cascade_activation_functions_count=10
cascade_activation_functions=3 5 7 8 10 11 14 15 16 17 
cascade_activation_steepnesses_count=4
cascade_activation_steepnesses=2.50000000000000000000e-01 5.00000000000000000000e-01 7.50000000000000000000e-01 1.00000000000000000000e+00 
layer_sizes=7 5 2 
scale_included=0
neurons (num_inputs, activation_function, activation_steepness)=(0, 0, 0.00000000000000000000e+00) (0, 0, 0.00000000000000000000e+00) (0, 0, 0.00000000000000000000e+00) (0, 0, 0.00000000000000000000e+00) (0, 0, 0.00000000000000000000e+00) (0, 0, 0.00000000000000000000e+00) (0, 0, 0.00000000000000000000e+00) (7, 3, 5.00000000000000000000e-01) (7, 3, 5.00000000000000000000e-01) (7, 3, 5.00000000000000000000e-01) (7, 3, 5.00000000000000000000e-01) (0, 3, 0.00000000000000000000e+00) (5, 0, 5.00000000000000000000e-01) (0, 0, 0.00000000000000000000e+00) 
connections (connected_to_neuron, weight)=(0, -7.69306182861328125000e-01) (1, 1.14931106567382812500e+00) (2, 5.33604800701141357422e-01) (3, -7.16045260429382324219e-01) (4, -6.50859534740447998047e-01) (5, -2.72224121093750000000e+01) (6, -8.18603515625000000000e-01) (0, 1.85563579201698303223e-01) (1, -2.32139304280281066895e-02) (2, 1.92273929715156555176e-01) (3, -1.04842104017734527588e-01) (4, 4.91675548255443572998e-02) (5, -2.60551422834396362305e-01) (6, -1.29995763301849365234e+00) (0, -1.84136942028999328613e-01) (1, -3.85008491575717926025e-02) (2, -2.48347386717796325684e-01) (3, -8.89159515500068664551e-02) (4, 1.29265263676643371582e-01) (5, 4.53939199447631835938e-01) (6, -5.66111981868743896484e-01) (0, -4.43666845560073852539e-01) (1, -4.42347526550292968750e-01) (2, -8.96709024906158447266e-01) (3, -4.39306199550628662109e-01) (4, 1.44802108407020568848e-01) (5, 2.20982217788696289062e+00) (6, -3.02491664886474609375e-01) (7, -1.35713992640376091003e-02) (8, -7.83809274435043334961e-02) (9, -2.18155011534690856934e-01) (10, 1.34563013911247253418e-01) (11, 7.59365707635879516602e-02) 
