FANN_FLO_2.1
num_layers=4
learning_rate=0.500000
connection_rate=1.000000
network_type=0
learning_momentum=0.000000
training_algorithm=2
train_error_function=1
train_stop_function=0
cascade_output_change_fraction=0.010000
quickprop_decay=-0.000100
quickprop_mu=1.750000
rprop_increase_factor=1.200000
rprop_decrease_factor=0.500000
rprop_delta_min=0.000000
rprop_delta_max=50.000000
rprop_delta_zero=0.100000
cascade_output_stagnation_epochs=12
cascade_candidate_change_fraction=0.010000
cascade_candidate_stagnation_epochs=12
cascade_max_out_epochs=150
cascade_min_out_epochs=50
cascade_max_cand_epochs=150
cascade_min_cand_epochs=50
cascade_num_candidate_groups=2
bit_fail_limit=3.49999994039535522461e-01
cascade_candidate_limit=1.00000000000000000000e+03
cascade_weight_multiplier=4.00000005960464477539e-01
cascade_activation_functions_count=10
cascade_activation_functions=3 5 7 8 10 11 14 15 16 17 
cascade_activation_steepnesses_count=4
cascade_activation_steepnesses=2.50000000000000000000e-01 5.00000000000000000000e-01 7.50000000000000000000e-01 1.00000000000000000000e+00 
layer_sizes=18 3 3 2 
scale_included=0
neurons (num_inputs, activation_function, activation_steepness)=(0, 0, 0.00000000000000000000e+00) (0, 0, 0.00000000000000000000e+00) (0, 0, 0.00000000000000000000e+00) (0, 0, 0.00000000000000000000e+00) (0, 0, 0.00000000000000000000e+00) (0, 0, 0.00000000000000000000e+00) (0, 0, 0.00000000000000000000e+00) (0, 0, 0.00000000000000000000e+00) (0, 0, 0.00000000000000000000e+00) (0, 0, 0.00000000000000000000e+00) (0, 0, 0.00000000000000000000e+00) (0, 0, 0.00000000000000000000e+00) (0, 0, 0.00000000000000000000e+00) (0, 0, 0.00000000000000000000e+00) (0, 0, 0.00000000000000000000e+00) (0, 0, 0.00000000000000000000e+00) (0, 0, 0.00000000000000000000e+00) (0, 0, 0.00000000000000000000e+00) (18, 3, 5.00000000000000000000e-01) (18, 3, 5.00000000000000000000e-01) (0, 3, 0.00000000000000000000e+00) (3, 3, 5.00000000000000000000e-01) (3, 3, 5.00000000000000000000e-01) (0, 3, 0.00000000000000000000e+00) (3, 0, 5.00000000000000000000e-01) (0, 0, 0.00000000000000000000e+00) 
connections (connected_to_neuron, weight)=(0, 9.94707524776458740234e-01) (1, 8.26312899589538574219e-01) (2, 1.02543199062347412109e+00) (3, 1.32249760627746582031e+00) (4, 1.03740191459655761719e+00) (5, -8.91235470771789550781e-01) (6, -1.13102328777313232422e+00) (7, -1.46542835235595703125e+00) (8, 2.02002540230751037598e-01) (9, 1.05936884880065917969e+00) (10, 7.61012732982635498047e-01) (11, 1.01158607006072998047e+00) (12, 1.16268885135650634766e+00) (13, 9.77174937725067138672e-01) (14, 1.02094233036041259766e+00) (15, 8.87386858463287353516e-01) (16, 1.07818996906280517578e+00) (17, -5.95013427734375000000e+00) (0, 9.49078979492187500000e+01) (1, -1.13093457031250000000e+03) (2, -1.44500000000000000000e+03) (3, -1.34476220703125000000e+03) (4, -1.50000000000000000000e+03) (5, 5.35206146240234375000e+01) (6, 1.74171619415283203125e+01) (7, 1.26629895019531250000e+03) (8, 4.26361083984375000000e+01) (9, -1.00538500976562500000e+03) (10, -1.38280603027343750000e+03) (11, -1.41913330078125000000e+03) (12, -1.48459686279296875000e+02) (13, 2.26943634033203125000e+02) (14, 1.19276184082031250000e+02) (15, 2.11452392578125000000e+02) (16, -8.54100769042968750000e+02) (17, 5.76064872741699218750e+00) (18, 1.15180587768554687500e+01) (19, 1.29653839111328125000e+02) (20, -1.09512519836425781250e+00) (18, 1.50000000000000000000e+03) (19, 3.19594665527343750000e+02) (20, -7.86942839622497558594e-01) (21, 1.02179574966430664062e+01) (22, 8.77957344055175781250e-01) (23, 9.13122892379760742188e-01) 
