FANN_FLO_2.1
num_layers=3
learning_rate=0.500000
connection_rate=1.000000
network_type=0
learning_momentum=0.000000
training_algorithm=2
train_error_function=1
train_stop_function=0
cascade_output_change_fraction=0.010000
quickprop_decay=-0.000100
quickprop_mu=1.750000
rprop_increase_factor=1.200000
rprop_decrease_factor=0.500000
rprop_delta_min=0.000000
rprop_delta_max=50.000000
rprop_delta_zero=0.100000
cascade_output_stagnation_epochs=12
cascade_candidate_change_fraction=0.010000
cascade_candidate_stagnation_epochs=12
cascade_max_out_epochs=150
cascade_min_out_epochs=50
cascade_max_cand_epochs=150
cascade_min_cand_epochs=50
cascade_num_candidate_groups=2
bit_fail_limit=3.49999994039535522461e-01
cascade_candidate_limit=1.00000000000000000000e+03
cascade_weight_multiplier=4.00000005960464477539e-01
cascade_activation_functions_count=10
cascade_activation_functions=3 5 7 8 10 11 14 15 16 17 
cascade_activation_steepnesses_count=4
cascade_activation_steepnesses=2.50000000000000000000e-01 5.00000000000000000000e-01 7.50000000000000000000e-01 1.00000000000000000000e+00 
layer_sizes=3 9 4 
scale_included=0
neurons (num_inputs, activation_function, activation_steepness)=(0, 0, 0.00000000000000000000e+00) (0, 0, 0.00000000000000000000e+00) (0, 0, 0.00000000000000000000e+00) (3, 3, 5.00000000000000000000e-01) (3, 3, 5.00000000000000000000e-01) (3, 3, 5.00000000000000000000e-01) (3, 3, 5.00000000000000000000e-01) (3, 3, 5.00000000000000000000e-01) (3, 3, 5.00000000000000000000e-01) (3, 3, 5.00000000000000000000e-01) (3, 3, 5.00000000000000000000e-01) (0, 3, 0.00000000000000000000e+00) (9, 0, 5.00000000000000000000e-01) (9, 0, 5.00000000000000000000e-01) (9, 0, 5.00000000000000000000e-01) (0, 0, 0.00000000000000000000e+00) 
connections (connected_to_neuron, weight)=(0, -5.77477121353149414062e+00) (1, 8.33106803894042968750e+00) (2, 8.74353122711181640625e+00) (0, -5.66145992279052734375e+00) (1, 8.22215080261230468750e-02) (2, 5.30512392520904541016e-01) (0, -8.57650279998779296875e+00) (1, 4.84465122222900390625e+00) (2, 5.38534259796142578125e+00) (0, -7.21787166595458984375e+00) (1, 9.79869747161865234375e+00) (2, 7.02477073669433593750e+00) (0, -4.78693389892578125000e+00) (1, -2.66122984886169433594e+00) (2, 9.87676441669464111328e-01) (0, -1.87246227264404296875e+00) (1, -3.25378274917602539062e+00) (2, 4.20341819524765014648e-01) (0, -6.22726964950561523438e+00) (1, 1.94646239280700683594e+00) (2, 2.05407238006591796875e+00) (0, -9.89170265197753906250e+00) (1, 8.48523426055908203125e+00) (2, 7.82318305969238281250e+00) (3, 4.62949424982070922852e-01) (4, 2.27448725700378417969e+00) (5, 7.40701794624328613281e-01) (6, 5.82525610923767089844e-01) (7, 1.95370519161224365234e+00) (8, 2.33637595176696777344e+00) (9, 1.11861622333526611328e+00) (10, 1.03730833530426025391e+00) (11, 3.92598837614059448242e-01) (3, 1.79757976531982421875e+00) (4, 5.20742034912109375000e+00) (5, 3.09806323051452636719e+00) (6, 2.34398126602172851562e+00) (7, 4.90312814712524414062e+00) (8, 7.35760641098022460938e+00) (9, 3.95254588127136230469e+00) (10, 3.35731029510498046875e+00) (11, 1.83299684524536132812e+00) (3, 8.53568458557128906250e+00) (4, 1.43194751739501953125e+01) (5, 9.54423713684082031250e+00) (6, 8.52527332305908203125e+00) (7, 1.66501674652099609375e+01) (8, 2.37480049133300781250e+01) (9, 1.43812875747680664062e+01) (10, 8.54229640960693359375e+00) (11, 9.35381412506103515625e+00) 
