FANN_FLO_2.1
num_layers=3
learning_rate=0.500000
connection_rate=1.000000
network_type=0
learning_momentum=0.000000
training_algorithm=2
train_error_function=1
train_stop_function=0
cascade_output_change_fraction=0.010000
quickprop_decay=-0.000100
quickprop_mu=1.750000
rprop_increase_factor=1.200000
rprop_decrease_factor=0.500000
rprop_delta_min=0.000000
rprop_delta_max=50.000000
rprop_delta_zero=0.100000
cascade_output_stagnation_epochs=12
cascade_candidate_change_fraction=0.010000
cascade_candidate_stagnation_epochs=12
cascade_max_out_epochs=150
cascade_min_out_epochs=50
cascade_max_cand_epochs=150
cascade_min_cand_epochs=50
cascade_num_candidate_groups=2
bit_fail_limit=3.49999994039535522461e-01
cascade_candidate_limit=1.00000000000000000000e+03
cascade_weight_multiplier=4.00000005960464477539e-01
cascade_activation_functions_count=10
cascade_activation_functions=3 5 7 8 10 11 14 15 16 17 
cascade_activation_steepnesses_count=4
cascade_activation_steepnesses=2.50000000000000000000e-01 5.00000000000000000000e-01 7.50000000000000000000e-01 1.00000000000000000000e+00 
layer_sizes=82 5 2 
scale_included=0
neurons (num_inputs, activation_function, activation_steepness)=(0, 0, 0.00000000000000000000e+00) (0, 0, 0.00000000000000000000e+00) (0, 0, 0.00000000000000000000e+00) (0, 0, 0.00000000000000000000e+00) (0, 0, 0.00000000000000000000e+00) (0, 0, 0.00000000000000000000e+00) (0, 0, 0.00000000000000000000e+00) (0, 0, 0.00000000000000000000e+00) (0, 0, 0.00000000000000000000e+00) (0, 0, 0.00000000000000000000e+00) (0, 0, 0.00000000000000000000e+00) (0, 0, 0.00000000000000000000e+00) (0, 0, 0.00000000000000000000e+00) (0, 0, 0.00000000000000000000e+00) (0, 0, 0.00000000000000000000e+00) (0, 0, 0.00000000000000000000e+00) (0, 0, 0.00000000000000000000e+00) (0, 0, 0.00000000000000000000e+00) (0, 0, 0.00000000000000000000e+00) (0, 0, 0.00000000000000000000e+00) (0, 0, 0.00000000000000000000e+00) (0, 0, 0.00000000000000000000e+00) (0, 0, 0.00000000000000000000e+00) (0, 0, 0.00000000000000000000e+00) (0, 0, 0.00000000000000000000e+00) (0, 0, 0.00000000000000000000e+00) (0, 0, 0.00000000000000000000e+00) (0, 0, 0.00000000000000000000e+00) (0, 0, 0.00000000000000000000e+00) (0, 0, 0.00000000000000000000e+00) (0, 0, 0.00000000000000000000e+00) (0, 0, 0.00000000000000000000e+00) (0, 0, 0.00000000000000000000e+00) (0, 0, 0.00000000000000000000e+00) (0, 0, 0.00000000000000000000e+00) (0, 0, 0.00000000000000000000e+00) (0, 0, 0.00000000000000000000e+00) (0, 0, 0.00000000000000000000e+00) (0, 0, 0.00000000000000000000e+00) (0, 0, 0.00000000000000000000e+00) (0, 0, 0.00000000000000000000e+00) (0, 0, 0.00000000000000000000e+00) (0, 0, 0.00000000000000000000e+00) (0, 0, 0.00000000000000000000e+00) (0, 0, 0.00000000000000000000e+00) (0, 0, 0.00000000000000000000e+00) (0, 0, 0.00000000000000000000e+00) (0, 0, 0.00000000000000000000e+00) (0, 0, 0.00000000000000000000e+00) (0, 0, 0.00000000000000000000e+00) (0, 0, 0.00000000000000000000e+00) (0, 0, 0.00000000000000000000e+00) (0, 0, 0.00000000000000000000e+00) (0, 0, 0.00000000000000000000e+00) (0, 0, 0.00000000000000000000e+00) (0, 0, 0.00000000000000000000e+00) (0, 0, 0.00000000000000000000e+00) (0, 0, 0.00000000000000000000e+00) (0, 0, 0.00000000000000000000e+00) (0, 0, 0.00000000000000000000e+00) (0, 0, 0.00000000000000000000e+00) (0, 0, 0.00000000000000000000e+00) (0, 0, 0.00000000000000000000e+00) (0, 0, 0.00000000000000000000e+00) (0, 0, 0.00000000000000000000e+00) (0, 0, 0.00000000000000000000e+00) (0, 0, 0.00000000000000000000e+00) (0, 0, 0.00000000000000000000e+00) (0, 0, 0.00000000000000000000e+00) (0, 0, 0.00000000000000000000e+00) (0, 0, 0.00000000000000000000e+00) (0, 0, 0.00000000000000000000e+00) (0, 0, 0.00000000000000000000e+00) (0, 0, 0.00000000000000000000e+00) (0, 0, 0.00000000000000000000e+00) (0, 0, 0.00000000000000000000e+00) (0, 0, 0.00000000000000000000e+00) (0, 0, 0.00000000000000000000e+00) (0, 0, 0.00000000000000000000e+00) (0, 0, 0.00000000000000000000e+00) (0, 0, 0.00000000000000000000e+00) (0, 0, 0.00000000000000000000e+00) (82, 3, 5.00000000000000000000e-01) (82, 3, 5.00000000000000000000e-01) (82, 3, 5.00000000000000000000e-01) (82, 3, 5.00000000000000000000e-01) (0, 3, 0.00000000000000000000e+00) (5, 3, 5.00000000000000000000e-01) (0, 3, 0.00000000000000000000e+00) 
connections (connected_to_neuron, weight)=(0, -1.76540955901145935059e-01) (1, -2.10433937609195709229e-02) (2, 4.51656170189380645752e-02) (3, 7.20153376460075378418e-02) (4, 1.07084520161151885986e-01) (5, -6.92269280552864074707e-02) (6, -3.38443331420421600342e-02) (7, -1.34625481441617012024e-02) (8, 2.99453339539468288422e-03) (9, -1.39402881264686584473e-01) (10, -1.87568634748458862305e-01) (11, 1.14507853984832763672e-01) (12, 1.96173563599586486816e-02) (13, -1.06048673391342163086e-01) (14, -6.72677978873252868652e-02) (15, -1.24214226379990577698e-02) (16, -9.46030244231224060059e-02) (17, -7.88774564862251281738e-02) (18, -9.85720381140708923340e-02) (19, -6.86801895499229431152e-02) (20, 1.08775384724140167236e-01) (21, 7.35564678907394409180e-02) (22, 7.66060352325439453125e-02) (23, -6.70661330223083496094e-02) (24, -2.81193423271179199219e+00) (25, -2.25316539406776428223e-01) (26, 8.77686366438865661621e-02) (27, 1.28748849034309387207e-01) (28, 1.79352797567844390869e-03) (29, -7.70695805549621582031e-02) (30, -1.18683829903602600098e-01) (31, -5.46141684055328369141e-01) (32, -2.63351574540138244629e-02) (33, 1.67054474353790283203e-01) (34, 2.11242996156215667725e-02) (35, -5.80129660665988922119e-02) (36, -9.01291966438293457031e-02) (37, -1.32049158215522766113e-01) (38, -3.74540627002716064453e-01) (39, -5.74249494820833206177e-03) (40, -4.65811528265476226807e-02) (41, 2.23241195082664489746e-01) (42, -4.92175221443176269531e-02) (43, -6.03015422821044921875e-02) (44, -3.28291356563568115234e-02) (45, -2.70010679960250854492e-01) (46, 7.12315365672111511230e-02) (47, -6.95174187421798706055e-02) (48, -1.47054240107536315918e-01) (49, 1.50000000000000000000e+03) (50, 1.50000000000000000000e+03) (51, 1.50000000000000000000e+03) (52, 1.50000000000000000000e+03) (53, 1.50000000000000000000e+03) (54, 1.50000000000000000000e+03) (55, 1.50000000000000000000e+03) (56, 1.50000000000000000000e+03) (57, 1.50000000000000000000e+03) (58, 1.50000000000000000000e+03) (59, 1.50000000000000000000e+03) (60, 1.50000000000000000000e+03) (61, 1.50000000000000000000e+03) (62, 1.50000000000000000000e+03) (63, 1.50000000000000000000e+03) (64, 1.50000000000000000000e+03) (65, 1.50000000000000000000e+03) (66, 1.50000000000000000000e+03) (67, 1.50000000000000000000e+03) (68, 1.50000000000000000000e+03) (69, 1.50000000000000000000e+03) (70, 1.50000000000000000000e+03) (71, 1.50000000000000000000e+03) (72, 1.50000000000000000000e+03) (73, 1.50000000000000000000e+03) (74, 1.50000000000000000000e+03) (75, 1.50000000000000000000e+03) (76, 1.50000000000000000000e+03) (77, 1.50000000000000000000e+03) (78, 1.50000000000000000000e+03) (79, 1.50000000000000000000e+03) (80, 1.50000000000000000000e+03) (81, 2.15795826911926269531e+00) (0, -1.22713491320610046387e-01) (1, -3.44082921743392944336e-01) (2, -1.35465562343597412109e-01) (3, 2.07596719264984130859e-01) (4, -1.11179876327514648438e+00) (5, -4.14289325475692749023e-01) (6, -2.17861339449882507324e-01) (7, -4.82514128088951110840e-02) (8, -1.28894910216331481934e-01) (9, -4.91381794214248657227e-01) (10, 2.01232776045799255371e-01) (11, -2.31372401118278503418e-01) (12, -7.52635538578033447266e-01) (13, -4.42541539669036865234e-01) (14, 9.57533344626426696777e-03) (15, -2.46327407658100128174e-02) (16, -2.54658937454223632812e-01) (17, -8.65446507930755615234e-01) (18, -1.31220126152038574219e+00) (19, -7.33250319957733154297e-01) (20, -1.76853105425834655762e-01) (21, 4.47385944426059722900e-02) (22, 7.42423534393310546875e-01) (23, -1.46390631794929504395e-01) (24, -6.88221168518066406250e+00) (25, -9.17200982570648193359e-01) (26, -1.00261914730072021484e+00) (27, -5.09786546230316162109e-01) (28, 2.56065458059310913086e-01) (29, 2.94720143079757690430e-01) (30, -8.45590955577790737152e-04) (31, -7.25291728973388671875e-01) (32, -2.09245729446411132812e+00) (33, -1.44945830106735229492e-01) (34, -8.35121124982833862305e-02) (35, 3.99001181125640869141e-01) (36, -1.77083581686019897461e-01) (37, 3.11576183885335922241e-02) (38, -2.64647126197814941406e-01) (39, 1.69793754816055297852e-01) (40, -4.86390203237533569336e-01) (41, -5.72136104106903076172e-01) (42, 2.88990139961242675781e-01) (43, 5.90410223230719566345e-03) (44, 1.43719604238867759705e-02) (45, 1.63847506046295166016e-01) (46, 2.58299440145492553711e-01) (47, 5.49140930175781250000e-01) (48, -2.07093477249145507812e-01) (49, 1.50000000000000000000e+03) (50, 1.50000000000000000000e+03) (51, 1.50000000000000000000e+03) (52, 1.50000000000000000000e+03) (53, 1.50000000000000000000e+03) (54, 1.50000000000000000000e+03) (55, 1.50000000000000000000e+03) (56, 1.50000000000000000000e+03) (57, 1.50000000000000000000e+03) (58, 1.50000000000000000000e+03) (59, 1.50000000000000000000e+03) (60, 1.50000000000000000000e+03) (61, 1.50000000000000000000e+03) (62, 1.50000000000000000000e+03) (63, 1.50000000000000000000e+03) (64, 1.50000000000000000000e+03) (65, 1.50000000000000000000e+03) (66, 1.50000000000000000000e+03) (67, 1.50000000000000000000e+03) (68, 1.50000000000000000000e+03) (69, 1.50000000000000000000e+03) (70, 1.50000000000000000000e+03) (71, 1.50000000000000000000e+03) (72, 1.50000000000000000000e+03) (73, 1.50000000000000000000e+03) (74, 1.50000000000000000000e+03) (75, 1.50000000000000000000e+03) (76, 1.50000000000000000000e+03) (77, 1.50000000000000000000e+03) (78, 1.50000000000000000000e+03) (79, 1.50000000000000000000e+03) (80, 1.50000000000000000000e+03) (81, 4.29861903190612792969e-01) (0, -2.91221439838409423828e-02) (1, -6.25982508063316345215e-02) (2, -3.98683510720729827881e-02) (3, -9.03182029724121093750e-02) (4, -2.89334170520305633545e-02) (5, 3.19167524576187133789e-02) (6, -3.88585031032562255859e-03) (7, -8.44094008207321166992e-02) (8, -3.21939587593078613281e-02) (9, -1.12971417605876922607e-01) (10, -1.14345058798789978027e-01) (11, 7.88091868162155151367e-02) (12, -5.76856844127178192139e-02) (13, 7.29145333170890808105e-02) (14, 2.34941001981496810913e-02) (15, -5.34458160400390625000e-02) (16, -1.38609513640403747559e-01) (17, -2.32073828577995300293e-01) (18, -8.89983251690864562988e-02) (19, -3.57434637844562530518e-02) (20, 1.78515717387199401855e-01) (21, 1.79158702492713928223e-01) (22, 3.56785841286182403564e-02) (23, -1.76145136356353759766e-01) (24, -1.60543513298034667969e+00) (25, -7.71587267518043518066e-02) (26, 6.51374906301498413086e-02) (27, 1.21961541473865509033e-01) (28, -6.91167190670967102051e-02) (29, 2.37995907664299011230e-02) (30, -2.39163160324096679688e-01) (31, -1.69296711683273315430e-01) (32, -1.95679403841495513916e-02) (33, 3.81006412208080291748e-02) (34, -1.12600035965442657471e-01) (35, -2.84886032342910766602e-01) (36, -1.96948289871215820312e-01) (37, -1.53505895286798477173e-02) (38, -2.71425694227218627930e-01) (39, -5.62322102487087249756e-02) (40, -2.41760932840406894684e-03) (41, 1.62825565785169601440e-02) (42, -9.31208059191703796387e-02) (43, -1.79690107703208923340e-01) (44, -1.56464427709579467773e-01) (45, -9.09851416945457458496e-02) (46, 4.43011552095413208008e-01) (47, -5.02541624009609222412e-02) (48, -1.99235856533050537109e-01) (49, 1.50000000000000000000e+03) (50, 1.50000000000000000000e+03) (51, 1.50000000000000000000e+03) (52, 1.50000000000000000000e+03) (53, 1.50000000000000000000e+03) (54, 1.50000000000000000000e+03) (55, 1.50000000000000000000e+03) (56, 1.50000000000000000000e+03) (57, 1.50000000000000000000e+03) (58, 1.50000000000000000000e+03) (59, 1.50000000000000000000e+03) (60, 1.50000000000000000000e+03) (61, 1.50000000000000000000e+03) (62, 1.50000000000000000000e+03) (63, 1.50000000000000000000e+03) (64, 1.50000000000000000000e+03) (65, 1.50000000000000000000e+03) (66, 1.50000000000000000000e+03) (67, 1.50000000000000000000e+03) (68, 1.50000000000000000000e+03) (69, 1.50000000000000000000e+03) (70, 1.50000000000000000000e+03) (71, 1.50000000000000000000e+03) (72, 1.50000000000000000000e+03) (73, 1.50000000000000000000e+03) (74, 1.50000000000000000000e+03) (75, 1.50000000000000000000e+03) (76, 1.50000000000000000000e+03) (77, 1.50000000000000000000e+03) (78, 1.50000000000000000000e+03) (79, 1.50000000000000000000e+03) (80, 1.50000000000000000000e+03) (81, 9.41570997238159179688e-01) (0, 1.50000000000000000000e+03) (1, 1.50000000000000000000e+03) (2, 1.50000000000000000000e+03) (3, 1.50000000000000000000e+03) (4, 1.48000903320312500000e+03) (5, 1.45056555175781250000e+03) (6, 1.48128601074218750000e+03) (7, 1.50000000000000000000e+03) (8, 1.50000000000000000000e+03) (9, 1.50000000000000000000e+03) (10, 1.50000000000000000000e+03) (11, 1.50000000000000000000e+03) (12, 1.50000000000000000000e+03) (13, 1.50000000000000000000e+03) (14, 1.50000000000000000000e+03) (15, 1.50000000000000000000e+03) (16, 1.50000000000000000000e+03) (17, 1.50000000000000000000e+03) (18, 1.50000000000000000000e+03) (19, 1.50000000000000000000e+03) (20, 1.45056420898437500000e+03) (21, 1.50000000000000000000e+03) (22, 1.50000000000000000000e+03) (23, 1.50000000000000000000e+03) (24, 1.50000000000000000000e+03) (25, 1.50000000000000000000e+03) (26, 2.52233016967773437500e+02) (27, 1.39732653808593750000e+03) (28, 1.50000000000000000000e+03) (29, 1.50000000000000000000e+03) (30, 1.50000000000000000000e+03) (31, 1.50000000000000000000e+03) (32, 1.49963073730468750000e+03) (33, 1.49999499511718750000e+03) (34, 1.48005017089843750000e+03) (35, 1.50000000000000000000e+03) (36, 1.50000000000000000000e+03) (37, 1.50000000000000000000e+03) (38, 1.50000000000000000000e+03) (39, 1.45997485351562500000e+03) (40, 1.47986462402343750000e+03) (41, 1.49853796386718750000e+03) (42, 1.50000000000000000000e+03) (43, 1.50000000000000000000e+03) (44, 1.50000000000000000000e+03) (45, 1.50000000000000000000e+03) (46, 1.49999572753906250000e+03) (47, 1.47986547851562500000e+03) (48, 1.49999499511718750000e+03) (49, 1.50000000000000000000e+03) (50, 1.50000000000000000000e+03) (51, 1.50000000000000000000e+03) (52, 1.50000000000000000000e+03) (53, 1.50000000000000000000e+03) (54, 1.50000000000000000000e+03) (55, 1.50000000000000000000e+03) (56, 1.50000000000000000000e+03) (57, 1.50000000000000000000e+03) (58, 1.50000000000000000000e+03) (59, 1.50000000000000000000e+03) (60, 1.50000000000000000000e+03) (61, 1.50000000000000000000e+03) (62, 1.50000000000000000000e+03) (63, 1.50000000000000000000e+03) (64, 1.50000000000000000000e+03) (65, 1.50000000000000000000e+03) (66, 1.50000000000000000000e+03) (67, 1.50000000000000000000e+03) (68, 1.50000000000000000000e+03) (69, 1.50000000000000000000e+03) (70, 1.50000000000000000000e+03) (71, 1.50000000000000000000e+03) (72, 1.50000000000000000000e+03) (73, 1.50000000000000000000e+03) (74, 1.50000000000000000000e+03) (75, 1.50000000000000000000e+03) (76, 1.50000000000000000000e+03) (77, 1.50000000000000000000e+03) (78, 1.50000000000000000000e+03) (79, 1.50000000000000000000e+03) (80, 1.50000000000000000000e+03) (81, 2.23257255554199218750e+00) (82, -2.36331915855407714844e+00) (83, -2.98812890052795410156e+00) (84, -1.85648500919342041016e+00) (85, 7.60498106479644775391e-01) (86, 7.55021154880523681641e-01) 
