FANN_FLO_2.1
num_layers=3
learning_rate=0.500000
connection_rate=1.000000
network_type=0
learning_momentum=0.000000
training_algorithm=2
train_error_function=1
train_stop_function=0
cascade_output_change_fraction=0.010000
quickprop_decay=-0.000100
quickprop_mu=1.750000
rprop_increase_factor=1.200000
rprop_decrease_factor=0.500000
rprop_delta_min=0.000000
rprop_delta_max=50.000000
rprop_delta_zero=0.100000
cascade_output_stagnation_epochs=12
cascade_candidate_change_fraction=0.010000
cascade_candidate_stagnation_epochs=12
cascade_max_out_epochs=150
cascade_min_out_epochs=50
cascade_max_cand_epochs=150
cascade_min_cand_epochs=50
cascade_num_candidate_groups=2
bit_fail_limit=3.49999994039535522461e-01
cascade_candidate_limit=1.00000000000000000000e+03
cascade_weight_multiplier=4.00000005960464477539e-01
cascade_activation_functions_count=10
cascade_activation_functions=3 5 7 8 10 11 14 15 16 17 
cascade_activation_steepnesses_count=4
cascade_activation_steepnesses=2.50000000000000000000e-01 5.00000000000000000000e-01 7.50000000000000000000e-01 1.00000000000000000000e+00 
layer_sizes=3 5 4 
scale_included=0
neurons (num_inputs, activation_function, activation_steepness)=(0, 0, 0.00000000000000000000e+00) (0, 0, 0.00000000000000000000e+00) (0, 0, 0.00000000000000000000e+00) (3, 3, 5.00000000000000000000e-01) (3, 3, 5.00000000000000000000e-01) (3, 3, 5.00000000000000000000e-01) (3, 3, 5.00000000000000000000e-01) (0, 3, 0.00000000000000000000e+00) (5, 0, 5.00000000000000000000e-01) (5, 0, 5.00000000000000000000e-01) (5, 0, 5.00000000000000000000e-01) (0, 0, 0.00000000000000000000e+00) 
connections (connected_to_neuron, weight)=(0, -2.61537480354309082031e+00) (1, -4.84995651245117187500e+00) (2, 1.06810820102691650391e+00) (0, -2.53781127929687500000e+00) (1, -1.16395390033721923828e+00) (2, 9.17426288127899169922e-01) (0, -1.26101636886596679688e+01) (1, 9.67490196228027343750e+00) (2, 1.04092350006103515625e+01) (0, -3.60964655876159667969e+00) (1, 1.39809942245483398438e+00) (2, 7.28504657745361328125e-01) (3, 2.31984281539916992188e+00) (4, 3.26657867431640625000e+00) (5, 1.01942396163940429688e+00) (6, 2.89072966575622558594e+00) (7, 1.42488849163055419922e+00) (3, 6.16743135452270507812e+00) (4, 9.19809913635253906250e+00) (5, 4.90525960922241210938e+00) (6, 7.89517927169799804688e+00) (7, 5.18808746337890625000e+00) (3, 1.95204029083251953125e+01) (4, 3.00354537963867187500e+01) (5, 1.43956069946289062500e+01) (6, 2.39565715789794921875e+01) (7, 2.38722038269042968750e+01) 
