FANN_FLO_2.1
num_layers=3
learning_rate=0.500000
connection_rate=1.000000
network_type=0
learning_momentum=0.000000
training_algorithm=2
train_error_function=1
train_stop_function=0
cascade_output_change_fraction=0.010000
quickprop_decay=-0.000100
quickprop_mu=1.750000
rprop_increase_factor=1.200000
rprop_decrease_factor=0.500000
rprop_delta_min=0.000000
rprop_delta_max=50.000000
rprop_delta_zero=0.100000
cascade_output_stagnation_epochs=12
cascade_candidate_change_fraction=0.010000
cascade_candidate_stagnation_epochs=12
cascade_max_out_epochs=150
cascade_min_out_epochs=50
cascade_max_cand_epochs=150
cascade_min_cand_epochs=50
cascade_num_candidate_groups=2
bit_fail_limit=3.49999994039535522461e-01
cascade_candidate_limit=1.00000000000000000000e+03
cascade_weight_multiplier=4.00000005960464477539e-01
cascade_activation_functions_count=10
cascade_activation_functions=3 5 7 8 10 11 14 15 16 17 
cascade_activation_steepnesses_count=4
cascade_activation_steepnesses=2.50000000000000000000e-01 5.00000000000000000000e-01 7.50000000000000000000e-01 1.00000000000000000000e+00 
layer_sizes=10 5 2 
scale_included=0
neurons (num_inputs, activation_function, activation_steepness)=(0, 0, 0.00000000000000000000e+00) (0, 0, 0.00000000000000000000e+00) (0, 0, 0.00000000000000000000e+00) (0, 0, 0.00000000000000000000e+00) (0, 0, 0.00000000000000000000e+00) (0, 0, 0.00000000000000000000e+00) (0, 0, 0.00000000000000000000e+00) (0, 0, 0.00000000000000000000e+00) (0, 0, 0.00000000000000000000e+00) (0, 0, 0.00000000000000000000e+00) (10, 3, 5.00000000000000000000e-01) (10, 3, 5.00000000000000000000e-01) (10, 3, 5.00000000000000000000e-01) (10, 3, 5.00000000000000000000e-01) (0, 3, 0.00000000000000000000e+00) (5, 3, 5.00000000000000000000e-01) (0, 3, 0.00000000000000000000e+00) 
connections (connected_to_neuron, weight)=(0, -1.11055827140808105469e+00) (1, -1.04344260692596435547e+00) (2, -1.11142289638519287109e+00) (3, -4.92432832717895507812e-01) (4, -3.38446408510208129883e-01) (5, -5.20657241344451904297e-01) (6, -1.03932118415832519531e+00) (7, -1.16673290729522705078e+00) (8, -4.75826501846313476562e-01) (9, 4.20647573471069335938e+00) (0, -3.48562545776367187500e+01) (1, -5.03330917358398437500e+01) (2, 6.09144706726074218750e+01) (3, -1.57007617950439453125e+01) (4, -2.36052150726318359375e+01) (5, 5.91856231689453125000e+01) (6, -7.38335227966308593750e+00) (7, -9.90188884735107421875e+00) (8, -4.93954315185546875000e+01) (9, 3.18369418382644653320e-01) (0, -6.62590801715850830078e-01) (1, -6.61204159259796142578e-01) (2, -5.21263062953948974609e-01) (3, -7.44670152664184570312e-01) (4, -9.69502270221710205078e-01) (5, -8.71984899044036865234e-01) (6, -8.08821558952331542969e-01) (7, -1.25249281525611877441e-01) (8, -4.81459498405456542969e-01) (9, 4.24254804849624633789e-01) (0, -2.90860652923583984375e-01) (1, -3.00057440996170043945e-01) (2, -3.54200154542922973633e-01) (3, -7.14057266712188720703e-01) (4, -7.13635981082916259766e-01) (5, -5.88008463382720947266e-01) (6, -2.41078123450279235840e-01) (7, -4.74376738071441650391e-01) (8, -8.82737040519714355469e-01) (9, 1.17360699176788330078e+00) (10, -1.28563296794891357422e+00) (11, 2.11883615702390670776e-03) (12, -1.82433426380157470703e+00) (13, -1.51239383220672607422e+00) (14, 1.33880984783172607422e+00) 
