FANN_FLO_2.1
num_layers=3
learning_rate=0.500000
connection_rate=1.000000
network_type=0
learning_momentum=0.000000
training_algorithm=2
train_error_function=1
train_stop_function=0
cascade_output_change_fraction=0.010000
quickprop_decay=-0.000100
quickprop_mu=1.750000
rprop_increase_factor=1.200000
rprop_decrease_factor=0.500000
rprop_delta_min=0.000000
rprop_delta_max=50.000000
rprop_delta_zero=0.100000
cascade_output_stagnation_epochs=12
cascade_candidate_change_fraction=0.010000
cascade_candidate_stagnation_epochs=12
cascade_max_out_epochs=150
cascade_min_out_epochs=50
cascade_max_cand_epochs=150
cascade_min_cand_epochs=50
cascade_num_candidate_groups=2
bit_fail_limit=3.49999994039535522461e-01
cascade_candidate_limit=1.00000000000000000000e+03
cascade_weight_multiplier=4.00000005960464477539e-01
cascade_activation_functions_count=10
cascade_activation_functions=3 5 7 8 10 11 14 15 16 17 
cascade_activation_steepnesses_count=4
cascade_activation_steepnesses=2.50000000000000000000e-01 5.00000000000000000000e-01 7.50000000000000000000e-01 1.00000000000000000000e+00 
layer_sizes=3 5 4 
scale_included=0
neurons (num_inputs, activation_function, activation_steepness)=(0, 0, 0.00000000000000000000e+00) (0, 0, 0.00000000000000000000e+00) (0, 0, 0.00000000000000000000e+00) (3, 3, 5.00000000000000000000e-01) (3, 3, 5.00000000000000000000e-01) (3, 3, 5.00000000000000000000e-01) (3, 3, 5.00000000000000000000e-01) (0, 3, 0.00000000000000000000e+00) (5, 0, 5.00000000000000000000e-01) (5, 0, 5.00000000000000000000e-01) (5, 0, 5.00000000000000000000e-01) (0, 0, 0.00000000000000000000e+00) 
connections (connected_to_neuron, weight)=(0, -4.38998069763183593750e+01) (1, 1.35495557785034179688e+01) (2, 3.20769538879394531250e+01) (0, -1.50000000000000000000e+03) (1, -1.50000000000000000000e+03) (2, 1.09904222488403320312e+01) (0, -1.50000000000000000000e+03) (1, -2.06355667114257812500e+00) (2, 8.73747634887695312500e+01) (0, -1.50000000000000000000e+03) (1, -1.50000000000000000000e+03) (2, 1.10531387329101562500e+01) (3, 2.29825973510742187500e+00) (4, 1.40626895427703857422e+00) (5, 2.88172793388366699219e+00) (6, 1.20248532295227050781e+00) (7, 2.24667572975158691406e+00) (3, 7.51166629791259765625e+00) (4, 3.32541608810424804688e+00) (5, 7.76277446746826171875e+00) (6, 3.52298331260681152344e+00) (7, 8.70195198059082031250e+00) (3, 2.42450637817382812500e+01) (4, 1.29411811828613281250e+01) (5, 2.52436008453369140625e+01) (6, 7.49548101425170898438e+00) (7, 3.30673599243164062500e+01) 
