FANN_FLO_2.1
num_layers=4
learning_rate=0.500000
connection_rate=1.000000
network_type=0
learning_momentum=0.000000
training_algorithm=2
train_error_function=1
train_stop_function=0
cascade_output_change_fraction=0.010000
quickprop_decay=-0.000100
quickprop_mu=1.750000
rprop_increase_factor=1.200000
rprop_decrease_factor=0.500000
rprop_delta_min=0.000000
rprop_delta_max=50.000000
rprop_delta_zero=0.100000
cascade_output_stagnation_epochs=12
cascade_candidate_change_fraction=0.010000
cascade_candidate_stagnation_epochs=12
cascade_max_out_epochs=150
cascade_min_out_epochs=50
cascade_max_cand_epochs=150
cascade_min_cand_epochs=50
cascade_num_candidate_groups=2
bit_fail_limit=3.49999994039535522461e-01
cascade_candidate_limit=1.00000000000000000000e+03
cascade_weight_multiplier=4.00000005960464477539e-01
cascade_activation_functions_count=10
cascade_activation_functions=3 5 7 8 10 11 14 15 16 17 
cascade_activation_steepnesses_count=4
cascade_activation_steepnesses=2.50000000000000000000e-01 5.00000000000000000000e-01 7.50000000000000000000e-01 1.00000000000000000000e+00 
layer_sizes=4 5 5 2 
scale_included=0
neurons (num_inputs, activation_function, activation_steepness)=(0, 0, 0.00000000000000000000e+00) (0, 0, 0.00000000000000000000e+00) (0, 0, 0.00000000000000000000e+00) (0, 0, 0.00000000000000000000e+00) (4, 3, 5.00000000000000000000e-01) (4, 3, 5.00000000000000000000e-01) (4, 3, 5.00000000000000000000e-01) (4, 3, 5.00000000000000000000e-01) (0, 3, 0.00000000000000000000e+00) (5, 3, 5.00000000000000000000e-01) (5, 3, 5.00000000000000000000e-01) (5, 3, 5.00000000000000000000e-01) (5, 3, 5.00000000000000000000e-01) (0, 3, 0.00000000000000000000e+00) (5, 3, 5.00000000000000000000e-01) (0, 3, 0.00000000000000000000e+00) 
connections (connected_to_neuron, weight)=(0, -4.39969635009765625000e+00) (1, -3.60467696189880371094e+00) (2, -1.93695521354675292969e+00) (3, 4.16703891754150390625e+00) (0, -4.29027938842773437500e+00) (1, -3.68648767471313476562e+00) (2, -1.59369194507598876953e+00) (3, 4.03883790969848632812e+00) (0, 4.27011437714099884033e-02) (1, -1.70237178802490234375e+01) (2, 1.67833423614501953125e+01) (3, 3.13073945045471191406e+00) (0, -4.10512208938598632812e+00) (1, -3.69633007049560546875e+00) (2, -1.81574273109436035156e+00) (3, 4.15538072586059570312e+00) (4, 1.22460575103759765625e+01) (5, 1.22637805938720703125e+01) (6, -6.10171270370483398438e+00) (7, 7.49731683731079101562e+00) (8, -4.31942462921142578125e+00) (4, 8.70722198486328125000e+00) (5, 7.08283090591430664062e+00) (6, -4.49093389511108398438e+00) (7, 1.05931949615478515625e+01) (8, -4.01855182647705078125e+00) (4, 7.31227350234985351562e+00) (5, 6.87895011901855468750e+00) (6, -1.92896914482116699219e+00) (7, 6.14001369476318359375e+00) (8, -4.09718322753906250000e+00) (4, -1.51606016159057617188e+01) (5, -2.24302978515625000000e+01) (6, 6.86316156387329101562e+00) (7, -2.57715630531311035156e+00) (8, 6.03877305984497070312e+00) (9, -9.96760845184326171875e-01) (10, -1.33641219139099121094e+00) (11, -2.58849710226058959961e-01) (12, 2.11139273643493652344e+00) (13, 3.18195641040802001953e-01) 
