FANN_FLO_2.1
num_layers=4
learning_rate=0.300000
connection_rate=1.000000
network_type=0
learning_momentum=0.000000
training_algorithm=2
train_error_function=1
train_stop_function=0
cascade_output_change_fraction=0.010000
quickprop_decay=-0.000100
quickprop_mu=1.750000
rprop_increase_factor=1.200000
rprop_decrease_factor=0.500000
rprop_delta_min=0.000000
rprop_delta_max=50.000000
rprop_delta_zero=0.100000
cascade_output_stagnation_epochs=12
cascade_candidate_change_fraction=0.010000
cascade_candidate_stagnation_epochs=12
cascade_max_out_epochs=150
cascade_min_out_epochs=50
cascade_max_cand_epochs=150
cascade_min_cand_epochs=50
cascade_num_candidate_groups=2
bit_fail_limit=3.49999994039535522461e-01
cascade_candidate_limit=1.00000000000000000000e+03
cascade_weight_multiplier=4.00000005960464477539e-01
cascade_activation_functions_count=10
cascade_activation_functions=3 5 7 8 10 11 14 15 16 17 
cascade_activation_steepnesses_count=4
cascade_activation_steepnesses=2.50000000000000000000e-01 5.00000000000000000000e-01 7.50000000000000000000e-01 1.00000000000000000000e+00 
layer_sizes=2 5 3 3 
scale_included=0
neurons (num_inputs, activation_function, activation_steepness)=(0, 0, 0.00000000000000000000e+00) (0, 0, 0.00000000000000000000e+00) (2, 3, 5.00000000000000000000e-01) (2, 3, 5.00000000000000000000e-01) (2, 3, 5.00000000000000000000e-01) (2, 3, 5.00000000000000000000e-01) (0, 3, 0.00000000000000000000e+00) (5, 3, 5.00000000000000000000e-01) (5, 3, 5.00000000000000000000e-01) (0, 3, 0.00000000000000000000e+00) (3, 0, 5.00000000000000000000e-01) (3, 0, 5.00000000000000000000e-01) (0, 0, 0.00000000000000000000e+00) 
connections (connected_to_neuron, weight)=(0, -6.20882081985473632812e+00) (1, -3.21946501731872558594e+00) (0, -6.18959379196166992188e+00) (1, -3.16674995422363281250e+00) (0, -6.11355686187744140625e+00) (1, -3.07444477081298828125e+00) (0, -6.19533681869506835938e+00) (1, -3.19834828376770019531e+00) (2, 8.70686471462249755859e-01) (3, 1.00811278820037841797e+00) (4, 1.13172113895416259766e+00) (5, 9.53892350196838378906e-01) (6, -1.50947201251983642578e+00) (2, 7.42136359214782714844e-01) (3, 7.72920727729797363281e-01) (4, 7.26017653942108154297e-01) (5, 7.58905291557312011719e-01) (6, 1.22058458626270294189e-01) (7, 6.78510665893554687500e-02) (8, 5.27077279984951019287e-02) (9, -1.12463198602199554443e-01) (7, -1.01672053337097167969e+00) (8, -7.18852102756500244141e-01) (9, -6.24057769775390625000e-01) 
