FANN_FLO_2.1
num_layers=3
learning_rate=0.500000
connection_rate=1.000000
network_type=0
learning_momentum=0.000000
training_algorithm=2
train_error_function=1
train_stop_function=0
cascade_output_change_fraction=0.010000
quickprop_decay=-0.000100
quickprop_mu=1.750000
rprop_increase_factor=1.200000
rprop_decrease_factor=0.500000
rprop_delta_min=0.000000
rprop_delta_max=50.000000
rprop_delta_zero=0.100000
cascade_output_stagnation_epochs=12
cascade_candidate_change_fraction=0.010000
cascade_candidate_stagnation_epochs=12
cascade_max_out_epochs=150
cascade_min_out_epochs=50
cascade_max_cand_epochs=150
cascade_min_cand_epochs=50
cascade_num_candidate_groups=2
bit_fail_limit=3.49999994039535522461e-01
cascade_candidate_limit=1.00000000000000000000e+03
cascade_weight_multiplier=4.00000005960464477539e-01
cascade_activation_functions_count=10
cascade_activation_functions=3 5 7 8 10 11 14 15 16 17 
cascade_activation_steepnesses_count=4
cascade_activation_steepnesses=2.50000000000000000000e-01 5.00000000000000000000e-01 7.50000000000000000000e-01 1.00000000000000000000e+00 
layer_sizes=82 3 2 
scale_included=0
neurons (num_inputs, activation_function, activation_steepness)=(0, 0, 0.00000000000000000000e+00) (0, 0, 0.00000000000000000000e+00) (0, 0, 0.00000000000000000000e+00) (0, 0, 0.00000000000000000000e+00) (0, 0, 0.00000000000000000000e+00) (0, 0, 0.00000000000000000000e+00) (0, 0, 0.00000000000000000000e+00) (0, 0, 0.00000000000000000000e+00) (0, 0, 0.00000000000000000000e+00) (0, 0, 0.00000000000000000000e+00) (0, 0, 0.00000000000000000000e+00) (0, 0, 0.00000000000000000000e+00) (0, 0, 0.00000000000000000000e+00) (0, 0, 0.00000000000000000000e+00) (0, 0, 0.00000000000000000000e+00) (0, 0, 0.00000000000000000000e+00) (0, 0, 0.00000000000000000000e+00) (0, 0, 0.00000000000000000000e+00) (0, 0, 0.00000000000000000000e+00) (0, 0, 0.00000000000000000000e+00) (0, 0, 0.00000000000000000000e+00) (0, 0, 0.00000000000000000000e+00) (0, 0, 0.00000000000000000000e+00) (0, 0, 0.00000000000000000000e+00) (0, 0, 0.00000000000000000000e+00) (0, 0, 0.00000000000000000000e+00) (0, 0, 0.00000000000000000000e+00) (0, 0, 0.00000000000000000000e+00) (0, 0, 0.00000000000000000000e+00) (0, 0, 0.00000000000000000000e+00) (0, 0, 0.00000000000000000000e+00) (0, 0, 0.00000000000000000000e+00) (0, 0, 0.00000000000000000000e+00) (0, 0, 0.00000000000000000000e+00) (0, 0, 0.00000000000000000000e+00) (0, 0, 0.00000000000000000000e+00) (0, 0, 0.00000000000000000000e+00) (0, 0, 0.00000000000000000000e+00) (0, 0, 0.00000000000000000000e+00) (0, 0, 0.00000000000000000000e+00) (0, 0, 0.00000000000000000000e+00) (0, 0, 0.00000000000000000000e+00) (0, 0, 0.00000000000000000000e+00) (0, 0, 0.00000000000000000000e+00) (0, 0, 0.00000000000000000000e+00) (0, 0, 0.00000000000000000000e+00) (0, 0, 0.00000000000000000000e+00) (0, 0, 0.00000000000000000000e+00) (0, 0, 0.00000000000000000000e+00) (0, 0, 0.00000000000000000000e+00) (0, 0, 0.00000000000000000000e+00) (0, 0, 0.00000000000000000000e+00) (0, 0, 0.00000000000000000000e+00) (0, 0, 0.00000000000000000000e+00) (0, 0, 0.00000000000000000000e+00) (0, 0, 0.00000000000000000000e+00) (0, 0, 0.00000000000000000000e+00) (0, 0, 0.00000000000000000000e+00) (0, 0, 0.00000000000000000000e+00) (0, 0, 0.00000000000000000000e+00) (0, 0, 0.00000000000000000000e+00) (0, 0, 0.00000000000000000000e+00) (0, 0, 0.00000000000000000000e+00) (0, 0, 0.00000000000000000000e+00) (0, 0, 0.00000000000000000000e+00) (0, 0, 0.00000000000000000000e+00) (0, 0, 0.00000000000000000000e+00) (0, 0, 0.00000000000000000000e+00) (0, 0, 0.00000000000000000000e+00) (0, 0, 0.00000000000000000000e+00) (0, 0, 0.00000000000000000000e+00) (0, 0, 0.00000000000000000000e+00) (0, 0, 0.00000000000000000000e+00) (0, 0, 0.00000000000000000000e+00) (0, 0, 0.00000000000000000000e+00) (0, 0, 0.00000000000000000000e+00) (0, 0, 0.00000000000000000000e+00) (0, 0, 0.00000000000000000000e+00) (0, 0, 0.00000000000000000000e+00) (0, 0, 0.00000000000000000000e+00) (0, 0, 0.00000000000000000000e+00) (0, 0, 0.00000000000000000000e+00) (82, 3, 5.00000000000000000000e-01) (82, 3, 5.00000000000000000000e-01) (0, 3, 0.00000000000000000000e+00) (3, 3, 5.00000000000000000000e-01) (0, 3, 0.00000000000000000000e+00) 
connections (connected_to_neuron, weight)=(0, -2.84816101074218750000e+02) (1, 2.45390472412109375000e+02) (2, -6.28001953125000000000e+02) (3, -7.28544677734375000000e+02) (4, 1.38078451156616210938e-01) (5, 3.71641769409179687500e+01) (6, 4.74246501922607421875e-01) (7, -2.43632629394531250000e+02) (8, -8.00871429443359375000e+01) (9, -6.42544677734375000000e+02) (10, 6.12076782226562500000e+02) (11, 7.25870132446289062500e-02) (12, -8.37762546539306640625e+00) (13, -5.69921386718750000000e+02) (14, 3.27770538330078125000e+02) (15, 7.26933670043945312500e+01) (16, -5.01737487792968750000e+02) (17, -1.83387878417968750000e+02) (18, -2.66738464355468750000e+02) (19, 6.60230529785156250000e+02) (20, -9.67690372467041015625e+00) (21, -1.06003015136718750000e+03) (22, 7.58389892578125000000e+01) (23, 1.41173385620117187500e+02) (24, -5.74234191894531250000e+02) (25, -6.06977224349975585938e-01) (26, 5.15249977111816406250e+01) (27, 1.37488484382629394531e-01) (28, 3.50690856933593750000e+02) (29, 2.20478042602539062500e+02) (30, -4.92615966796875000000e+02) (31, -5.74234191894531250000e+02) (32, -5.89558541774749755859e-01) (33, -1.08071637153625488281e+00) (34, 3.04041595458984375000e+01) (35, 3.51537811279296875000e+02) (36, -7.28544677734375000000e+02) (37, 2.49290771484375000000e+02) (38, -5.74234191894531250000e+02) (39, -1.09091877937316894531e-01) (40, -4.71987335205078125000e+02) (41, -9.57396104931831359863e-02) (42, -1.99723815917968750000e+02) (43, 9.99165649414062500000e+01) (44, 2.43709259033203125000e+02) (45, 4.60238769531250000000e+02) (46, 6.30711168050765991211e-02) (47, -1.74308065325021743774e-02) (48, 7.15747604370117187500e+01) (49, 1.50000000000000000000e+03) (50, 1.50000000000000000000e+03) (51, 1.50000000000000000000e+03) (52, 1.50000000000000000000e+03) (53, 1.50000000000000000000e+03) (54, 1.50000000000000000000e+03) (55, 1.50000000000000000000e+03) (56, 1.50000000000000000000e+03) (57, 1.50000000000000000000e+03) (58, 1.50000000000000000000e+03) (59, 1.50000000000000000000e+03) (60, 1.50000000000000000000e+03) (61, 1.50000000000000000000e+03) (62, 1.50000000000000000000e+03) (63, 1.50000000000000000000e+03) (64, 1.50000000000000000000e+03) (65, 1.50000000000000000000e+03) (66, 1.50000000000000000000e+03) (67, 1.50000000000000000000e+03) (68, 1.50000000000000000000e+03) (69, 1.50000000000000000000e+03) (70, 1.50000000000000000000e+03) (71, 1.50000000000000000000e+03) (72, 1.50000000000000000000e+03) (73, 1.50000000000000000000e+03) (74, 1.50000000000000000000e+03) (75, 1.50000000000000000000e+03) (76, 1.50000000000000000000e+03) (77, 1.50000000000000000000e+03) (78, 1.50000000000000000000e+03) (79, 1.50000000000000000000e+03) (80, 1.50000000000000000000e+03) (81, 6.12050399780273437500e+01) (0, -1.24005898833274841309e-01) (1, 3.36106717586517333984e-02) (2, 1.49543523788452148438e-01) (3, -8.71656239032745361328e-02) (4, -5.02706393599510192871e-02) (5, -5.97844831645488739014e-02) (6, -7.98375830054283142090e-02) (7, 9.30770710110664367676e-02) (8, 4.75667603313922882080e-02) (9, -2.54863470792770385742e-01) (10, -1.69127602130174636841e-02) (11, -1.12085431814193725586e-01) (12, -1.42601937055587768555e-01) (13, 9.30106174200773239136e-03) (14, 1.00530862808227539062e-01) (15, -9.71843898296356201172e-02) (16, -1.06613025069236755371e-01) (17, -3.83433401584625244141e-01) (18, -7.81486332416534423828e-02) (19, 9.72239002585411071777e-02) (20, -5.57736717164516448975e-02) (21, -1.64602305740118026733e-02) (22, 7.05223083496093750000e-02) (23, -1.79871574044227600098e-01) (24, -2.67398262023925781250e+00) (25, -7.16670528054237365723e-02) (26, 1.45751923322677612305e-01) (27, 1.15074753761291503906e-01) (28, 1.19119789451360702515e-02) (29, -3.54212373495101928711e-02) (30, -1.65050432085990905762e-01) (31, -5.92386782169342041016e-01) (32, -1.12685583531856536865e-01) (33, -7.62764737010002136230e-03) (34, 5.09854145348072052002e-02) (35, 8.89506116509437561035e-02) (36, -1.44450664520263671875e-01) (37, -1.31003364920616149902e-01) (38, -2.32010260224342346191e-01) (39, 8.54984484612941741943e-03) (40, 7.02754706144332885742e-02) (41, 5.83878904581069946289e-02) (42, -6.13336339592933654785e-02) (43, -1.15519523620605468750e-01) (44, -2.60883033275604248047e-01) (45, -6.87778294086456298828e-02) (46, 1.32821232080459594727e-01) (47, 1.49492383003234863281e-01) (48, -1.17119342088699340820e-01) (49, 1.50000000000000000000e+03) (50, 1.50000000000000000000e+03) (51, 1.50000000000000000000e+03) (52, 1.50000000000000000000e+03) (53, 1.50000000000000000000e+03) (54, 1.50000000000000000000e+03) (55, 1.50000000000000000000e+03) (56, 1.50000000000000000000e+03) (57, 1.50000000000000000000e+03) (58, 1.50000000000000000000e+03) (59, 1.50000000000000000000e+03) (60, 1.50000000000000000000e+03) (61, 1.50000000000000000000e+03) (62, 1.50000000000000000000e+03) (63, 1.50000000000000000000e+03) (64, 1.50000000000000000000e+03) (65, 1.50000000000000000000e+03) (66, 1.50000000000000000000e+03) (67, 1.50000000000000000000e+03) (68, 1.50000000000000000000e+03) (69, 1.50000000000000000000e+03) (70, 1.50000000000000000000e+03) (71, 1.50000000000000000000e+03) (72, 1.50000000000000000000e+03) (73, 1.50000000000000000000e+03) (74, 1.50000000000000000000e+03) (75, 1.50000000000000000000e+03) (76, 1.50000000000000000000e+03) (77, 1.50000000000000000000e+03) (78, 1.50000000000000000000e+03) (79, 1.50000000000000000000e+03) (80, 1.50000000000000000000e+03) (81, 9.56026732921600341797e-01) (82, -1.73484945297241210938e+00) (83, -5.03827238082885742188e+00) (84, 9.54408943653106689453e-01) 
