FANN_FLO_2.1
num_layers=3
learning_rate=0.400000
connection_rate=1.000000
network_type=0
learning_momentum=0.000000
training_algorithm=2
train_error_function=1
train_stop_function=0
cascade_output_change_fraction=0.010000
quickprop_decay=-0.000100
quickprop_mu=1.750000
rprop_increase_factor=1.200000
rprop_decrease_factor=0.500000
rprop_delta_min=0.000000
rprop_delta_max=50.000000
rprop_delta_zero=0.100000
cascade_output_stagnation_epochs=12
cascade_candidate_change_fraction=0.010000
cascade_candidate_stagnation_epochs=12
cascade_max_out_epochs=150
cascade_min_out_epochs=50
cascade_max_cand_epochs=150
cascade_min_cand_epochs=50
cascade_num_candidate_groups=2
bit_fail_limit=3.49999994039535522461e-01
cascade_candidate_limit=1.00000000000000000000e+03
cascade_weight_multiplier=4.00000005960464477539e-01
cascade_activation_functions_count=10
cascade_activation_functions=3 5 7 8 10 11 14 15 16 17 
cascade_activation_steepnesses_count=4
cascade_activation_steepnesses=2.50000000000000000000e-01 5.00000000000000000000e-01 7.50000000000000000000e-01 1.00000000000000000000e+00 
layer_sizes=6 5 2 
scale_included=0
neurons (num_inputs, activation_function, activation_steepness)=(0, 0, 0.00000000000000000000e+00) (0, 0, 0.00000000000000000000e+00) (0, 0, 0.00000000000000000000e+00) (0, 0, 0.00000000000000000000e+00) (0, 0, 0.00000000000000000000e+00) (0, 0, 0.00000000000000000000e+00) (6, 3, 5.00000000000000000000e-01) (6, 3, 5.00000000000000000000e-01) (6, 3, 5.00000000000000000000e-01) (6, 3, 5.00000000000000000000e-01) (0, 3, 0.00000000000000000000e+00) (5, 0, 5.00000000000000000000e-01) (0, 0, 0.00000000000000000000e+00) 
connections (connected_to_neuron, weight)=(0, -1.50000000000000000000e+03) (1, -1.57039337158203125000e+02) (2, -8.24978881835937500000e+02) (3, -3.34011435508728027344e+00) (4, 4.27169982910156250000e+02) (5, 6.43655717372894287109e-01) (0, -1.50000000000000000000e+03) (1, -4.63493774414062500000e+02) (2, 1.37223861694335937500e+02) (3, -2.57904440164566040039e-01) (4, 7.95309305191040039062e+00) (5, 5.60210525989532470703e-01) (0, -1.50000000000000000000e+03) (1, -1.57039337158203125000e+02) (2, -8.24977355957031250000e+02) (3, -3.30336642265319824219e+00) (4, 4.27212036132812500000e+02) (5, 6.23275935649871826172e-01) (0, -1.50000000000000000000e+03) (1, 4.58885681152343750000e+02) (2, -2.15133224487304687500e+02) (3, 6.93531738281250000000e+02) (4, 6.52853775024414062500e+01) (5, 3.90630334615707397461e-01) (6, 9.65686619281768798828e-01) (7, 7.42774963378906250000e+01) (8, 9.29860830307006835938e-01) (9, 7.79316772460937500000e+02) (10, 6.93903744220733642578e-01) 
