FANN_FLO_2.1
num_layers=3
learning_rate=0.500000
connection_rate=1.000000
network_type=0
learning_momentum=0.000000
training_algorithm=2
train_error_function=1
train_stop_function=0
cascade_output_change_fraction=0.010000
quickprop_decay=-0.000100
quickprop_mu=1.750000
rprop_increase_factor=1.200000
rprop_decrease_factor=0.500000
rprop_delta_min=0.000000
rprop_delta_max=50.000000
rprop_delta_zero=0.100000
cascade_output_stagnation_epochs=12
cascade_candidate_change_fraction=0.010000
cascade_candidate_stagnation_epochs=12
cascade_max_out_epochs=150
cascade_min_out_epochs=50
cascade_max_cand_epochs=150
cascade_min_cand_epochs=50
cascade_num_candidate_groups=2
bit_fail_limit=3.49999994039535522461e-01
cascade_candidate_limit=1.00000000000000000000e+03
cascade_weight_multiplier=4.00000005960464477539e-01
cascade_activation_functions_count=10
cascade_activation_functions=3 5 7 8 10 11 14 15 16 17 
cascade_activation_steepnesses_count=4
cascade_activation_steepnesses=2.50000000000000000000e-01 5.00000000000000000000e-01 7.50000000000000000000e-01 1.00000000000000000000e+00 
layer_sizes=82 3 2 
scale_included=0
neurons (num_inputs, activation_function, activation_steepness)=(0, 0, 0.00000000000000000000e+00) (0, 0, 0.00000000000000000000e+00) (0, 0, 0.00000000000000000000e+00) (0, 0, 0.00000000000000000000e+00) (0, 0, 0.00000000000000000000e+00) (0, 0, 0.00000000000000000000e+00) (0, 0, 0.00000000000000000000e+00) (0, 0, 0.00000000000000000000e+00) (0, 0, 0.00000000000000000000e+00) (0, 0, 0.00000000000000000000e+00) (0, 0, 0.00000000000000000000e+00) (0, 0, 0.00000000000000000000e+00) (0, 0, 0.00000000000000000000e+00) (0, 0, 0.00000000000000000000e+00) (0, 0, 0.00000000000000000000e+00) (0, 0, 0.00000000000000000000e+00) (0, 0, 0.00000000000000000000e+00) (0, 0, 0.00000000000000000000e+00) (0, 0, 0.00000000000000000000e+00) (0, 0, 0.00000000000000000000e+00) (0, 0, 0.00000000000000000000e+00) (0, 0, 0.00000000000000000000e+00) (0, 0, 0.00000000000000000000e+00) (0, 0, 0.00000000000000000000e+00) (0, 0, 0.00000000000000000000e+00) (0, 0, 0.00000000000000000000e+00) (0, 0, 0.00000000000000000000e+00) (0, 0, 0.00000000000000000000e+00) (0, 0, 0.00000000000000000000e+00) (0, 0, 0.00000000000000000000e+00) (0, 0, 0.00000000000000000000e+00) (0, 0, 0.00000000000000000000e+00) (0, 0, 0.00000000000000000000e+00) (0, 0, 0.00000000000000000000e+00) (0, 0, 0.00000000000000000000e+00) (0, 0, 0.00000000000000000000e+00) (0, 0, 0.00000000000000000000e+00) (0, 0, 0.00000000000000000000e+00) (0, 0, 0.00000000000000000000e+00) (0, 0, 0.00000000000000000000e+00) (0, 0, 0.00000000000000000000e+00) (0, 0, 0.00000000000000000000e+00) (0, 0, 0.00000000000000000000e+00) (0, 0, 0.00000000000000000000e+00) (0, 0, 0.00000000000000000000e+00) (0, 0, 0.00000000000000000000e+00) (0, 0, 0.00000000000000000000e+00) (0, 0, 0.00000000000000000000e+00) (0, 0, 0.00000000000000000000e+00) (0, 0, 0.00000000000000000000e+00) (0, 0, 0.00000000000000000000e+00) (0, 0, 0.00000000000000000000e+00) (0, 0, 0.00000000000000000000e+00) (0, 0, 0.00000000000000000000e+00) (0, 0, 0.00000000000000000000e+00) (0, 0, 0.00000000000000000000e+00) (0, 0, 0.00000000000000000000e+00) (0, 0, 0.00000000000000000000e+00) (0, 0, 0.00000000000000000000e+00) (0, 0, 0.00000000000000000000e+00) (0, 0, 0.00000000000000000000e+00) (0, 0, 0.00000000000000000000e+00) (0, 0, 0.00000000000000000000e+00) (0, 0, 0.00000000000000000000e+00) (0, 0, 0.00000000000000000000e+00) (0, 0, 0.00000000000000000000e+00) (0, 0, 0.00000000000000000000e+00) (0, 0, 0.00000000000000000000e+00) (0, 0, 0.00000000000000000000e+00) (0, 0, 0.00000000000000000000e+00) (0, 0, 0.00000000000000000000e+00) (0, 0, 0.00000000000000000000e+00) (0, 0, 0.00000000000000000000e+00) (0, 0, 0.00000000000000000000e+00) (0, 0, 0.00000000000000000000e+00) (0, 0, 0.00000000000000000000e+00) (0, 0, 0.00000000000000000000e+00) (0, 0, 0.00000000000000000000e+00) (0, 0, 0.00000000000000000000e+00) (0, 0, 0.00000000000000000000e+00) (0, 0, 0.00000000000000000000e+00) (0, 0, 0.00000000000000000000e+00) (82, 3, 5.00000000000000000000e-01) (82, 3, 5.00000000000000000000e-01) (0, 3, 0.00000000000000000000e+00) (3, 3, 5.00000000000000000000e-01) (0, 3, 0.00000000000000000000e+00) 
connections (connected_to_neuron, weight)=(0, -1.53767809271812438965e-01) (1, 1.75391674041748046875e-01) (2, 1.89885810017585754395e-01) (3, 1.13022342324256896973e-01) (4, -1.31667464971542358398e-01) (5, 3.53330150246620178223e-02) (6, -1.07686772942543029785e-01) (7, -6.59663137048482894897e-03) (8, 1.66458514286205172539e-04) (9, -1.55537083745002746582e-01) (10, -1.35030731558799743652e-01) (11, -1.11443571746349334717e-01) (12, -9.16423499584197998047e-02) (13, -5.32595813274383544922e-01) (14, 2.71188288927078247070e-01) (15, 4.91102449595928192139e-02) (16, -1.71333774924278259277e-01) (17, -1.55383169651031494141e+00) (18, -8.54780197143554687500e-01) (19, -1.23246191069483757019e-02) (20, -1.78285166621208190918e-01) (21, 6.40747100114822387695e-02) (22, 1.57784283161163330078e-01) (23, -8.09154473245143890381e-03) (24, -5.77162122726440429688e+00) (25, -1.79370462894439697266e-01) (26, -1.27166226506233215332e-01) (27, -1.77893832325935363770e-01) (28, 1.50660173967480659485e-02) (29, -2.06227332353591918945e-01) (30, -5.68984374403953552246e-02) (31, -1.01009917259216308594e+00) (32, -1.46194684505462646484e+00) (33, 1.50404527783393859863e-01) (34, 3.64033609628677368164e-01) (35, -4.70525622367858886719e-02) (36, -2.27310713380575180054e-02) (37, -5.06534695625305175781e-01) (38, -2.23032638430595397949e-01) (39, -1.85508286952972412109e+00) (40, -1.18405409157276153564e-01) (41, 3.59950184822082519531e-01) (42, 7.65438199043273925781e-01) (43, -9.02675688266754150391e-02) (44, -1.48941665887832641602e-01) (45, -8.61235141754150390625e-01) (46, 2.69690066576004028320e-01) (47, -1.37834280729293823242e-01) (48, -1.01518881320953369141e+00) (49, 1.50000000000000000000e+03) (50, 1.50000000000000000000e+03) (51, 1.50000000000000000000e+03) (52, 1.50000000000000000000e+03) (53, 1.50000000000000000000e+03) (54, 1.50000000000000000000e+03) (55, 1.50000000000000000000e+03) (56, 1.50000000000000000000e+03) (57, 1.50000000000000000000e+03) (58, 1.50000000000000000000e+03) (59, 1.50000000000000000000e+03) (60, 1.50000000000000000000e+03) (61, 1.50000000000000000000e+03) (62, 1.50000000000000000000e+03) (63, 1.50000000000000000000e+03) (64, 1.50000000000000000000e+03) (65, 1.50000000000000000000e+03) (66, 1.50000000000000000000e+03) (67, 1.50000000000000000000e+03) (68, 1.50000000000000000000e+03) (69, 1.50000000000000000000e+03) (70, 1.50000000000000000000e+03) (71, 1.50000000000000000000e+03) (72, 1.50000000000000000000e+03) (73, 1.50000000000000000000e+03) (74, 1.50000000000000000000e+03) (75, 1.50000000000000000000e+03) (76, 1.50000000000000000000e+03) (77, 1.50000000000000000000e+03) (78, 1.50000000000000000000e+03) (79, 1.50000000000000000000e+03) (80, 1.50000000000000000000e+03) (81, 1.07066464424133300781e+00) (0, -3.41273136436939239502e-02) (1, 1.87607593834400177002e-02) (2, 1.57783646136522293091e-02) (3, 2.19222217798233032227e-01) (4, 3.65333557128906250000e-02) (5, -7.12381154298782348633e-02) (6, -2.70604016259312629700e-03) (7, 7.60811194777488708496e-03) (8, -2.44654864072799682617e-02) (9, -3.81582975387573242188e-02) (10, -2.56913676857948303223e-02) (11, -1.57189160585403442383e-01) (12, -3.53134423494338989258e-02) (13, 6.95688351988792419434e-02) (14, -4.24460582435131072998e-02) (15, -9.95530262589454650879e-02) (16, -1.25418171286582946777e-01) (17, -1.69622734189033508301e-01) (18, -3.87063585221767425537e-02) (19, -1.06768198311328887939e-01) (20, -9.55981609877198934555e-04) (21, 6.52825401630252599716e-04) (22, 6.59045875072479248047e-02) (23, -1.16871163249015808105e-01) (24, -3.52187919616699218750e+00) (25, -8.33055377006530761719e-02) (26, -7.88021013140678405762e-02) (27, 1.55288323760032653809e-01) (28, -1.05007719248533248901e-02) (29, 8.46169423311948776245e-03) (30, -1.01076029241085052490e-01) (31, -1.64132386445999145508e-01) (32, -9.39976610243320465088e-03) (33, -9.64930579066276550293e-02) (34, 8.84927064180374145508e-03) (35, -9.86629053950309753418e-02) (36, 5.98353520035743713379e-03) (37, -4.52229045331478118896e-02) (38, -1.87229979783296585083e-02) (39, 1.17086634039878845215e-01) (40, 2.27847732603549957275e-02) (41, -1.62471160292625427246e-02) (42, -7.35473632812500000000e-02) (43, -2.30334382504224777222e-02) (44, -1.15839183330535888672e-01) (45, -7.40606710314750671387e-02) (46, -3.75680439174175262451e-02) (47, 5.90443983674049377441e-02) (48, -7.32273235917091369629e-02) (49, 1.50000000000000000000e+03) (50, 1.50000000000000000000e+03) (51, 1.50000000000000000000e+03) (52, 1.50000000000000000000e+03) (53, 1.50000000000000000000e+03) (54, 1.50000000000000000000e+03) (55, 1.50000000000000000000e+03) (56, 1.50000000000000000000e+03) (57, 1.50000000000000000000e+03) (58, 1.50000000000000000000e+03) (59, 1.50000000000000000000e+03) (60, 1.50000000000000000000e+03) (61, 1.50000000000000000000e+03) (62, 1.50000000000000000000e+03) (63, 1.50000000000000000000e+03) (64, 1.50000000000000000000e+03) (65, 1.50000000000000000000e+03) (66, 1.50000000000000000000e+03) (67, 1.50000000000000000000e+03) (68, 1.50000000000000000000e+03) (69, 1.50000000000000000000e+03) (70, 1.50000000000000000000e+03) (71, 1.50000000000000000000e+03) (72, 1.50000000000000000000e+03) (73, 1.50000000000000000000e+03) (74, 1.50000000000000000000e+03) (75, 1.50000000000000000000e+03) (76, 1.50000000000000000000e+03) (77, 1.50000000000000000000e+03) (78, 1.50000000000000000000e+03) (79, 1.50000000000000000000e+03) (80, 1.50000000000000000000e+03) (81, 2.77119207382202148438e+00) (82, -2.57020688056945800781e+00) (83, -3.94824218750000000000e+00) (84, 2.29397225379943847656e+00) 
