FANN_FLO_2.1
num_layers=4
learning_rate=0.500000
connection_rate=1.000000
network_type=0
learning_momentum=0.000000
training_algorithm=2
train_error_function=1
train_stop_function=0
cascade_output_change_fraction=0.010000
quickprop_decay=-0.000100
quickprop_mu=1.750000
rprop_increase_factor=1.200000
rprop_decrease_factor=0.500000
rprop_delta_min=0.000000
rprop_delta_max=50.000000
rprop_delta_zero=0.100000
cascade_output_stagnation_epochs=12
cascade_candidate_change_fraction=0.010000
cascade_candidate_stagnation_epochs=12
cascade_max_out_epochs=150
cascade_min_out_epochs=50
cascade_max_cand_epochs=150
cascade_min_cand_epochs=50
cascade_num_candidate_groups=2
bit_fail_limit=3.49999994039535522461e-01
cascade_candidate_limit=1.00000000000000000000e+03
cascade_weight_multiplier=4.00000005960464477539e-01
cascade_activation_functions_count=10
cascade_activation_functions=3 5 7 8 10 11 14 15 16 17 
cascade_activation_steepnesses_count=4
cascade_activation_steepnesses=2.50000000000000000000e-01 5.00000000000000000000e-01 7.50000000000000000000e-01 1.00000000000000000000e+00 
layer_sizes=18 5 5 2 
scale_included=0
neurons (num_inputs, activation_function, activation_steepness)=(0, 0, 0.00000000000000000000e+00) (0, 0, 0.00000000000000000000e+00) (0, 0, 0.00000000000000000000e+00) (0, 0, 0.00000000000000000000e+00) (0, 0, 0.00000000000000000000e+00) (0, 0, 0.00000000000000000000e+00) (0, 0, 0.00000000000000000000e+00) (0, 0, 0.00000000000000000000e+00) (0, 0, 0.00000000000000000000e+00) (0, 0, 0.00000000000000000000e+00) (0, 0, 0.00000000000000000000e+00) (0, 0, 0.00000000000000000000e+00) (0, 0, 0.00000000000000000000e+00) (0, 0, 0.00000000000000000000e+00) (0, 0, 0.00000000000000000000e+00) (0, 0, 0.00000000000000000000e+00) (0, 0, 0.00000000000000000000e+00) (0, 0, 0.00000000000000000000e+00) (18, 3, 5.00000000000000000000e-01) (18, 3, 5.00000000000000000000e-01) (18, 3, 5.00000000000000000000e-01) (18, 3, 5.00000000000000000000e-01) (0, 3, 0.00000000000000000000e+00) (5, 3, 5.00000000000000000000e-01) (5, 3, 5.00000000000000000000e-01) (5, 3, 5.00000000000000000000e-01) (5, 3, 5.00000000000000000000e-01) (0, 3, 0.00000000000000000000e+00) (5, 0, 5.00000000000000000000e-01) (0, 0, 0.00000000000000000000e+00) 
connections (connected_to_neuron, weight)=(0, 8.72480869293212890625e-01) (1, 1.39049541950225830078e+00) (2, 1.57093393802642822266e+00) (3, 1.14032149314880371094e+00) (4, 2.23427996039390563965e-01) (5, -7.60597169399261474609e-01) (6, -2.00964403152465820312e+00) (7, -2.14464116096496582031e+00) (8, 1.41298085451126098633e-01) (9, 7.41736114025115966797e-01) (10, 6.10304534435272216797e-01) (11, 1.50820839405059814453e+00) (12, 1.65928864479064941406e+00) (13, 1.02264046669006347656e+00) (14, 8.71464550495147705078e-01) (15, 5.05630612373352050781e-01) (16, 3.84436130523681640625e-01) (17, -5.00903224945068359375e+00) (0, 6.39157831668853759766e-01) (1, 1.19370710849761962891e+00) (2, 8.72445940971374511719e-01) (3, 1.68421781063079833984e+00) (4, 5.83576738834381103516e-01) (5, -2.29359358549118041992e-01) (6, -7.13759005069732666016e-01) (7, -3.78217887878417968750e+00) (8, 3.92215490341186523438e-01) (9, 4.85645353794097900391e-01) (10, 3.66552621126174926758e-01) (11, 1.43106472492218017578e+00) (12, 1.46845889091491699219e+00) (13, 1.17568302154541015625e+00) (14, 1.11102449893951416016e+00) (15, 1.37411952018737792969e+00) (16, 9.03332471847534179688e-01) (17, -4.50424480438232421875e+00) (0, 1.29287576675415039062e+00) (1, 1.18441522121429443359e+00) (2, 1.01126754283905029297e+00) (3, 1.27185535430908203125e+00) (4, 1.10413932800292968750e+00) (5, -1.13509857654571533203e+00) (6, -1.26725518703460693359e+00) (7, -5.24879038333892822266e-01) (8, -1.47153303027153015137e-01) (9, 1.38077843189239501953e+00) (10, 1.34518539905548095703e+00) (11, 9.19660568237304687500e-01) (12, 1.08433890342712402344e+00) (13, 1.12499129772186279297e+00) (14, 1.18724799156188964844e+00) (15, 1.14915120601654052734e+00) (16, 1.38140535354614257812e+00) (17, -4.93219041824340820312e+00) (0, 2.24378643035888671875e+01) (1, -1.70533096313476562500e+02) (2, 1.58628692626953125000e+01) (3, 1.49848957061767578125e+01) (4, 1.60863132476806640625e+01) (5, 1.49999011230468750000e+03) (6, 1.49898583984375000000e+03) (7, 1.49258410644531250000e+03) (8, 6.97353649139404296875e+00) (9, 1.30344726562500000000e+02) (10, 6.86685028076171875000e+01) (11, 6.18976402282714843750e+01) (12, 2.39564685821533203125e+01) (13, 2.92663650512695312500e+01) (14, 2.23258743286132812500e+01) (15, 1.56069507598876953125e+01) (16, 8.32794666290283203125e+00) (17, 3.73551487922668457031e+00) (18, 4.27607727050781250000e+00) (19, 3.56967616081237792969e+00) (20, 1.06530418395996093750e+01) (21, -1.11975276470184326172e+00) (22, -9.57419574260711669922e-01) (18, 1.50000000000000000000e+03) (19, 1.50000000000000000000e+03) (20, 8.31840637207031250000e+02) (21, 9.35222566127777099609e-01) (22, 8.05637180805206298828e-01) (18, 9.29281055927276611328e-01) (19, 4.37360018491744995117e-01) (20, 3.91000843048095703125e+00) (21, -2.02544164657592773438e+00) (22, -1.96079194545745849609e+00) (18, 1.50000000000000000000e+03) (19, 1.50000000000000000000e+03) (20, 8.31795593261718750000e+02) (21, 8.24484467506408691406e-01) (22, 8.18313241004943847656e-01) (23, 3.99821758270263671875e+00) (24, 9.09604907035827636719e-01) (25, 9.25864315032958984375e+00) (26, 8.73708248138427734375e-01) (27, 8.18668723106384277344e-01) 
