FANN_FLO_2.1
num_layers=3
learning_rate=0.500000
connection_rate=1.000000
network_type=0
learning_momentum=0.000000
training_algorithm=2
train_error_function=1
train_stop_function=0
cascade_output_change_fraction=0.010000
quickprop_decay=-0.000100
quickprop_mu=1.750000
rprop_increase_factor=1.200000
rprop_decrease_factor=0.500000
rprop_delta_min=0.000000
rprop_delta_max=50.000000
rprop_delta_zero=0.100000
cascade_output_stagnation_epochs=12
cascade_candidate_change_fraction=0.010000
cascade_candidate_stagnation_epochs=12
cascade_max_out_epochs=150
cascade_min_out_epochs=50
cascade_max_cand_epochs=150
cascade_min_cand_epochs=50
cascade_num_candidate_groups=2
bit_fail_limit=3.49999994039535522461e-01
cascade_candidate_limit=1.00000000000000000000e+03
cascade_weight_multiplier=4.00000005960464477539e-01
cascade_activation_functions_count=10
cascade_activation_functions=3 5 7 8 10 11 14 15 16 17 
cascade_activation_steepnesses_count=4
cascade_activation_steepnesses=2.50000000000000000000e-01 5.00000000000000000000e-01 7.50000000000000000000e-01 1.00000000000000000000e+00 
layer_sizes=82 5 2 
scale_included=0
neurons (num_inputs, activation_function, activation_steepness)=(0, 0, 0.00000000000000000000e+00) (0, 0, 0.00000000000000000000e+00) (0, 0, 0.00000000000000000000e+00) (0, 0, 0.00000000000000000000e+00) (0, 0, 0.00000000000000000000e+00) (0, 0, 0.00000000000000000000e+00) (0, 0, 0.00000000000000000000e+00) (0, 0, 0.00000000000000000000e+00) (0, 0, 0.00000000000000000000e+00) (0, 0, 0.00000000000000000000e+00) (0, 0, 0.00000000000000000000e+00) (0, 0, 0.00000000000000000000e+00) (0, 0, 0.00000000000000000000e+00) (0, 0, 0.00000000000000000000e+00) (0, 0, 0.00000000000000000000e+00) (0, 0, 0.00000000000000000000e+00) (0, 0, 0.00000000000000000000e+00) (0, 0, 0.00000000000000000000e+00) (0, 0, 0.00000000000000000000e+00) (0, 0, 0.00000000000000000000e+00) (0, 0, 0.00000000000000000000e+00) (0, 0, 0.00000000000000000000e+00) (0, 0, 0.00000000000000000000e+00) (0, 0, 0.00000000000000000000e+00) (0, 0, 0.00000000000000000000e+00) (0, 0, 0.00000000000000000000e+00) (0, 0, 0.00000000000000000000e+00) (0, 0, 0.00000000000000000000e+00) (0, 0, 0.00000000000000000000e+00) (0, 0, 0.00000000000000000000e+00) (0, 0, 0.00000000000000000000e+00) (0, 0, 0.00000000000000000000e+00) (0, 0, 0.00000000000000000000e+00) (0, 0, 0.00000000000000000000e+00) (0, 0, 0.00000000000000000000e+00) (0, 0, 0.00000000000000000000e+00) (0, 0, 0.00000000000000000000e+00) (0, 0, 0.00000000000000000000e+00) (0, 0, 0.00000000000000000000e+00) (0, 0, 0.00000000000000000000e+00) (0, 0, 0.00000000000000000000e+00) (0, 0, 0.00000000000000000000e+00) (0, 0, 0.00000000000000000000e+00) (0, 0, 0.00000000000000000000e+00) (0, 0, 0.00000000000000000000e+00) (0, 0, 0.00000000000000000000e+00) (0, 0, 0.00000000000000000000e+00) (0, 0, 0.00000000000000000000e+00) (0, 0, 0.00000000000000000000e+00) (0, 0, 0.00000000000000000000e+00) (0, 0, 0.00000000000000000000e+00) (0, 0, 0.00000000000000000000e+00) (0, 0, 0.00000000000000000000e+00) (0, 0, 0.00000000000000000000e+00) (0, 0, 0.00000000000000000000e+00) (0, 0, 0.00000000000000000000e+00) (0, 0, 0.00000000000000000000e+00) (0, 0, 0.00000000000000000000e+00) (0, 0, 0.00000000000000000000e+00) (0, 0, 0.00000000000000000000e+00) (0, 0, 0.00000000000000000000e+00) (0, 0, 0.00000000000000000000e+00) (0, 0, 0.00000000000000000000e+00) (0, 0, 0.00000000000000000000e+00) (0, 0, 0.00000000000000000000e+00) (0, 0, 0.00000000000000000000e+00) (0, 0, 0.00000000000000000000e+00) (0, 0, 0.00000000000000000000e+00) (0, 0, 0.00000000000000000000e+00) (0, 0, 0.00000000000000000000e+00) (0, 0, 0.00000000000000000000e+00) (0, 0, 0.00000000000000000000e+00) (0, 0, 0.00000000000000000000e+00) (0, 0, 0.00000000000000000000e+00) (0, 0, 0.00000000000000000000e+00) (0, 0, 0.00000000000000000000e+00) (0, 0, 0.00000000000000000000e+00) (0, 0, 0.00000000000000000000e+00) (0, 0, 0.00000000000000000000e+00) (0, 0, 0.00000000000000000000e+00) (0, 0, 0.00000000000000000000e+00) (0, 0, 0.00000000000000000000e+00) (82, 3, 5.00000000000000000000e-01) (82, 3, 5.00000000000000000000e-01) (82, 3, 5.00000000000000000000e-01) (82, 3, 5.00000000000000000000e-01) (0, 3, 0.00000000000000000000e+00) (5, 3, 5.00000000000000000000e-01) (0, 3, 0.00000000000000000000e+00) 
connections (connected_to_neuron, weight)=(0, -4.56553474068641662598e-02) (1, -6.03173999115824699402e-03) (2, -7.81331956386566162109e-02) (3, -6.25256597995758056641e-01) (4, -4.06033337116241455078e-01) (5, -2.47434869408607482910e-01) (6, 4.71209995448589324951e-02) (7, -7.95262865722179412842e-03) (8, -3.33868637681007385254e-02) (9, -8.46876278519630432129e-02) (10, -2.49089702963829040527e-01) (11, -2.46359154582023620605e-01) (12, -2.05942869186401367188e-01) (13, -1.85080692172050476074e-01) (14, 2.05638185143470764160e-02) (15, -8.33935104310512542725e-03) (16, -6.82670846581459045410e-02) (17, -4.71719205379486083984e-01) (18, -4.03606057167053222656e-01) (19, -6.71170130372047424316e-02) (20, -1.26206412911415100098e-01) (21, 8.81002545356750488281e-02) (22, 1.94892808794975280762e-01) (23, -3.12609910964965820312e-01) (24, -4.73584938049316406250e+00) (25, -4.86398875713348388672e-01) (26, -7.74149969220161437988e-02) (27, -1.25276073813438415527e-01) (28, -7.55370035767555236816e-02) (29, -1.10706992447376251221e-01) (30, -1.69552758336067199707e-01) (31, -8.60944867134094238281e-01) (32, -2.92112201452255249023e-01) (33, -2.10367441177368164062e-02) (34, 9.27853733301162719727e-02) (35, 8.51911455392837524414e-02) (36, -1.04405678808689117432e-01) (37, 2.74973511695861816406e-02) (38, -5.23609697818756103516e-01) (39, -6.70223534107208251953e-02) (40, 2.58804649114608764648e-01) (41, 2.20005437731742858887e-02) (42, -8.37700590491294860840e-02) (43, -2.32902150601148605347e-02) (44, -8.16608443856239318848e-02) (45, -3.48415821790695190430e-01) (46, 4.09079231321811676025e-02) (47, 2.11826086044311523438e-01) (48, 1.88103355467319488525e-02) (49, 1.50000000000000000000e+03) (50, 1.50000000000000000000e+03) (51, 1.50000000000000000000e+03) (52, 1.50000000000000000000e+03) (53, 1.50000000000000000000e+03) (54, 1.50000000000000000000e+03) (55, 1.50000000000000000000e+03) (56, 1.50000000000000000000e+03) (57, 1.50000000000000000000e+03) (58, 1.50000000000000000000e+03) (59, 1.50000000000000000000e+03) (60, 1.50000000000000000000e+03) (61, 1.50000000000000000000e+03) (62, 1.50000000000000000000e+03) (63, 1.50000000000000000000e+03) (64, 1.50000000000000000000e+03) (65, 1.50000000000000000000e+03) (66, 1.50000000000000000000e+03) (67, 1.50000000000000000000e+03) (68, 1.50000000000000000000e+03) (69, 1.50000000000000000000e+03) (70, 1.50000000000000000000e+03) (71, 1.50000000000000000000e+03) (72, 1.50000000000000000000e+03) (73, 1.50000000000000000000e+03) (74, 1.50000000000000000000e+03) (75, 1.50000000000000000000e+03) (76, 1.50000000000000000000e+03) (77, 1.50000000000000000000e+03) (78, 1.50000000000000000000e+03) (79, 1.50000000000000000000e+03) (80, 1.50000000000000000000e+03) (81, 5.31317949295043945312e-01) (0, -3.76599770970642566681e-03) (1, 7.38270819187164306641e-01) (2, 3.45400512218475341797e-01) (3, -7.81762301921844482422e-01) (4, -6.03657782077789306641e-01) (5, -4.67173635959625244141e-01) (6, -9.39097106456756591797e-02) (7, 1.37866333127021789551e-01) (8, 3.33732724189758300781e-01) (9, 1.05697309970855712891e+00) (10, -6.98493480682373046875e-01) (11, -1.53608873486518859863e-01) (12, -5.79865097999572753906e-01) (13, 4.97618056833744049072e-02) (14, 1.98656797409057617188e-01) (15, 2.47795060276985168457e-01) (16, -2.59321421384811401367e-01) (17, -1.09167170524597167969e+00) (18, 5.25057792663574218750e-01) (19, -8.15136134624481201172e-01) (20, 1.44109809398651123047e+00) (21, -3.66550147533416748047e-01) (22, -7.41425901651382446289e-02) (23, -6.69452071189880371094e-01) (24, -7.25991249084472656250e+00) (25, -5.29644727706909179688e-01) (26, 6.56631231307983398438e-01) (27, -1.10508179664611816406e+00) (28, -9.39663946628570556641e-01) (29, 8.70071724057197570801e-03) (30, -9.48688924312591552734e-01) (31, -1.44000256061553955078e+00) (32, 5.27576029300689697266e-01) (33, -4.63329479098320007324e-02) (34, -1.06561481952667236328e-02) (35, -6.39500319957733154297e-01) (36, -3.76276016235351562500e-01) (37, -6.84499144554138183594e-01) (38, -7.51375555992126464844e-01) (39, -1.01584684848785400391e+00) (40, -2.04549595713615417480e-01) (41, -2.21585378050804138184e-01) (42, -8.55860948562622070312e-01) (43, -1.27032250165939331055e-01) (44, 2.96589195728302001953e-01) (45, -7.35269069671630859375e-01) (46, 1.33986815810203552246e-01) (47, 3.80435250699520111084e-02) (48, -1.04356475174427032471e-01) (49, 1.50000000000000000000e+03) (50, 1.50000000000000000000e+03) (51, 1.50000000000000000000e+03) (52, 1.50000000000000000000e+03) (53, 1.50000000000000000000e+03) (54, 1.50000000000000000000e+03) (55, 1.50000000000000000000e+03) (56, 1.50000000000000000000e+03) (57, 1.50000000000000000000e+03) (58, 1.50000000000000000000e+03) (59, 1.50000000000000000000e+03) (60, 1.50000000000000000000e+03) (61, 1.50000000000000000000e+03) (62, 1.50000000000000000000e+03) (63, 1.50000000000000000000e+03) (64, 1.50000000000000000000e+03) (65, 1.50000000000000000000e+03) (66, 1.50000000000000000000e+03) (67, 1.50000000000000000000e+03) (68, 1.50000000000000000000e+03) (69, 1.50000000000000000000e+03) (70, 1.50000000000000000000e+03) (71, 1.50000000000000000000e+03) (72, 1.50000000000000000000e+03) (73, 1.50000000000000000000e+03) (74, 1.50000000000000000000e+03) (75, 1.50000000000000000000e+03) (76, 1.50000000000000000000e+03) (77, 1.50000000000000000000e+03) (78, 1.50000000000000000000e+03) (79, 1.50000000000000000000e+03) (80, 1.50000000000000000000e+03) (81, 8.00696277618408203125e+00) (0, -2.34128043055534362793e-01) (1, 4.04305934906005859375e-01) (2, 1.35321617126464843750e-01) (3, -5.70942223072052001953e-01) (4, -5.19205808639526367188e-01) (5, 5.99090814590454101562e-01) (6, -4.68180686235427856445e-01) (7, 3.17178547382354736328e-01) (8, -7.94949054718017578125e-01) (9, -7.55818188190460205078e-02) (10, 6.36723637580871582031e-01) (11, 1.70573484897613525391e+00) (12, 2.18065842986106872559e-01) (13, -3.04938018321990966797e-01) (14, 1.66977569460868835449e-01) (15, 1.99577510356903076172e-01) (16, -2.58387982845306396484e-01) (17, -1.98601996898651123047e+00) (18, 7.19959378242492675781e-01) (19, 2.06132316589355468750e+00) (20, 2.54306674003601074219e-01) (21, 1.09257347881793975830e-01) (22, 3.01243305206298828125e-01) (23, -8.11545729637145996094e-01) (24, -8.10837936401367187500e+00) (25, 1.78390085697174072266e-01) (26, 3.22049744427204132080e-02) (27, 3.15142542123794555664e-01) (28, -1.34169256687164306641e+00) (29, -4.23300147056579589844e-01) (30, -6.37791097164154052734e-01) (31, -1.36528182029724121094e+00) (32, -5.38066685199737548828e-01) (33, -2.20105499029159545898e-01) (34, 6.64885997772216796875e-01) (35, -3.33088725805282592773e-01) (36, -5.07737696170806884766e-01) (37, -4.34343814849853515625e-01) (38, -1.97967261075973510742e-01) (39, 2.23673075437545776367e-01) (40, -5.85453212261199951172e-01) (41, -2.89122521877288818359e-01) (42, -4.59749877452850341797e-01) (43, -5.30918717384338378906e-01) (44, 1.10109925270080566406e+00) (45, 7.17394053936004638672e-01) (46, 2.99545209854841232300e-02) (47, -5.01363873481750488281e-01) (48, -2.19906359910964965820e-01) (49, 1.50000000000000000000e+03) (50, 1.50000000000000000000e+03) (51, 1.50000000000000000000e+03) (52, 1.50000000000000000000e+03) (53, 1.50000000000000000000e+03) (54, 1.50000000000000000000e+03) (55, 1.50000000000000000000e+03) (56, 1.50000000000000000000e+03) (57, 1.50000000000000000000e+03) (58, 1.50000000000000000000e+03) (59, 1.50000000000000000000e+03) (60, 1.50000000000000000000e+03) (61, 1.50000000000000000000e+03) (62, 1.50000000000000000000e+03) (63, 1.50000000000000000000e+03) (64, 1.50000000000000000000e+03) (65, 1.50000000000000000000e+03) (66, 1.50000000000000000000e+03) (67, 1.50000000000000000000e+03) (68, 1.50000000000000000000e+03) (69, 1.50000000000000000000e+03) (70, 1.50000000000000000000e+03) (71, 1.50000000000000000000e+03) (72, 1.50000000000000000000e+03) (73, 1.50000000000000000000e+03) (74, 1.50000000000000000000e+03) (75, 1.50000000000000000000e+03) (76, 1.50000000000000000000e+03) (77, 1.50000000000000000000e+03) (78, 1.50000000000000000000e+03) (79, 1.50000000000000000000e+03) (80, 1.50000000000000000000e+03) (81, 8.60073471069335937500e+00) (0, -5.66718078613281250000e+02) (1, 8.30603885650634765625e+00) (2, -9.24200341105461120605e-02) (3, -9.97795164585113525391e-01) (4, -1.19084298610687255859e+00) (5, -1.47116816043853759766e+00) (6, -2.04506605863571166992e-01) (7, 3.61366081237792968750e+01) (8, 1.81464443206787109375e+01) (9, -8.19401681423187255859e-01) (10, -4.63277244567871093750e+00) (11, 6.06179475784301757812e+00) (12, -6.93764984607696533203e-01) (13, -6.40186011791229248047e-01) (14, -5.36389282226562500000e+02) (15, 3.64665679931640625000e+02) (16, 4.11143074035644531250e+01) (17, -5.00450378417968750000e+02) (18, -9.56173300743103027344e-01) (19, -6.65338277816772460938e-01) (20, -5.09754002094268798828e-01) (21, -2.11477615356445312500e+02) (22, -2.31939773559570312500e+02) (23, 3.27010589599609375000e+02) (24, -3.66484771728515625000e+02) (25, -2.94472241401672363281e+00) (26, -6.23290240764617919922e-01) (27, -5.80522298812866210938e-01) (28, -2.69885986328125000000e+02) (29, -1.88485916137695312500e+02) (30, 1.23922210693359375000e+02) (31, -5.87950622558593750000e+02) (32, -1.47861145019531250000e+02) (33, -6.79782509803771972656e-01) (34, -6.17480874061584472656e-01) (35, 2.88664337158203125000e+02) (36, 1.80642196655273437500e+02) (37, 1.91004066467285156250e+01) (38, 1.42636505126953125000e+02) (39, 3.81517303466796875000e+02) (40, 3.30785107612609863281e+00) (41, -9.15673077106475830078e-01) (42, 1.45851455688476562500e+02) (43, -2.27459732055664062500e+02) (44, -1.60905647277832031250e+01) (45, -2.15866279602050781250e+01) (46, -3.13791259765625000000e+02) (47, -1.51675750732421875000e+02) (48, -7.56738245487213134766e-01) (49, 1.50000000000000000000e+03) (50, 1.50000000000000000000e+03) (51, 1.50000000000000000000e+03) (52, 1.50000000000000000000e+03) (53, 1.50000000000000000000e+03) (54, 1.50000000000000000000e+03) (55, 1.50000000000000000000e+03) (56, 1.50000000000000000000e+03) (57, 1.50000000000000000000e+03) (58, 1.50000000000000000000e+03) (59, 1.50000000000000000000e+03) (60, 1.50000000000000000000e+03) (61, 1.50000000000000000000e+03) (62, 1.50000000000000000000e+03) (63, 1.50000000000000000000e+03) (64, 1.50000000000000000000e+03) (65, 1.50000000000000000000e+03) (66, 1.50000000000000000000e+03) (67, 1.50000000000000000000e+03) (68, 1.50000000000000000000e+03) (69, 1.50000000000000000000e+03) (70, 1.50000000000000000000e+03) (71, 1.50000000000000000000e+03) (72, 1.50000000000000000000e+03) (73, 1.50000000000000000000e+03) (74, 1.50000000000000000000e+03) (75, 1.50000000000000000000e+03) (76, 1.50000000000000000000e+03) (77, 1.50000000000000000000e+03) (78, 1.50000000000000000000e+03) (79, 1.50000000000000000000e+03) (80, 1.50000000000000000000e+03) (81, 4.97838926315307617188e+00) (82, -4.32165384292602539062e+00) (83, -1.06889665126800537109e+00) (84, -9.89326834678649902344e-01) (85, -9.05796363949775695801e-02) (86, 1.34211516380310058594e+00) 
