FANN_FLO_2.1
num_layers=4
learning_rate=0.500000
connection_rate=1.000000
network_type=0
learning_momentum=0.000000
training_algorithm=2
train_error_function=1
train_stop_function=0
cascade_output_change_fraction=0.010000
quickprop_decay=-0.000100
quickprop_mu=1.750000
rprop_increase_factor=1.200000
rprop_decrease_factor=0.500000
rprop_delta_min=0.000000
rprop_delta_max=50.000000
rprop_delta_zero=0.100000
cascade_output_stagnation_epochs=12
cascade_candidate_change_fraction=0.010000
cascade_candidate_stagnation_epochs=12
cascade_max_out_epochs=150
cascade_min_out_epochs=50
cascade_max_cand_epochs=150
cascade_min_cand_epochs=50
cascade_num_candidate_groups=2
bit_fail_limit=3.49999994039535522461e-01
cascade_candidate_limit=1.00000000000000000000e+03
cascade_weight_multiplier=4.00000005960464477539e-01
cascade_activation_functions_count=10
cascade_activation_functions=3 5 7 8 10 11 14 15 16 17 
cascade_activation_steepnesses_count=4
cascade_activation_steepnesses=2.50000000000000000000e-01 5.00000000000000000000e-01 7.50000000000000000000e-01 1.00000000000000000000e+00 
layer_sizes=82 3 3 2 
scale_included=0
neurons (num_inputs, activation_function, activation_steepness)=(0, 0, 0.00000000000000000000e+00) (0, 0, 0.00000000000000000000e+00) (0, 0, 0.00000000000000000000e+00) (0, 0, 0.00000000000000000000e+00) (0, 0, 0.00000000000000000000e+00) (0, 0, 0.00000000000000000000e+00) (0, 0, 0.00000000000000000000e+00) (0, 0, 0.00000000000000000000e+00) (0, 0, 0.00000000000000000000e+00) (0, 0, 0.00000000000000000000e+00) (0, 0, 0.00000000000000000000e+00) (0, 0, 0.00000000000000000000e+00) (0, 0, 0.00000000000000000000e+00) (0, 0, 0.00000000000000000000e+00) (0, 0, 0.00000000000000000000e+00) (0, 0, 0.00000000000000000000e+00) (0, 0, 0.00000000000000000000e+00) (0, 0, 0.00000000000000000000e+00) (0, 0, 0.00000000000000000000e+00) (0, 0, 0.00000000000000000000e+00) (0, 0, 0.00000000000000000000e+00) (0, 0, 0.00000000000000000000e+00) (0, 0, 0.00000000000000000000e+00) (0, 0, 0.00000000000000000000e+00) (0, 0, 0.00000000000000000000e+00) (0, 0, 0.00000000000000000000e+00) (0, 0, 0.00000000000000000000e+00) (0, 0, 0.00000000000000000000e+00) (0, 0, 0.00000000000000000000e+00) (0, 0, 0.00000000000000000000e+00) (0, 0, 0.00000000000000000000e+00) (0, 0, 0.00000000000000000000e+00) (0, 0, 0.00000000000000000000e+00) (0, 0, 0.00000000000000000000e+00) (0, 0, 0.00000000000000000000e+00) (0, 0, 0.00000000000000000000e+00) (0, 0, 0.00000000000000000000e+00) (0, 0, 0.00000000000000000000e+00) (0, 0, 0.00000000000000000000e+00) (0, 0, 0.00000000000000000000e+00) (0, 0, 0.00000000000000000000e+00) (0, 0, 0.00000000000000000000e+00) (0, 0, 0.00000000000000000000e+00) (0, 0, 0.00000000000000000000e+00) (0, 0, 0.00000000000000000000e+00) (0, 0, 0.00000000000000000000e+00) (0, 0, 0.00000000000000000000e+00) (0, 0, 0.00000000000000000000e+00) (0, 0, 0.00000000000000000000e+00) (0, 0, 0.00000000000000000000e+00) (0, 0, 0.00000000000000000000e+00) (0, 0, 0.00000000000000000000e+00) (0, 0, 0.00000000000000000000e+00) (0, 0, 0.00000000000000000000e+00) (0, 0, 0.00000000000000000000e+00) (0, 0, 0.00000000000000000000e+00) (0, 0, 0.00000000000000000000e+00) (0, 0, 0.00000000000000000000e+00) (0, 0, 0.00000000000000000000e+00) (0, 0, 0.00000000000000000000e+00) (0, 0, 0.00000000000000000000e+00) (0, 0, 0.00000000000000000000e+00) (0, 0, 0.00000000000000000000e+00) (0, 0, 0.00000000000000000000e+00) (0, 0, 0.00000000000000000000e+00) (0, 0, 0.00000000000000000000e+00) (0, 0, 0.00000000000000000000e+00) (0, 0, 0.00000000000000000000e+00) (0, 0, 0.00000000000000000000e+00) (0, 0, 0.00000000000000000000e+00) (0, 0, 0.00000000000000000000e+00) (0, 0, 0.00000000000000000000e+00) (0, 0, 0.00000000000000000000e+00) (0, 0, 0.00000000000000000000e+00) (0, 0, 0.00000000000000000000e+00) (0, 0, 0.00000000000000000000e+00) (0, 0, 0.00000000000000000000e+00) (0, 0, 0.00000000000000000000e+00) (0, 0, 0.00000000000000000000e+00) (0, 0, 0.00000000000000000000e+00) (0, 0, 0.00000000000000000000e+00) (0, 0, 0.00000000000000000000e+00) (82, 3, 5.00000000000000000000e-01) (82, 3, 5.00000000000000000000e-01) (0, 3, 0.00000000000000000000e+00) (3, 3, 5.00000000000000000000e-01) (3, 3, 5.00000000000000000000e-01) (0, 3, 0.00000000000000000000e+00) (3, 3, 5.00000000000000000000e-01) (0, 3, 0.00000000000000000000e+00) 
connections (connected_to_neuron, weight)=(0, -1.48866223144531250000e+03) (1, -1.50000000000000000000e+03) (2, -9.59952514648437500000e+02) (3, -1.24178906250000000000e+03) (4, -8.75888427734375000000e+02) (5, 5.60800170898437500000e+02) (6, 2.21520935058593750000e+02) (7, -5.74302612304687500000e+02) (8, -1.96304443359375000000e+02) (9, -1.31270629882812500000e+03) (10, -1.07080004882812500000e+03) (11, -1.49401062011718750000e+02) (12, 8.90800048828125000000e+02) (13, -3.94563629150390625000e+02) (14, -1.45237426757812500000e+03) (15, -1.44487744140625000000e+03) (16, -1.42684423828125000000e+03) (17, -1.07080004882812500000e+03) (18, -6.15595458984375000000e+02) (19, 9.39261352539062500000e+02) (20, 9.39261352539062500000e+02) (21, -1.42684423828125000000e+03) (22, -1.09426135253906250000e+03) (23, -1.31261364746093750000e+03) (24, -1.01426135253906250000e+03) (25, -9.99998474121093750000e+02) (26, -2.31634979248046875000e+02) (27, -5.48597595214843750000e+02) (28, 3.77438507080078125000e+02) (29, -1.08582128906250000000e+03) (30, -1.07080004882812500000e+03) (31, -1.01426135253906250000e+03) (32, 1.05683325195312500000e+03) (33, 9.57371826171875000000e+02) (34, -3.76489715576171875000e+02) (35, 1.49046777343750000000e+03) (36, -1.41989062500000000000e+03) (37, -1.01426135253906250000e+03) (38, -7.15642822265625000000e+02) (39, -2.62553222656250000000e+02) (40, -6.79931274414062500000e+02) (41, -5.07532073974609375000e+02) (42, 1.00655065917968750000e+03) (43, -1.09426135253906250000e+03) (44, 2.00950393676757812500e+02) (45, -1.01426135253906250000e+03) (46, 9.39261352539062500000e+02) (47, 6.10223388671875000000e+00) (48, -4.44158294677734375000e+02) (49, 1.50000000000000000000e+03) (50, 1.50000000000000000000e+03) (51, 1.50000000000000000000e+03) (52, 1.50000000000000000000e+03) (53, 1.50000000000000000000e+03) (54, 1.50000000000000000000e+03) (55, 1.50000000000000000000e+03) (56, 1.50000000000000000000e+03) (57, 1.50000000000000000000e+03) (58, 1.50000000000000000000e+03) (59, 1.50000000000000000000e+03) (60, 1.50000000000000000000e+03) (61, 1.50000000000000000000e+03) (62, 1.50000000000000000000e+03) (63, 1.50000000000000000000e+03) (64, 1.50000000000000000000e+03) (65, 1.50000000000000000000e+03) (66, 1.50000000000000000000e+03) (67, 1.50000000000000000000e+03) (68, 1.50000000000000000000e+03) (69, 1.50000000000000000000e+03) (70, 1.50000000000000000000e+03) (71, 1.50000000000000000000e+03) (72, 1.50000000000000000000e+03) (73, 1.50000000000000000000e+03) (74, 1.50000000000000000000e+03) (75, 1.50000000000000000000e+03) (76, 1.50000000000000000000e+03) (77, 1.50000000000000000000e+03) (78, 1.50000000000000000000e+03) (79, 1.50000000000000000000e+03) (80, 1.50000000000000000000e+03) (81, 1.95483314990997314453e+00) (0, -6.80387169122695922852e-02) (1, 1.00208722054958343506e-01) (2, -6.31389915943145751953e-02) (3, -2.16003522276878356934e-01) (4, -1.26410767436027526855e-01) (5, -1.00353084504604339600e-01) (6, -4.07151311635971069336e-01) (7, 4.77288663387298583984e-02) (8, 1.08485773205757141113e-01) (9, 1.15572847425937652588e-01) (10, -4.78802859783172607422e-01) (11, 4.52279932796955108643e-02) (12, -2.40026965737342834473e-01) (13, -2.07430809736251831055e-01) (14, 1.11600803211331367493e-02) (15, 1.63699150085449218750e-01) (16, -2.80185434967279434204e-02) (17, -4.61063593626022338867e-01) (18, -2.38748088479042053223e-01) (19, -1.89796954393386840820e-01) (20, -1.57012734562158584595e-02) (21, -2.30730022303760051727e-03) (22, 5.87336868047714233398e-02) (23, -1.96721717715263366699e-01) (24, -3.44950556755065917969e+00) (25, -2.59044051170349121094e-01) (26, -7.72767886519432067871e-03) (27, -7.19278380274772644043e-02) (28, 6.41203746199607849121e-02) (29, -1.91054254770278930664e-01) (30, -4.10374820232391357422e-01) (31, -7.41188585758209228516e-01) (32, -8.81390459835529327393e-03) (33, 1.54262259602546691895e-01) (34, 1.71921595931053161621e-01) (35, -2.67868876457214355469e-01) (36, -1.16147726774215698242e-01) (37, -1.17299690842628479004e-01) (38, -3.74409824609756469727e-01) (39, -1.16365686058998107910e-01) (40, 2.40271519869565963745e-02) (41, 2.34857112169265747070e-01) (42, 3.16106751561164855957e-02) (43, 3.55786420404911041260e-02) (44, 1.54621526598930358887e-01) (45, -2.16238945722579956055e-01) (46, -1.34319001808762550354e-02) (47, -1.39526398852467536926e-02) (48, 1.34800955653190612793e-01) (49, 1.50000000000000000000e+03) (50, 1.50000000000000000000e+03) (51, 1.50000000000000000000e+03) (52, 1.50000000000000000000e+03) (53, 1.50000000000000000000e+03) (54, 1.50000000000000000000e+03) (55, 1.50000000000000000000e+03) (56, 1.50000000000000000000e+03) (57, 1.50000000000000000000e+03) (58, 1.50000000000000000000e+03) (59, 1.50000000000000000000e+03) (60, 1.50000000000000000000e+03) (61, 1.50000000000000000000e+03) (62, 1.50000000000000000000e+03) (63, 1.50000000000000000000e+03) (64, 1.50000000000000000000e+03) (65, 1.50000000000000000000e+03) (66, 1.50000000000000000000e+03) (67, 1.50000000000000000000e+03) (68, 1.50000000000000000000e+03) (69, 1.50000000000000000000e+03) (70, 1.50000000000000000000e+03) (71, 1.50000000000000000000e+03) (72, 1.50000000000000000000e+03) (73, 1.50000000000000000000e+03) (74, 1.50000000000000000000e+03) (75, 1.50000000000000000000e+03) (76, 1.50000000000000000000e+03) (77, 1.50000000000000000000e+03) (78, 1.50000000000000000000e+03) (79, 1.50000000000000000000e+03) (80, 1.50000000000000000000e+03) (81, 1.57354617118835449219e+00) (82, 9.28266677856445312500e+01) (83, 5.39951896667480468750e+00) (84, -4.02879953384399414062e+00) (82, 2.02660751342773437500e+00) (83, 2.15649681091308593750e+01) (84, -1.61042046546936035156e+00) (85, -4.36166429519653320312e+00) (86, -1.59423756599426269531e+00) (87, 1.12123537063598632812e+00) 
