FANN_FLO_2.1
num_layers=4
learning_rate=0.450000
connection_rate=1.000000
network_type=0
learning_momentum=0.000000
training_algorithm=2
train_error_function=1
train_stop_function=0
cascade_output_change_fraction=0.010000
quickprop_decay=-0.000100
quickprop_mu=1.750000
rprop_increase_factor=1.200000
rprop_decrease_factor=0.500000
rprop_delta_min=0.000000
rprop_delta_max=50.000000
rprop_delta_zero=0.100000
cascade_output_stagnation_epochs=12
cascade_candidate_change_fraction=0.010000
cascade_candidate_stagnation_epochs=12
cascade_max_out_epochs=150
cascade_min_out_epochs=50
cascade_max_cand_epochs=150
cascade_min_cand_epochs=50
cascade_num_candidate_groups=2
bit_fail_limit=3.49999994039535522461e-01
cascade_candidate_limit=1.00000000000000000000e+03
cascade_weight_multiplier=4.00000005960464477539e-01
cascade_activation_functions_count=10
cascade_activation_functions=3 5 7 8 10 11 14 15 16 17 
cascade_activation_steepnesses_count=4
cascade_activation_steepnesses=2.50000000000000000000e-01 5.00000000000000000000e-01 7.50000000000000000000e-01 1.00000000000000000000e+00 
layer_sizes=7 3 3 2 
scale_included=0
neurons (num_inputs, activation_function, activation_steepness)=(0, 0, 0.00000000000000000000e+00) (0, 0, 0.00000000000000000000e+00) (0, 0, 0.00000000000000000000e+00) (0, 0, 0.00000000000000000000e+00) (0, 0, 0.00000000000000000000e+00) (0, 0, 0.00000000000000000000e+00) (0, 0, 0.00000000000000000000e+00) (7, 3, 5.00000000000000000000e-01) (7, 3, 5.00000000000000000000e-01) (0, 3, 0.00000000000000000000e+00) (3, 3, 5.00000000000000000000e-01) (3, 3, 5.00000000000000000000e-01) (0, 3, 0.00000000000000000000e+00) (3, 0, 5.00000000000000000000e-01) (0, 0, 0.00000000000000000000e+00) 
connections (connected_to_neuron, weight)=(0, 2.01478540897369384766e-01) (1, -1.70469686388969421387e-01) (2, 1.76153481006622314453e-01) (3, -2.93312281370162963867e-01) (4, 8.77401351928710937500e-01) (5, -1.35477021336555480957e-01) (6, 1.23429059982299804688e+00) (0, -3.09928338974714279175e-02) (1, 7.33041912317276000977e-02) (2, -7.80754983425140380859e-01) (3, -1.12833149731159210205e-01) (4, 7.62600660324096679688e-01) (5, -2.03811272978782653809e-01) (6, 2.59344291687011718750e+00) (7, -7.77756547927856445312e+00) (8, -1.31248605251312255859e+00) (9, 2.61256337165832519531e+00) (7, -2.79324698448181152344e+00) (8, 1.36638075113296508789e-01) (9, 3.60461145639419555664e-01) (10, 3.24844956398010253906e+00) (11, -7.60862410068511962891e-01) (12, 7.57979154586791992188e-02) 
