FANN_FLO_2.1
num_layers=4
learning_rate=0.450000
connection_rate=1.000000
network_type=0
learning_momentum=0.000000
training_algorithm=2
train_error_function=1
train_stop_function=0
cascade_output_change_fraction=0.010000
quickprop_decay=-0.000100
quickprop_mu=1.750000
rprop_increase_factor=1.200000
rprop_decrease_factor=0.500000
rprop_delta_min=0.000000
rprop_delta_max=50.000000
rprop_delta_zero=0.100000
cascade_output_stagnation_epochs=12
cascade_candidate_change_fraction=0.010000
cascade_candidate_stagnation_epochs=12
cascade_max_out_epochs=150
cascade_min_out_epochs=50
cascade_max_cand_epochs=150
cascade_min_cand_epochs=50
cascade_num_candidate_groups=2
bit_fail_limit=3.49999994039535522461e-01
cascade_candidate_limit=1.00000000000000000000e+03
cascade_weight_multiplier=4.00000005960464477539e-01
cascade_activation_functions_count=10
cascade_activation_functions=3 5 7 8 10 11 14 15 16 17 
cascade_activation_steepnesses_count=4
cascade_activation_steepnesses=2.50000000000000000000e-01 5.00000000000000000000e-01 7.50000000000000000000e-01 1.00000000000000000000e+00 
layer_sizes=7 5 3 2 
scale_included=0
neurons (num_inputs, activation_function, activation_steepness)=(0, 0, 0.00000000000000000000e+00) (0, 0, 0.00000000000000000000e+00) (0, 0, 0.00000000000000000000e+00) (0, 0, 0.00000000000000000000e+00) (0, 0, 0.00000000000000000000e+00) (0, 0, 0.00000000000000000000e+00) (0, 0, 0.00000000000000000000e+00) (7, 3, 5.00000000000000000000e-01) (7, 3, 5.00000000000000000000e-01) (7, 3, 5.00000000000000000000e-01) (7, 3, 5.00000000000000000000e-01) (0, 3, 0.00000000000000000000e+00) (5, 3, 5.00000000000000000000e-01) (5, 3, 5.00000000000000000000e-01) (0, 3, 0.00000000000000000000e+00) (3, 0, 5.00000000000000000000e-01) (0, 0, 0.00000000000000000000e+00) 
connections (connected_to_neuron, weight)=(0, -4.82919305562973022461e-01) (1, 1.15140295028686523438e+00) (2, -7.34498724341392517090e-02) (3, -1.80168521404266357422e+00) (4, 2.06569600105285644531e+00) (5, 2.05114936828613281250e+00) (6, 2.35700909979641437531e-03) (0, -2.77740120887756347656e-01) (1, 1.08786594867706298828e+00) (2, -2.54401773214340209961e-01) (3, -7.47137725353240966797e-01) (4, 3.26641535758972167969e+00) (5, -1.98278427124023437500e-01) (6, -7.14946329593658447266e-01) (0, 1.97923583984375000000e+01) (1, 3.38509798049926757812e-01) (2, 7.99014940857887268066e-02) (3, -2.15179882049560546875e+01) (4, 5.46387314796447753906e-01) (5, 1.33703708648681640625e-01) (6, -1.11048388481140136719e+00) (0, 1.91953868865966796875e+01) (1, 3.19261878728866577148e-01) (2, 1.13709233701229095459e-01) (3, -2.14657764434814453125e+01) (4, 5.04838883876800537109e-01) (5, -1.09924667049199342728e-03) (6, -6.09240472316741943359e-01) (7, 1.27947546386718750000e+03) (8, 1.50000000000000000000e+03) (9, 1.50000000000000000000e+03) (10, 1.50000000000000000000e+03) (11, -2.75719022750854492188e+00) (7, 1.03924963378906250000e+03) (8, 1.40429956054687500000e+03) (9, 1.50000000000000000000e+03) (10, 1.50000000000000000000e+03) (11, -2.82734966278076171875e+00) (12, -9.81766045093536376953e-01) (13, -2.01636254787445068359e-01) (14, 1.19643032550811767578e+00) 
