FANN_FLO_2.1
num_layers=3
learning_rate=0.500000
connection_rate=1.000000
network_type=0
learning_momentum=0.000000
training_algorithm=2
train_error_function=1
train_stop_function=0
cascade_output_change_fraction=0.010000
quickprop_decay=-0.000100
quickprop_mu=1.750000
rprop_increase_factor=1.200000
rprop_decrease_factor=0.500000
rprop_delta_min=0.000000
rprop_delta_max=50.000000
rprop_delta_zero=0.100000
cascade_output_stagnation_epochs=12
cascade_candidate_change_fraction=0.010000
cascade_candidate_stagnation_epochs=12
cascade_max_out_epochs=150
cascade_min_out_epochs=50
cascade_max_cand_epochs=150
cascade_min_cand_epochs=50
cascade_num_candidate_groups=2
bit_fail_limit=3.49999994039535522461e-01
cascade_candidate_limit=1.00000000000000000000e+03
cascade_weight_multiplier=4.00000005960464477539e-01
cascade_activation_functions_count=10
cascade_activation_functions=3 5 7 8 10 11 14 15 16 17 
cascade_activation_steepnesses_count=4
cascade_activation_steepnesses=2.50000000000000000000e-01 5.00000000000000000000e-01 7.50000000000000000000e-01 1.00000000000000000000e+00 
layer_sizes=82 3 2 
scale_included=0
neurons (num_inputs, activation_function, activation_steepness)=(0, 0, 0.00000000000000000000e+00) (0, 0, 0.00000000000000000000e+00) (0, 0, 0.00000000000000000000e+00) (0, 0, 0.00000000000000000000e+00) (0, 0, 0.00000000000000000000e+00) (0, 0, 0.00000000000000000000e+00) (0, 0, 0.00000000000000000000e+00) (0, 0, 0.00000000000000000000e+00) (0, 0, 0.00000000000000000000e+00) (0, 0, 0.00000000000000000000e+00) (0, 0, 0.00000000000000000000e+00) (0, 0, 0.00000000000000000000e+00) (0, 0, 0.00000000000000000000e+00) (0, 0, 0.00000000000000000000e+00) (0, 0, 0.00000000000000000000e+00) (0, 0, 0.00000000000000000000e+00) (0, 0, 0.00000000000000000000e+00) (0, 0, 0.00000000000000000000e+00) (0, 0, 0.00000000000000000000e+00) (0, 0, 0.00000000000000000000e+00) (0, 0, 0.00000000000000000000e+00) (0, 0, 0.00000000000000000000e+00) (0, 0, 0.00000000000000000000e+00) (0, 0, 0.00000000000000000000e+00) (0, 0, 0.00000000000000000000e+00) (0, 0, 0.00000000000000000000e+00) (0, 0, 0.00000000000000000000e+00) (0, 0, 0.00000000000000000000e+00) (0, 0, 0.00000000000000000000e+00) (0, 0, 0.00000000000000000000e+00) (0, 0, 0.00000000000000000000e+00) (0, 0, 0.00000000000000000000e+00) (0, 0, 0.00000000000000000000e+00) (0, 0, 0.00000000000000000000e+00) (0, 0, 0.00000000000000000000e+00) (0, 0, 0.00000000000000000000e+00) (0, 0, 0.00000000000000000000e+00) (0, 0, 0.00000000000000000000e+00) (0, 0, 0.00000000000000000000e+00) (0, 0, 0.00000000000000000000e+00) (0, 0, 0.00000000000000000000e+00) (0, 0, 0.00000000000000000000e+00) (0, 0, 0.00000000000000000000e+00) (0, 0, 0.00000000000000000000e+00) (0, 0, 0.00000000000000000000e+00) (0, 0, 0.00000000000000000000e+00) (0, 0, 0.00000000000000000000e+00) (0, 0, 0.00000000000000000000e+00) (0, 0, 0.00000000000000000000e+00) (0, 0, 0.00000000000000000000e+00) (0, 0, 0.00000000000000000000e+00) (0, 0, 0.00000000000000000000e+00) (0, 0, 0.00000000000000000000e+00) (0, 0, 0.00000000000000000000e+00) (0, 0, 0.00000000000000000000e+00) (0, 0, 0.00000000000000000000e+00) (0, 0, 0.00000000000000000000e+00) (0, 0, 0.00000000000000000000e+00) (0, 0, 0.00000000000000000000e+00) (0, 0, 0.00000000000000000000e+00) (0, 0, 0.00000000000000000000e+00) (0, 0, 0.00000000000000000000e+00) (0, 0, 0.00000000000000000000e+00) (0, 0, 0.00000000000000000000e+00) (0, 0, 0.00000000000000000000e+00) (0, 0, 0.00000000000000000000e+00) (0, 0, 0.00000000000000000000e+00) (0, 0, 0.00000000000000000000e+00) (0, 0, 0.00000000000000000000e+00) (0, 0, 0.00000000000000000000e+00) (0, 0, 0.00000000000000000000e+00) (0, 0, 0.00000000000000000000e+00) (0, 0, 0.00000000000000000000e+00) (0, 0, 0.00000000000000000000e+00) (0, 0, 0.00000000000000000000e+00) (0, 0, 0.00000000000000000000e+00) (0, 0, 0.00000000000000000000e+00) (0, 0, 0.00000000000000000000e+00) (0, 0, 0.00000000000000000000e+00) (0, 0, 0.00000000000000000000e+00) (0, 0, 0.00000000000000000000e+00) (0, 0, 0.00000000000000000000e+00) (82, 3, 5.00000000000000000000e-01) (82, 3, 5.00000000000000000000e-01) (0, 3, 0.00000000000000000000e+00) (3, 3, 5.00000000000000000000e-01) (0, 3, 0.00000000000000000000e+00) 
connections (connected_to_neuron, weight)=(0, -3.47903147339820861816e-02) (1, 9.68130752444267272949e-02) (2, 1.05848200619220733643e-02) (3, 2.21418380737304687500e-01) (4, 7.65037089586257934570e-02) (5, 3.62142950296401977539e-01) (6, -1.39395207166671752930e-01) (7, -2.59286701679229736328e-01) (8, 9.76763814687728881836e-02) (9, -4.13260042667388916016e-01) (10, -4.58767563104629516602e-01) (11, -3.76944333314895629883e-01) (12, -2.41965726017951965332e-01) (13, 5.35330474376678466797e-02) (14, 1.52025997638702392578e-01) (15, 2.43476126343011856079e-02) (16, 3.73777896165847778320e-01) (17, -9.24249589443206787109e-01) (18, -5.49541413784027099609e-01) (19, -8.48960876464843750000e-02) (20, 9.25774052739143371582e-02) (21, 4.17485654354095458984e-01) (22, -3.02362143993377685547e-01) (23, -5.98698616027832031250e-01) (24, -5.41531276702880859375e+00) (25, -4.18125033378601074219e-01) (26, 1.38548135757446289062e-01) (27, -2.52492398023605346680e-01) (28, 6.84040561318397521973e-02) (29, -3.52167934179306030273e-01) (30, -1.27678620815277099609e+00) (31, -1.15377509593963623047e+00) (32, 5.61804711818695068359e-01) (33, 5.82610517740249633789e-02) (34, 2.98930525779724121094e-01) (35, -8.25261920690536499023e-02) (36, 6.28242194652557373047e-02) (37, -5.72385549545288085938e-01) (38, -4.85779881477355957031e-01) (39, 5.03801643848419189453e-01) (40, 5.51332712173461914062e-01) (41, 1.83691635727882385254e-01) (42, 3.32793116569519042969e-01) (43, -1.12298568710684776306e-02) (44, -1.93638890981674194336e-01) (45, -5.51890492439270019531e-01) (46, 3.29186432063579559326e-02) (47, 1.49643152952194213867e-01) (48, -1.31492726504802703857e-02) (49, 1.50000000000000000000e+03) (50, 1.50000000000000000000e+03) (51, 1.50000000000000000000e+03) (52, 1.50000000000000000000e+03) (53, 1.50000000000000000000e+03) (54, 1.50000000000000000000e+03) (55, 1.50000000000000000000e+03) (56, 1.50000000000000000000e+03) (57, 1.50000000000000000000e+03) (58, 1.50000000000000000000e+03) (59, 1.50000000000000000000e+03) (60, 1.50000000000000000000e+03) (61, 1.50000000000000000000e+03) (62, 1.50000000000000000000e+03) (63, 1.50000000000000000000e+03) (64, 1.50000000000000000000e+03) (65, 1.50000000000000000000e+03) (66, 1.50000000000000000000e+03) (67, 1.50000000000000000000e+03) (68, 1.50000000000000000000e+03) (69, 1.50000000000000000000e+03) (70, 1.50000000000000000000e+03) (71, 1.50000000000000000000e+03) (72, 1.50000000000000000000e+03) (73, 1.50000000000000000000e+03) (74, 1.50000000000000000000e+03) (75, 1.50000000000000000000e+03) (76, 1.50000000000000000000e+03) (77, 1.50000000000000000000e+03) (78, 1.50000000000000000000e+03) (79, 1.50000000000000000000e+03) (80, 1.50000000000000000000e+03) (81, 6.11298656463623046875e+00) (0, -1.26581490039825439453e-01) (1, 1.44774541258811950684e-01) (2, 1.14462465047836303711e-01) (3, -6.44610971212387084961e-02) (4, -3.14006268978118896484e-01) (5, -2.25175827741622924805e-01) (6, -2.13480785489082336426e-01) (7, 3.86737585067749023438e-02) (8, 6.81995153427124023438e-02) (9, 2.88796015083789825439e-02) (10, -2.64592140913009643555e-01) (11, -3.01342546939849853516e-01) (12, -2.56790876388549804688e-01) (13, -1.21753379702568054199e-01) (14, 8.47055483609437942505e-03) (15, -3.21533717215061187744e-02) (16, -1.63805887103080749512e-01) (17, -6.07126593589782714844e-01) (18, -3.06516081094741821289e-01) (19, -2.27119132876396179199e-01) (20, -1.29493921995162963867e-01) (21, 8.91959518194198608398e-02) (22, -1.16496302187442779541e-01) (23, -2.41151988506317138672e-01) (24, -3.12420010566711425781e+00) (25, -2.97774106264114379883e-01) (26, -4.24927994608879089355e-02) (27, -1.85299795120954513550e-02) (28, 1.80916860699653625488e-02) (29, -6.30356296896934509277e-02) (30, -1.68322175741195678711e-01) (31, -4.68911319971084594727e-01) (32, -1.33314743638038635254e-01) (33, -8.10772404074668884277e-02) (34, -4.51965816318988800049e-03) (35, -2.85873785614967346191e-02) (36, 9.53054428100585937500e-03) (37, -1.72389701008796691895e-01) (38, -4.72731083631515502930e-01) (39, -7.07020312547683715820e-02) (40, -4.55388985574245452881e-02) (41, 3.95287089049816131592e-02) (42, -1.12466916441917419434e-01) (43, 1.41521260142326354980e-01) (44, 1.41801536083221435547e-01) (45, -1.65471285581588745117e-01) (46, 1.05408476665616035461e-02) (47, -1.47130861878395080566e-01) (48, -1.18801947683095932007e-02) (49, 1.50000000000000000000e+03) (50, 1.50000000000000000000e+03) (51, 1.50000000000000000000e+03) (52, 1.50000000000000000000e+03) (53, 1.50000000000000000000e+03) (54, 1.50000000000000000000e+03) (55, 1.50000000000000000000e+03) (56, 1.50000000000000000000e+03) (57, 1.50000000000000000000e+03) (58, 1.50000000000000000000e+03) (59, 1.50000000000000000000e+03) (60, 1.50000000000000000000e+03) (61, 1.50000000000000000000e+03) (62, 1.50000000000000000000e+03) (63, 1.50000000000000000000e+03) (64, 1.50000000000000000000e+03) (65, 1.50000000000000000000e+03) (66, 1.50000000000000000000e+03) (67, 1.50000000000000000000e+03) (68, 1.50000000000000000000e+03) (69, 1.50000000000000000000e+03) (70, 1.50000000000000000000e+03) (71, 1.50000000000000000000e+03) (72, 1.50000000000000000000e+03) (73, 1.50000000000000000000e+03) (74, 1.50000000000000000000e+03) (75, 1.50000000000000000000e+03) (76, 1.50000000000000000000e+03) (77, 1.50000000000000000000e+03) (78, 1.50000000000000000000e+03) (79, 1.50000000000000000000e+03) (80, 1.50000000000000000000e+03) (81, 4.43446099758148193359e-01) (82, -1.58858060836791992188e+00) (83, -4.92629861831665039062e+00) (84, 1.24839496612548828125e+00) 
