FANN_FLO_2.1
num_layers=3
learning_rate=0.500000
connection_rate=1.000000
network_type=0
learning_momentum=0.000000
training_algorithm=2
train_error_function=1
train_stop_function=0
cascade_output_change_fraction=0.010000
quickprop_decay=-0.000100
quickprop_mu=1.750000
rprop_increase_factor=1.200000
rprop_decrease_factor=0.500000
rprop_delta_min=0.000000
rprop_delta_max=50.000000
rprop_delta_zero=0.100000
cascade_output_stagnation_epochs=12
cascade_candidate_change_fraction=0.010000
cascade_candidate_stagnation_epochs=12
cascade_max_out_epochs=150
cascade_min_out_epochs=50
cascade_max_cand_epochs=150
cascade_min_cand_epochs=50
cascade_num_candidate_groups=2
bit_fail_limit=3.49999994039535522461e-01
cascade_candidate_limit=1.00000000000000000000e+03
cascade_weight_multiplier=4.00000005960464477539e-01
cascade_activation_functions_count=10
cascade_activation_functions=3 5 7 8 10 11 14 15 16 17 
cascade_activation_steepnesses_count=4
cascade_activation_steepnesses=2.50000000000000000000e-01 5.00000000000000000000e-01 7.50000000000000000000e-01 1.00000000000000000000e+00 
layer_sizes=18 5 2 
scale_included=0
neurons (num_inputs, activation_function, activation_steepness)=(0, 0, 0.00000000000000000000e+00) (0, 0, 0.00000000000000000000e+00) (0, 0, 0.00000000000000000000e+00) (0, 0, 0.00000000000000000000e+00) (0, 0, 0.00000000000000000000e+00) (0, 0, 0.00000000000000000000e+00) (0, 0, 0.00000000000000000000e+00) (0, 0, 0.00000000000000000000e+00) (0, 0, 0.00000000000000000000e+00) (0, 0, 0.00000000000000000000e+00) (0, 0, 0.00000000000000000000e+00) (0, 0, 0.00000000000000000000e+00) (0, 0, 0.00000000000000000000e+00) (0, 0, 0.00000000000000000000e+00) (0, 0, 0.00000000000000000000e+00) (0, 0, 0.00000000000000000000e+00) (0, 0, 0.00000000000000000000e+00) (0, 0, 0.00000000000000000000e+00) (18, 3, 5.00000000000000000000e-01) (18, 3, 5.00000000000000000000e-01) (18, 3, 5.00000000000000000000e-01) (18, 3, 5.00000000000000000000e-01) (0, 3, 0.00000000000000000000e+00) (5, 0, 5.00000000000000000000e-01) (0, 0, 0.00000000000000000000e+00) 
connections (connected_to_neuron, weight)=(0, 7.97120213508605957031e-01) (1, 6.18478894233703613281e-01) (2, 5.44695138931274414062e-01) (3, 8.64165425300598144531e-01) (4, 4.55300271511077880859e-01) (5, -5.50592899322509765625e-01) (6, -1.29222095012664794922e+00) (7, -7.68066942691802978516e-01) (8, 1.21752209961414337158e-01) (9, 6.67529225349426269531e-01) (10, 8.46998572349548339844e-01) (11, 6.02180480957031250000e-01) (12, 4.71311748027801513672e-01) (13, 5.63922226428985595703e-01) (14, 5.42270481586456298828e-01) (15, 6.18176162242889404297e-01) (16, 7.91321516036987304688e-01) (17, -2.80372738838195800781e+00) (0, 4.30794030427932739258e-01) (1, 6.14233911037445068359e-01) (2, 5.12024104595184326172e-01) (3, 4.54245954751968383789e-01) (4, 4.95180934667587280273e-01) (5, -1.00243616104125976562e+00) (6, -2.54813641309738159180e-01) (7, -2.74825543165206909180e-01) (8, 1.38468174263834953308e-02) (9, 4.73450034856796264648e-01) (10, 5.36281526088714599609e-01) (11, 5.60689210891723632812e-01) (12, 6.41847252845764160156e-01) (13, 5.47105193138122558594e-01) (14, 5.19460439682006835938e-01) (15, 6.43915891647338867188e-01) (16, 5.18544495105743408203e-01) (17, -2.38002276420593261719e+00) (0, 5.50509631633758544922e-01) (1, 4.75022524595260620117e-01) (2, 6.13022148609161376953e-01) (3, 4.24852401018142700195e-01) (4, 5.57336449623107910156e-01) (5, -1.69455841183662414551e-01) (6, -4.05394852161407470703e-01) (7, -6.11784875392913818359e-01) (8, -1.51218935847282409668e-01) (9, 6.05294644832611083984e-01) (10, 4.74142521619796752930e-01) (11, 5.66973388195037841797e-01) (12, 5.37424504756927490234e-01) (13, 5.62592685222625732422e-01) (14, 5.05676031112670898438e-01) (15, 4.97088491916656494141e-01) (16, 3.75429600477218627930e-01) (17, -2.35863399505615234375e+00) (0, 5.70204496383666992188e-01) (1, 6.22129738330841064453e-01) (2, 6.78889214992523193359e-01) (3, 6.34592711925506591797e-01) (4, 7.98428535461425781250e-01) (5, -4.67533499002456665039e-01) (6, -5.22315025329589843750e-01) (7, -7.54798769950866699219e-01) (8, -4.54448424279689788818e-02) (9, 6.73881292343139648438e-01) (10, 5.05776703357696533203e-01) (11, 5.78582167625427246094e-01) (12, 6.07440292835235595703e-01) (13, 6.39432072639465332031e-01) (14, 5.96006751060485839844e-01) (15, 6.84024035930633544922e-01) (16, 6.28118276596069335938e-01) (17, -2.10192799568176269531e+00) (18, 3.76775479316711425781e+00) (19, 3.87173533439636230469e+00) (20, 3.81919336318969726562e+00) (21, 3.85245013236999511719e+00) (22, 6.82245790958404541016e-01) 
