FANN_FLO_2.1
num_layers=3
learning_rate=0.300000
connection_rate=1.000000
network_type=0
learning_momentum=0.000000
training_algorithm=2
train_error_function=1
train_stop_function=0
cascade_output_change_fraction=0.010000
quickprop_decay=-0.000100
quickprop_mu=1.750000
rprop_increase_factor=1.200000
rprop_decrease_factor=0.500000
rprop_delta_min=0.000000
rprop_delta_max=50.000000
rprop_delta_zero=0.100000
cascade_output_stagnation_epochs=12
cascade_candidate_change_fraction=0.010000
cascade_candidate_stagnation_epochs=12
cascade_max_out_epochs=150
cascade_min_out_epochs=50
cascade_max_cand_epochs=150
cascade_min_cand_epochs=50
cascade_num_candidate_groups=2
bit_fail_limit=3.49999994039535522461e-01
cascade_candidate_limit=1.00000000000000000000e+03
cascade_weight_multiplier=4.00000005960464477539e-01
cascade_activation_functions_count=10
cascade_activation_functions=3 5 7 8 10 11 14 15 16 17 
cascade_activation_steepnesses_count=4
cascade_activation_steepnesses=2.50000000000000000000e-01 5.00000000000000000000e-01 7.50000000000000000000e-01 1.00000000000000000000e+00 
layer_sizes=4 33 2 
scale_included=0
neurons (num_inputs, activation_function, activation_steepness)=(0, 0, 0.00000000000000000000e+00) (0, 0, 0.00000000000000000000e+00) (0, 0, 0.00000000000000000000e+00) (0, 0, 0.00000000000000000000e+00) (4, 3, 5.00000000000000000000e-01) (4, 3, 5.00000000000000000000e-01) (4, 3, 5.00000000000000000000e-01) (4, 3, 5.00000000000000000000e-01) (4, 3, 5.00000000000000000000e-01) (4, 3, 5.00000000000000000000e-01) (4, 3, 5.00000000000000000000e-01) (4, 3, 5.00000000000000000000e-01) (4, 3, 5.00000000000000000000e-01) (4, 3, 5.00000000000000000000e-01) (4, 3, 5.00000000000000000000e-01) (4, 3, 5.00000000000000000000e-01) (4, 3, 5.00000000000000000000e-01) (4, 3, 5.00000000000000000000e-01) (4, 3, 5.00000000000000000000e-01) (4, 3, 5.00000000000000000000e-01) (4, 3, 5.00000000000000000000e-01) (4, 3, 5.00000000000000000000e-01) (4, 3, 5.00000000000000000000e-01) (4, 3, 5.00000000000000000000e-01) (4, 3, 5.00000000000000000000e-01) (4, 3, 5.00000000000000000000e-01) (4, 3, 5.00000000000000000000e-01) (4, 3, 5.00000000000000000000e-01) (4, 3, 5.00000000000000000000e-01) (4, 3, 5.00000000000000000000e-01) (4, 3, 5.00000000000000000000e-01) (4, 3, 5.00000000000000000000e-01) (4, 3, 5.00000000000000000000e-01) (4, 3, 5.00000000000000000000e-01) (4, 3, 5.00000000000000000000e-01) (4, 3, 5.00000000000000000000e-01) (0, 3, 0.00000000000000000000e+00) (33, 3, 5.00000000000000000000e-01) (0, 3, 0.00000000000000000000e+00) 
connections (connected_to_neuron, weight)=(0, -7.71036624908447265625e+00) (1, 4.01732861995697021484e-01) (2, 2.57870197296142578125e+00) (3, -2.92386621236801147461e-01) (0, -4.21169877052307128906e-01) (1, 3.14834952354431152344e-01) (2, -7.11289465427398681641e-01) (3, 4.40464615821838378906e-01) (0, 3.82173805236816406250e+01) (1, 3.73718190193176269531e+00) (2, 6.34007873535156250000e+01) (3, 4.60572481155395507812e-01) (0, -5.31009435653686523438e-01) (1, 2.60665059089660644531e-01) (2, -3.77595245838165283203e-01) (3, 4.83404636383056640625e-01) (0, 6.15708065032958984375e+00) (1, -1.78556188941001892090e-01) (2, -3.35670318603515625000e+01) (3, -1.68130770325660705566e-01) (0, -7.11306631565093994141e-01) (1, 5.35805404186248779297e-01) (2, -1.37356817722320556641e+00) (3, 4.59696799516677856445e-01) (0, 7.49213933944702148438e-01) (1, -3.37709963321685791016e-01) (2, -1.73289561271667480469e+00) (3, -1.44651845097541809082e-01) (0, -2.44723439216613769531e-01) (1, 4.28275689482688903809e-02) (2, -2.84059733152389526367e-01) (3, 3.90350246429443359375e+00) (0, -4.09168481826782226562e-01) (1, 3.18392187356948852539e-01) (2, -7.73613452911376953125e-01) (3, 3.59132975339889526367e-01) (0, 1.25009521842002868652e-01) (1, 3.75464707612991333008e-01) (2, -4.72555828094482421875e+00) (3, 4.37316328287124633789e-01) (0, -1.06184282302856445312e+01) (1, -8.14824342727661132812e-01) (2, -9.63980853557586669922e-01) (3, -5.75864650309085845947e-02) (0, -8.41721177101135253906e-01) (1, 4.38015908002853393555e-01) (2, -4.30854034423828125000e+00) (3, -1.66933745145797729492e-01) (0, 1.92352275848388671875e+01) (1, -2.59499609470367431641e-01) (2, -1.05069602966308593750e+02) (3, -2.19838261604309082031e-01) (0, -3.96339505910873413086e-01) (1, 2.93713063001632690430e-01) (2, -6.45719647407531738281e-01) (3, 3.95623683929443359375e-01) (0, -4.35400396585464477539e-01) (1, 3.23208898305892944336e-01) (2, -4.33479100465774536133e-01) (3, 3.48933994770050048828e-01) (0, 5.44769239425659179688e+00) (1, -2.49838665127754211426e-01) (2, -2.72950878143310546875e+01) (3, -2.07071244716644287109e-01) (0, 4.27792282104492187500e+01) (1, -4.30052697658538818359e-01) (2, -1.52635513305664062500e+02) (3, 1.83122307062149047852e-01) (0, -5.44092833995819091797e-01) (1, 4.28767323493957519531e-01) (2, -1.06616687774658203125e+00) (3, 3.69983941316604614258e-01) (0, 6.19291915893554687500e+01) (1, -3.99566322565078735352e-01) (2, -2.23061996459960937500e+02) (3, -4.73958045244216918945e-01) (0, -5.19332468509674072266e-01) (1, 3.88636022806167602539e-01) (2, -8.78876268863677978516e-01) (3, 4.10464793443679809570e-01) (0, -7.56531953811645507812e-01) (1, 5.50988137722015380859e-01) (2, -1.10538136959075927734e+00) (3, 5.40175914764404296875e-01) (0, -4.41210031509399414062e-01) (1, 3.31066995859146118164e-01) (2, -7.65654265880584716797e-01) (3, 4.46283876895904541016e-01) (0, 3.79510726928710937500e+01) (1, -5.94986319541931152344e-01) (2, -2.05566284179687500000e+02) (3, -2.65352070331573486328e-01) (0, 3.64221153259277343750e+01) (1, 8.51124972105026245117e-02) (2, -1.99864593505859375000e+02) (3, -6.75897076725959777832e-02) (0, -1.04890575408935546875e+01) (1, -2.67145586013793945312e+00) (2, -1.02063512802124023438e+00) (3, -1.64011701941490173340e-01) (0, -4.10409957170486450195e-01) (1, 3.19373130798339843750e-01) (2, -7.77861356735229492188e-01) (3, 3.73912066221237182617e-01) (0, -8.19542598724365234375e+00) (1, 2.10128024220466613770e-01) (2, 5.75208997726440429688e+00) (3, -9.34293344616889953613e-02) (0, 4.73129005432128906250e+01) (1, -4.74977016448974609375e-01) (2, -2.07529678344726562500e+02) (3, -1.31858617067337036133e-01) (0, 4.56663322448730468750e+00) (1, -1.98795542120933532715e-01) (2, -2.43437690734863281250e+01) (3, -1.74483671784400939941e-01) (0, 7.01560139656066894531e-01) (1, -8.77420067787170410156e-01) (2, -2.48412322998046875000e+00) (3, -2.03866928815841674805e-01) (0, 6.98570556640625000000e+01) (1, -3.33344429731369018555e-01) (2, -2.44300872802734375000e+02) (3, -2.46837830543518066406e+00) (0, 3.05781865119934082031e+00) (1, -2.30201101303100585938e+00) (2, 3.81845593452453613281e+00) (3, -8.36996793746948242188e-01) (4, -1.41247091293334960938e+01) (5, -1.91534981131553649902e-02) (6, 1.63312152028083801270e-01) (7, -8.62907618284225463867e-02) (8, 2.40299240112304687500e+02) (9, -1.08851835131645202637e-01) (10, -7.02715292572975158691e-02) (11, -3.43511629104614257812e+00) (12, -4.75286468863487243652e-02) (13, -3.63490829467773437500e+01) (14, 1.50000000000000000000e+03) (15, 3.54043617248535156250e+01) (16, -7.83337707519531250000e+02) (17, -4.86438628286123275757e-03) (18, 4.91225756704807281494e-02) (19, 2.18258361816406250000e+02) (20, -1.70526138305664062500e+02) (21, -7.11799487471580505371e-02) (22, 1.45812164306640625000e+02) (23, -1.29563016816973686218e-02) (24, -2.98286825418472290039e-01) (25, -7.02390596270561218262e-02) (26, 3.05851593017578125000e+02) (27, 1.88421630859375000000e+02) (28, 1.50000000000000000000e+03) (29, -4.64041605591773986816e-02) (30, -1.31757616996765136719e+00) (31, -1.58057769775390625000e+02) (32, 2.40299240112304687500e+02) (33, -3.05596527099609375000e+02) (34, 2.47748527526855468750e+01) (35, 7.94595479965209960938e-01) (36, 2.15790823101997375488e-01) 
