FANN_FLO_2.1
num_layers=4
learning_rate=0.500000
connection_rate=1.000000
network_type=0
learning_momentum=0.000000
training_algorithm=2
train_error_function=1
train_stop_function=0
cascade_output_change_fraction=0.010000
quickprop_decay=-0.000100
quickprop_mu=1.750000
rprop_increase_factor=1.200000
rprop_decrease_factor=0.500000
rprop_delta_min=0.000000
rprop_delta_max=50.000000
rprop_delta_zero=0.100000
cascade_output_stagnation_epochs=12
cascade_candidate_change_fraction=0.010000
cascade_candidate_stagnation_epochs=12
cascade_max_out_epochs=150
cascade_min_out_epochs=50
cascade_max_cand_epochs=150
cascade_min_cand_epochs=50
cascade_num_candidate_groups=2
bit_fail_limit=3.49999994039535522461e-01
cascade_candidate_limit=1.00000000000000000000e+03
cascade_weight_multiplier=4.00000005960464477539e-01
cascade_activation_functions_count=10
cascade_activation_functions=3 5 7 8 10 11 14 15 16 17 
cascade_activation_steepnesses_count=4
cascade_activation_steepnesses=2.50000000000000000000e-01 5.00000000000000000000e-01 7.50000000000000000000e-01 1.00000000000000000000e+00 
layer_sizes=82 9 3 2 
scale_included=0
neurons (num_inputs, activation_function, activation_steepness)=(0, 0, 0.00000000000000000000e+00) (0, 0, 0.00000000000000000000e+00) (0, 0, 0.00000000000000000000e+00) (0, 0, 0.00000000000000000000e+00) (0, 0, 0.00000000000000000000e+00) (0, 0, 0.00000000000000000000e+00) (0, 0, 0.00000000000000000000e+00) (0, 0, 0.00000000000000000000e+00) (0, 0, 0.00000000000000000000e+00) (0, 0, 0.00000000000000000000e+00) (0, 0, 0.00000000000000000000e+00) (0, 0, 0.00000000000000000000e+00) (0, 0, 0.00000000000000000000e+00) (0, 0, 0.00000000000000000000e+00) (0, 0, 0.00000000000000000000e+00) (0, 0, 0.00000000000000000000e+00) (0, 0, 0.00000000000000000000e+00) (0, 0, 0.00000000000000000000e+00) (0, 0, 0.00000000000000000000e+00) (0, 0, 0.00000000000000000000e+00) (0, 0, 0.00000000000000000000e+00) (0, 0, 0.00000000000000000000e+00) (0, 0, 0.00000000000000000000e+00) (0, 0, 0.00000000000000000000e+00) (0, 0, 0.00000000000000000000e+00) (0, 0, 0.00000000000000000000e+00) (0, 0, 0.00000000000000000000e+00) (0, 0, 0.00000000000000000000e+00) (0, 0, 0.00000000000000000000e+00) (0, 0, 0.00000000000000000000e+00) (0, 0, 0.00000000000000000000e+00) (0, 0, 0.00000000000000000000e+00) (0, 0, 0.00000000000000000000e+00) (0, 0, 0.00000000000000000000e+00) (0, 0, 0.00000000000000000000e+00) (0, 0, 0.00000000000000000000e+00) (0, 0, 0.00000000000000000000e+00) (0, 0, 0.00000000000000000000e+00) (0, 0, 0.00000000000000000000e+00) (0, 0, 0.00000000000000000000e+00) (0, 0, 0.00000000000000000000e+00) (0, 0, 0.00000000000000000000e+00) (0, 0, 0.00000000000000000000e+00) (0, 0, 0.00000000000000000000e+00) (0, 0, 0.00000000000000000000e+00) (0, 0, 0.00000000000000000000e+00) (0, 0, 0.00000000000000000000e+00) (0, 0, 0.00000000000000000000e+00) (0, 0, 0.00000000000000000000e+00) (0, 0, 0.00000000000000000000e+00) (0, 0, 0.00000000000000000000e+00) (0, 0, 0.00000000000000000000e+00) (0, 0, 0.00000000000000000000e+00) (0, 0, 0.00000000000000000000e+00) (0, 0, 0.00000000000000000000e+00) (0, 0, 0.00000000000000000000e+00) (0, 0, 0.00000000000000000000e+00) (0, 0, 0.00000000000000000000e+00) (0, 0, 0.00000000000000000000e+00) (0, 0, 0.00000000000000000000e+00) (0, 0, 0.00000000000000000000e+00) (0, 0, 0.00000000000000000000e+00) (0, 0, 0.00000000000000000000e+00) (0, 0, 0.00000000000000000000e+00) (0, 0, 0.00000000000000000000e+00) (0, 0, 0.00000000000000000000e+00) (0, 0, 0.00000000000000000000e+00) (0, 0, 0.00000000000000000000e+00) (0, 0, 0.00000000000000000000e+00) (0, 0, 0.00000000000000000000e+00) (0, 0, 0.00000000000000000000e+00) (0, 0, 0.00000000000000000000e+00) (0, 0, 0.00000000000000000000e+00) (0, 0, 0.00000000000000000000e+00) (0, 0, 0.00000000000000000000e+00) (0, 0, 0.00000000000000000000e+00) (0, 0, 0.00000000000000000000e+00) (0, 0, 0.00000000000000000000e+00) (0, 0, 0.00000000000000000000e+00) (0, 0, 0.00000000000000000000e+00) (0, 0, 0.00000000000000000000e+00) (0, 0, 0.00000000000000000000e+00) (82, 3, 5.00000000000000000000e-01) (82, 3, 5.00000000000000000000e-01) (82, 3, 5.00000000000000000000e-01) (82, 3, 5.00000000000000000000e-01) (82, 3, 5.00000000000000000000e-01) (82, 3, 5.00000000000000000000e-01) (82, 3, 5.00000000000000000000e-01) (82, 3, 5.00000000000000000000e-01) (0, 3, 0.00000000000000000000e+00) (9, 3, 5.00000000000000000000e-01) (9, 3, 5.00000000000000000000e-01) (0, 3, 0.00000000000000000000e+00) (3, 3, 5.00000000000000000000e-01) (0, 3, 0.00000000000000000000e+00) 
connections (connected_to_neuron, weight)=(0, -1.47840002441406250000e+03) (1, -1.47840002441406250000e+03) (2, -1.47840002441406250000e+03) (3, -1.47840002441406250000e+03) (4, -1.48444799804687500000e+03) (5, -1.48444799804687500000e+03) (6, -1.48656311035156250000e+03) (7, -1.47840002441406250000e+03) (8, -1.50000000000000000000e+03) (9, -1.47840002441406250000e+03) (10, -1.47840002441406250000e+03) (11, -1.48444799804687500000e+03) (12, -1.48444799804687500000e+03) (13, -1.48444799804687500000e+03) (14, -1.47840002441406250000e+03) (15, -1.47840002441406250000e+03) (16, -1.50000000000000000000e+03) (17, -1.50000000000000000000e+03) (18, -1.48444799804687500000e+03) (19, -1.48444799804687500000e+03) (20, -1.49758129882812500000e+03) (21, -1.50000000000000000000e+03) (22, -1.47840002441406250000e+03) (23, -1.50000000000000000000e+03) (24, -1.50000000000000000000e+03) (25, -1.50000000000000000000e+03) (26, -1.48444799804687500000e+03) (27, -1.48656311035156250000e+03) (28, -1.50000000000000000000e+03) (29, -1.47840002441406250000e+03) (30, -1.50000000000000000000e+03) (31, -1.50000000000000000000e+03) (32, -1.48444799804687500000e+03) (33, -1.48444799804687500000e+03) (34, -1.49758129882812500000e+03) (35, -1.50000000000000000000e+03) (36, -1.47840002441406250000e+03) (37, -1.50000000000000000000e+03) (38, -1.47840002441406250000e+03) (39, -1.48444799804687500000e+03) (40, -1.47840002441406250000e+03) (41, -1.45408532714843750000e+03) (42, -1.50000000000000000000e+03) (43, -1.47840002441406250000e+03) (44, -1.47840002441406250000e+03) (45, -1.47840002441406250000e+03) (46, -1.48444799804687500000e+03) (47, -1.48444799804687500000e+03) (48, -1.49419519042968750000e+03) (49, 1.50000000000000000000e+03) (50, 1.50000000000000000000e+03) (51, 1.50000000000000000000e+03) (52, 1.50000000000000000000e+03) (53, 1.50000000000000000000e+03) (54, 1.50000000000000000000e+03) (55, 1.50000000000000000000e+03) (56, 1.50000000000000000000e+03) (57, 1.50000000000000000000e+03) (58, 1.50000000000000000000e+03) (59, 1.50000000000000000000e+03) (60, 1.50000000000000000000e+03) (61, 1.50000000000000000000e+03) (62, 1.50000000000000000000e+03) (63, 1.50000000000000000000e+03) (64, 1.50000000000000000000e+03) (65, 1.50000000000000000000e+03) (66, 1.50000000000000000000e+03) (67, 1.50000000000000000000e+03) (68, 1.50000000000000000000e+03) (69, 1.50000000000000000000e+03) (70, 1.50000000000000000000e+03) (71, 1.50000000000000000000e+03) (72, 1.50000000000000000000e+03) (73, 1.50000000000000000000e+03) (74, 1.50000000000000000000e+03) (75, 1.50000000000000000000e+03) (76, 1.50000000000000000000e+03) (77, 1.50000000000000000000e+03) (78, 1.50000000000000000000e+03) (79, 1.50000000000000000000e+03) (80, 1.50000000000000000000e+03) (81, 1.15452203750610351562e+01) (0, -1.47840002441406250000e+03) (1, -1.47840002441406250000e+03) (2, -1.47840002441406250000e+03) (3, -1.47840002441406250000e+03) (4, -1.48444799804687500000e+03) (5, -1.48444799804687500000e+03) (6, -1.48656311035156250000e+03) (7, -1.47840002441406250000e+03) (8, -1.50000000000000000000e+03) (9, -1.47840002441406250000e+03) (10, -1.47840002441406250000e+03) (11, -1.48444799804687500000e+03) (12, -1.48444799804687500000e+03) (13, -1.48444799804687500000e+03) (14, -1.47840002441406250000e+03) (15, -1.47840002441406250000e+03) (16, -1.50000000000000000000e+03) (17, -1.50000000000000000000e+03) (18, -1.48444799804687500000e+03) (19, -1.48444799804687500000e+03) (20, -1.49758129882812500000e+03) (21, -1.50000000000000000000e+03) (22, -1.47840002441406250000e+03) (23, -1.50000000000000000000e+03) (24, -1.50000000000000000000e+03) (25, -1.50000000000000000000e+03) (26, -1.48444799804687500000e+03) (27, -1.48656311035156250000e+03) (28, -1.50000000000000000000e+03) (29, -1.47840002441406250000e+03) (30, -1.50000000000000000000e+03) (31, -1.50000000000000000000e+03) (32, -1.48444799804687500000e+03) (33, -1.48444799804687500000e+03) (34, -1.49758129882812500000e+03) (35, -1.50000000000000000000e+03) (36, -1.47840002441406250000e+03) (37, -1.50000000000000000000e+03) (38, -1.47840002441406250000e+03) (39, -1.48444799804687500000e+03) (40, -1.47840002441406250000e+03) (41, -1.45408532714843750000e+03) (42, -1.50000000000000000000e+03) (43, -1.47840002441406250000e+03) (44, -1.47840002441406250000e+03) (45, -1.47840002441406250000e+03) (46, -1.48444799804687500000e+03) (47, -1.48444799804687500000e+03) (48, -1.49419519042968750000e+03) (49, 1.50000000000000000000e+03) (50, 1.50000000000000000000e+03) (51, 1.50000000000000000000e+03) (52, 1.50000000000000000000e+03) (53, 1.50000000000000000000e+03) (54, 1.50000000000000000000e+03) (55, 1.50000000000000000000e+03) (56, 1.50000000000000000000e+03) (57, 1.50000000000000000000e+03) (58, 1.50000000000000000000e+03) (59, 1.50000000000000000000e+03) (60, 1.50000000000000000000e+03) (61, 1.50000000000000000000e+03) (62, 1.50000000000000000000e+03) (63, 1.50000000000000000000e+03) (64, 1.50000000000000000000e+03) (65, 1.50000000000000000000e+03) (66, 1.50000000000000000000e+03) (67, 1.50000000000000000000e+03) (68, 1.50000000000000000000e+03) (69, 1.50000000000000000000e+03) (70, 1.50000000000000000000e+03) (71, 1.50000000000000000000e+03) (72, 1.50000000000000000000e+03) (73, 1.50000000000000000000e+03) (74, 1.50000000000000000000e+03) (75, 1.50000000000000000000e+03) (76, 1.50000000000000000000e+03) (77, 1.50000000000000000000e+03) (78, 1.50000000000000000000e+03) (79, 1.50000000000000000000e+03) (80, 1.50000000000000000000e+03) (81, 3.27842742204666137695e-01) (0, 1.15709412097930908203e+00) (1, 1.45986437797546386719e+00) (2, -1.29892003536224365234e+00) (3, -2.03626608848571777344e+00) (4, 5.88871389627456665039e-02) (5, -1.51598513126373291016e+00) (6, 1.38210594654083251953e-01) (7, 1.08137488365173339844e+00) (8, 1.04834151268005371094e+00) (9, -4.64047431945800781250e-01) (10, 4.32349115610122680664e-01) (11, 3.31082075834274291992e-01) (12, 1.46630620956420898438e+00) (13, -1.21569804847240447998e-01) (14, 2.86083698272705078125e-01) (15, 5.74474409222602844238e-02) (16, -7.64958083629608154297e-01) (17, -1.21837270259857177734e+00) (18, -1.52260744571685791016e+00) (19, -4.59071844816207885742e-01) (20, 1.86960697174072265625e-01) (21, -3.40742200613021850586e-01) (22, -7.28330314159393310547e-01) (23, -7.15686380863189697266e-01) (24, -8.27437591552734375000e+00) (25, -5.60340046882629394531e-01) (26, 1.59956228733062744141e+00) (27, 1.69249311089515686035e-01) (28, 7.73665249347686767578e-01) (29, -1.62609124183654785156e+00) (30, -5.54664134979248046875e-01) (31, -7.51021146774291992188e-01) (32, -1.06787562370300292969e+00) (33, -3.30901801586151123047e-01) (34, -5.74806854128837585449e-02) (35, -2.35157847404479980469e-01) (36, -1.25804293155670166016e+00) (37, -1.82366386055946350098e-01) (38, -1.08110105991363525391e+00) (39, -9.78813767433166503906e-01) (40, -2.89298623800277709961e-01) (41, -3.26878190040588378906e-01) (42, -4.39019381999969482422e-01) (43, -1.40300881862640380859e+00) (44, -6.11800789833068847656e-01) (45, -1.12152969837188720703e+00) (46, 1.17070364952087402344e+00) (47, -3.29354047775268554688e-01) (48, -4.01505738496780395508e-01) (49, 1.50000000000000000000e+03) (50, 1.50000000000000000000e+03) (51, 1.50000000000000000000e+03) (52, 1.50000000000000000000e+03) (53, 1.50000000000000000000e+03) (54, 1.50000000000000000000e+03) (55, 1.50000000000000000000e+03) (56, 1.50000000000000000000e+03) (57, 1.50000000000000000000e+03) (58, 1.50000000000000000000e+03) (59, 1.50000000000000000000e+03) (60, 1.50000000000000000000e+03) (61, 1.50000000000000000000e+03) (62, 1.50000000000000000000e+03) (63, 1.50000000000000000000e+03) (64, 1.50000000000000000000e+03) (65, 1.50000000000000000000e+03) (66, 1.50000000000000000000e+03) (67, 1.50000000000000000000e+03) (68, 1.50000000000000000000e+03) (69, 1.50000000000000000000e+03) (70, 1.50000000000000000000e+03) (71, 1.50000000000000000000e+03) (72, 1.50000000000000000000e+03) (73, 1.50000000000000000000e+03) (74, 1.50000000000000000000e+03) (75, 1.50000000000000000000e+03) (76, 1.50000000000000000000e+03) (77, 1.50000000000000000000e+03) (78, 1.50000000000000000000e+03) (79, 1.50000000000000000000e+03) (80, 1.50000000000000000000e+03) (81, 3.93241691589355468750e+00) (0, -1.47840002441406250000e+03) (1, -1.47840002441406250000e+03) (2, -1.47840002441406250000e+03) (3, -1.47840002441406250000e+03) (4, -1.48444799804687500000e+03) (5, -1.48444799804687500000e+03) (6, -1.48656311035156250000e+03) (7, -1.47840002441406250000e+03) (8, -1.50000000000000000000e+03) (9, -1.47840002441406250000e+03) (10, -1.47840002441406250000e+03) (11, -1.48444799804687500000e+03) (12, -1.48444799804687500000e+03) (13, -1.48444799804687500000e+03) (14, -1.47840002441406250000e+03) (15, -1.47840002441406250000e+03) (16, -1.50000000000000000000e+03) (17, -1.50000000000000000000e+03) (18, -1.48444799804687500000e+03) (19, -1.48444799804687500000e+03) (20, -1.49758129882812500000e+03) (21, -1.50000000000000000000e+03) (22, -1.47840002441406250000e+03) (23, -1.50000000000000000000e+03) (24, -1.50000000000000000000e+03) (25, -1.50000000000000000000e+03) (26, -1.48444799804687500000e+03) (27, -1.48656311035156250000e+03) (28, -1.50000000000000000000e+03) (29, -1.47840002441406250000e+03) (30, -1.50000000000000000000e+03) (31, -1.50000000000000000000e+03) (32, -1.48444799804687500000e+03) (33, -1.48444799804687500000e+03) (34, -1.49758129882812500000e+03) (35, -1.50000000000000000000e+03) (36, -1.47840002441406250000e+03) (37, -1.50000000000000000000e+03) (38, -1.47840002441406250000e+03) (39, -1.48444799804687500000e+03) (40, -1.47840002441406250000e+03) (41, -1.45408532714843750000e+03) (42, -1.50000000000000000000e+03) (43, -1.47840002441406250000e+03) (44, -1.47840002441406250000e+03) (45, -1.47840002441406250000e+03) (46, -1.48444799804687500000e+03) (47, -1.48444799804687500000e+03) (48, -1.49419519042968750000e+03) (49, 1.50000000000000000000e+03) (50, 1.50000000000000000000e+03) (51, 1.50000000000000000000e+03) (52, 1.50000000000000000000e+03) (53, 1.50000000000000000000e+03) (54, 1.50000000000000000000e+03) (55, 1.50000000000000000000e+03) (56, 1.50000000000000000000e+03) (57, 1.50000000000000000000e+03) (58, 1.50000000000000000000e+03) (59, 1.50000000000000000000e+03) (60, 1.50000000000000000000e+03) (61, 1.50000000000000000000e+03) (62, 1.50000000000000000000e+03) (63, 1.50000000000000000000e+03) (64, 1.50000000000000000000e+03) (65, 1.50000000000000000000e+03) (66, 1.50000000000000000000e+03) (67, 1.50000000000000000000e+03) (68, 1.50000000000000000000e+03) (69, 1.50000000000000000000e+03) (70, 1.50000000000000000000e+03) (71, 1.50000000000000000000e+03) (72, 1.50000000000000000000e+03) (73, 1.50000000000000000000e+03) (74, 1.50000000000000000000e+03) (75, 1.50000000000000000000e+03) (76, 1.50000000000000000000e+03) (77, 1.50000000000000000000e+03) (78, 1.50000000000000000000e+03) (79, 1.50000000000000000000e+03) (80, 1.50000000000000000000e+03) (81, -2.76512056589126586914e-01) (0, -1.47840002441406250000e+03) (1, -1.47840002441406250000e+03) (2, -1.47840002441406250000e+03) (3, -1.47840002441406250000e+03) (4, -1.48444799804687500000e+03) (5, -1.48444799804687500000e+03) (6, -1.48656311035156250000e+03) (7, -1.47840002441406250000e+03) (8, -1.50000000000000000000e+03) (9, -1.47840002441406250000e+03) (10, -1.47840002441406250000e+03) (11, -1.48444799804687500000e+03) (12, -1.48444799804687500000e+03) (13, -1.48444799804687500000e+03) (14, -1.47840002441406250000e+03) (15, -1.47840002441406250000e+03) (16, -1.50000000000000000000e+03) (17, -1.50000000000000000000e+03) (18, -1.48444799804687500000e+03) (19, -1.48444799804687500000e+03) (20, -1.49758129882812500000e+03) (21, -1.50000000000000000000e+03) (22, -1.47840002441406250000e+03) (23, -1.50000000000000000000e+03) (24, -1.50000000000000000000e+03) (25, -1.50000000000000000000e+03) (26, -1.48444799804687500000e+03) (27, -1.48656311035156250000e+03) (28, -1.50000000000000000000e+03) (29, -1.47840002441406250000e+03) (30, -1.50000000000000000000e+03) (31, -1.50000000000000000000e+03) (32, -1.48444799804687500000e+03) (33, -1.48444799804687500000e+03) (34, -1.49758129882812500000e+03) (35, -1.50000000000000000000e+03) (36, -1.47840002441406250000e+03) (37, -1.50000000000000000000e+03) (38, -1.47840002441406250000e+03) (39, -1.48444799804687500000e+03) (40, -1.47840002441406250000e+03) (41, -1.45408532714843750000e+03) (42, -1.50000000000000000000e+03) (43, -1.47840002441406250000e+03) (44, -1.47840002441406250000e+03) (45, -1.47840002441406250000e+03) (46, -1.48444799804687500000e+03) (47, -1.48444799804687500000e+03) (48, -1.49419519042968750000e+03) (49, 1.50000000000000000000e+03) (50, 1.50000000000000000000e+03) (51, 1.50000000000000000000e+03) (52, 1.50000000000000000000e+03) (53, 1.50000000000000000000e+03) (54, 1.50000000000000000000e+03) (55, 1.50000000000000000000e+03) (56, 1.50000000000000000000e+03) (57, 1.50000000000000000000e+03) (58, 1.50000000000000000000e+03) (59, 1.50000000000000000000e+03) (60, 1.50000000000000000000e+03) (61, 1.50000000000000000000e+03) (62, 1.50000000000000000000e+03) (63, 1.50000000000000000000e+03) (64, 1.50000000000000000000e+03) (65, 1.50000000000000000000e+03) (66, 1.50000000000000000000e+03) (67, 1.50000000000000000000e+03) (68, 1.50000000000000000000e+03) (69, 1.50000000000000000000e+03) (70, 1.50000000000000000000e+03) (71, 1.50000000000000000000e+03) (72, 1.50000000000000000000e+03) (73, 1.50000000000000000000e+03) (74, 1.50000000000000000000e+03) (75, 1.50000000000000000000e+03) (76, 1.50000000000000000000e+03) (77, 1.50000000000000000000e+03) (78, 1.50000000000000000000e+03) (79, 1.50000000000000000000e+03) (80, 1.50000000000000000000e+03) (81, 1.62156715393066406250e+01) (0, -1.47840002441406250000e+03) (1, -1.47840002441406250000e+03) (2, -1.47840002441406250000e+03) (3, -1.47840002441406250000e+03) (4, -1.48444799804687500000e+03) (5, -1.48444799804687500000e+03) (6, -1.48656311035156250000e+03) (7, -1.47840002441406250000e+03) (8, -1.50000000000000000000e+03) (9, -1.47840002441406250000e+03) (10, -1.47840002441406250000e+03) (11, -1.48444799804687500000e+03) (12, -1.48444799804687500000e+03) (13, -1.48444799804687500000e+03) (14, -1.47840002441406250000e+03) (15, -1.47840002441406250000e+03) (16, -1.50000000000000000000e+03) (17, -1.50000000000000000000e+03) (18, -1.48444799804687500000e+03) (19, -1.48444799804687500000e+03) (20, -1.49758129882812500000e+03) (21, -1.50000000000000000000e+03) (22, -1.47840002441406250000e+03) (23, -1.50000000000000000000e+03) (24, -1.50000000000000000000e+03) (25, -1.50000000000000000000e+03) (26, -1.48444799804687500000e+03) (27, -1.48656311035156250000e+03) (28, -1.50000000000000000000e+03) (29, -1.47840002441406250000e+03) (30, -1.50000000000000000000e+03) (31, -1.50000000000000000000e+03) (32, -1.48444799804687500000e+03) (33, -1.48444799804687500000e+03) (34, -1.49758129882812500000e+03) (35, -1.50000000000000000000e+03) (36, -1.47840002441406250000e+03) (37, -1.50000000000000000000e+03) (38, -1.47840002441406250000e+03) (39, -1.48444799804687500000e+03) (40, -1.47840002441406250000e+03) (41, -1.45408532714843750000e+03) (42, -1.50000000000000000000e+03) (43, -1.47840002441406250000e+03) (44, -1.47840002441406250000e+03) (45, -1.47840002441406250000e+03) (46, -1.48444799804687500000e+03) (47, -1.48444799804687500000e+03) (48, -1.49419519042968750000e+03) (49, 1.50000000000000000000e+03) (50, 1.50000000000000000000e+03) (51, 1.50000000000000000000e+03) (52, 1.50000000000000000000e+03) (53, 1.50000000000000000000e+03) (54, 1.50000000000000000000e+03) (55, 1.50000000000000000000e+03) (56, 1.50000000000000000000e+03) (57, 1.50000000000000000000e+03) (58, 1.50000000000000000000e+03) (59, 1.50000000000000000000e+03) (60, 1.50000000000000000000e+03) (61, 1.50000000000000000000e+03) (62, 1.50000000000000000000e+03) (63, 1.50000000000000000000e+03) (64, 1.50000000000000000000e+03) (65, 1.50000000000000000000e+03) (66, 1.50000000000000000000e+03) (67, 1.50000000000000000000e+03) (68, 1.50000000000000000000e+03) (69, 1.50000000000000000000e+03) (70, 1.50000000000000000000e+03) (71, 1.50000000000000000000e+03) (72, 1.50000000000000000000e+03) (73, 1.50000000000000000000e+03) (74, 1.50000000000000000000e+03) (75, 1.50000000000000000000e+03) (76, 1.50000000000000000000e+03) (77, 1.50000000000000000000e+03) (78, 1.50000000000000000000e+03) (79, 1.50000000000000000000e+03) (80, 1.50000000000000000000e+03) (81, 3.36430370807647705078e-01) (0, -1.47840002441406250000e+03) (1, -1.47840002441406250000e+03) (2, -1.47840002441406250000e+03) (3, -1.47840002441406250000e+03) (4, -1.48444799804687500000e+03) (5, -1.48444799804687500000e+03) (6, -1.48656311035156250000e+03) (7, -1.47840002441406250000e+03) (8, -1.50000000000000000000e+03) (9, -1.47840002441406250000e+03) (10, -1.47840002441406250000e+03) (11, -1.48444799804687500000e+03) (12, -1.48444799804687500000e+03) (13, -1.48444799804687500000e+03) (14, -1.47840002441406250000e+03) (15, -1.47840002441406250000e+03) (16, -1.50000000000000000000e+03) (17, -1.50000000000000000000e+03) (18, -1.48444799804687500000e+03) (19, -1.48444799804687500000e+03) (20, -1.49758129882812500000e+03) (21, -1.50000000000000000000e+03) (22, -1.47840002441406250000e+03) (23, -1.50000000000000000000e+03) (24, -1.50000000000000000000e+03) (25, -1.50000000000000000000e+03) (26, -1.48444799804687500000e+03) (27, -1.48656311035156250000e+03) (28, -1.50000000000000000000e+03) (29, -1.47840002441406250000e+03) (30, -1.50000000000000000000e+03) (31, -1.50000000000000000000e+03) (32, -1.48444799804687500000e+03) (33, -1.48444799804687500000e+03) (34, -1.49758129882812500000e+03) (35, -1.50000000000000000000e+03) (36, -1.47840002441406250000e+03) (37, -1.50000000000000000000e+03) (38, -1.47840002441406250000e+03) (39, -1.48444799804687500000e+03) (40, -1.47840002441406250000e+03) (41, -1.45408532714843750000e+03) (42, -1.50000000000000000000e+03) (43, -1.47840002441406250000e+03) (44, -1.47840002441406250000e+03) (45, -1.47840002441406250000e+03) (46, -1.48444799804687500000e+03) (47, -1.48444799804687500000e+03) (48, -1.49419519042968750000e+03) (49, 1.50000000000000000000e+03) (50, 1.50000000000000000000e+03) (51, 1.50000000000000000000e+03) (52, 1.50000000000000000000e+03) (53, 1.50000000000000000000e+03) (54, 1.50000000000000000000e+03) (55, 1.50000000000000000000e+03) (56, 1.50000000000000000000e+03) (57, 1.50000000000000000000e+03) (58, 1.50000000000000000000e+03) (59, 1.50000000000000000000e+03) (60, 1.50000000000000000000e+03) (61, 1.50000000000000000000e+03) (62, 1.50000000000000000000e+03) (63, 1.50000000000000000000e+03) (64, 1.50000000000000000000e+03) (65, 1.50000000000000000000e+03) (66, 1.50000000000000000000e+03) (67, 1.50000000000000000000e+03) (68, 1.50000000000000000000e+03) (69, 1.50000000000000000000e+03) (70, 1.50000000000000000000e+03) (71, 1.50000000000000000000e+03) (72, 1.50000000000000000000e+03) (73, 1.50000000000000000000e+03) (74, 1.50000000000000000000e+03) (75, 1.50000000000000000000e+03) (76, 1.50000000000000000000e+03) (77, 1.50000000000000000000e+03) (78, 1.50000000000000000000e+03) (79, 1.50000000000000000000e+03) (80, 1.50000000000000000000e+03) (81, -2.28394553065299987793e-01) (0, -1.47840002441406250000e+03) (1, -1.47840002441406250000e+03) (2, -1.47840002441406250000e+03) (3, -1.47840002441406250000e+03) (4, -1.48444799804687500000e+03) (5, -1.48444799804687500000e+03) (6, -1.48656311035156250000e+03) (7, -1.47840002441406250000e+03) (8, -1.50000000000000000000e+03) (9, -1.47840002441406250000e+03) (10, -1.47840002441406250000e+03) (11, -1.48444799804687500000e+03) (12, -1.48444799804687500000e+03) (13, -1.48444799804687500000e+03) (14, -1.47840002441406250000e+03) (15, -1.47840002441406250000e+03) (16, -1.50000000000000000000e+03) (17, -1.50000000000000000000e+03) (18, -1.48444799804687500000e+03) (19, -1.48444799804687500000e+03) (20, -1.49758129882812500000e+03) (21, -1.50000000000000000000e+03) (22, -1.47840002441406250000e+03) (23, -1.50000000000000000000e+03) (24, -1.50000000000000000000e+03) (25, -1.50000000000000000000e+03) (26, -1.48444799804687500000e+03) (27, -1.48656311035156250000e+03) (28, -1.50000000000000000000e+03) (29, -1.47840002441406250000e+03) (30, -1.50000000000000000000e+03) (31, -1.50000000000000000000e+03) (32, -1.48444799804687500000e+03) (33, -1.48444799804687500000e+03) (34, -1.49758129882812500000e+03) (35, -1.50000000000000000000e+03) (36, -1.47840002441406250000e+03) (37, -1.50000000000000000000e+03) (38, -1.47840002441406250000e+03) (39, -1.48444799804687500000e+03) (40, -1.47840002441406250000e+03) (41, -1.45408532714843750000e+03) (42, -1.50000000000000000000e+03) (43, -1.47840002441406250000e+03) (44, -1.47840002441406250000e+03) (45, -1.47840002441406250000e+03) (46, -1.48444799804687500000e+03) (47, -1.48444799804687500000e+03) (48, -1.49419519042968750000e+03) (49, 1.50000000000000000000e+03) (50, 1.50000000000000000000e+03) (51, 1.50000000000000000000e+03) (52, 1.50000000000000000000e+03) (53, 1.50000000000000000000e+03) (54, 1.50000000000000000000e+03) (55, 1.50000000000000000000e+03) (56, 1.50000000000000000000e+03) (57, 1.50000000000000000000e+03) (58, 1.50000000000000000000e+03) (59, 1.50000000000000000000e+03) (60, 1.50000000000000000000e+03) (61, 1.50000000000000000000e+03) (62, 1.50000000000000000000e+03) (63, 1.50000000000000000000e+03) (64, 1.50000000000000000000e+03) (65, 1.50000000000000000000e+03) (66, 1.50000000000000000000e+03) (67, 1.50000000000000000000e+03) (68, 1.50000000000000000000e+03) (69, 1.50000000000000000000e+03) (70, 1.50000000000000000000e+03) (71, 1.50000000000000000000e+03) (72, 1.50000000000000000000e+03) (73, 1.50000000000000000000e+03) (74, 1.50000000000000000000e+03) (75, 1.50000000000000000000e+03) (76, 1.50000000000000000000e+03) (77, 1.50000000000000000000e+03) (78, 1.50000000000000000000e+03) (79, 1.50000000000000000000e+03) (80, 1.50000000000000000000e+03) (81, 1.72868080139160156250e+01) (82, 1.50000000000000000000e+03) (83, 1.50000000000000000000e+03) (84, 2.51950897216796875000e+02) (85, 1.50000000000000000000e+03) (86, 1.50000000000000000000e+03) (87, 1.50000000000000000000e+03) (88, 1.50000000000000000000e+03) (89, 1.50000000000000000000e+03) (90, -1.21979355812072753906e+00) (82, 1.50000000000000000000e+03) (83, 1.50000000000000000000e+03) (84, 3.19727873802185058594e+00) (85, 1.50000000000000000000e+03) (86, 1.50000000000000000000e+03) (87, 1.50000000000000000000e+03) (88, 1.50000000000000000000e+03) (89, 1.50000000000000000000e+03) (90, -2.24990630149841308594e+00) (91, -1.61456406116485595703e+00) (92, -3.25597047805786132812e+00) (93, 1.10971236228942871094e+00) 
