FANN_FLO_2.1
num_layers=3
learning_rate=0.500000
connection_rate=1.000000
network_type=0
learning_momentum=0.000000
training_algorithm=2
train_error_function=1
train_stop_function=0
cascade_output_change_fraction=0.010000
quickprop_decay=-0.000100
quickprop_mu=1.750000
rprop_increase_factor=1.200000
rprop_decrease_factor=0.500000
rprop_delta_min=0.000000
rprop_delta_max=50.000000
rprop_delta_zero=0.100000
cascade_output_stagnation_epochs=12
cascade_candidate_change_fraction=0.010000
cascade_candidate_stagnation_epochs=12
cascade_max_out_epochs=150
cascade_min_out_epochs=50
cascade_max_cand_epochs=150
cascade_min_cand_epochs=50
cascade_num_candidate_groups=2
bit_fail_limit=3.49999994039535522461e-01
cascade_candidate_limit=1.00000000000000000000e+03
cascade_weight_multiplier=4.00000005960464477539e-01
cascade_activation_functions_count=10
cascade_activation_functions=3 5 7 8 10 11 14 15 16 17 
cascade_activation_steepnesses_count=4
cascade_activation_steepnesses=2.50000000000000000000e-01 5.00000000000000000000e-01 7.50000000000000000000e-01 1.00000000000000000000e+00 
layer_sizes=82 9 2 
scale_included=0
neurons (num_inputs, activation_function, activation_steepness)=(0, 0, 0.00000000000000000000e+00) (0, 0, 0.00000000000000000000e+00) (0, 0, 0.00000000000000000000e+00) (0, 0, 0.00000000000000000000e+00) (0, 0, 0.00000000000000000000e+00) (0, 0, 0.00000000000000000000e+00) (0, 0, 0.00000000000000000000e+00) (0, 0, 0.00000000000000000000e+00) (0, 0, 0.00000000000000000000e+00) (0, 0, 0.00000000000000000000e+00) (0, 0, 0.00000000000000000000e+00) (0, 0, 0.00000000000000000000e+00) (0, 0, 0.00000000000000000000e+00) (0, 0, 0.00000000000000000000e+00) (0, 0, 0.00000000000000000000e+00) (0, 0, 0.00000000000000000000e+00) (0, 0, 0.00000000000000000000e+00) (0, 0, 0.00000000000000000000e+00) (0, 0, 0.00000000000000000000e+00) (0, 0, 0.00000000000000000000e+00) (0, 0, 0.00000000000000000000e+00) (0, 0, 0.00000000000000000000e+00) (0, 0, 0.00000000000000000000e+00) (0, 0, 0.00000000000000000000e+00) (0, 0, 0.00000000000000000000e+00) (0, 0, 0.00000000000000000000e+00) (0, 0, 0.00000000000000000000e+00) (0, 0, 0.00000000000000000000e+00) (0, 0, 0.00000000000000000000e+00) (0, 0, 0.00000000000000000000e+00) (0, 0, 0.00000000000000000000e+00) (0, 0, 0.00000000000000000000e+00) (0, 0, 0.00000000000000000000e+00) (0, 0, 0.00000000000000000000e+00) (0, 0, 0.00000000000000000000e+00) (0, 0, 0.00000000000000000000e+00) (0, 0, 0.00000000000000000000e+00) (0, 0, 0.00000000000000000000e+00) (0, 0, 0.00000000000000000000e+00) (0, 0, 0.00000000000000000000e+00) (0, 0, 0.00000000000000000000e+00) (0, 0, 0.00000000000000000000e+00) (0, 0, 0.00000000000000000000e+00) (0, 0, 0.00000000000000000000e+00) (0, 0, 0.00000000000000000000e+00) (0, 0, 0.00000000000000000000e+00) (0, 0, 0.00000000000000000000e+00) (0, 0, 0.00000000000000000000e+00) (0, 0, 0.00000000000000000000e+00) (0, 0, 0.00000000000000000000e+00) (0, 0, 0.00000000000000000000e+00) (0, 0, 0.00000000000000000000e+00) (0, 0, 0.00000000000000000000e+00) (0, 0, 0.00000000000000000000e+00) (0, 0, 0.00000000000000000000e+00) (0, 0, 0.00000000000000000000e+00) (0, 0, 0.00000000000000000000e+00) (0, 0, 0.00000000000000000000e+00) (0, 0, 0.00000000000000000000e+00) (0, 0, 0.00000000000000000000e+00) (0, 0, 0.00000000000000000000e+00) (0, 0, 0.00000000000000000000e+00) (0, 0, 0.00000000000000000000e+00) (0, 0, 0.00000000000000000000e+00) (0, 0, 0.00000000000000000000e+00) (0, 0, 0.00000000000000000000e+00) (0, 0, 0.00000000000000000000e+00) (0, 0, 0.00000000000000000000e+00) (0, 0, 0.00000000000000000000e+00) (0, 0, 0.00000000000000000000e+00) (0, 0, 0.00000000000000000000e+00) (0, 0, 0.00000000000000000000e+00) (0, 0, 0.00000000000000000000e+00) (0, 0, 0.00000000000000000000e+00) (0, 0, 0.00000000000000000000e+00) (0, 0, 0.00000000000000000000e+00) (0, 0, 0.00000000000000000000e+00) (0, 0, 0.00000000000000000000e+00) (0, 0, 0.00000000000000000000e+00) (0, 0, 0.00000000000000000000e+00) (0, 0, 0.00000000000000000000e+00) (0, 0, 0.00000000000000000000e+00) (82, 3, 5.00000000000000000000e-01) (82, 3, 5.00000000000000000000e-01) (82, 3, 5.00000000000000000000e-01) (82, 3, 5.00000000000000000000e-01) (82, 3, 5.00000000000000000000e-01) (82, 3, 5.00000000000000000000e-01) (82, 3, 5.00000000000000000000e-01) (82, 3, 5.00000000000000000000e-01) (0, 3, 0.00000000000000000000e+00) (9, 3, 5.00000000000000000000e-01) (0, 3, 0.00000000000000000000e+00) 
connections (connected_to_neuron, weight)=(0, -1.18169680237770080566e-01) (1, 1.72465294599533081055e-02) (2, -9.77601930499076843262e-02) (3, -7.84211382269859313965e-02) (4, 2.58857637643814086914e-01) (5, 5.23748770356178283691e-02) (6, 1.84027716517448425293e-01) (7, -1.57386675477027893066e-01) (8, 6.85515403747558593750e-02) (9, -1.94179397076368331909e-02) (10, -1.47873207926750183105e-01) (11, -2.14792087674140930176e-01) (12, -2.13420093059539794922e-01) (13, -4.75563108921051025391e-02) (14, -6.47742021828889846802e-03) (15, 1.09726175665855407715e-01) (16, 1.17784470319747924805e-01) (17, -3.58611732721328735352e-01) (18, -1.76975503563880920410e-01) (19, -1.59754633903503417969e-01) (20, 4.27059195935726165771e-02) (21, -3.05150449275970458984e-03) (22, -3.64445522427558898926e-02) (23, -2.15751796960830688477e-01) (24, -1.47556281089782714844e+00) (25, -2.64402449131011962891e-01) (26, 2.86885887384414672852e-01) (27, -1.37840896844863891602e-01) (28, 2.86405086517333984375e-01) (29, -2.40073576569557189941e-01) (30, -3.01430553197860717773e-01) (31, -4.37987059354782104492e-01) (32, -5.55453635752201080322e-02) (33, 1.32908070087432861328e+00) (34, 2.60726511478424072266e-01) (35, -6.27829357981681823730e-02) (36, -1.67103767395019531250e-01) (37, -7.32792094349861145020e-02) (38, -3.66049736738204956055e-01) (39, -1.75110518932342529297e-01) (40, -1.98881402611732482910e-01) (41, -7.58419036865234375000e-02) (42, -7.03999772667884826660e-02) (43, -1.29983991384506225586e-01) (44, -8.89203920960426330566e-02) (45, -1.42653763294219970703e-01) (46, -1.45702615380287170410e-01) (47, -3.88156808912754058838e-02) (48, -3.70301306247711181641e-02) (49, 1.50000000000000000000e+03) (50, 1.50000000000000000000e+03) (51, 1.50000000000000000000e+03) (52, 1.50000000000000000000e+03) (53, 1.50000000000000000000e+03) (54, 1.50000000000000000000e+03) (55, 1.50000000000000000000e+03) (56, 1.50000000000000000000e+03) (57, 1.50000000000000000000e+03) (58, 1.50000000000000000000e+03) (59, 1.50000000000000000000e+03) (60, 1.50000000000000000000e+03) (61, 1.50000000000000000000e+03) (62, 1.50000000000000000000e+03) (63, 1.50000000000000000000e+03) (64, 1.50000000000000000000e+03) (65, 1.50000000000000000000e+03) (66, 1.50000000000000000000e+03) (67, 1.50000000000000000000e+03) (68, 1.50000000000000000000e+03) (69, 1.50000000000000000000e+03) (70, 1.50000000000000000000e+03) (71, 1.50000000000000000000e+03) (72, 1.50000000000000000000e+03) (73, 1.50000000000000000000e+03) (74, 1.50000000000000000000e+03) (75, 1.50000000000000000000e+03) (76, 1.50000000000000000000e+03) (77, 1.50000000000000000000e+03) (78, 1.50000000000000000000e+03) (79, 1.50000000000000000000e+03) (80, 1.50000000000000000000e+03) (81, 1.11646628379821777344e+00) (0, 1.50000000000000000000e+03) (1, 1.33978100585937500000e+03) (2, 1.50000000000000000000e+03) (3, 1.50000000000000000000e+03) (4, 1.50000000000000000000e+03) (5, 5.00509071350097656250e+01) (6, 2.12315444946289062500e+01) (7, 1.50000000000000000000e+03) (8, 1.50000000000000000000e+03) (9, 1.50000000000000000000e+03) (10, 1.50000000000000000000e+03) (11, 1.50000000000000000000e+03) (12, 1.50000000000000000000e+03) (13, 1.50000000000000000000e+03) (14, 1.49116650390625000000e+03) (15, 1.50000000000000000000e+03) (16, 1.50000000000000000000e+03) (17, 1.50000000000000000000e+03) (18, 1.50000000000000000000e+03) (19, 1.50000000000000000000e+03) (20, 1.45862939453125000000e+03) (21, 1.50000000000000000000e+03) (22, 1.50000000000000000000e+03) (23, 1.50000000000000000000e+03) (24, 1.50000000000000000000e+03) (25, 1.50000000000000000000e+03) (26, 1.16910255432128906250e+02) (27, 1.50000000000000000000e+03) (28, 1.50000000000000000000e+03) (29, 1.50000000000000000000e+03) (30, 1.50000000000000000000e+03) (31, 1.50000000000000000000e+03) (32, 8.51041946411132812500e+01) (33, 1.42678100585937500000e+02) (34, 1.50000000000000000000e+03) (35, 1.50000000000000000000e+03) (36, 1.50000000000000000000e+03) (37, 1.50000000000000000000e+03) (38, 1.50000000000000000000e+03) (39, 1.50000000000000000000e+03) (40, -8.35636444091796875000e+01) (41, 1.50000000000000000000e+03) (42, 1.50000000000000000000e+03) (43, 1.50000000000000000000e+03) (44, 1.50000000000000000000e+03) (45, 1.50000000000000000000e+03) (46, 1.50000000000000000000e+03) (47, -5.21707296371459960938e+00) (48, 1.50000000000000000000e+03) (49, 1.50000000000000000000e+03) (50, 1.50000000000000000000e+03) (51, 1.50000000000000000000e+03) (52, 1.50000000000000000000e+03) (53, 1.50000000000000000000e+03) (54, 1.50000000000000000000e+03) (55, 1.50000000000000000000e+03) (56, 1.50000000000000000000e+03) (57, 1.50000000000000000000e+03) (58, 1.50000000000000000000e+03) (59, 1.50000000000000000000e+03) (60, 1.50000000000000000000e+03) (61, 1.50000000000000000000e+03) (62, 1.50000000000000000000e+03) (63, 1.50000000000000000000e+03) (64, 1.50000000000000000000e+03) (65, 1.50000000000000000000e+03) (66, 1.50000000000000000000e+03) (67, 1.50000000000000000000e+03) (68, 1.50000000000000000000e+03) (69, 1.50000000000000000000e+03) (70, 1.50000000000000000000e+03) (71, 1.50000000000000000000e+03) (72, 1.50000000000000000000e+03) (73, 1.50000000000000000000e+03) (74, 1.50000000000000000000e+03) (75, 1.50000000000000000000e+03) (76, 1.50000000000000000000e+03) (77, 1.50000000000000000000e+03) (78, 1.50000000000000000000e+03) (79, 1.50000000000000000000e+03) (80, 1.50000000000000000000e+03) (81, 1.49611186981201171875e+00) (0, -8.01410079002380371094e-02) (1, 4.57816161215305328369e-02) (2, -9.59696054458618164062e-01) (3, -1.81437706947326660156e+00) (4, -1.88982844352722167969e+00) (5, -6.24603807926177978516e-01) (6, -1.12789496779441833496e-01) (7, -1.29567861557006835938e-01) (8, 8.11604261398315429688e-02) (9, -2.40788489580154418945e-01) (10, -9.86849665641784667969e-01) (11, -2.13462814688682556152e-01) (12, -8.95991921424865722656e-01) (13, -1.47199928760528564453e-01) (14, 4.27651144564151763916e-02) (15, 1.20367550849914550781e+00) (16, 1.43794387578964233398e-01) (17, -1.63169670104980468750e+00) (18, -1.24579071998596191406e+00) (19, -3.13527643680572509766e-01) (20, -5.22086024284362792969e-02) (21, -2.11517629213631153107e-03) (22, 3.93294662237167358398e-01) (23, 2.34702676534652709961e-02) (24, -1.10391349792480468750e+01) (25, -1.19367218017578125000e+00) (26, -8.42231512069702148438e-02) (27, -2.59341776371002197266e-01) (28, 1.64793103933334350586e-01) (29, 1.85031279921531677246e-01) (30, -1.01797267794609069824e-01) (31, -1.19098520278930664062e+00) (32, -6.25962316989898681641e-01) (33, -4.34619069099426269531e-01) (34, -2.18783304095268249512e-01) (35, -4.98550347983837127686e-02) (36, -6.12334907054901123047e-02) (37, -5.73940724134445190430e-02) (38, -5.77807247638702392578e-01) (39, -1.50898873805999755859e+00) (40, -1.74069747328758239746e-01) (41, -2.30514779686927795410e-02) (42, -1.57116532325744628906e-01) (43, 5.63497543334960937500e-02) (44, -8.02788883447647094727e-02) (45, 1.74764364957809448242e-01) (46, -7.84774124622344970703e-02) (47, -1.23013563454151153564e-01) (48, -2.14505806565284729004e-01) (49, 1.50000000000000000000e+03) (50, 1.50000000000000000000e+03) (51, 1.50000000000000000000e+03) (52, 1.50000000000000000000e+03) (53, 1.50000000000000000000e+03) (54, 1.50000000000000000000e+03) (55, 1.50000000000000000000e+03) (56, 1.50000000000000000000e+03) (57, 1.50000000000000000000e+03) (58, 1.50000000000000000000e+03) (59, 1.50000000000000000000e+03) (60, 1.50000000000000000000e+03) (61, 1.50000000000000000000e+03) (62, 1.50000000000000000000e+03) (63, 1.50000000000000000000e+03) (64, 1.50000000000000000000e+03) (65, 1.50000000000000000000e+03) (66, 1.50000000000000000000e+03) (67, 1.50000000000000000000e+03) (68, 1.50000000000000000000e+03) (69, 1.50000000000000000000e+03) (70, 1.50000000000000000000e+03) (71, 1.50000000000000000000e+03) (72, 1.50000000000000000000e+03) (73, 1.50000000000000000000e+03) (74, 1.50000000000000000000e+03) (75, 1.50000000000000000000e+03) (76, 1.50000000000000000000e+03) (77, 1.50000000000000000000e+03) (78, 1.50000000000000000000e+03) (79, 1.50000000000000000000e+03) (80, 1.50000000000000000000e+03) (81, 7.16348588466644287109e-01) (0, 1.50000000000000000000e+03) (1, 1.33978100585937500000e+03) (2, 1.50000000000000000000e+03) (3, 1.50000000000000000000e+03) (4, 1.50000000000000000000e+03) (5, 1.50000000000000000000e+03) (6, 1.42746740722656250000e+03) (7, 1.50000000000000000000e+03) (8, 1.50000000000000000000e+03) (9, 1.50000000000000000000e+03) (10, 1.50000000000000000000e+03) (11, 1.50000000000000000000e+03) (12, 1.50000000000000000000e+03) (13, 1.50000000000000000000e+03) (14, 1.50000000000000000000e+03) (15, 1.50000000000000000000e+03) (16, 1.50000000000000000000e+03) (17, 1.50000000000000000000e+03) (18, 1.50000000000000000000e+03) (19, 1.50000000000000000000e+03) (20, 1.45862939453125000000e+03) (21, 1.50000000000000000000e+03) (22, 1.50000000000000000000e+03) (23, 1.50000000000000000000e+03) (24, 1.50000000000000000000e+03) (25, 1.50000000000000000000e+03) (26, 1.38501550292968750000e+03) (27, 1.50000000000000000000e+03) (28, 1.50000000000000000000e+03) (29, 1.50000000000000000000e+03) (30, 1.50000000000000000000e+03) (31, 1.50000000000000000000e+03) (32, 1.50000000000000000000e+03) (33, 1.24423852539062500000e+03) (34, 1.50000000000000000000e+03) (35, 1.50000000000000000000e+03) (36, 1.50000000000000000000e+03) (37, 1.50000000000000000000e+03) (38, 1.50000000000000000000e+03) (39, 1.50000000000000000000e+03) (40, 9.36754516601562500000e+02) (41, 1.50000000000000000000e+03) (42, 1.50000000000000000000e+03) (43, 1.50000000000000000000e+03) (44, 1.50000000000000000000e+03) (45, 1.50000000000000000000e+03) (46, 1.50000000000000000000e+03) (47, 1.50000000000000000000e+03) (48, 1.50000000000000000000e+03) (49, 1.50000000000000000000e+03) (50, 1.50000000000000000000e+03) (51, 1.50000000000000000000e+03) (52, 1.50000000000000000000e+03) (53, 1.50000000000000000000e+03) (54, 1.50000000000000000000e+03) (55, 1.50000000000000000000e+03) (56, 1.50000000000000000000e+03) (57, 1.50000000000000000000e+03) (58, 1.50000000000000000000e+03) (59, 1.50000000000000000000e+03) (60, 1.50000000000000000000e+03) (61, 1.50000000000000000000e+03) (62, 1.50000000000000000000e+03) (63, 1.50000000000000000000e+03) (64, 1.50000000000000000000e+03) (65, 1.50000000000000000000e+03) (66, 1.50000000000000000000e+03) (67, 1.50000000000000000000e+03) (68, 1.50000000000000000000e+03) (69, 1.50000000000000000000e+03) (70, 1.50000000000000000000e+03) (71, 1.50000000000000000000e+03) (72, 1.50000000000000000000e+03) (73, 1.50000000000000000000e+03) (74, 1.50000000000000000000e+03) (75, 1.50000000000000000000e+03) (76, 1.50000000000000000000e+03) (77, 1.50000000000000000000e+03) (78, 1.50000000000000000000e+03) (79, 1.50000000000000000000e+03) (80, 1.50000000000000000000e+03) (81, 1.89618289470672607422e+00) (0, -1.01769328117370605469e-01) (1, 3.57283614575862884521e-02) (2, 4.55992490053176879883e-01) (3, 4.51323054730892181396e-02) (4, -5.09396083652973175049e-02) (5, -1.25309899449348449707e-01) (6, -7.90196955204010009766e-02) (7, 2.57444046437740325928e-02) (8, -5.80891594290733337402e-02) (9, -1.57250583171844482422e-01) (10, -1.72733962535858154297e-01) (11, 1.47436633706092834473e-02) (12, -2.34225362539291381836e-01) (13, -1.15266844630241394043e-01) (14, 1.94932565093040466309e-01) (15, 1.30344703793525695801e-01) (16, -2.31867700815200805664e-01) (17, -3.72985303401947021484e-01) (18, -1.31742909550666809082e-01) (19, -9.85979959368705749512e-02) (20, 4.43319194018840789795e-02) (21, 1.51104815304279327393e-02) (22, -1.09570093452930450439e-01) (23, -1.14817908033728599548e-02) (24, -2.37519264221191406250e+00) (25, 7.42811262607574462891e-02) (26, 3.38280379772186279297e-01) (27, 1.61482140421867370605e-01) (28, 1.97408810257911682129e-01) (29, -1.93430006504058837891e-01) (30, -1.69576168060302734375e-01) (31, -2.68913120031356811523e-01) (32, -2.08304166793823242188e-01) (33, 3.62842828035354614258e-01) (34, 1.85348629951477050781e-01) (35, -1.28089748322963714600e-02) (36, -1.90867707133293151855e-01) (37, -6.68827444314956665039e-02) (38, -2.72532910108566284180e-01) (39, -8.58937129378318786621e-02) (40, 2.63475067913532257080e-02) (41, 1.35815128684043884277e-01) (42, -6.14665374159812927246e-02) (43, 9.25504602491855621338e-03) (44, -3.22829373180866241455e-02) (45, -5.72269856929779052734e-02) (46, -3.54999825358390808105e-02) (47, -5.60737997293472290039e-02) (48, 1.51660457253456115723e-01) (49, 1.50000000000000000000e+03) (50, 1.50000000000000000000e+03) (51, 1.50000000000000000000e+03) (52, 1.50000000000000000000e+03) (53, 1.50000000000000000000e+03) (54, 1.50000000000000000000e+03) (55, 1.50000000000000000000e+03) (56, 1.50000000000000000000e+03) (57, 1.50000000000000000000e+03) (58, 1.50000000000000000000e+03) (59, 1.50000000000000000000e+03) (60, 1.50000000000000000000e+03) (61, 1.50000000000000000000e+03) (62, 1.50000000000000000000e+03) (63, 1.50000000000000000000e+03) (64, 1.50000000000000000000e+03) (65, 1.50000000000000000000e+03) (66, 1.50000000000000000000e+03) (67, 1.50000000000000000000e+03) (68, 1.50000000000000000000e+03) (69, 1.50000000000000000000e+03) (70, 1.50000000000000000000e+03) (71, 1.50000000000000000000e+03) (72, 1.50000000000000000000e+03) (73, 1.50000000000000000000e+03) (74, 1.50000000000000000000e+03) (75, 1.50000000000000000000e+03) (76, 1.50000000000000000000e+03) (77, 1.50000000000000000000e+03) (78, 1.50000000000000000000e+03) (79, 1.50000000000000000000e+03) (80, 1.50000000000000000000e+03) (81, 8.33992123603820800781e-01) (0, -1.20839312672615051270e-01) (1, -3.65155115723609924316e-02) (2, 4.89236742258071899414e-01) (3, -6.11882768571376800537e-02) (4, -1.44923925399780273438e-01) (5, 9.19834524393081665039e-03) (6, 1.60993456840515136719e-01) (7, 9.09352973103523254395e-02) (8, 9.94745343923568725586e-02) (9, -1.34690133854746818542e-02) (10, -2.17348590493202209473e-01) (11, -8.58565866947174072266e-02) (12, -9.48732197284698486328e-02) (13, 1.34834079071879386902e-02) (14, 1.03803567588329315186e-01) (15, 3.63702066242694854736e-02) (16, -2.31455743312835693359e-01) (17, -5.01149237155914306641e-01) (18, -1.51864424347877502441e-01) (19, -2.08112582564353942871e-01) (20, 1.26451253890991210938e-01) (21, -3.29061178490519523621e-03) (22, -4.11785244941711425781e-02) (23, -1.31617352366447448730e-01) (24, -2.37355303764343261719e+00) (25, -1.17442004382610321045e-01) (26, 3.30727070569992065430e-01) (27, 1.49047553539276123047e-01) (28, 1.93119365721940994263e-02) (29, -1.15222617983818054199e-01) (30, -1.93832978606224060059e-01) (31, -2.65490144491195678711e-01) (32, -1.13602988421916961670e-01) (33, -4.02691900730133056641e-01) (34, 1.79045543074607849121e-01) (35, 6.26183971762657165527e-02) (36, -2.76997864246368408203e-01) (37, 3.67093831300735473633e-02) (38, -1.96629166603088378906e-01) (39, -8.89982357621192932129e-02) (40, -4.18305657804012298584e-02) (41, 1.81754484772682189941e-01) (42, -3.82846146821975708008e-02) (43, -7.42169246077537536621e-02) (44, 1.09548129141330718994e-01) (45, -9.06255915760993957520e-02) (46, -5.41400872170925140381e-02) (47, -1.16863839328289031982e-01) (48, -6.79571181535720825195e-02) (49, 1.50000000000000000000e+03) (50, 1.50000000000000000000e+03) (51, 1.50000000000000000000e+03) (52, 1.50000000000000000000e+03) (53, 1.50000000000000000000e+03) (54, 1.50000000000000000000e+03) (55, 1.50000000000000000000e+03) (56, 1.50000000000000000000e+03) (57, 1.50000000000000000000e+03) (58, 1.50000000000000000000e+03) (59, 1.50000000000000000000e+03) (60, 1.50000000000000000000e+03) (61, 1.50000000000000000000e+03) (62, 1.50000000000000000000e+03) (63, 1.50000000000000000000e+03) (64, 1.50000000000000000000e+03) (65, 1.50000000000000000000e+03) (66, 1.50000000000000000000e+03) (67, 1.50000000000000000000e+03) (68, 1.50000000000000000000e+03) (69, 1.50000000000000000000e+03) (70, 1.50000000000000000000e+03) (71, 1.50000000000000000000e+03) (72, 1.50000000000000000000e+03) (73, 1.50000000000000000000e+03) (74, 1.50000000000000000000e+03) (75, 1.50000000000000000000e+03) (76, 1.50000000000000000000e+03) (77, 1.50000000000000000000e+03) (78, 1.50000000000000000000e+03) (79, 1.50000000000000000000e+03) (80, 1.50000000000000000000e+03) (81, 6.94577097892761230469e-01) (0, -6.00684620440006256104e-02) (1, 3.35985943675041198730e-02) (2, -9.86467376351356506348e-02) (3, -1.11287824809551239014e-01) (4, -3.58263961970806121826e-02) (5, 1.17170372977852821350e-02) (6, -9.80114415287971496582e-02) (7, -8.60222280025482177734e-02) (8, -1.17177665233612060547e-02) (9, -1.13364332355558872223e-03) (10, -1.44596576690673828125e-01) (11, -3.07036712765693664551e-02) (12, -2.09511548280715942383e-01) (13, -9.82171744108200073242e-02) (14, -3.41774858534336090088e-02) (15, 4.14116941392421722412e-02) (16, 4.13430571556091308594e-01) (17, -3.42534929513931274414e-01) (18, -1.33567437529563903809e-01) (19, -3.22307385504245758057e-02) (20, -1.48162305355072021484e-01) (21, -8.31598415970802307129e-02) (22, 4.51303534209728240967e-02) (23, -7.40902945399284362793e-02) (24, -2.68701338768005371094e+00) (25, 4.60514247417449951172e-01) (26, -2.84147337079048156738e-02) (27, -3.43602120876312255859e-01) (28, 1.00766278803348541260e-01) (29, -1.11360736191272735596e-01) (30, -1.62672653794288635254e-01) (31, -2.07705765962600708008e-01) (32, 1.48061051964759826660e-01) (33, -2.20195680856704711914e-01) (34, -5.68270534276962280273e-02) (35, -8.39462876319885253906e-02) (36, -2.56880193948745727539e-01) (37, -1.33425705134868621826e-02) (38, -2.46030226349830627441e-01) (39, 7.64038264751434326172e-02) (40, -8.27945098280906677246e-02) (41, -9.76591631770133972168e-02) (42, -1.12616214901208877563e-02) (43, 3.73280137777328491211e-01) (44, 3.64827007055282592773e-01) (45, 1.16450209170579910278e-02) (46, 1.47196233272552490234e-01) (47, -3.77677530050277709961e-02) (48, -3.76069843769073486328e-02) (49, 1.50000000000000000000e+03) (50, 1.50000000000000000000e+03) (51, 1.50000000000000000000e+03) (52, 1.50000000000000000000e+03) (53, 1.50000000000000000000e+03) (54, 1.50000000000000000000e+03) (55, 1.50000000000000000000e+03) (56, 1.50000000000000000000e+03) (57, 1.50000000000000000000e+03) (58, 1.50000000000000000000e+03) (59, 1.50000000000000000000e+03) (60, 1.50000000000000000000e+03) (61, 1.50000000000000000000e+03) (62, 1.50000000000000000000e+03) (63, 1.50000000000000000000e+03) (64, 1.50000000000000000000e+03) (65, 1.50000000000000000000e+03) (66, 1.50000000000000000000e+03) (67, 1.50000000000000000000e+03) (68, 1.50000000000000000000e+03) (69, 1.50000000000000000000e+03) (70, 1.50000000000000000000e+03) (71, 1.50000000000000000000e+03) (72, 1.50000000000000000000e+03) (73, 1.50000000000000000000e+03) (74, 1.50000000000000000000e+03) (75, 1.50000000000000000000e+03) (76, 1.50000000000000000000e+03) (77, 1.50000000000000000000e+03) (78, 1.50000000000000000000e+03) (79, 1.50000000000000000000e+03) (80, 1.50000000000000000000e+03) (81, 7.10684895515441894531e-01) (0, -3.45849953591823577881e-02) (1, -9.46091115474700927734e-02) (2, -3.68626403808593750000e+00) (3, -1.22094035148620605469e+00) (4, -1.17032301425933837891e+00) (5, -5.24435460567474365234e-01) (6, -2.69320189952850341797e-01) (7, -1.63697659969329833984e-01) (8, 9.11493897438049316406e-02) (9, -7.27834105491638183594e-01) (10, -1.01661178588867187500e+02) (11, -2.97165483236312866211e-01) (12, -5.34553229808807373047e-01) (13, -1.25047236680984497070e-01) (14, -1.02259528636932373047e+00) (15, 2.23807311058044433594e+00) (16, -3.69180703163146972656e+00) (17, -7.06108169555664062500e+01) (18, -4.40689620971679687500e+01) (19, -2.17705190181732177734e-01) (20, -2.36843872070312500000e+00) (21, -2.37266731262207031250e+00) (22, 1.69347035884857177734e+00) (23, -9.79916572570800781250e-01) (24, -6.94599731445312500000e+02) (25, -2.91647821664810180664e-01) (26, -1.55652910470962524414e-01) (27, -3.62182664871215820312e+00) (28, -4.84086573123931884766e-01) (29, -6.68667107820510864258e-02) (30, -1.02180843353271484375e+01) (31, -5.10206939697265625000e+02) (32, -4.21666204929351806641e-01) (33, 3.80471467971801757812e+00) (34, -2.41549468040466308594e+00) (35, -8.67172241210937500000e+00) (36, -3.76203775405883789062e-01) (37, 1.54308244585990905762e-01) (38, -1.20416164398193359375e+00) (39, -3.23998630046844482422e-01) (40, -3.67341339588165283203e-01) (41, -7.06523895263671875000e-01) (42, 1.79615318775177001953e-02) (43, -1.50470256805419921875e-01) (44, -3.08927237987518310547e-01) (45, -1.85788888484239578247e-02) (46, -3.43882888555526733398e-01) (47, 2.17253446578979492188e+00) (48, -1.79088044166564941406e+00) (49, 1.50000000000000000000e+03) (50, 1.50000000000000000000e+03) (51, 1.50000000000000000000e+03) (52, 1.50000000000000000000e+03) (53, 1.50000000000000000000e+03) (54, 1.50000000000000000000e+03) (55, 1.50000000000000000000e+03) (56, 1.50000000000000000000e+03) (57, 1.50000000000000000000e+03) (58, 1.50000000000000000000e+03) (59, 1.50000000000000000000e+03) (60, 1.50000000000000000000e+03) (61, 1.50000000000000000000e+03) (62, 1.50000000000000000000e+03) (63, 1.50000000000000000000e+03) (64, 1.50000000000000000000e+03) (65, 1.50000000000000000000e+03) (66, 1.50000000000000000000e+03) (67, 1.50000000000000000000e+03) (68, 1.50000000000000000000e+03) (69, 1.50000000000000000000e+03) (70, 1.50000000000000000000e+03) (71, 1.50000000000000000000e+03) (72, 1.50000000000000000000e+03) (73, 1.50000000000000000000e+03) (74, 1.50000000000000000000e+03) (75, 1.50000000000000000000e+03) (76, 1.50000000000000000000e+03) (77, 1.50000000000000000000e+03) (78, 1.50000000000000000000e+03) (79, 1.50000000000000000000e+03) (80, 1.50000000000000000000e+03) (81, 1.34118509292602539062e+00) (82, -1.26193976402282714844e+00) (83, 8.67086201906204223633e-02) (84, -2.13768815994262695312e+00) (85, 6.25123918056488037109e-01) (86, -1.27621281147003173828e+00) (87, -1.55551970005035400391e+00) (88, -1.41514134407043457031e+00) (89, 1.82204508781433105469e+00) (90, 6.89499199390411376953e-01) 
