FANN_FLO_2.1
num_layers=3
learning_rate=0.500000
connection_rate=1.000000
network_type=0
learning_momentum=0.000000
training_algorithm=2
train_error_function=1
train_stop_function=0
cascade_output_change_fraction=0.010000
quickprop_decay=-0.000100
quickprop_mu=1.750000
rprop_increase_factor=1.200000
rprop_decrease_factor=0.500000
rprop_delta_min=0.000000
rprop_delta_max=50.000000
rprop_delta_zero=0.100000
cascade_output_stagnation_epochs=12
cascade_candidate_change_fraction=0.010000
cascade_candidate_stagnation_epochs=12
cascade_max_out_epochs=150
cascade_min_out_epochs=50
cascade_max_cand_epochs=150
cascade_min_cand_epochs=50
cascade_num_candidate_groups=2
bit_fail_limit=3.49999994039535522461e-01
cascade_candidate_limit=1.00000000000000000000e+03
cascade_weight_multiplier=4.00000005960464477539e-01
cascade_activation_functions_count=10
cascade_activation_functions=3 5 7 8 10 11 14 15 16 17 
cascade_activation_steepnesses_count=4
cascade_activation_steepnesses=2.50000000000000000000e-01 5.00000000000000000000e-01 7.50000000000000000000e-01 1.00000000000000000000e+00 
layer_sizes=7 9 2 
scale_included=0
neurons (num_inputs, activation_function, activation_steepness)=(0, 0, 0.00000000000000000000e+00) (0, 0, 0.00000000000000000000e+00) (0, 0, 0.00000000000000000000e+00) (0, 0, 0.00000000000000000000e+00) (0, 0, 0.00000000000000000000e+00) (0, 0, 0.00000000000000000000e+00) (0, 0, 0.00000000000000000000e+00) (7, 3, 5.00000000000000000000e-01) (7, 3, 5.00000000000000000000e-01) (7, 3, 5.00000000000000000000e-01) (7, 3, 5.00000000000000000000e-01) (7, 3, 5.00000000000000000000e-01) (7, 3, 5.00000000000000000000e-01) (7, 3, 5.00000000000000000000e-01) (7, 3, 5.00000000000000000000e-01) (0, 3, 0.00000000000000000000e+00) (9, 0, 5.00000000000000000000e-01) (0, 0, 0.00000000000000000000e+00) 
connections (connected_to_neuron, weight)=(0, -1.77755308151245117188e+00) (1, -1.14567029476165771484e+00) (2, -2.02858090400695800781e+00) (3, -8.38231265544891357422e-01) (4, -7.07570850849151611328e-01) (5, 1.91931605339050292969e+00) (6, -7.38686978816986083984e-01) (0, 2.41868153214454650879e-01) (1, 2.86336421966552734375e-01) (2, 6.05559647083282470703e-01) (3, -3.80065441131591796875e-01) (4, -6.30689263343811035156e-01) (5, -7.10349306464195251465e-02) (6, -9.96505737304687500000e-01) (0, 9.09767091274261474609e-01) (1, -7.24926739931106567383e-02) (2, 6.65557444095611572266e-01) (3, -4.42045420408248901367e-01) (4, -1.87665417790412902832e-01) (5, -1.50000000000000000000e+03) (6, 2.90558598935604095459e-02) (0, -5.18398225307464599609e-01) (1, -9.17583227157592773438e-01) (2, -2.09399390220642089844e+00) (3, -7.03706860542297363281e-01) (4, -6.67469859123229980469e-01) (5, -2.97826266288757324219e+00) (6, -7.21942007541656494141e-01) (0, -1.94286420941352844238e-01) (1, -3.92040044069290161133e-01) (2, -6.92205369472503662109e-01) (3, 1.02008700370788574219e-01) (4, 1.12867116928100585938e+00) (5, -1.14305444061756134033e-01) (6, 1.14300489425659179688e+00) (0, 1.19284436106681823730e-01) (1, -4.83499705791473388672e-01) (2, -2.03106760978698730469e+00) (3, -6.76469266414642333984e-01) (4, -7.22955107688903808594e-01) (5, -4.95483732223510742188e+00) (6, -7.35329985618591308594e-01) (0, 8.08501899242401123047e-01) (1, -1.01153790950775146484e+00) (2, -8.57215309143066406250e+00) (3, -6.64012253284454345703e-01) (4, -3.76400858163833618164e-01) (5, 3.75199556350708007812e-01) (6, -5.14026498794555664062e+00) (0, -2.66678190231323242188e+00) (1, -1.86023437976837158203e+00) (2, 7.77669429779052734375e-01) (3, -2.88253188133239746094e+00) (4, -2.05682015419006347656e+00) (5, 4.31405735015869140625e+00) (6, -2.83756422996520996094e+00) (7, -1.72399468719959259033e-02) (8, -3.64276915788650512695e-01) (9, 1.34855192154645919800e-02) (10, -7.57284545898437500000e+00) (11, -3.49172651767730712891e-01) (12, 1.32078981399536132812e+01) (13, -3.59274372458457946777e-02) (14, 9.56380486488342285156e-01) (15, 3.58964979648590087891e-01) 
