FANN_FLO_2.1
num_layers=3
learning_rate=0.500000
connection_rate=1.000000
network_type=0
learning_momentum=0.000000
training_algorithm=2
train_error_function=1
train_stop_function=0
cascade_output_change_fraction=0.010000
quickprop_decay=-0.000100
quickprop_mu=1.750000
rprop_increase_factor=1.200000
rprop_decrease_factor=0.500000
rprop_delta_min=0.000000
rprop_delta_max=50.000000
rprop_delta_zero=0.100000
cascade_output_stagnation_epochs=12
cascade_candidate_change_fraction=0.010000
cascade_candidate_stagnation_epochs=12
cascade_max_out_epochs=150
cascade_min_out_epochs=50
cascade_max_cand_epochs=150
cascade_min_cand_epochs=50
cascade_num_candidate_groups=2
bit_fail_limit=3.49999994039535522461e-01
cascade_candidate_limit=1.00000000000000000000e+03
cascade_weight_multiplier=4.00000005960464477539e-01
cascade_activation_functions_count=10
cascade_activation_functions=3 5 7 8 10 11 14 15 16 17 
cascade_activation_steepnesses_count=4
cascade_activation_steepnesses=2.50000000000000000000e-01 5.00000000000000000000e-01 7.50000000000000000000e-01 1.00000000000000000000e+00 
layer_sizes=3 5 4 
scale_included=0
neurons (num_inputs, activation_function, activation_steepness)=(0, 0, 0.00000000000000000000e+00) (0, 0, 0.00000000000000000000e+00) (0, 0, 0.00000000000000000000e+00) (3, 3, 5.00000000000000000000e-01) (3, 3, 5.00000000000000000000e-01) (3, 3, 5.00000000000000000000e-01) (3, 3, 5.00000000000000000000e-01) (0, 3, 0.00000000000000000000e+00) (5, 0, 5.00000000000000000000e-01) (5, 0, 5.00000000000000000000e-01) (5, 0, 5.00000000000000000000e-01) (0, 0, 0.00000000000000000000e+00) 
connections (connected_to_neuron, weight)=(0, -1.50000000000000000000e+03) (1, -1.47184387207031250000e+03) (2, 3.48239636421203613281e+00) (0, -3.63681526184082031250e+01) (1, 6.87772130966186523438e+00) (2, 1.63442001342773437500e+01) (0, -2.68925094604492187500e+01) (1, 1.27711830139160156250e+01) (2, 2.62347030639648437500e+01) (0, -1.50000000000000000000e+03) (1, 1.18400490283966064453e+00) (2, 2.18376560211181640625e+01) (3, 2.53958153724670410156e+00) (4, 1.34560310840606689453e+00) (5, 1.46531200408935546875e+00) (6, 2.85385537147521972656e+00) (7, 1.80284309387207031250e+00) (3, 6.62017440795898437500e+00) (4, 5.43133974075317382812e+00) (5, 5.24701309204101562500e+00) (6, 6.84780883789062500000e+00) (7, 6.58882093429565429688e+00) (3, 2.19659843444824218750e+01) (4, 1.49294099807739257812e+01) (5, 1.78668994903564453125e+01) (6, 2.14226875305175781250e+01) (7, 2.69024505615234375000e+01) 
