FANN_FLO_2.1
num_layers=4
learning_rate=0.500000
connection_rate=1.000000
network_type=0
learning_momentum=0.000000
training_algorithm=2
train_error_function=1
train_stop_function=0
cascade_output_change_fraction=0.010000
quickprop_decay=-0.000100
quickprop_mu=1.750000
rprop_increase_factor=1.200000
rprop_decrease_factor=0.500000
rprop_delta_min=0.000000
rprop_delta_max=50.000000
rprop_delta_zero=0.100000
cascade_output_stagnation_epochs=12
cascade_candidate_change_fraction=0.010000
cascade_candidate_stagnation_epochs=12
cascade_max_out_epochs=150
cascade_min_out_epochs=50
cascade_max_cand_epochs=150
cascade_min_cand_epochs=50
cascade_num_candidate_groups=2
bit_fail_limit=3.49999994039535522461e-01
cascade_candidate_limit=1.00000000000000000000e+03
cascade_weight_multiplier=4.00000005960464477539e-01
cascade_activation_functions_count=10
cascade_activation_functions=3 5 7 8 10 11 14 15 16 17 
cascade_activation_steepnesses_count=4
cascade_activation_steepnesses=2.50000000000000000000e-01 5.00000000000000000000e-01 7.50000000000000000000e-01 1.00000000000000000000e+00 
layer_sizes=18 5 5 2 
scale_included=0
neurons (num_inputs, activation_function, activation_steepness)=(0, 0, 0.00000000000000000000e+00) (0, 0, 0.00000000000000000000e+00) (0, 0, 0.00000000000000000000e+00) (0, 0, 0.00000000000000000000e+00) (0, 0, 0.00000000000000000000e+00) (0, 0, 0.00000000000000000000e+00) (0, 0, 0.00000000000000000000e+00) (0, 0, 0.00000000000000000000e+00) (0, 0, 0.00000000000000000000e+00) (0, 0, 0.00000000000000000000e+00) (0, 0, 0.00000000000000000000e+00) (0, 0, 0.00000000000000000000e+00) (0, 0, 0.00000000000000000000e+00) (0, 0, 0.00000000000000000000e+00) (0, 0, 0.00000000000000000000e+00) (0, 0, 0.00000000000000000000e+00) (0, 0, 0.00000000000000000000e+00) (0, 0, 0.00000000000000000000e+00) (18, 3, 5.00000000000000000000e-01) (18, 3, 5.00000000000000000000e-01) (18, 3, 5.00000000000000000000e-01) (18, 3, 5.00000000000000000000e-01) (0, 3, 0.00000000000000000000e+00) (5, 3, 5.00000000000000000000e-01) (5, 3, 5.00000000000000000000e-01) (5, 3, 5.00000000000000000000e-01) (5, 3, 5.00000000000000000000e-01) (0, 3, 0.00000000000000000000e+00) (5, 0, 5.00000000000000000000e-01) (0, 0, 0.00000000000000000000e+00) 
connections (connected_to_neuron, weight)=(0, 1.05250186920166015625e+01) (1, 8.07181701660156250000e+02) (2, 1.05791177749633789062e+01) (3, 6.51518344879150390625e+00) (4, 6.01802825927734375000e+00) (5, 1.40023147583007812500e+02) (6, 1.53501300811767578125e+01) (7, 9.77694854736328125000e+01) (8, 4.11678075790405273438e+00) (9, 5.13500928878784179688e+00) (10, -1.23876161575317382812e+01) (11, -3.40424680709838867188e+00) (12, 8.24365997314453125000e+00) (13, 9.28658580780029296875e+00) (14, 5.09118795394897460938e+00) (15, 5.03863954544067382812e+00) (16, 6.09678208827972412109e-01) (17, 2.62340092658996582031e+00) (0, 1.04370088577270507812e+01) (1, 8.07270996093750000000e+02) (2, 7.83875656127929687500e+00) (3, 6.40292358398437500000e+00) (4, 5.88809871673583984375e+00) (5, 1.39267883300781250000e+02) (6, 1.53206338882446289062e+01) (7, 8.75000534057617187500e+01) (8, 4.50052404403686523438e+00) (9, 5.14204454421997070312e+00) (10, -1.04350748062133789062e+01) (11, -3.56642007827758789062e+00) (12, 8.13595485687255859375e+00) (13, 9.20495796203613281250e+00) (14, 4.02804660797119140625e+00) (15, 3.70371055603027343750e+00) (16, 2.66243129968643188477e-01) (17, 2.12662529945373535156e+00) (0, 6.91829502582550048828e-01) (1, 6.59920930862426757812e-01) (2, 6.70735657215118408203e-01) (3, 7.35493004322052001953e-01) (4, 6.19722306728363037109e-01) (5, -5.11137187480926513672e-01) (6, -4.91158515214920043945e-01) (7, -1.40403345227241516113e-01) (8, 3.19743841886520385742e-01) (9, 8.55950653553009033203e-01) (10, 8.74103367328643798828e-01) (11, 8.27853918075561523438e-01) (12, 4.67517733573913574219e-01) (13, 7.67990589141845703125e-01) (14, 8.51455986499786376953e-01) (15, 7.08842754364013671875e-01) (16, 9.80140089988708496094e-01) (17, -4.10759735107421875000e+00) (0, 9.07666921615600585938e-01) (1, 8.44040691852569580078e-01) (2, 8.95185589790344238281e-01) (3, 9.43644344806671142578e-01) (4, 8.39863300323486328125e-01) (5, -9.27607774734497070312e-01) (6, -1.26180839538574218750e+00) (7, -1.24369657039642333984e+00) (8, -3.04401844739913940430e-01) (9, 7.33802378177642822266e-01) (10, 6.56207501888275146484e-01) (11, 7.74957537651062011719e-01) (12, 1.04353964328765869141e+00) (13, 9.09053504467010498047e-01) (14, 6.14698588848114013672e-01) (15, 9.34506475925445556641e-01) (16, 5.57014763355255126953e-01) (17, -3.35318112373352050781e+00) (18, -1.20982968807220458984e+00) (19, -1.13728833198547363281e+00) (20, 2.75947093963623046875e+00) (21, 2.80696368217468261719e+00) (22, -1.18652880191802978516e+00) (18, 1.28974056243896484375e+00) (19, 1.20378732681274414062e+00) (20, 1.09062057495117187500e+02) (21, 1.00515495300292968750e+02) (22, 1.17447376251220703125e+00) (18, -8.58749032020568847656e-01) (19, -8.73476624488830566406e-01) (20, 7.33326721191406250000e+00) (21, 8.88928604125976562500e+00) (22, -8.49627077579498291016e-01) (18, -1.10273909568786621094e+00) (19, -1.10846924781799316406e+00) (20, 2.68486523628234863281e+00) (21, 2.66355991363525390625e+00) (22, -1.08661210536956787109e+00) (23, 3.86538171768188476562e+00) (24, 1.28834819793701171875e+00) (25, 3.96121883392333984375e+00) (26, 4.94949865341186523438e+00) (27, 1.17927646636962890625e+00) 
