FANN_FLO_2.1
num_layers=3
learning_rate=0.300000
connection_rate=1.000000
network_type=0
learning_momentum=0.000000
training_algorithm=2
train_error_function=1
train_stop_function=0
cascade_output_change_fraction=0.010000
quickprop_decay=-0.000100
quickprop_mu=1.750000
rprop_increase_factor=1.200000
rprop_decrease_factor=0.500000
rprop_delta_min=0.000000
rprop_delta_max=50.000000
rprop_delta_zero=0.100000
cascade_output_stagnation_epochs=12
cascade_candidate_change_fraction=0.010000
cascade_candidate_stagnation_epochs=12
cascade_max_out_epochs=150
cascade_min_out_epochs=50
cascade_max_cand_epochs=150
cascade_min_cand_epochs=50
cascade_num_candidate_groups=2
bit_fail_limit=3.49999994039535522461e-01
cascade_candidate_limit=1.00000000000000000000e+03
cascade_weight_multiplier=4.00000005960464477539e-01
cascade_activation_functions_count=10
cascade_activation_functions=3 5 7 8 10 11 14 15 16 17 
cascade_activation_steepnesses_count=4
cascade_activation_steepnesses=2.50000000000000000000e-01 5.00000000000000000000e-01 7.50000000000000000000e-01 1.00000000000000000000e+00 
layer_sizes=4 17 2 
scale_included=0
neurons (num_inputs, activation_function, activation_steepness)=(0, 0, 0.00000000000000000000e+00) (0, 0, 0.00000000000000000000e+00) (0, 0, 0.00000000000000000000e+00) (0, 0, 0.00000000000000000000e+00) (4, 3, 5.00000000000000000000e-01) (4, 3, 5.00000000000000000000e-01) (4, 3, 5.00000000000000000000e-01) (4, 3, 5.00000000000000000000e-01) (4, 3, 5.00000000000000000000e-01) (4, 3, 5.00000000000000000000e-01) (4, 3, 5.00000000000000000000e-01) (4, 3, 5.00000000000000000000e-01) (4, 3, 5.00000000000000000000e-01) (4, 3, 5.00000000000000000000e-01) (4, 3, 5.00000000000000000000e-01) (4, 3, 5.00000000000000000000e-01) (4, 3, 5.00000000000000000000e-01) (4, 3, 5.00000000000000000000e-01) (4, 3, 5.00000000000000000000e-01) (4, 3, 5.00000000000000000000e-01) (0, 3, 0.00000000000000000000e+00) (17, 3, 5.00000000000000000000e-01) (0, 3, 0.00000000000000000000e+00) 
connections (connected_to_neuron, weight)=(0, 1.49999987792968750000e+03) (1, 9.18155860900878906250e+00) (2, 1.49999987792968750000e+03) (3, 6.17955982685089111328e-01) (0, 4.36206293106079101562e+00) (1, -3.18248820304870605469e+00) (2, 5.23635196685791015625e+00) (3, -1.27270594239234924316e-01) (0, -9.03554484248161315918e-02) (1, 5.15405200421810150146e-02) (2, -4.08334374427795410156e-01) (3, 8.08048009872436523438e-01) (0, -7.69883394241333007812e+00) (1, -1.40853524208068847656e-01) (2, -3.93634259700775146484e-01) (3, 1.78310256451368331909e-02) (0, 1.49999987792968750000e+03) (1, 2.02718124389648437500e+01) (2, 1.49999987792968750000e+03) (3, 5.80167174339294433594e-01) (0, 1.49999987792968750000e+03) (1, 9.03483295440673828125e+00) (2, 1.49999987792968750000e+03) (3, 6.97349488735198974609e-01) (0, -4.00947928428649902344e-01) (1, 2.29792654514312744141e-01) (2, -6.80223286151885986328e-01) (3, 3.89005511999130249023e-01) (0, -4.14483517408370971680e-01) (1, 1.89991787075996398926e-01) (2, -7.60774970054626464844e-01) (3, 1.78138598799705505371e-01) (0, -8.39007377624511718750e+00) (1, 2.76401758193969726562e-01) (2, -1.54723834991455078125e+01) (3, 3.27738791704177856445e-01) (0, -8.11702981591224670410e-02) (1, 5.26038669049739837646e-02) (2, -2.85369873046875000000e-01) (3, 3.45908738672733306885e-02) (0, -1.50749593973159790039e-01) (1, 2.74350009858608245850e-02) (2, -1.35309606790542602539e-01) (3, 5.88704228401184082031e-01) (0, -1.19628839492797851562e+01) (1, -3.01247894763946533203e-01) (2, -3.04049777984619140625e+00) (3, 8.33950862288475036621e-02) (0, 1.49999987792968750000e+03) (1, 9.05178070068359375000e+00) (2, 1.49999987792968750000e+03) (3, 6.18826568126678466797e-01) (0, -1.37344583868980407715e-01) (1, 2.66676750034093856812e-02) (2, -1.45525172352790832520e-01) (3, 1.81150305271148681641e+00) (0, -9.19257450103759765625e+00) (1, -9.68593060970306396484e-02) (2, -5.80615639686584472656e-01) (3, -2.80165880918502807617e-01) (0, 3.34144425392150878906e+00) (1, 1.51100859045982360840e-01) (2, -2.34621334075927734375e+01) (3, 3.67614269256591796875e-01) (4, 2.45791822671890258789e-01) (5, 4.43462818861007690430e-01) (6, -1.32185816764831542969e+00) (7, -1.50000000000000000000e+03) (8, 2.58411407470703125000e-01) (9, 2.37244531512260437012e-01) (10, 5.65405488014221191406e-01) (11, 1.55674707889556884766e+00) (12, -1.50000000000000000000e+03) (13, -2.74029588699340820312e+00) (14, -2.11863040924072265625e+00) (15, 1.50000000000000000000e+03) (16, 2.38881647586822509766e-01) (17, -5.19127607345581054688e+00) (18, -1.50000000000000000000e+03) (19, -1.72943435668945312500e+02) (20, 3.62820178270339965820e-01) 
