FANN_FLO_2.1
num_layers=3
learning_rate=0.500000
connection_rate=1.000000
network_type=0
learning_momentum=0.000000
training_algorithm=2
train_error_function=1
train_stop_function=0
cascade_output_change_fraction=0.010000
quickprop_decay=-0.000100
quickprop_mu=1.750000
rprop_increase_factor=1.200000
rprop_decrease_factor=0.500000
rprop_delta_min=0.000000
rprop_delta_max=50.000000
rprop_delta_zero=0.100000
cascade_output_stagnation_epochs=12
cascade_candidate_change_fraction=0.010000
cascade_candidate_stagnation_epochs=12
cascade_max_out_epochs=150
cascade_min_out_epochs=50
cascade_max_cand_epochs=150
cascade_min_cand_epochs=50
cascade_num_candidate_groups=2
bit_fail_limit=3.49999994039535522461e-01
cascade_candidate_limit=1.00000000000000000000e+03
cascade_weight_multiplier=4.00000005960464477539e-01
cascade_activation_functions_count=10
cascade_activation_functions=3 5 7 8 10 11 14 15 16 17 
cascade_activation_steepnesses_count=4
cascade_activation_steepnesses=2.50000000000000000000e-01 5.00000000000000000000e-01 7.50000000000000000000e-01 1.00000000000000000000e+00 
layer_sizes=3 5 4 
scale_included=0
neurons (num_inputs, activation_function, activation_steepness)=(0, 0, 0.00000000000000000000e+00) (0, 0, 0.00000000000000000000e+00) (0, 0, 0.00000000000000000000e+00) (3, 3, 5.00000000000000000000e-01) (3, 3, 5.00000000000000000000e-01) (3, 3, 5.00000000000000000000e-01) (3, 3, 5.00000000000000000000e-01) (0, 3, 0.00000000000000000000e+00) (5, 0, 5.00000000000000000000e-01) (5, 0, 5.00000000000000000000e-01) (5, 0, 5.00000000000000000000e-01) (0, 0, 0.00000000000000000000e+00) 
connections (connected_to_neuron, weight)=(0, -1.55781478881835937500e+01) (1, -1.60601367950439453125e+01) (2, 5.33091592788696289062e+00) (0, -2.74014163017272949219e+00) (1, 1.86983919143676757812e+00) (2, 2.23295021057128906250e+00) (0, -2.12894706726074218750e+01) (1, 9.61811184883117675781e-01) (2, 1.55842809677124023438e+01) (0, -6.00913858413696289062e+00) (1, -1.26493597030639648438e+00) (2, 1.62092447280883789062e+00) (3, 2.29846191406250000000e+00) (4, 3.62997317314147949219e+00) (5, 5.59911847114562988281e-01) (6, 2.95699357986450195312e+00) (7, 4.15215253829956054688e-01) (3, 6.29692602157592773438e+00) (4, 9.74482345581054687500e+00) (5, 3.70794129371643066406e+00) (6, 6.91159915924072265625e+00) (7, 3.66853737831115722656e+00) (3, 1.71321296691894531250e+01) (4, 3.21592979431152343750e+01) (5, 1.01003484725952148438e+01) (6, 2.41802425384521484375e+01) (7, 1.73295497894287109375e+01) 
