FANN_FLO_2.1
num_layers=4
learning_rate=0.500000
connection_rate=1.000000
network_type=0
learning_momentum=0.000000
training_algorithm=2
train_error_function=1
train_stop_function=0
cascade_output_change_fraction=0.010000
quickprop_decay=-0.000100
quickprop_mu=1.750000
rprop_increase_factor=1.200000
rprop_decrease_factor=0.500000
rprop_delta_min=0.000000
rprop_delta_max=50.000000
rprop_delta_zero=0.100000
cascade_output_stagnation_epochs=12
cascade_candidate_change_fraction=0.010000
cascade_candidate_stagnation_epochs=12
cascade_max_out_epochs=150
cascade_min_out_epochs=50
cascade_max_cand_epochs=150
cascade_min_cand_epochs=50
cascade_num_candidate_groups=2
bit_fail_limit=3.49999994039535522461e-01
cascade_candidate_limit=1.00000000000000000000e+03
cascade_weight_multiplier=4.00000005960464477539e-01
cascade_activation_functions_count=10
cascade_activation_functions=3 5 7 8 10 11 14 15 16 17 
cascade_activation_steepnesses_count=4
cascade_activation_steepnesses=2.50000000000000000000e-01 5.00000000000000000000e-01 7.50000000000000000000e-01 1.00000000000000000000e+00 
layer_sizes=4 5 3 2 
scale_included=0
neurons (num_inputs, activation_function, activation_steepness)=(0, 0, 0.00000000000000000000e+00) (0, 0, 0.00000000000000000000e+00) (0, 0, 0.00000000000000000000e+00) (0, 0, 0.00000000000000000000e+00) (4, 3, 5.00000000000000000000e-01) (4, 3, 5.00000000000000000000e-01) (4, 3, 5.00000000000000000000e-01) (4, 3, 5.00000000000000000000e-01) (0, 3, 0.00000000000000000000e+00) (5, 3, 5.00000000000000000000e-01) (5, 3, 5.00000000000000000000e-01) (0, 3, 0.00000000000000000000e+00) (3, 3, 5.00000000000000000000e-01) (0, 3, 0.00000000000000000000e+00) 
connections (connected_to_neuron, weight)=(0, -3.59166884422302246094e+00) (1, -1.09573955535888671875e+01) (2, 3.39064812660217285156e+00) (3, 2.61049866676330566406e+00) (0, -2.33541083335876464844e+00) (1, -7.98984241485595703125e+00) (2, 2.14856958389282226562e+00) (3, 2.68015408515930175781e+00) (0, 1.51053678989410400391e+00) (1, 1.50000000000000000000e+03) (2, -7.32127666473388671875e+00) (3, 6.40951204299926757812e+00) (0, 7.63807800292968750000e+02) (1, 6.08625316619873046875e+00) (2, 8.44926513671875000000e+02) (3, 3.90821838378906250000e+01) (4, 1.11057434082031250000e+01) (5, 2.78208312988281250000e+01) (6, -5.43781852722167968750e+00) (7, -2.28116583824157714844e+00) (8, -2.04287886619567871094e+00) (4, 2.33735809326171875000e+02) (5, 1.30911022949218750000e+03) (6, -1.45663342285156250000e+03) (7, -3.06847953796386718750e+01) (8, -1.26431779861450195312e+01) (9, -4.20466756820678710938e+00) (10, -1.01999511718750000000e+01) (11, 1.88261020183563232422e+00) 
