FANN_FLO_2.1
num_layers=3
learning_rate=0.500000
connection_rate=1.000000
network_type=0
learning_momentum=0.000000
training_algorithm=2
train_error_function=1
train_stop_function=0
cascade_output_change_fraction=0.010000
quickprop_decay=-0.000100
quickprop_mu=1.750000
rprop_increase_factor=1.200000
rprop_decrease_factor=0.500000
rprop_delta_min=0.000000
rprop_delta_max=50.000000
rprop_delta_zero=0.100000
cascade_output_stagnation_epochs=12
cascade_candidate_change_fraction=0.010000
cascade_candidate_stagnation_epochs=12
cascade_max_out_epochs=150
cascade_min_out_epochs=50
cascade_max_cand_epochs=150
cascade_min_cand_epochs=50
cascade_num_candidate_groups=2
bit_fail_limit=3.49999994039535522461e-01
cascade_candidate_limit=1.00000000000000000000e+03
cascade_weight_multiplier=4.00000005960464477539e-01
cascade_activation_functions_count=10
cascade_activation_functions=3 5 7 8 10 11 14 15 16 17 
cascade_activation_steepnesses_count=4
cascade_activation_steepnesses=2.50000000000000000000e-01 5.00000000000000000000e-01 7.50000000000000000000e-01 1.00000000000000000000e+00 
layer_sizes=82 3 2 
scale_included=0
neurons (num_inputs, activation_function, activation_steepness)=(0, 0, 0.00000000000000000000e+00) (0, 0, 0.00000000000000000000e+00) (0, 0, 0.00000000000000000000e+00) (0, 0, 0.00000000000000000000e+00) (0, 0, 0.00000000000000000000e+00) (0, 0, 0.00000000000000000000e+00) (0, 0, 0.00000000000000000000e+00) (0, 0, 0.00000000000000000000e+00) (0, 0, 0.00000000000000000000e+00) (0, 0, 0.00000000000000000000e+00) (0, 0, 0.00000000000000000000e+00) (0, 0, 0.00000000000000000000e+00) (0, 0, 0.00000000000000000000e+00) (0, 0, 0.00000000000000000000e+00) (0, 0, 0.00000000000000000000e+00) (0, 0, 0.00000000000000000000e+00) (0, 0, 0.00000000000000000000e+00) (0, 0, 0.00000000000000000000e+00) (0, 0, 0.00000000000000000000e+00) (0, 0, 0.00000000000000000000e+00) (0, 0, 0.00000000000000000000e+00) (0, 0, 0.00000000000000000000e+00) (0, 0, 0.00000000000000000000e+00) (0, 0, 0.00000000000000000000e+00) (0, 0, 0.00000000000000000000e+00) (0, 0, 0.00000000000000000000e+00) (0, 0, 0.00000000000000000000e+00) (0, 0, 0.00000000000000000000e+00) (0, 0, 0.00000000000000000000e+00) (0, 0, 0.00000000000000000000e+00) (0, 0, 0.00000000000000000000e+00) (0, 0, 0.00000000000000000000e+00) (0, 0, 0.00000000000000000000e+00) (0, 0, 0.00000000000000000000e+00) (0, 0, 0.00000000000000000000e+00) (0, 0, 0.00000000000000000000e+00) (0, 0, 0.00000000000000000000e+00) (0, 0, 0.00000000000000000000e+00) (0, 0, 0.00000000000000000000e+00) (0, 0, 0.00000000000000000000e+00) (0, 0, 0.00000000000000000000e+00) (0, 0, 0.00000000000000000000e+00) (0, 0, 0.00000000000000000000e+00) (0, 0, 0.00000000000000000000e+00) (0, 0, 0.00000000000000000000e+00) (0, 0, 0.00000000000000000000e+00) (0, 0, 0.00000000000000000000e+00) (0, 0, 0.00000000000000000000e+00) (0, 0, 0.00000000000000000000e+00) (0, 0, 0.00000000000000000000e+00) (0, 0, 0.00000000000000000000e+00) (0, 0, 0.00000000000000000000e+00) (0, 0, 0.00000000000000000000e+00) (0, 0, 0.00000000000000000000e+00) (0, 0, 0.00000000000000000000e+00) (0, 0, 0.00000000000000000000e+00) (0, 0, 0.00000000000000000000e+00) (0, 0, 0.00000000000000000000e+00) (0, 0, 0.00000000000000000000e+00) (0, 0, 0.00000000000000000000e+00) (0, 0, 0.00000000000000000000e+00) (0, 0, 0.00000000000000000000e+00) (0, 0, 0.00000000000000000000e+00) (0, 0, 0.00000000000000000000e+00) (0, 0, 0.00000000000000000000e+00) (0, 0, 0.00000000000000000000e+00) (0, 0, 0.00000000000000000000e+00) (0, 0, 0.00000000000000000000e+00) (0, 0, 0.00000000000000000000e+00) (0, 0, 0.00000000000000000000e+00) (0, 0, 0.00000000000000000000e+00) (0, 0, 0.00000000000000000000e+00) (0, 0, 0.00000000000000000000e+00) (0, 0, 0.00000000000000000000e+00) (0, 0, 0.00000000000000000000e+00) (0, 0, 0.00000000000000000000e+00) (0, 0, 0.00000000000000000000e+00) (0, 0, 0.00000000000000000000e+00) (0, 0, 0.00000000000000000000e+00) (0, 0, 0.00000000000000000000e+00) (0, 0, 0.00000000000000000000e+00) (0, 0, 0.00000000000000000000e+00) (82, 3, 5.00000000000000000000e-01) (82, 3, 5.00000000000000000000e-01) (0, 3, 0.00000000000000000000e+00) (3, 3, 5.00000000000000000000e-01) (0, 3, 0.00000000000000000000e+00) 
connections (connected_to_neuron, weight)=(0, -2.56164222955703735352e-01) (1, 1.26832032203674316406e+00) (2, 2.06242039799690246582e-01) (3, -6.27558171749114990234e-01) (4, -6.63419663906097412109e-01) (5, -3.91939505934715270996e-02) (6, -2.40706014633178710938e+00) (7, 1.44461476802825927734e+00) (8, -7.23026812076568603516e-01) (9, -4.62864749133586883545e-02) (10, -4.22696888446807861328e-01) (11, -1.63808152079582214355e-01) (12, -1.54322481155395507812e+00) (13, -9.27722096443176269531e-01) (14, -2.74463921785354614258e-01) (15, 3.79645138978958129883e-01) (16, -8.12208533287048339844e-01) (17, -1.29295873641967773438e+00) (18, -1.93884897232055664062e+00) (19, -4.15021896362304687500e-01) (20, -4.52119380235671997070e-01) (21, -2.93403655290603637695e-01) (22, -1.93993747234344482422e-01) (23, -8.55658471584320068359e-01) (24, -1.47700109481811523438e+01) (25, -1.19320070743560791016e+00) (26, -3.91655176877975463867e-01) (27, 3.09694975614547729492e-01) (28, -1.95926740765571594238e-01) (29, -6.59045338630676269531e-01) (30, 5.84954284131526947021e-02) (31, -5.19423365592956542969e-01) (32, -2.25689694285392761230e-01) (33, -1.03165054321289062500e+00) (34, 2.81994879245758056641e-01) (35, -2.80373960733413696289e-01) (36, 8.08595940470695495605e-02) (37, -3.37368696928024291992e-01) (38, -1.87077069282531738281e+00) (39, 5.84742277860641479492e-02) (40, -1.04690253734588623047e-01) (41, -3.64143073558807373047e-01) (42, -3.98153901100158691406e-01) (43, 8.18267643451690673828e-01) (44, 3.06356012821197509766e-01) (45, -3.20413142442703247070e-01) (46, 2.29838490486145019531e-01) (47, 8.47225546836853027344e-01) (48, 6.07842445373535156250e-01) (49, 1.50000000000000000000e+03) (50, 1.50000000000000000000e+03) (51, 1.50000000000000000000e+03) (52, 1.50000000000000000000e+03) (53, 1.50000000000000000000e+03) (54, 1.50000000000000000000e+03) (55, 1.50000000000000000000e+03) (56, 1.50000000000000000000e+03) (57, 1.50000000000000000000e+03) (58, 1.50000000000000000000e+03) (59, 1.50000000000000000000e+03) (60, 1.50000000000000000000e+03) (61, 1.50000000000000000000e+03) (62, 1.50000000000000000000e+03) (63, 1.50000000000000000000e+03) (64, 1.50000000000000000000e+03) (65, 1.50000000000000000000e+03) (66, 1.50000000000000000000e+03) (67, 1.50000000000000000000e+03) (68, 1.50000000000000000000e+03) (69, 1.50000000000000000000e+03) (70, 1.50000000000000000000e+03) (71, 1.50000000000000000000e+03) (72, 1.50000000000000000000e+03) (73, 1.50000000000000000000e+03) (74, 1.50000000000000000000e+03) (75, 1.50000000000000000000e+03) (76, 1.50000000000000000000e+03) (77, 1.50000000000000000000e+03) (78, 1.50000000000000000000e+03) (79, 1.50000000000000000000e+03) (80, 1.50000000000000000000e+03) (81, 3.35454249382019042969e+00) (0, -1.03489048779010772705e-01) (1, 9.03529971837997436523e-02) (2, 7.42792069911956787109e-01) (3, 3.39660584926605224609e-01) (4, 1.17878288030624389648e-01) (5, 8.24278071522712707520e-02) (6, 1.48530334234237670898e-01) (7, -6.99955582618713378906e-01) (8, 9.85765308141708374023e-02) (9, -3.23830276727676391602e-01) (10, -2.33954966068267822266e-01) (11, 5.68946823477745056152e-02) (12, 6.82070925831794738770e-02) (13, 1.45224789157509803772e-02) (14, -1.08261443674564361572e-01) (15, 1.61222681403160095215e-01) (16, -2.75502175092697143555e-01) (17, -6.12447082996368408203e-01) (18, -1.79556667804718017578e-01) (19, 1.55182644724845886230e-01) (20, 3.00227943807840347290e-03) (21, 4.33151841163635253906e-01) (22, -2.12510302662849426270e-01) (23, -4.49868410825729370117e-01) (24, -5.40263843536376953125e+00) (25, -5.98016500473022460938e-01) (26, 8.84988307952880859375e-02) (27, 2.43573293089866638184e-01) (28, 5.92397212982177734375e-01) (29, -3.66842597723007202148e-01) (30, -2.43620485067367553711e-01) (31, -6.51293277740478515625e-01) (32, 1.47977692540735006332e-03) (33, -2.45710033923387527466e-02) (34, 5.53037673234939575195e-02) (35, -6.56183436512947082520e-02) (36, -3.70294660329818725586e-01) (37, -5.68137526512145996094e-01) (38, -3.49193572998046875000e-01) (39, -1.70180305838584899902e-01) (40, -2.61234063655138015747e-02) (41, -2.81771540641784667969e-01) (42, -2.43516415357589721680e-01) (43, -1.87500685453414916992e-01) (44, -2.62214779853820800781e-01) (45, -2.47543960809707641602e-01) (46, -2.86602824926376342773e-01) (47, -1.59445092082023620605e-01) (48, -1.28533124923706054688e-01) (49, 1.50000000000000000000e+03) (50, 1.50000000000000000000e+03) (51, 1.50000000000000000000e+03) (52, 1.50000000000000000000e+03) (53, 1.50000000000000000000e+03) (54, 1.50000000000000000000e+03) (55, 1.50000000000000000000e+03) (56, 1.50000000000000000000e+03) (57, 1.50000000000000000000e+03) (58, 1.50000000000000000000e+03) (59, 1.50000000000000000000e+03) (60, 1.50000000000000000000e+03) (61, 1.50000000000000000000e+03) (62, 1.50000000000000000000e+03) (63, 1.50000000000000000000e+03) (64, 1.50000000000000000000e+03) (65, 1.50000000000000000000e+03) (66, 1.50000000000000000000e+03) (67, 1.50000000000000000000e+03) (68, 1.50000000000000000000e+03) (69, 1.50000000000000000000e+03) (70, 1.50000000000000000000e+03) (71, 1.50000000000000000000e+03) (72, 1.50000000000000000000e+03) (73, 1.50000000000000000000e+03) (74, 1.50000000000000000000e+03) (75, 1.50000000000000000000e+03) (76, 1.50000000000000000000e+03) (77, 1.50000000000000000000e+03) (78, 1.50000000000000000000e+03) (79, 1.50000000000000000000e+03) (80, 1.50000000000000000000e+03) (81, 4.37730979919433593750e+00) (82, -1.73356258869171142578e+00) (83, -2.22118639945983886719e+00) (84, 7.73984432220458984375e-01) 
