FANN_FLO_2.1
num_layers=3
learning_rate=0.300000
connection_rate=1.000000
network_type=0
learning_momentum=0.000000
training_algorithm=2
train_error_function=1
train_stop_function=0
cascade_output_change_fraction=0.010000
quickprop_decay=-0.000100
quickprop_mu=1.750000
rprop_increase_factor=1.200000
rprop_decrease_factor=0.500000
rprop_delta_min=0.000000
rprop_delta_max=50.000000
rprop_delta_zero=0.100000
cascade_output_stagnation_epochs=12
cascade_candidate_change_fraction=0.010000
cascade_candidate_stagnation_epochs=12
cascade_max_out_epochs=150
cascade_min_out_epochs=50
cascade_max_cand_epochs=150
cascade_min_cand_epochs=50
cascade_num_candidate_groups=2
bit_fail_limit=3.49999994039535522461e-01
cascade_candidate_limit=1.00000000000000000000e+03
cascade_weight_multiplier=4.00000005960464477539e-01
cascade_activation_functions_count=10
cascade_activation_functions=3 5 7 8 10 11 14 15 16 17 
cascade_activation_steepnesses_count=4
cascade_activation_steepnesses=2.50000000000000000000e-01 5.00000000000000000000e-01 7.50000000000000000000e-01 1.00000000000000000000e+00 
layer_sizes=4 9 2 
scale_included=0
neurons (num_inputs, activation_function, activation_steepness)=(0, 0, 0.00000000000000000000e+00) (0, 0, 0.00000000000000000000e+00) (0, 0, 0.00000000000000000000e+00) (0, 0, 0.00000000000000000000e+00) (4, 3, 5.00000000000000000000e-01) (4, 3, 5.00000000000000000000e-01) (4, 3, 5.00000000000000000000e-01) (4, 3, 5.00000000000000000000e-01) (4, 3, 5.00000000000000000000e-01) (4, 3, 5.00000000000000000000e-01) (4, 3, 5.00000000000000000000e-01) (4, 3, 5.00000000000000000000e-01) (0, 3, 0.00000000000000000000e+00) (9, 3, 5.00000000000000000000e-01) (0, 3, 0.00000000000000000000e+00) 
connections (connected_to_neuron, weight)=(0, -8.82535696029663085938e-01) (1, 6.87562942504882812500e-01) (2, -6.47750735282897949219e-01) (3, 7.11924409866333007812e+00) (0, 1.83610513806343078613e-01) (1, -2.11325306445360183716e-02) (2, 1.65845677256584167480e-02) (3, -2.77601695060729980469e+00) (0, -3.39031010866165161133e-01) (1, 1.59089490771293640137e-01) (2, -4.46655362844467163086e-01) (3, 2.31447839736938476562e+00) (0, -3.94704826176166534424e-02) (1, 1.35832354426383972168e-02) (2, -2.45152696967124938965e-01) (3, 1.10055379569530487061e-01) (0, -2.73606657981872558594e-01) (1, 1.96336992084980010986e-02) (2, 1.37679502367973327637e-02) (3, 1.11555159091949462891e-01) (0, -9.73592579364776611328e-01) (1, 6.65036439895629882812e-01) (2, -1.18757820129394531250e+00) (3, 1.12606596946716308594e+00) (0, -9.08097028732299804688e-01) (1, 5.81271111965179443359e-01) (2, -9.67202067375183105469e-01) (3, 1.44274926185607910156e+00) (0, -1.49523019790649414062e+00) (1, 7.31697082519531250000e-01) (2, -1.11094164848327636719e+00) (3, 6.27770900726318359375e-01) (4, -2.03019037842750549316e-01) (5, 1.99755096435546875000e+00) (6, -2.62233734130859375000e-01) (7, -9.80086135864257812500e+00) (8, -5.49512147903442382812e+00) (9, -1.89198270440101623535e-01) (10, -1.93169862031936645508e-01) (11, -8.02451223134994506836e-02) (12, -1.66114509105682373047e-01) 
