FANN_FLO_2.1
num_layers=4
learning_rate=0.500000
connection_rate=1.000000
network_type=0
learning_momentum=0.000000
training_algorithm=2
train_error_function=1
train_stop_function=0
cascade_output_change_fraction=0.010000
quickprop_decay=-0.000100
quickprop_mu=1.750000
rprop_increase_factor=1.200000
rprop_decrease_factor=0.500000
rprop_delta_min=0.000000
rprop_delta_max=50.000000
rprop_delta_zero=0.100000
cascade_output_stagnation_epochs=12
cascade_candidate_change_fraction=0.010000
cascade_candidate_stagnation_epochs=12
cascade_max_out_epochs=150
cascade_min_out_epochs=50
cascade_max_cand_epochs=150
cascade_min_cand_epochs=50
cascade_num_candidate_groups=2
bit_fail_limit=3.49999994039535522461e-01
cascade_candidate_limit=1.00000000000000000000e+03
cascade_weight_multiplier=4.00000005960464477539e-01
cascade_activation_functions_count=10
cascade_activation_functions=3 5 7 8 10 11 14 15 16 17 
cascade_activation_steepnesses_count=4
cascade_activation_steepnesses=2.50000000000000000000e-01 5.00000000000000000000e-01 7.50000000000000000000e-01 1.00000000000000000000e+00 
layer_sizes=18 5 5 2 
scale_included=0
neurons (num_inputs, activation_function, activation_steepness)=(0, 0, 0.00000000000000000000e+00) (0, 0, 0.00000000000000000000e+00) (0, 0, 0.00000000000000000000e+00) (0, 0, 0.00000000000000000000e+00) (0, 0, 0.00000000000000000000e+00) (0, 0, 0.00000000000000000000e+00) (0, 0, 0.00000000000000000000e+00) (0, 0, 0.00000000000000000000e+00) (0, 0, 0.00000000000000000000e+00) (0, 0, 0.00000000000000000000e+00) (0, 0, 0.00000000000000000000e+00) (0, 0, 0.00000000000000000000e+00) (0, 0, 0.00000000000000000000e+00) (0, 0, 0.00000000000000000000e+00) (0, 0, 0.00000000000000000000e+00) (0, 0, 0.00000000000000000000e+00) (0, 0, 0.00000000000000000000e+00) (0, 0, 0.00000000000000000000e+00) (18, 3, 5.00000000000000000000e-01) (18, 3, 5.00000000000000000000e-01) (18, 3, 5.00000000000000000000e-01) (18, 3, 5.00000000000000000000e-01) (0, 3, 0.00000000000000000000e+00) (5, 3, 5.00000000000000000000e-01) (5, 3, 5.00000000000000000000e-01) (5, 3, 5.00000000000000000000e-01) (5, 3, 5.00000000000000000000e-01) (0, 3, 0.00000000000000000000e+00) (5, 0, 5.00000000000000000000e-01) (0, 0, 0.00000000000000000000e+00) 
connections (connected_to_neuron, weight)=(0, -4.69498229980468750000e+02) (1, -1.56083345413208007812e+01) (2, -9.48828506469726562500e+00) (3, -1.85798675537109375000e+02) (4, -7.44784774780273437500e+01) (5, 3.18667388916015625000e+02) (6, 7.22603073120117187500e+01) (7, 5.10741302490234375000e+02) (8, 9.59450805664062500000e+02) (9, 3.20973663330078125000e+01) (10, 1.66634826660156250000e+01) (11, 1.97277126312255859375e+01) (12, 8.18394851684570312500e+00) (13, 1.97505111694335937500e+01) (14, 2.44308261871337890625e+01) (15, 2.18132610321044921875e+01) (16, 1.97953186035156250000e+01) (17, 1.45521235466003417969e+00) (0, -4.05629150390625000000e+02) (1, -1.57369298934936523438e+01) (2, -2.23902873992919921875e+01) (3, -1.64464797973632812500e+02) (4, -5.38425147533416748047e-01) (5, 3.18719848632812500000e+02) (6, 7.23680953979492187500e+01) (7, 5.10799652099609375000e+02) (8, 5.27758483886718750000e+02) (9, 3.29567871093750000000e+01) (10, 1.55905256271362304688e+01) (11, 1.97000141143798828125e+01) (12, 2.14737415313720703125e+01) (13, 1.98621616363525390625e+01) (14, 2.44168415069580078125e+01) (15, 2.17803096771240234375e+01) (16, 1.99409122467041015625e+01) (17, 1.02222442626953125000e+00) (0, 1.02135455608367919922e+00) (1, 1.01603662967681884766e+00) (2, 9.93863642215728759766e-01) (3, 1.14587318897247314453e+00) (4, 9.56917047500610351562e-01) (5, -1.37020194530487060547e+00) (6, -1.13698494434356689453e+00) (7, -1.04178571701049804688e+00) (8, -8.23276787996292114258e-02) (9, 1.09058105945587158203e+00) (10, 1.10330736637115478516e+00) (11, 9.73181903362274169922e-01) (12, 9.53929305076599121094e-01) (13, 1.23715603351593017578e+00) (14, 1.03267800807952880859e+00) (15, 8.73724877834320068359e-01) (16, 1.16362130641937255859e+00) (17, -5.10286760330200195312e+00) (0, 1.05944299697875976562e+00) (1, 8.37746322154998779297e-01) (2, 8.03863108158111572266e-01) (3, 1.05573582649230957031e+00) (4, 9.70465898513793945312e-01) (5, -4.27201688289642333984e-01) (6, -5.52423059940338134766e-01) (7, -8.25102329254150390625e-01) (8, 1.46585181355476379395e-01) (9, 8.69131445884704589844e-01) (10, 6.81500673294067382812e-01) (11, 1.03791320323944091797e+00) (12, 9.27686154842376708984e-01) (13, 8.35067093372344970703e-01) (14, 9.01861548423767089844e-01) (15, 9.11663532257080078125e-01) (16, 8.21498394012451171875e-01) (17, -5.87676477432250976562e+00) (18, 9.30587649345397949219e-01) (19, 9.74613308906555175781e-01) (20, 1.50000000000000000000e+03) (21, 5.26077758789062500000e+02) (22, 7.97480642795562744141e-01) (18, 9.52133238315582275391e-01) (19, 9.16728317737579345703e-01) (20, 1.50000000000000000000e+03) (21, 5.26198913574218750000e+02) (22, 8.64449381828308105469e-01) (18, -7.78116881847381591797e-01) (19, -7.14268743991851806641e-01) (20, 1.90346126556396484375e+01) (21, 9.51992511749267578125e+00) (22, -6.88688695430755615234e-01) (18, -1.06472241878509521484e+00) (19, -8.37362706661224365234e-01) (20, 3.18400764465332031250e+00) (21, 2.88811087608337402344e+00) (22, -9.45711493492126464844e-01) (23, 9.50722038745880126953e-01) (24, 9.05324220657348632812e-01) (25, 4.23683834075927734375e+00) (26, 7.55807447433471679688e+00) (27, 9.03670966625213623047e-01) 
