FANN_FLO_2.1
num_layers=4
learning_rate=0.500000
connection_rate=1.000000
network_type=0
learning_momentum=0.000000
training_algorithm=2
train_error_function=1
train_stop_function=0
cascade_output_change_fraction=0.010000
quickprop_decay=-0.000100
quickprop_mu=1.750000
rprop_increase_factor=1.200000
rprop_decrease_factor=0.500000
rprop_delta_min=0.000000
rprop_delta_max=50.000000
rprop_delta_zero=0.100000
cascade_output_stagnation_epochs=12
cascade_candidate_change_fraction=0.010000
cascade_candidate_stagnation_epochs=12
cascade_max_out_epochs=150
cascade_min_out_epochs=50
cascade_max_cand_epochs=150
cascade_min_cand_epochs=50
cascade_num_candidate_groups=2
bit_fail_limit=3.49999994039535522461e-01
cascade_candidate_limit=1.00000000000000000000e+03
cascade_weight_multiplier=4.00000005960464477539e-01
cascade_activation_functions_count=10
cascade_activation_functions=3 5 7 8 10 11 14 15 16 17 
cascade_activation_steepnesses_count=4
cascade_activation_steepnesses=2.50000000000000000000e-01 5.00000000000000000000e-01 7.50000000000000000000e-01 1.00000000000000000000e+00 
layer_sizes=4 5 5 2 
scale_included=0
neurons (num_inputs, activation_function, activation_steepness)=(0, 0, 0.00000000000000000000e+00) (0, 0, 0.00000000000000000000e+00) (0, 0, 0.00000000000000000000e+00) (0, 0, 0.00000000000000000000e+00) (4, 3, 5.00000000000000000000e-01) (4, 3, 5.00000000000000000000e-01) (4, 3, 5.00000000000000000000e-01) (4, 3, 5.00000000000000000000e-01) (0, 3, 0.00000000000000000000e+00) (5, 3, 5.00000000000000000000e-01) (5, 3, 5.00000000000000000000e-01) (5, 3, 5.00000000000000000000e-01) (5, 3, 5.00000000000000000000e-01) (0, 3, 0.00000000000000000000e+00) (5, 3, 5.00000000000000000000e-01) (0, 3, 0.00000000000000000000e+00) 
connections (connected_to_neuron, weight)=(0, -1.55923962593078613281e+00) (1, -3.31047019958496093750e+01) (2, 1.71765537261962890625e+01) (3, 7.24860131740570068359e-01) (0, -2.42809608578681945801e-01) (1, -1.38405114746093750000e+03) (2, 1.12549291992187500000e+03) (3, 4.30145144462585449219e-01) (0, -5.19172286987304687500e+00) (1, -5.88565587997436523438e+00) (2, -4.33962494134902954102e-01) (3, 4.19237804412841796875e+00) (0, -1.86162710189819335938e+00) (1, -4.30050476074218750000e+02) (2, 4.07604705810546875000e+02) (3, 9.24481868743896484375e-01) (4, -5.24296045303344726562e+00) (5, 4.01609867811203002930e-01) (6, 2.97000255584716796875e+01) (7, 2.48724699020385742188e+00) (8, -6.25344657897949218750e+00) (4, 7.86366319656372070312e+00) (5, 1.16163647460937500000e+03) (6, 1.53740653991699218750e+01) (7, 7.85849792480468750000e+02) (8, -3.16452336311340332031e+00) (4, -3.96277189254760742188e+00) (5, 3.79233717918395996094e+00) (6, 5.76037445068359375000e+01) (7, -1.93348443508148193359e+00) (8, -1.19594554901123046875e+01) (4, -3.05035614967346191406e+00) (5, 1.57780551910400390625e+00) (6, 4.71414299011230468750e+01) (7, -9.99208986759185791016e-02) (8, -9.65443515777587890625e+00) (9, -2.69535803794860839844e+00) (10, 1.81493496894836425781e+00) (11, -1.75080108642578125000e+00) (12, -1.49800384044647216797e+00) (13, 1.89687466621398925781e+00) 
