FANN_FLO_2.1
num_layers=3
learning_rate=0.500000
connection_rate=1.000000
network_type=0
learning_momentum=0.000000
training_algorithm=2
train_error_function=1
train_stop_function=0
cascade_output_change_fraction=0.010000
quickprop_decay=-0.000100
quickprop_mu=1.750000
rprop_increase_factor=1.200000
rprop_decrease_factor=0.500000
rprop_delta_min=0.000000
rprop_delta_max=50.000000
rprop_delta_zero=0.100000
cascade_output_stagnation_epochs=12
cascade_candidate_change_fraction=0.010000
cascade_candidate_stagnation_epochs=12
cascade_max_out_epochs=150
cascade_min_out_epochs=50
cascade_max_cand_epochs=150
cascade_min_cand_epochs=50
cascade_num_candidate_groups=2
bit_fail_limit=3.49999994039535522461e-01
cascade_candidate_limit=1.00000000000000000000e+03
cascade_weight_multiplier=4.00000005960464477539e-01
cascade_activation_functions_count=10
cascade_activation_functions=3 5 7 8 10 11 14 15 16 17 
cascade_activation_steepnesses_count=4
cascade_activation_steepnesses=2.50000000000000000000e-01 5.00000000000000000000e-01 7.50000000000000000000e-01 1.00000000000000000000e+00 
layer_sizes=3 17 4 
scale_included=0
neurons (num_inputs, activation_function, activation_steepness)=(0, 0, 0.00000000000000000000e+00) (0, 0, 0.00000000000000000000e+00) (0, 0, 0.00000000000000000000e+00) (3, 3, 5.00000000000000000000e-01) (3, 3, 5.00000000000000000000e-01) (3, 3, 5.00000000000000000000e-01) (3, 3, 5.00000000000000000000e-01) (3, 3, 5.00000000000000000000e-01) (3, 3, 5.00000000000000000000e-01) (3, 3, 5.00000000000000000000e-01) (3, 3, 5.00000000000000000000e-01) (3, 3, 5.00000000000000000000e-01) (3, 3, 5.00000000000000000000e-01) (3, 3, 5.00000000000000000000e-01) (3, 3, 5.00000000000000000000e-01) (3, 3, 5.00000000000000000000e-01) (3, 3, 5.00000000000000000000e-01) (3, 3, 5.00000000000000000000e-01) (3, 3, 5.00000000000000000000e-01) (0, 3, 0.00000000000000000000e+00) (17, 0, 5.00000000000000000000e-01) (17, 0, 5.00000000000000000000e-01) (17, 0, 5.00000000000000000000e-01) (0, 0, 0.00000000000000000000e+00) 
connections (connected_to_neuron, weight)=(0, -7.79546880722045898438e+00) (1, -1.23136305809020996094e+00) (2, 1.26286232471466064453e+00) (0, -1.85429990291595458984e+00) (1, 6.50211715698242187500e+00) (2, -1.69615045189857482910e-01) (0, -3.53747868537902832031e+00) (1, 3.59756016731262207031e+00) (2, 1.59836566448211669922e+00) (0, -3.53087639808654785156e+00) (1, 3.78805994987487792969e+00) (2, 2.39415860176086425781e+00) (0, -2.65673375129699707031e+00) (1, 5.17553150653839111328e-01) (2, 2.00797796249389648438e+00) (0, -1.49861896038055419922e+00) (1, -1.60652661323547363281e+00) (2, 1.52917122840881347656e+00) (0, -3.09366440773010253906e+00) (1, 4.75513458251953125000e+00) (2, 3.79027676582336425781e+00) (0, -1.63280701637268066406e+00) (1, 2.86779618263244628906e+00) (2, 1.12686443328857421875e+00) (0, -1.13546972274780273438e+01) (1, -4.46735572814941406250e+00) (2, 5.11522054672241210938e-01) (0, -3.42075347900390625000e+00) (1, -2.13323250412940979004e-01) (2, 1.70735895633697509766e+00) (0, -2.42923498153686523438e+00) (1, 1.13193821907043457031e+00) (2, 1.63438570499420166016e+00) (0, -2.87538313865661621094e+00) (1, 3.87785106897354125977e-01) (2, 1.58162927627563476562e+00) (0, -3.37520265579223632812e+00) (1, 1.19194947183132171631e-02) (2, 1.63913667201995849609e+00) (0, -3.70203065872192382812e+00) (1, 3.53716921806335449219e+00) (2, -1.09671461582183837891e+00) (0, -2.52386879920959472656e+00) (1, -6.25257158279418945312e+00) (2, 9.71783518791198730469e-01) (0, -3.62616562843322753906e+00) (1, -3.48515439033508300781e+00) (2, 4.35603559017181396484e-01) (3, 1.54788947105407714844e+00) (4, 8.88926804065704345703e-01) (5, 2.66672879457473754883e-01) (6, 2.98684179782867431641e-01) (7, 2.54324883222579956055e-01) (8, -2.10191178321838378906e+00) (9, 2.58163303136825561523e-01) (10, 3.53110879659652709961e-01) (11, 1.51104915142059326172e+00) (12, 4.19803559780120849609e-01) (13, 6.44459187984466552734e-01) (14, 4.41789150238037109375e-01) (15, 4.90604430437088012695e-01) (16, 1.36003065109252929688e+00) (17, 1.80813658237457275391e+00) (18, 2.45583248138427734375e+00) (19, 3.06625872850418090820e-01) (3, 2.36890673637390136719e+00) (4, 2.25522923469543457031e+00) (5, 1.55514717102050781250e+00) (6, 1.48613023757934570312e+00) (7, 1.36431860923767089844e+00) (8, 1.30631923675537109375e+00) (9, 1.32840359210968017578e+00) (10, 1.49904859066009521484e+00) (11, 2.37733221054077148438e+00) (12, 1.54359579086303710938e+00) (13, 2.01034307479858398438e+00) (14, 2.00541257858276367188e+00) (15, 1.49958205223083496094e+00) (16, 2.13071823120117187500e+00) (17, 4.81085157394409179688e+00) (18, 3.75391125679016113281e+00) (19, 9.94329273700714111328e-01) (3, 5.80222797393798828125e+00) (4, 4.98302459716796875000e+00) (5, 4.90700292587280273438e+00) (6, 4.91367053985595703125e+00) (7, 6.68658971786499023438e+00) (8, 9.24359130859375000000e+00) (9, 7.48964262008666992188e+00) (10, 5.09324407577514648438e+00) (11, 6.23613643646240234375e+00) (12, 5.80472278594970703125e+00) (13, 5.05039882659912109375e+00) (14, 5.20411920547485351562e+00) (15, 5.66981410980224609375e+00) (16, 5.27592277526855468750e+00) (17, 1.51094894409179687500e+01) (18, 1.00223922729492187500e+01) (19, 7.20586204528808593750e+00) 
