FANN_FLO_2.1
num_layers=3
learning_rate=0.500000
connection_rate=1.000000
network_type=0
learning_momentum=0.000000
training_algorithm=2
train_error_function=1
train_stop_function=0
cascade_output_change_fraction=0.010000
quickprop_decay=-0.000100
quickprop_mu=1.750000
rprop_increase_factor=1.200000
rprop_decrease_factor=0.500000
rprop_delta_min=0.000000
rprop_delta_max=50.000000
rprop_delta_zero=0.100000
cascade_output_stagnation_epochs=12
cascade_candidate_change_fraction=0.010000
cascade_candidate_stagnation_epochs=12
cascade_max_out_epochs=150
cascade_min_out_epochs=50
cascade_max_cand_epochs=150
cascade_min_cand_epochs=50
cascade_num_candidate_groups=2
bit_fail_limit=3.49999994039535522461e-01
cascade_candidate_limit=1.00000000000000000000e+03
cascade_weight_multiplier=4.00000005960464477539e-01
cascade_activation_functions_count=10
cascade_activation_functions=3 5 7 8 10 11 14 15 16 17 
cascade_activation_steepnesses_count=4
cascade_activation_steepnesses=2.50000000000000000000e-01 5.00000000000000000000e-01 7.50000000000000000000e-01 1.00000000000000000000e+00 
layer_sizes=82 9 2 
scale_included=0
neurons (num_inputs, activation_function, activation_steepness)=(0, 0, 0.00000000000000000000e+00) (0, 0, 0.00000000000000000000e+00) (0, 0, 0.00000000000000000000e+00) (0, 0, 0.00000000000000000000e+00) (0, 0, 0.00000000000000000000e+00) (0, 0, 0.00000000000000000000e+00) (0, 0, 0.00000000000000000000e+00) (0, 0, 0.00000000000000000000e+00) (0, 0, 0.00000000000000000000e+00) (0, 0, 0.00000000000000000000e+00) (0, 0, 0.00000000000000000000e+00) (0, 0, 0.00000000000000000000e+00) (0, 0, 0.00000000000000000000e+00) (0, 0, 0.00000000000000000000e+00) (0, 0, 0.00000000000000000000e+00) (0, 0, 0.00000000000000000000e+00) (0, 0, 0.00000000000000000000e+00) (0, 0, 0.00000000000000000000e+00) (0, 0, 0.00000000000000000000e+00) (0, 0, 0.00000000000000000000e+00) (0, 0, 0.00000000000000000000e+00) (0, 0, 0.00000000000000000000e+00) (0, 0, 0.00000000000000000000e+00) (0, 0, 0.00000000000000000000e+00) (0, 0, 0.00000000000000000000e+00) (0, 0, 0.00000000000000000000e+00) (0, 0, 0.00000000000000000000e+00) (0, 0, 0.00000000000000000000e+00) (0, 0, 0.00000000000000000000e+00) (0, 0, 0.00000000000000000000e+00) (0, 0, 0.00000000000000000000e+00) (0, 0, 0.00000000000000000000e+00) (0, 0, 0.00000000000000000000e+00) (0, 0, 0.00000000000000000000e+00) (0, 0, 0.00000000000000000000e+00) (0, 0, 0.00000000000000000000e+00) (0, 0, 0.00000000000000000000e+00) (0, 0, 0.00000000000000000000e+00) (0, 0, 0.00000000000000000000e+00) (0, 0, 0.00000000000000000000e+00) (0, 0, 0.00000000000000000000e+00) (0, 0, 0.00000000000000000000e+00) (0, 0, 0.00000000000000000000e+00) (0, 0, 0.00000000000000000000e+00) (0, 0, 0.00000000000000000000e+00) (0, 0, 0.00000000000000000000e+00) (0, 0, 0.00000000000000000000e+00) (0, 0, 0.00000000000000000000e+00) (0, 0, 0.00000000000000000000e+00) (0, 0, 0.00000000000000000000e+00) (0, 0, 0.00000000000000000000e+00) (0, 0, 0.00000000000000000000e+00) (0, 0, 0.00000000000000000000e+00) (0, 0, 0.00000000000000000000e+00) (0, 0, 0.00000000000000000000e+00) (0, 0, 0.00000000000000000000e+00) (0, 0, 0.00000000000000000000e+00) (0, 0, 0.00000000000000000000e+00) (0, 0, 0.00000000000000000000e+00) (0, 0, 0.00000000000000000000e+00) (0, 0, 0.00000000000000000000e+00) (0, 0, 0.00000000000000000000e+00) (0, 0, 0.00000000000000000000e+00) (0, 0, 0.00000000000000000000e+00) (0, 0, 0.00000000000000000000e+00) (0, 0, 0.00000000000000000000e+00) (0, 0, 0.00000000000000000000e+00) (0, 0, 0.00000000000000000000e+00) (0, 0, 0.00000000000000000000e+00) (0, 0, 0.00000000000000000000e+00) (0, 0, 0.00000000000000000000e+00) (0, 0, 0.00000000000000000000e+00) (0, 0, 0.00000000000000000000e+00) (0, 0, 0.00000000000000000000e+00) (0, 0, 0.00000000000000000000e+00) (0, 0, 0.00000000000000000000e+00) (0, 0, 0.00000000000000000000e+00) (0, 0, 0.00000000000000000000e+00) (0, 0, 0.00000000000000000000e+00) (0, 0, 0.00000000000000000000e+00) (0, 0, 0.00000000000000000000e+00) (0, 0, 0.00000000000000000000e+00) (82, 3, 5.00000000000000000000e-01) (82, 3, 5.00000000000000000000e-01) (82, 3, 5.00000000000000000000e-01) (82, 3, 5.00000000000000000000e-01) (82, 3, 5.00000000000000000000e-01) (82, 3, 5.00000000000000000000e-01) (82, 3, 5.00000000000000000000e-01) (82, 3, 5.00000000000000000000e-01) (0, 3, 0.00000000000000000000e+00) (9, 3, 5.00000000000000000000e-01) (0, 3, 0.00000000000000000000e+00) 
connections (connected_to_neuron, weight)=(0, 1.50000000000000000000e+03) (1, 1.50000000000000000000e+03) (2, 1.50000000000000000000e+03) (3, 1.50000000000000000000e+03) (4, 1.50000000000000000000e+03) (5, 1.50000000000000000000e+03) (6, 1.49999011230468750000e+03) (7, 1.50000000000000000000e+03) (8, 1.50000000000000000000e+03) (9, 1.50000000000000000000e+03) (10, 1.50000000000000000000e+03) (11, 1.48696411132812500000e+02) (12, 1.50000000000000000000e+03) (13, 1.49981750488281250000e+03) (14, 1.50000000000000000000e+03) (15, 1.50000000000000000000e+03) (16, 1.50000000000000000000e+03) (17, 1.50000000000000000000e+03) (18, 1.83073913574218750000e+02) (19, 1.49913354492187500000e+03) (20, 1.44393825531005859375e+01) (21, 1.50000000000000000000e+03) (22, 1.50000000000000000000e+03) (23, 1.50000000000000000000e+03) (24, 1.50000000000000000000e+03) (25, 1.18247222900390625000e+00) (26, 1.49911010742187500000e+03) (27, 1.49985205078125000000e+03) (28, 1.50000000000000000000e+03) (29, 1.50000000000000000000e+03) (30, 1.50000000000000000000e+03) (31, 1.50000000000000000000e+03) (32, 1.49932287597656250000e+03) (33, 1.50000000000000000000e+03) (34, 1.49981176757812500000e+03) (35, 1.50000000000000000000e+03) (36, 1.50000000000000000000e+03) (37, 1.50000000000000000000e+03) (38, 1.50000000000000000000e+03) (39, 1.49787170410156250000e+03) (40, 1.50000000000000000000e+03) (41, 4.76162815093994140625e+00) (42, 1.50000000000000000000e+03) (43, 1.50000000000000000000e+03) (44, 1.50000000000000000000e+03) (45, 1.50000000000000000000e+03) (46, 1.50000000000000000000e+03) (47, 1.33013916015625000000e+03) (48, 1.50000000000000000000e+03) (49, 1.50000000000000000000e+03) (50, 1.50000000000000000000e+03) (51, 1.50000000000000000000e+03) (52, 1.50000000000000000000e+03) (53, 1.50000000000000000000e+03) (54, 1.50000000000000000000e+03) (55, 1.50000000000000000000e+03) (56, 1.50000000000000000000e+03) (57, 1.50000000000000000000e+03) (58, 1.50000000000000000000e+03) (59, 1.50000000000000000000e+03) (60, 1.50000000000000000000e+03) (61, 1.50000000000000000000e+03) (62, 1.50000000000000000000e+03) (63, 1.50000000000000000000e+03) (64, 1.50000000000000000000e+03) (65, 1.50000000000000000000e+03) (66, 1.50000000000000000000e+03) (67, 1.50000000000000000000e+03) (68, 1.50000000000000000000e+03) (69, 1.50000000000000000000e+03) (70, 1.50000000000000000000e+03) (71, 1.50000000000000000000e+03) (72, 1.50000000000000000000e+03) (73, 1.50000000000000000000e+03) (74, 1.50000000000000000000e+03) (75, 1.50000000000000000000e+03) (76, 1.50000000000000000000e+03) (77, 1.50000000000000000000e+03) (78, 1.50000000000000000000e+03) (79, 1.50000000000000000000e+03) (80, 1.50000000000000000000e+03) (81, -1.00987525939941406250e+02) (0, -1.65190964937210083008e-01) (1, 2.30216830968856811523e-01) (2, 6.59312400966882705688e-03) (3, -1.47595599293708801270e-01) (4, -4.05867427587509155273e-01) (5, 2.92048603296279907227e-03) (6, -9.60647985339164733887e-02) (7, 1.92566543817520141602e-01) (8, 9.33005884289741516113e-02) (9, -6.32214769721031188965e-02) (10, -2.80318915843963623047e-01) (11, -4.07713353633880615234e-01) (12, -1.01906113326549530029e-01) (13, 3.72447352856397628784e-03) (14, 8.41383859515190124512e-02) (15, 5.80454953014850616455e-02) (16, -2.17578575015068054199e-01) (17, -1.84199854731559753418e-01) (18, -1.80571466684341430664e-01) (19, -2.95857578516006469727e-01) (20, -3.46218086779117584229e-02) (21, 5.45124374330043792725e-02) (22, 1.17482822388410568237e-02) (23, -2.85093039274215698242e-01) (24, -1.35665833950042724609e+00) (25, -1.16010174155235290527e-01) (26, -6.66160807013511657715e-02) (27, -4.98611181974411010742e-02) (28, -7.05288276076316833496e-02) (29, 4.50247153639793395996e-02) (30, -3.15297603607177734375e-01) (31, -2.62950688600540161133e-01) (32, -3.05488705635070800781e-01) (33, -5.19660599529743194580e-02) (34, -7.59057514369487762451e-03) (35, -1.29559859633445739746e-01) (36, -1.67980521917343139648e-01) (37, -1.59484595060348510742e-01) (38, -2.61368036270141601562e-01) (39, 2.79640983790159225464e-02) (40, -1.27441855147480964661e-02) (41, -1.23473796993494033813e-02) (42, 5.14024049043655395508e-02) (43, 1.07008188962936401367e-01) (44, -1.97192370891571044922e-01) (45, -1.70737609267234802246e-01) (46, -1.04710578918457031250e-01) (47, -2.32488233596086502075e-02) (48, -6.81423544883728027344e-02) (49, 1.50000000000000000000e+03) (50, 1.50000000000000000000e+03) (51, 1.50000000000000000000e+03) (52, 1.50000000000000000000e+03) (53, 1.50000000000000000000e+03) (54, 1.50000000000000000000e+03) (55, 1.50000000000000000000e+03) (56, 1.50000000000000000000e+03) (57, 1.50000000000000000000e+03) (58, 1.50000000000000000000e+03) (59, 1.50000000000000000000e+03) (60, 1.50000000000000000000e+03) (61, 1.50000000000000000000e+03) (62, 1.50000000000000000000e+03) (63, 1.50000000000000000000e+03) (64, 1.50000000000000000000e+03) (65, 1.50000000000000000000e+03) (66, 1.50000000000000000000e+03) (67, 1.50000000000000000000e+03) (68, 1.50000000000000000000e+03) (69, 1.50000000000000000000e+03) (70, 1.50000000000000000000e+03) (71, 1.50000000000000000000e+03) (72, 1.50000000000000000000e+03) (73, 1.50000000000000000000e+03) (74, 1.50000000000000000000e+03) (75, 1.50000000000000000000e+03) (76, 1.50000000000000000000e+03) (77, 1.50000000000000000000e+03) (78, 1.50000000000000000000e+03) (79, 1.50000000000000000000e+03) (80, 1.50000000000000000000e+03) (81, 5.96388101577758789062e-01) (0, 1.50000000000000000000e+03) (1, 1.50000000000000000000e+03) (2, 1.50000000000000000000e+03) (3, 1.50000000000000000000e+03) (4, 1.50000000000000000000e+03) (5, 1.50000000000000000000e+03) (6, 1.49999011230468750000e+03) (7, 1.50000000000000000000e+03) (8, 1.50000000000000000000e+03) (9, 1.50000000000000000000e+03) (10, 1.50000000000000000000e+03) (11, 6.36794700622558593750e+01) (12, 1.50000000000000000000e+03) (13, 1.49981750488281250000e+03) (14, 1.50000000000000000000e+03) (15, 1.50000000000000000000e+03) (16, 1.50000000000000000000e+03) (17, 1.50000000000000000000e+03) (18, 1.49999731445312500000e+03) (19, 1.49913354492187500000e+03) (20, 9.84615234375000000000e+02) (21, 1.50000000000000000000e+03) (22, 1.50000000000000000000e+03) (23, 1.50000000000000000000e+03) (24, 1.50000000000000000000e+03) (25, 8.83562774658203125000e+01) (26, 1.49911010742187500000e+03) (27, 1.49985205078125000000e+03) (28, 1.50000000000000000000e+03) (29, 1.50000000000000000000e+03) (30, 1.50000000000000000000e+03) (31, 1.50000000000000000000e+03) (32, 1.49932287597656250000e+03) (33, 1.50000000000000000000e+03) (34, 1.49981176757812500000e+03) (35, 1.50000000000000000000e+03) (36, 1.50000000000000000000e+03) (37, 1.50000000000000000000e+03) (38, 1.50000000000000000000e+03) (39, 1.49787170410156250000e+03) (40, 1.50000000000000000000e+03) (41, 9.52734184265136718750e+00) (42, 1.50000000000000000000e+03) (43, 1.50000000000000000000e+03) (44, 1.50000000000000000000e+03) (45, 1.50000000000000000000e+03) (46, 1.50000000000000000000e+03) (47, 3.57855491638183593750e+01) (48, 1.50000000000000000000e+03) (49, 1.50000000000000000000e+03) (50, 1.50000000000000000000e+03) (51, 1.50000000000000000000e+03) (52, 1.50000000000000000000e+03) (53, 1.50000000000000000000e+03) (54, 1.50000000000000000000e+03) (55, 1.50000000000000000000e+03) (56, 1.50000000000000000000e+03) (57, 1.50000000000000000000e+03) (58, 1.50000000000000000000e+03) (59, 1.50000000000000000000e+03) (60, 1.50000000000000000000e+03) (61, 1.50000000000000000000e+03) (62, 1.50000000000000000000e+03) (63, 1.50000000000000000000e+03) (64, 1.50000000000000000000e+03) (65, 1.50000000000000000000e+03) (66, 1.50000000000000000000e+03) (67, 1.50000000000000000000e+03) (68, 1.50000000000000000000e+03) (69, 1.50000000000000000000e+03) (70, 1.50000000000000000000e+03) (71, 1.50000000000000000000e+03) (72, 1.50000000000000000000e+03) (73, 1.50000000000000000000e+03) (74, 1.50000000000000000000e+03) (75, 1.50000000000000000000e+03) (76, 1.50000000000000000000e+03) (77, 1.50000000000000000000e+03) (78, 1.50000000000000000000e+03) (79, 1.50000000000000000000e+03) (80, 1.50000000000000000000e+03) (81, 4.75363588333129882812e+00) (0, 1.50000000000000000000e+03) (1, 1.50000000000000000000e+03) (2, 1.50000000000000000000e+03) (3, 1.50000000000000000000e+03) (4, 1.50000000000000000000e+03) (5, 1.50000000000000000000e+03) (6, 1.49999011230468750000e+03) (7, 1.50000000000000000000e+03) (8, 1.50000000000000000000e+03) (9, 1.50000000000000000000e+03) (10, 1.50000000000000000000e+03) (11, 6.25479240417480468750e+01) (12, 1.50000000000000000000e+03) (13, 1.49981750488281250000e+03) (14, 1.50000000000000000000e+03) (15, 1.50000000000000000000e+03) (16, 1.50000000000000000000e+03) (17, 1.50000000000000000000e+03) (18, 9.54255920410156250000e+02) (19, 1.49913354492187500000e+03) (20, 1.36190429687500000000e+03) (21, 1.50000000000000000000e+03) (22, 1.50000000000000000000e+03) (23, 1.50000000000000000000e+03) (24, 1.50000000000000000000e+03) (25, 7.45414733886718750000e+00) (26, 1.49911010742187500000e+03) (27, 1.49985205078125000000e+03) (28, 1.50000000000000000000e+03) (29, 1.50000000000000000000e+03) (30, 1.50000000000000000000e+03) (31, 1.50000000000000000000e+03) (32, 1.49932287597656250000e+03) (33, 1.50000000000000000000e+03) (34, 1.49981176757812500000e+03) (35, 1.50000000000000000000e+03) (36, 1.50000000000000000000e+03) (37, 1.50000000000000000000e+03) (38, 1.50000000000000000000e+03) (39, 1.49787170410156250000e+03) (40, 1.50000000000000000000e+03) (41, 1.16585731506347656250e+02) (42, 1.50000000000000000000e+03) (43, 1.50000000000000000000e+03) (44, 1.50000000000000000000e+03) (45, 1.50000000000000000000e+03) (46, 1.50000000000000000000e+03) (47, 1.50000000000000000000e+03) (48, 1.50000000000000000000e+03) (49, 1.50000000000000000000e+03) (50, 1.50000000000000000000e+03) (51, 1.50000000000000000000e+03) (52, 1.50000000000000000000e+03) (53, 1.50000000000000000000e+03) (54, 1.50000000000000000000e+03) (55, 1.50000000000000000000e+03) (56, 1.50000000000000000000e+03) (57, 1.50000000000000000000e+03) (58, 1.50000000000000000000e+03) (59, 1.50000000000000000000e+03) (60, 1.50000000000000000000e+03) (61, 1.50000000000000000000e+03) (62, 1.50000000000000000000e+03) (63, 1.50000000000000000000e+03) (64, 1.50000000000000000000e+03) (65, 1.50000000000000000000e+03) (66, 1.50000000000000000000e+03) (67, 1.50000000000000000000e+03) (68, 1.50000000000000000000e+03) (69, 1.50000000000000000000e+03) (70, 1.50000000000000000000e+03) (71, 1.50000000000000000000e+03) (72, 1.50000000000000000000e+03) (73, 1.50000000000000000000e+03) (74, 1.50000000000000000000e+03) (75, 1.50000000000000000000e+03) (76, 1.50000000000000000000e+03) (77, 1.50000000000000000000e+03) (78, 1.50000000000000000000e+03) (79, 1.50000000000000000000e+03) (80, 1.50000000000000000000e+03) (81, 2.95628458261489868164e-01) (0, -3.23567241430282592773e-02) (1, 2.86442711949348449707e-02) (2, 6.41046613454818725586e-02) (3, -1.38156652450561523438e-01) (4, -9.80694591999053955078e-03) (5, -7.67618119716644287109e-02) (6, -9.69676077365875244141e-02) (7, -5.97000159323215484619e-02) (8, 1.17279579862952232361e-02) (9, -2.49029994010925292969e-02) (10, 4.47161272168159484863e-02) (11, -3.80030013620853424072e-02) (12, -1.02070301771163940430e-01) (13, -3.55397090315818786621e-02) (14, 2.29058582335710525513e-02) (15, 7.93154090642929077148e-02) (16, -5.97055964171886444092e-02) (17, -3.24186056852340698242e-01) (18, -8.74003544449806213379e-02) (19, -1.79310679435729980469e-01) (20, 5.67904375493526458740e-02) (21, -3.44528965651988983154e-02) (22, -4.90432120859622955322e-02) (23, -1.70658439397811889648e-01) (24, -1.57775413990020751953e+00) (25, -6.21157661080360412598e-02) (26, -1.16261817514896392822e-01) (27, -6.12726211547851562500e-02) (28, 2.87748361006379127502e-03) (29, -2.02718392014503479004e-01) (30, -5.97091950476169586182e-02) (31, -1.52356460690498352051e-01) (32, -1.06574453413486480713e-01) (33, 2.29913406074047088623e-02) (34, -4.68514487147331237793e-02) (35, -1.78546004462987184525e-03) (36, -1.60362482070922851562e-01) (37, -4.67430725693702697754e-02) (38, -1.04003421962261199951e-01) (39, 5.21607138216495513916e-02) (40, -5.49331679940223693848e-02) (41, 2.42070108652114868164e-02) (42, -7.72385373711585998535e-02) (43, -6.41179904341697692871e-02) (44, 1.44732790067791938782e-02) (45, -1.29474237561225891113e-01) (46, -3.58037799596786499023e-02) (47, -1.05155684053897857666e-01) (48, 5.69160841405391693115e-02) (49, 1.50000000000000000000e+03) (50, 1.50000000000000000000e+03) (51, 1.50000000000000000000e+03) (52, 1.50000000000000000000e+03) (53, 1.50000000000000000000e+03) (54, 1.50000000000000000000e+03) (55, 1.50000000000000000000e+03) (56, 1.50000000000000000000e+03) (57, 1.50000000000000000000e+03) (58, 1.50000000000000000000e+03) (59, 1.50000000000000000000e+03) (60, 1.50000000000000000000e+03) (61, 1.50000000000000000000e+03) (62, 1.50000000000000000000e+03) (63, 1.50000000000000000000e+03) (64, 1.50000000000000000000e+03) (65, 1.50000000000000000000e+03) (66, 1.50000000000000000000e+03) (67, 1.50000000000000000000e+03) (68, 1.50000000000000000000e+03) (69, 1.50000000000000000000e+03) (70, 1.50000000000000000000e+03) (71, 1.50000000000000000000e+03) (72, 1.50000000000000000000e+03) (73, 1.50000000000000000000e+03) (74, 1.50000000000000000000e+03) (75, 1.50000000000000000000e+03) (76, 1.50000000000000000000e+03) (77, 1.50000000000000000000e+03) (78, 1.50000000000000000000e+03) (79, 1.50000000000000000000e+03) (80, 1.50000000000000000000e+03) (81, 6.05116963386535644531e-01) (0, 1.50000000000000000000e+03) (1, 1.50000000000000000000e+03) (2, 1.50000000000000000000e+03) (3, 1.50000000000000000000e+03) (4, 1.50000000000000000000e+03) (5, 1.50000000000000000000e+03) (6, 1.49999011230468750000e+03) (7, 1.50000000000000000000e+03) (8, 1.50000000000000000000e+03) (9, 1.50000000000000000000e+03) (10, 1.50000000000000000000e+03) (11, 6.36204032897949218750e+01) (12, 1.50000000000000000000e+03) (13, 1.49981750488281250000e+03) (14, 1.50000000000000000000e+03) (15, 1.50000000000000000000e+03) (16, 1.50000000000000000000e+03) (17, 1.50000000000000000000e+03) (18, 1.49999731445312500000e+03) (19, 1.49913354492187500000e+03) (20, 9.84640075683593750000e+02) (21, 1.50000000000000000000e+03) (22, 1.50000000000000000000e+03) (23, 1.50000000000000000000e+03) (24, 1.50000000000000000000e+03) (25, 2.11700378417968750000e+02) (26, 1.49911010742187500000e+03) (27, 1.49985205078125000000e+03) (28, 1.50000000000000000000e+03) (29, 1.50000000000000000000e+03) (30, 1.50000000000000000000e+03) (31, 1.50000000000000000000e+03) (32, 1.49932287597656250000e+03) (33, 1.50000000000000000000e+03) (34, 1.49981176757812500000e+03) (35, 1.50000000000000000000e+03) (36, 1.50000000000000000000e+03) (37, 1.50000000000000000000e+03) (38, 1.50000000000000000000e+03) (39, 1.49787170410156250000e+03) (40, 1.50000000000000000000e+03) (41, 9.44884872436523437500e+00) (42, 1.50000000000000000000e+03) (43, 1.50000000000000000000e+03) (44, 1.50000000000000000000e+03) (45, 1.50000000000000000000e+03) (46, 1.50000000000000000000e+03) (47, 3.58790206909179687500e+01) (48, 1.50000000000000000000e+03) (49, 1.50000000000000000000e+03) (50, 1.50000000000000000000e+03) (51, 1.50000000000000000000e+03) (52, 1.50000000000000000000e+03) (53, 1.50000000000000000000e+03) (54, 1.50000000000000000000e+03) (55, 1.50000000000000000000e+03) (56, 1.50000000000000000000e+03) (57, 1.50000000000000000000e+03) (58, 1.50000000000000000000e+03) (59, 1.50000000000000000000e+03) (60, 1.50000000000000000000e+03) (61, 1.50000000000000000000e+03) (62, 1.50000000000000000000e+03) (63, 1.50000000000000000000e+03) (64, 1.50000000000000000000e+03) (65, 1.50000000000000000000e+03) (66, 1.50000000000000000000e+03) (67, 1.50000000000000000000e+03) (68, 1.50000000000000000000e+03) (69, 1.50000000000000000000e+03) (70, 1.50000000000000000000e+03) (71, 1.50000000000000000000e+03) (72, 1.50000000000000000000e+03) (73, 1.50000000000000000000e+03) (74, 1.50000000000000000000e+03) (75, 1.50000000000000000000e+03) (76, 1.50000000000000000000e+03) (77, 1.50000000000000000000e+03) (78, 1.50000000000000000000e+03) (79, 1.50000000000000000000e+03) (80, 1.50000000000000000000e+03) (81, 3.87462878227233886719e+00) (0, -3.09314802289009094238e-02) (1, -4.21307124197483062744e-02) (2, -5.70401251316070556641e-02) (3, -9.91206020116806030273e-02) (4, 1.03135533630847930908e-01) (5, 9.81241930276155471802e-03) (6, -1.29357665777206420898e-01) (7, -4.72752526402473449707e-02) (8, -6.47862777113914489746e-02) (9, 4.17032241821289062500e-02) (10, -4.35012839734554290771e-02) (11, 8.92263930290937423706e-03) (12, -8.94950032234191894531e-02) (13, -1.17947980761528015137e-01) (14, -1.08899205923080444336e-01) (15, -5.40319345891475677490e-02) (16, -3.33021432161331176758e-02) (17, -2.36269995570182800293e-01) (18, -1.63700357079505920410e-02) (19, -1.51154667139053344727e-01) (20, -2.03013364225625991821e-02) (21, -5.62253296375274658203e-02) (22, -1.31376117467880249023e-01) (23, -4.90407012403011322021e-02) (24, -1.55675148963928222656e+00) (25, 1.59201487898826599121e-01) (26, -7.22308158874511718750e-02) (27, -7.46694132685661315918e-02) (28, 6.58878870308399200439e-03) (29, -9.94489416480064392090e-02) (30, 2.54340358078479766846e-02) (31, -3.28264802694320678711e-01) (32, -5.36136738955974578857e-02) (33, -1.27730995416641235352e-01) (34, -1.88897594809532165527e-01) (35, -4.11345064640045166016e-02) (36, -2.18654125928878784180e-02) (37, -2.61338837444782257080e-02) (38, -1.25559613108634948730e-01) (39, 5.16724772751331329346e-03) (40, -2.65131667256355285645e-02) (41, 6.03588763624429702759e-03) (42, -1.39842974022030830383e-02) (43, 4.92791272699832916260e-03) (44, -7.57358744740486145020e-02) (45, -6.50678947567939758301e-03) (46, -1.31889626383781433105e-01) (47, -9.58959199488162994385e-03) (48, 4.01333644986152648926e-02) (49, 1.50000000000000000000e+03) (50, 1.50000000000000000000e+03) (51, 1.50000000000000000000e+03) (52, 1.50000000000000000000e+03) (53, 1.50000000000000000000e+03) (54, 1.50000000000000000000e+03) (55, 1.50000000000000000000e+03) (56, 1.50000000000000000000e+03) (57, 1.50000000000000000000e+03) (58, 1.50000000000000000000e+03) (59, 1.50000000000000000000e+03) (60, 1.50000000000000000000e+03) (61, 1.50000000000000000000e+03) (62, 1.50000000000000000000e+03) (63, 1.50000000000000000000e+03) (64, 1.50000000000000000000e+03) (65, 1.50000000000000000000e+03) (66, 1.50000000000000000000e+03) (67, 1.50000000000000000000e+03) (68, 1.50000000000000000000e+03) (69, 1.50000000000000000000e+03) (70, 1.50000000000000000000e+03) (71, 1.50000000000000000000e+03) (72, 1.50000000000000000000e+03) (73, 1.50000000000000000000e+03) (74, 1.50000000000000000000e+03) (75, 1.50000000000000000000e+03) (76, 1.50000000000000000000e+03) (77, 1.50000000000000000000e+03) (78, 1.50000000000000000000e+03) (79, 1.50000000000000000000e+03) (80, 1.50000000000000000000e+03) (81, 7.17891395092010498047e-01) (0, 4.02296572923660278320e-01) (1, -9.41060900688171386719e-01) (2, -8.39094221591949462891e-01) (3, 5.33186495304107666016e-01) (4, -2.75108218193054199219e-01) (5, -3.34477901458740234375e+00) (6, 2.16046929359436035156e+00) (7, 2.37053353339433670044e-02) (8, -8.84768843650817871094e-01) (9, -3.38479459285736083984e-01) (10, 2.65430736541748046875e+00) (11, -4.02119207382202148438e+00) (12, -7.97633230686187744141e-01) (13, -1.36957943439483642578e-01) (14, -6.04070782661437988281e-01) (15, -1.29638338088989257812e+00) (16, -3.12925958633422851562e+00) (17, -1.61503696441650390625e+00) (18, 4.06750142574310302734e-01) (19, -1.02348399162292480469e+00) (20, -9.24830913543701171875e-01) (21, -3.62537413835525512695e-01) (22, -3.51399749517440795898e-01) (23, -3.33894267678260803223e-02) (24, 7.61436653137207031250e+00) (25, 4.93480801582336425781e-01) (26, -2.29342532157897949219e+00) (27, -7.83942699432373046875e-01) (28, -1.60990822315216064453e+00) (29, -1.63825750350952148438e+00) (30, 3.25663238763809204102e-01) (31, 8.04243922233581542969e-01) (32, 1.70989215373992919922e+00) (33, -1.28899562358856201172e+00) (34, -2.30053067207336425781e+00) (35, -2.18821480870246887207e-01) (36, -3.17584693431854248047e-01) (37, 3.17613422870635986328e-01) (38, -2.36290764808654785156e+00) (39, 5.60628950595855712891e-01) (40, -8.74671995639801025391e-01) (41, -2.29597139358520507812e+00) (42, -6.20670795440673828125e-01) (43, -1.44170904159545898438e+00) (44, -5.83084166049957275391e-01) (45, -2.41932129859924316406e+00) (46, 2.94726699590682983398e-01) (47, -1.90142035484313964844e+00) (48, -2.79465168714523315430e-01) (49, 1.50000000000000000000e+03) (50, 1.50000000000000000000e+03) (51, 1.50000000000000000000e+03) (52, 1.50000000000000000000e+03) (53, 1.50000000000000000000e+03) (54, 1.50000000000000000000e+03) (55, 1.50000000000000000000e+03) (56, 1.50000000000000000000e+03) (57, 1.50000000000000000000e+03) (58, 1.50000000000000000000e+03) (59, 1.50000000000000000000e+03) (60, 1.50000000000000000000e+03) (61, 1.50000000000000000000e+03) (62, 1.50000000000000000000e+03) (63, 1.50000000000000000000e+03) (64, 1.50000000000000000000e+03) (65, 1.50000000000000000000e+03) (66, 1.50000000000000000000e+03) (67, 1.50000000000000000000e+03) (68, 1.50000000000000000000e+03) (69, 1.50000000000000000000e+03) (70, 1.50000000000000000000e+03) (71, 1.50000000000000000000e+03) (72, 1.50000000000000000000e+03) (73, 1.50000000000000000000e+03) (74, 1.50000000000000000000e+03) (75, 1.50000000000000000000e+03) (76, 1.50000000000000000000e+03) (77, 1.50000000000000000000e+03) (78, 1.50000000000000000000e+03) (79, 1.50000000000000000000e+03) (80, 1.50000000000000000000e+03) (81, 8.76156139373779296875e+00) (82, 5.27458548545837402344e-01) (83, -1.84549963474273681641e+00) (84, 2.00748309493064880371e-01) (85, 1.60463586449623107910e-01) (86, -3.16739821434020996094e+00) (87, 1.87501549720764160156e-01) (88, -2.96254491806030273438e+00) (89, 6.89455807209014892578e-01) (90, 2.91919678449630737305e-01) 
