FANN_FLO_2.1
num_layers=4
learning_rate=0.500000
connection_rate=1.000000
network_type=0
learning_momentum=0.000000
training_algorithm=2
train_error_function=1
train_stop_function=0
cascade_output_change_fraction=0.010000
quickprop_decay=-0.000100
quickprop_mu=1.750000
rprop_increase_factor=1.200000
rprop_decrease_factor=0.500000
rprop_delta_min=0.000000
rprop_delta_max=50.000000
rprop_delta_zero=0.100000
cascade_output_stagnation_epochs=12
cascade_candidate_change_fraction=0.010000
cascade_candidate_stagnation_epochs=12
cascade_max_out_epochs=150
cascade_min_out_epochs=50
cascade_max_cand_epochs=150
cascade_min_cand_epochs=50
cascade_num_candidate_groups=2
bit_fail_limit=3.49999994039535522461e-01
cascade_candidate_limit=1.00000000000000000000e+03
cascade_weight_multiplier=4.00000005960464477539e-01
cascade_activation_functions_count=10
cascade_activation_functions=3 5 7 8 10 11 14 15 16 17 
cascade_activation_steepnesses_count=4
cascade_activation_steepnesses=2.50000000000000000000e-01 5.00000000000000000000e-01 7.50000000000000000000e-01 1.00000000000000000000e+00 
layer_sizes=82 9 9 2 
scale_included=0
neurons (num_inputs, activation_function, activation_steepness)=(0, 0, 0.00000000000000000000e+00) (0, 0, 0.00000000000000000000e+00) (0, 0, 0.00000000000000000000e+00) (0, 0, 0.00000000000000000000e+00) (0, 0, 0.00000000000000000000e+00) (0, 0, 0.00000000000000000000e+00) (0, 0, 0.00000000000000000000e+00) (0, 0, 0.00000000000000000000e+00) (0, 0, 0.00000000000000000000e+00) (0, 0, 0.00000000000000000000e+00) (0, 0, 0.00000000000000000000e+00) (0, 0, 0.00000000000000000000e+00) (0, 0, 0.00000000000000000000e+00) (0, 0, 0.00000000000000000000e+00) (0, 0, 0.00000000000000000000e+00) (0, 0, 0.00000000000000000000e+00) (0, 0, 0.00000000000000000000e+00) (0, 0, 0.00000000000000000000e+00) (0, 0, 0.00000000000000000000e+00) (0, 0, 0.00000000000000000000e+00) (0, 0, 0.00000000000000000000e+00) (0, 0, 0.00000000000000000000e+00) (0, 0, 0.00000000000000000000e+00) (0, 0, 0.00000000000000000000e+00) (0, 0, 0.00000000000000000000e+00) (0, 0, 0.00000000000000000000e+00) (0, 0, 0.00000000000000000000e+00) (0, 0, 0.00000000000000000000e+00) (0, 0, 0.00000000000000000000e+00) (0, 0, 0.00000000000000000000e+00) (0, 0, 0.00000000000000000000e+00) (0, 0, 0.00000000000000000000e+00) (0, 0, 0.00000000000000000000e+00) (0, 0, 0.00000000000000000000e+00) (0, 0, 0.00000000000000000000e+00) (0, 0, 0.00000000000000000000e+00) (0, 0, 0.00000000000000000000e+00) (0, 0, 0.00000000000000000000e+00) (0, 0, 0.00000000000000000000e+00) (0, 0, 0.00000000000000000000e+00) (0, 0, 0.00000000000000000000e+00) (0, 0, 0.00000000000000000000e+00) (0, 0, 0.00000000000000000000e+00) (0, 0, 0.00000000000000000000e+00) (0, 0, 0.00000000000000000000e+00) (0, 0, 0.00000000000000000000e+00) (0, 0, 0.00000000000000000000e+00) (0, 0, 0.00000000000000000000e+00) (0, 0, 0.00000000000000000000e+00) (0, 0, 0.00000000000000000000e+00) (0, 0, 0.00000000000000000000e+00) (0, 0, 0.00000000000000000000e+00) (0, 0, 0.00000000000000000000e+00) (0, 0, 0.00000000000000000000e+00) (0, 0, 0.00000000000000000000e+00) (0, 0, 0.00000000000000000000e+00) (0, 0, 0.00000000000000000000e+00) (0, 0, 0.00000000000000000000e+00) (0, 0, 0.00000000000000000000e+00) (0, 0, 0.00000000000000000000e+00) (0, 0, 0.00000000000000000000e+00) (0, 0, 0.00000000000000000000e+00) (0, 0, 0.00000000000000000000e+00) (0, 0, 0.00000000000000000000e+00) (0, 0, 0.00000000000000000000e+00) (0, 0, 0.00000000000000000000e+00) (0, 0, 0.00000000000000000000e+00) (0, 0, 0.00000000000000000000e+00) (0, 0, 0.00000000000000000000e+00) (0, 0, 0.00000000000000000000e+00) (0, 0, 0.00000000000000000000e+00) (0, 0, 0.00000000000000000000e+00) (0, 0, 0.00000000000000000000e+00) (0, 0, 0.00000000000000000000e+00) (0, 0, 0.00000000000000000000e+00) (0, 0, 0.00000000000000000000e+00) (0, 0, 0.00000000000000000000e+00) (0, 0, 0.00000000000000000000e+00) (0, 0, 0.00000000000000000000e+00) (0, 0, 0.00000000000000000000e+00) (0, 0, 0.00000000000000000000e+00) (0, 0, 0.00000000000000000000e+00) (82, 3, 5.00000000000000000000e-01) (82, 3, 5.00000000000000000000e-01) (82, 3, 5.00000000000000000000e-01) (82, 3, 5.00000000000000000000e-01) (82, 3, 5.00000000000000000000e-01) (82, 3, 5.00000000000000000000e-01) (82, 3, 5.00000000000000000000e-01) (82, 3, 5.00000000000000000000e-01) (0, 3, 0.00000000000000000000e+00) (9, 3, 5.00000000000000000000e-01) (9, 3, 5.00000000000000000000e-01) (9, 3, 5.00000000000000000000e-01) (9, 3, 5.00000000000000000000e-01) (9, 3, 5.00000000000000000000e-01) (9, 3, 5.00000000000000000000e-01) (9, 3, 5.00000000000000000000e-01) (9, 3, 5.00000000000000000000e-01) (0, 3, 0.00000000000000000000e+00) (9, 3, 5.00000000000000000000e-01) (0, 3, 0.00000000000000000000e+00) 
connections (connected_to_neuron, weight)=(0, -2.10146486759185791016e-01) (1, -6.74510812759399414062e+00) (2, 1.72958865761756896973e-01) (3, 3.56994330883026123047e-01) (4, 3.30468475818634033203e-01) (5, 2.27397263050079345703e-01) (6, 3.41047018766403198242e-01) (7, -5.26639521121978759766e-01) (8, 4.46321852505207061768e-02) (9, 3.79854828119277954102e-01) (10, -3.87469343841075897217e-02) (11, 2.87659108638763427734e-01) (12, 5.59595167636871337891e-01) (13, 3.38833928108215332031e-01) (14, -2.73945116996765136719e+00) (15, -2.00820937752723693848e-01) (16, 3.60147655010223388672e-01) (17, 2.63693475723266601562e+00) (18, 5.65962612628936767578e-01) (19, 8.18838238716125488281e-01) (20, 2.81084179878234863281e-01) (21, -1.53831017017364501953e+00) (22, -3.13403391838073730469e+00) (23, 2.31895282864570617676e-01) (24, 2.03432373046875000000e+02) (25, 1.23261761665344238281e+00) (26, 2.99296706914901733398e-01) (27, 6.11719369888305664062e-01) (28, -2.69916146993637084961e-01) (29, -2.07929015159606933594e+00) (30, 2.26718753576278686523e-01) (31, 2.94219613075256347656e+00) (32, 1.76633358001708984375e+00) (33, -1.38082599639892578125e+00) (34, 1.00806546211242675781e+00) (35, 3.10550737380981445312e+00) (36, -3.59596633911132812500e+00) (37, 5.27334511280059814453e-01) (38, 1.48948597908020019531e+00) (39, 6.40904366970062255859e-01) (40, 5.34655392169952392578e-01) (41, 4.37080800533294677734e-01) (42, -1.66981294751167297363e-01) (43, -2.68566966056823730469e+00) (44, 7.01910182833671569824e-02) (45, 3.40169638395309448242e-01) (46, -1.79167017340660095215e-01) (47, 5.52835047245025634766e-01) (48, 1.13718461990356445312e+00) (49, 1.50000000000000000000e+03) (50, 1.50000000000000000000e+03) (51, 1.50000000000000000000e+03) (52, 1.50000000000000000000e+03) (53, 1.50000000000000000000e+03) (54, 1.50000000000000000000e+03) (55, 1.50000000000000000000e+03) (56, 1.50000000000000000000e+03) (57, 1.50000000000000000000e+03) (58, 1.50000000000000000000e+03) (59, 1.50000000000000000000e+03) (60, 1.50000000000000000000e+03) (61, 1.50000000000000000000e+03) (62, 1.50000000000000000000e+03) (63, 1.50000000000000000000e+03) (64, 1.50000000000000000000e+03) (65, 1.50000000000000000000e+03) (66, 1.50000000000000000000e+03) (67, 1.50000000000000000000e+03) (68, 1.50000000000000000000e+03) (69, 1.50000000000000000000e+03) (70, 1.50000000000000000000e+03) (71, 1.50000000000000000000e+03) (72, 1.50000000000000000000e+03) (73, 1.50000000000000000000e+03) (74, 1.50000000000000000000e+03) (75, 1.50000000000000000000e+03) (76, 1.50000000000000000000e+03) (77, 1.50000000000000000000e+03) (78, 1.50000000000000000000e+03) (79, 1.50000000000000000000e+03) (80, 1.50000000000000000000e+03) (81, -1.59727811813354492188e+01) (0, -2.11850643157958984375e+01) (1, 7.49850720167160034180e-02) (2, -1.48113206028938293457e-01) (3, 3.74770700931549072266e-01) (4, 4.36941921710968017578e-01) (5, -1.79282665252685546875e-01) (6, -1.91491532325744628906e+00) (7, -1.30549132823944091797e-01) (8, -1.06814451515674591064e-01) (9, -1.23039221763610839844e+00) (10, 2.59449005126953125000e-01) (11, -9.12406966090202331543e-02) (12, -2.13645607233047485352e-01) (13, -2.95069187879562377930e-01) (14, -1.74289196729660034180e-01) (15, -3.57440918684005737305e-01) (16, -5.20428466796875000000e+00) (17, -1.66454866528511047363e-01) (18, -2.06805199384689331055e-01) (19, -1.69257438182830810547e+00) (20, -9.32808995246887207031e-01) (21, -1.36586710810661315918e-01) (22, -4.15253818035125732422e-01) (23, -3.86258888244628906250e+01) (24, -5.75814390182495117188e+00) (25, -2.13902294635772705078e-01) (26, -2.71928787231445312500e-01) (27, -5.68017303943634033203e-01) (28, -1.10636711120605468750e+00) (29, -2.06930709838867187500e+02) (30, -3.96150201559066772461e-01) (31, -1.36597557067871093750e+01) (32, -4.42757010459899902344e-01) (33, 5.20732879638671875000e-01) (34, -4.52273368835449218750e+00) (35, -1.20254898071289062500e+00) (36, -1.27638959884643554688e+01) (37, -1.19196615219116210938e+01) (38, -2.45264124870300292969e+00) (39, -2.50750422477722167969e+00) (40, -1.83118581771850585938e-01) (41, -4.05928313732147216797e-01) (42, -5.28310394287109375000e+00) (43, -1.01701568603515625000e+03) (44, -2.70213508605957031250e+00) (45, -1.23981678485870361328e+00) (46, -3.57385993003845214844e-01) (47, -2.03224152326583862305e-01) (48, -1.62157809734344482422e+00) (49, 1.50000000000000000000e+03) (50, 1.50000000000000000000e+03) (51, 1.50000000000000000000e+03) (52, 1.50000000000000000000e+03) (53, 1.50000000000000000000e+03) (54, 1.50000000000000000000e+03) (55, 1.50000000000000000000e+03) (56, 1.50000000000000000000e+03) (57, 1.50000000000000000000e+03) (58, 1.50000000000000000000e+03) (59, 1.50000000000000000000e+03) (60, 1.50000000000000000000e+03) (61, 1.50000000000000000000e+03) (62, 1.50000000000000000000e+03) (63, 1.50000000000000000000e+03) (64, 1.50000000000000000000e+03) (65, 1.50000000000000000000e+03) (66, 1.50000000000000000000e+03) (67, 1.50000000000000000000e+03) (68, 1.50000000000000000000e+03) (69, 1.50000000000000000000e+03) (70, 1.50000000000000000000e+03) (71, 1.50000000000000000000e+03) (72, 1.50000000000000000000e+03) (73, 1.50000000000000000000e+03) (74, 1.50000000000000000000e+03) (75, 1.50000000000000000000e+03) (76, 1.50000000000000000000e+03) (77, 1.50000000000000000000e+03) (78, 1.50000000000000000000e+03) (79, 1.50000000000000000000e+03) (80, 1.50000000000000000000e+03) (81, 6.36398553848266601562e-01) (0, -3.24446767568588256836e-01) (1, -3.18727754056453704834e-02) (2, -2.91344467550516128540e-02) (3, 2.72079825401306152344e-01) (4, 1.52992889285087585449e-01) (5, 2.01619602739810943604e-02) (6, -1.29281450062990188599e-02) (7, -2.34281606972217559814e-02) (8, -1.78309470415115356445e-01) (9, -1.21861584484577178955e-01) (10, 2.15317323803901672363e-01) (11, 3.73931705951690673828e-01) (12, -6.27842471003532409668e-02) (13, -6.86205551028251647949e-02) (14, 4.58345524966716766357e-02) (15, -2.32415094971656799316e-01) (16, -1.01682372391223907471e-01) (17, -2.53950189799070358276e-02) (18, -3.18515598773956298828e-02) (19, -5.49182929098606109619e-02) (20, 2.11107805371284484863e-02) (21, -1.30504280328750610352e-01) (22, -2.35821381211280822754e-01) (23, -8.16942453384399414062e-02) (24, -1.50500702857971191406e+00) (25, -1.42432227730751037598e-01) (26, -3.93339805305004119873e-02) (27, -2.55474206060171127319e-02) (28, -1.53473183512687683105e-01) (29, -4.45394739508628845215e-02) (30, -2.31596782803535461426e-01) (31, -2.28662252426147460938e-01) (32, 3.69433879852294921875e-01) (33, 3.74504148960113525391e-01) (34, -1.58403009176254272461e-01) (35, -6.17074668407440185547e-01) (36, -3.60399752855300903320e-01) (37, -1.75355941057205200195e-01) (38, -3.69522087275981903076e-02) (39, -1.01141192018985748291e-01) (40, 5.71850053966045379639e-02) (41, -1.16423740983009338379e-01) (42, -1.60705849528312683105e-01) (43, -1.00528955459594726562e-01) (44, -8.11438187956809997559e-02) (45, -1.63388594985008239746e-01) (46, 7.71691948175430297852e-02) (47, 5.94767928123474121094e-01) (48, -1.45686030387878417969e-01) (49, 1.50000000000000000000e+03) (50, 1.50000000000000000000e+03) (51, 1.50000000000000000000e+03) (52, 1.50000000000000000000e+03) (53, 1.50000000000000000000e+03) (54, 1.50000000000000000000e+03) (55, 1.50000000000000000000e+03) (56, 1.50000000000000000000e+03) (57, 1.50000000000000000000e+03) (58, 1.50000000000000000000e+03) (59, 1.50000000000000000000e+03) (60, 1.50000000000000000000e+03) (61, 1.50000000000000000000e+03) (62, 1.50000000000000000000e+03) (63, 1.50000000000000000000e+03) (64, 1.50000000000000000000e+03) (65, 1.50000000000000000000e+03) (66, 1.50000000000000000000e+03) (67, 1.50000000000000000000e+03) (68, 1.50000000000000000000e+03) (69, 1.50000000000000000000e+03) (70, 1.50000000000000000000e+03) (71, 1.50000000000000000000e+03) (72, 1.50000000000000000000e+03) (73, 1.50000000000000000000e+03) (74, 1.50000000000000000000e+03) (75, 1.50000000000000000000e+03) (76, 1.50000000000000000000e+03) (77, 1.50000000000000000000e+03) (78, 1.50000000000000000000e+03) (79, 1.50000000000000000000e+03) (80, 1.50000000000000000000e+03) (81, 1.67163655161857604980e-01) (0, 2.12904870510101318359e-01) (1, -7.30310231447219848633e-02) (2, -1.31887316703796386719e-01) (3, -6.94151036441326141357e-03) (4, -7.97750502824783325195e-02) (5, -7.44978412985801696777e-02) (6, 5.94108253717422485352e-02) (7, 3.18900555372238159180e-01) (8, -5.08991032838821411133e-02) (9, -8.66171270608901977539e-02) (10, 6.47609755396842956543e-02) (11, -1.87011361122131347656e-01) (12, -1.48978292942047119141e-01) (13, -1.41527816653251647949e-01) (14, 7.46831744909286499023e-02) (15, 2.18409761786460876465e-01) (16, -2.23633214831352233887e-01) (17, -1.77100747823715209961e-01) (18, -2.00060918927192687988e-01) (19, -7.88777694106101989746e-02) (20, 2.73069381713867187500e-01) (21, 2.04014629125595092773e-01) (22, 1.92668095231056213379e-01) (23, -2.07664430141448974609e-01) (24, -3.51608490943908691406e+00) (25, -8.93487259745597839355e-02) (26, -2.86804628558456897736e-03) (27, 3.65611523389816284180e-01) (28, 2.86913458257913589478e-02) (29, -1.10500706359744071960e-02) (30, -1.49944588541984558105e-01) (31, -2.50797539949417114258e-01) (32, -5.98399639129638671875e-01) (33, -6.77758678793907165527e-02) (34, 4.67466004192829132080e-02) (35, -1.01705208420753479004e-01) (36, 5.02304024994373321533e-02) (37, -1.79522588849067687988e-01) (38, -1.10905110836029052734e-01) (39, -2.76317596435546875000e-01) (40, -4.43411469459533691406e-02) (41, 2.43712469935417175293e-01) (42, -1.33403941988945007324e-01) (43, -6.83731362223625183105e-02) (44, -3.50867509841918945312e-02) (45, -2.01660931110382080078e-01) (46, -3.42894382774829864502e-02) (47, 2.13316548615694046021e-02) (48, 2.32144981622695922852e-01) (49, 1.50000000000000000000e+03) (50, 1.50000000000000000000e+03) (51, 1.50000000000000000000e+03) (52, 1.50000000000000000000e+03) (53, 1.50000000000000000000e+03) (54, 1.50000000000000000000e+03) (55, 1.50000000000000000000e+03) (56, 1.50000000000000000000e+03) (57, 1.50000000000000000000e+03) (58, 1.50000000000000000000e+03) (59, 1.50000000000000000000e+03) (60, 1.50000000000000000000e+03) (61, 1.50000000000000000000e+03) (62, 1.50000000000000000000e+03) (63, 1.50000000000000000000e+03) (64, 1.50000000000000000000e+03) (65, 1.50000000000000000000e+03) (66, 1.50000000000000000000e+03) (67, 1.50000000000000000000e+03) (68, 1.50000000000000000000e+03) (69, 1.50000000000000000000e+03) (70, 1.50000000000000000000e+03) (71, 1.50000000000000000000e+03) (72, 1.50000000000000000000e+03) (73, 1.50000000000000000000e+03) (74, 1.50000000000000000000e+03) (75, 1.50000000000000000000e+03) (76, 1.50000000000000000000e+03) (77, 1.50000000000000000000e+03) (78, 1.50000000000000000000e+03) (79, 1.50000000000000000000e+03) (80, 1.50000000000000000000e+03) (81, 1.24298632144927978516e+00) (0, 1.19511045515537261963e-01) (1, -1.98235854506492614746e-01) (2, 5.92694222927093505859e-01) (3, 1.74766987562179565430e-01) (4, 1.28777533769607543945e-01) (5, 2.14620634913444519043e-01) (6, 2.46873825788497924805e-01) (7, 2.22611233592033386230e-01) (8, -3.28976273536682128906e-01) (9, 2.78357386589050292969e-01) (10, 2.01110482215881347656e-01) (11, 2.38704428076744079590e-01) (12, 2.11474329233169555664e-01) (13, 2.18383327126502990723e-01) (14, -3.24316740036010742188e-01) (15, 2.21113339066505432129e-01) (16, 2.10848912596702575684e-01) (17, 2.18574538826942443848e-01) (18, 2.95386970043182373047e-01) (19, 7.55727477371692657471e-03) (20, 2.99715578556060791016e-01) (21, -4.21209596097469329834e-02) (22, 1.83874592185020446777e-01) (23, -1.12264864146709442139e-01) (24, 1.40390753746032714844e+00) (25, 3.21122676134109497070e-01) (26, 2.85260707139968872070e-01) (27, 2.38971039652824401855e-01) (28, 1.05466783046722412109e-01) (29, -2.19606935977935791016e-01) (30, 1.92783087491989135742e-01) (31, 3.05422037839889526367e-01) (32, -1.56666815280914306641e-01) (33, -1.33950054645538330078e-01) (34, 4.24536317586898803711e-01) (35, -8.63926470279693603516e-01) (36, 2.30853870511054992676e-01) (37, 1.13868616521358489990e-01) (38, -4.40107256174087524414e-01) (39, 2.42571771144866943359e-01) (40, 3.80188912153244018555e-01) (41, 1.70702323317527770996e-01) (42, -1.62837892770767211914e-01) (43, -8.74920934438705444336e-03) (44, 8.65974575281143188477e-02) (45, 1.81167989969253540039e-01) (46, 1.32239744067192077637e-01) (47, -3.40277731418609619141e-01) (48, 3.48955452442169189453e-01) (49, 1.50000000000000000000e+03) (50, 1.50000000000000000000e+03) (51, 1.50000000000000000000e+03) (52, 1.50000000000000000000e+03) (53, 1.50000000000000000000e+03) (54, 1.50000000000000000000e+03) (55, 1.50000000000000000000e+03) (56, 1.50000000000000000000e+03) (57, 1.50000000000000000000e+03) (58, 1.50000000000000000000e+03) (59, 1.50000000000000000000e+03) (60, 1.50000000000000000000e+03) (61, 1.50000000000000000000e+03) (62, 1.50000000000000000000e+03) (63, 1.50000000000000000000e+03) (64, 1.50000000000000000000e+03) (65, 1.50000000000000000000e+03) (66, 1.50000000000000000000e+03) (67, 1.50000000000000000000e+03) (68, 1.50000000000000000000e+03) (69, 1.50000000000000000000e+03) (70, 1.50000000000000000000e+03) (71, 1.50000000000000000000e+03) (72, 1.50000000000000000000e+03) (73, 1.50000000000000000000e+03) (74, 1.50000000000000000000e+03) (75, 1.50000000000000000000e+03) (76, 1.50000000000000000000e+03) (77, 1.50000000000000000000e+03) (78, 1.50000000000000000000e+03) (79, 1.50000000000000000000e+03) (80, 1.50000000000000000000e+03) (81, -9.87911403179168701172e-01) (0, -1.44006848335266113281e-01) (1, -2.70511601120233535767e-02) (2, 6.77675306797027587891e-02) (3, 1.18401981890201568604e-02) (4, 1.59350082278251647949e-01) (5, 9.99336689710617065430e-02) (6, 1.36059820652008056641e-01) (7, 1.03714689612388610840e-02) (8, 1.73484459519386291504e-02) (9, -1.27303913235664367676e-01) (10, -2.89839446544647216797e-01) (11, -9.21673029661178588867e-02) (12, 5.07327215746045112610e-03) (13, -8.60640481114387512207e-02) (14, -1.24080069363117218018e-02) (15, 9.86607000231742858887e-03) (16, -1.73435047268867492676e-01) (17, -6.95695579051971435547e-01) (18, -9.53274816274642944336e-02) (19, -1.19544662535190582275e-01) (20, 5.39144165813922882080e-02) (21, -7.12356194853782653809e-02) (22, -5.83308003842830657959e-03) (23, 2.65122633427381515503e-02) (24, -1.99523627758026123047e+00) (25, -2.59310692548751831055e-01) (26, -3.10057867318391799927e-02) (27, 4.40449155867099761963e-02) (28, -2.21525043249130249023e-01) (29, -5.86044527590274810791e-02) (30, -9.86062455922365188599e-03) (31, -3.12750518321990966797e-01) (32, -5.68153262138366699219e-01) (33, 1.63147076964378356934e-02) (34, -1.39868512749671936035e-01) (35, -5.88449358940124511719e-01) (36, -1.22954465448856353760e-01) (37, -2.37934309989213943481e-02) (38, -5.50617098808288574219e-01) (39, -1.83057099580764770508e-01) (40, -4.44092750549316406250e-02) (41, 1.44230918958783149719e-02) (42, -1.64021968841552734375e-01) (43, -3.86156029999256134033e-02) (44, -2.59799435734748840332e-02) (45, 2.22775563597679138184e-02) (46, -7.77201205492019653320e-02) (47, -6.62954971194267272949e-02) (48, -1.86931416392326354980e-02) (49, 1.50000000000000000000e+03) (50, 1.50000000000000000000e+03) (51, 1.50000000000000000000e+03) (52, 1.50000000000000000000e+03) (53, 1.50000000000000000000e+03) (54, 1.50000000000000000000e+03) (55, 1.50000000000000000000e+03) (56, 1.50000000000000000000e+03) (57, 1.50000000000000000000e+03) (58, 1.50000000000000000000e+03) (59, 1.50000000000000000000e+03) (60, 1.50000000000000000000e+03) (61, 1.50000000000000000000e+03) (62, 1.50000000000000000000e+03) (63, 1.50000000000000000000e+03) (64, 1.50000000000000000000e+03) (65, 1.50000000000000000000e+03) (66, 1.50000000000000000000e+03) (67, 1.50000000000000000000e+03) (68, 1.50000000000000000000e+03) (69, 1.50000000000000000000e+03) (70, 1.50000000000000000000e+03) (71, 1.50000000000000000000e+03) (72, 1.50000000000000000000e+03) (73, 1.50000000000000000000e+03) (74, 1.50000000000000000000e+03) (75, 1.50000000000000000000e+03) (76, 1.50000000000000000000e+03) (77, 1.50000000000000000000e+03) (78, 1.50000000000000000000e+03) (79, 1.50000000000000000000e+03) (80, 1.50000000000000000000e+03) (81, 1.14771437644958496094e+00) (0, -1.93209898471832275391e+00) (1, 2.43077203631401062012e-02) (2, -1.90450355410575866699e-01) (3, 7.88259387016296386719e-01) (4, 1.55916261672973632812e+01) (5, 7.08863735198974609375e+00) (6, 7.13444054126739501953e-02) (7, -8.93420651555061340332e-02) (8, -3.01077872514724731445e-01) (9, -1.69046193361282348633e-01) (10, -3.43510806560516357422e-02) (11, -8.78072157502174377441e-02) (12, -8.04642960429191589355e-02) (13, 3.37854921817779541016e-02) (14, -1.97917863726615905762e-01) (15, -1.78893953561782836914e-01) (16, -2.74269074201583862305e-01) (17, -1.14801025390625000000e+00) (18, -1.79950475692749023438e-01) (19, -1.88311815261840820312e-01) (20, 1.99586391448974609375e+01) (21, -1.92336142063140869141e-01) (22, -2.96578168869018554688e-01) (23, -3.60013693571090698242e-01) (24, -1.03694549560546875000e+02) (25, -4.69912797212600708008e-01) (26, 5.97580254077911376953e-01) (27, 5.67906200885772705078e-01) (28, -1.93070560693740844727e-01) (29, -4.76371556520462036133e-01) (30, -2.02706545591354370117e-01) (31, -7.79679298400878906250e-01) (32, -2.08640202879905700684e-01) (33, 5.47614212036132812500e+01) (34, -1.22656464576721191406e-01) (35, -8.61174926757812500000e+01) (36, -4.72087502479553222656e-01) (37, -3.15980404615402221680e-01) (38, -2.01707988977432250977e-01) (39, -2.74015009403228759766e-01) (40, 4.59652505815029144287e-02) (41, 4.62868511676788330078e-01) (42, -5.36376428604125976562e+00) (43, -3.70953655242919921875e+00) (44, -4.15153801441192626953e-01) (45, -2.69304722547531127930e-01) (46, -7.72879831492900848389e-03) (47, 5.15981101989746093750e+01) (48, 6.41552305221557617188e+00) (49, 1.50000000000000000000e+03) (50, 1.50000000000000000000e+03) (51, 1.50000000000000000000e+03) (52, 1.50000000000000000000e+03) (53, 1.50000000000000000000e+03) (54, 1.50000000000000000000e+03) (55, 1.50000000000000000000e+03) (56, 1.50000000000000000000e+03) (57, 1.50000000000000000000e+03) (58, 1.50000000000000000000e+03) (59, 1.50000000000000000000e+03) (60, 1.50000000000000000000e+03) (61, 1.50000000000000000000e+03) (62, 1.50000000000000000000e+03) (63, 1.50000000000000000000e+03) (64, 1.50000000000000000000e+03) (65, 1.50000000000000000000e+03) (66, 1.50000000000000000000e+03) (67, 1.50000000000000000000e+03) (68, 1.50000000000000000000e+03) (69, 1.50000000000000000000e+03) (70, 1.50000000000000000000e+03) (71, 1.50000000000000000000e+03) (72, 1.50000000000000000000e+03) (73, 1.50000000000000000000e+03) (74, 1.50000000000000000000e+03) (75, 1.50000000000000000000e+03) (76, 1.50000000000000000000e+03) (77, 1.50000000000000000000e+03) (78, 1.50000000000000000000e+03) (79, 1.50000000000000000000e+03) (80, 1.50000000000000000000e+03) (81, 1.24283351004123687744e-01) (0, -9.63427364826202392578e-01) (1, -5.55682063102722167969e-01) (2, 3.07719916105270385742e-01) (3, 2.04048737883567810059e-01) (4, 1.61571025848388671875e-01) (5, 2.26441562175750732422e-01) (6, 3.59183371067047119141e-01) (7, -1.66696727275848388672e+00) (8, -1.11788105964660644531e+00) (9, 3.33957076072692871094e-01) (10, -4.97820347547531127930e-01) (11, 3.03420364856719970703e-01) (12, 2.06114560365676879883e-01) (13, 2.67977654933929443359e-01) (14, -1.17609033584594726562e+01) (15, -3.88479381799697875977e-01) (16, 3.21262300014495849609e-01) (17, 3.79999667406082153320e-01) (18, 3.70460659265518188477e-01) (19, 5.14441132545471191406e-01) (20, 2.37629905343055725098e-01) (21, -2.57997345924377441406e+00) (22, -3.44710016250610351562e+00) (23, 3.72128874063491821289e-01) (24, 2.43970611572265625000e+02) (25, 4.59730058908462524414e-01) (26, 3.26171129941940307617e-01) (27, 6.53660416603088378906e-01) (28, -1.24753594398498535156e+00) (29, -1.07489871978759765625e+00) (30, -1.91226124763488769531e-01) (31, 5.80245673656463623047e-01) (32, 3.99548590183258056641e-01) (33, 2.03957647085189819336e-01) (34, 5.60196876525878906250e-01) (35, 2.14608684182167053223e-01) (36, -1.33149743080139160156e+00) (37, -2.19831466674804687500e+00) (38, 2.33651269227266311646e-02) (39, 4.36928182840347290039e-01) (40, 3.30971479415893554688e-01) (41, 3.39850455522537231445e-01) (42, -5.19285462796688079834e-02) (43, -2.25986909866333007812e+00) (44, -1.31209766864776611328e+00) (45, 1.77692279219627380371e-01) (46, 1.79158732295036315918e-01) (47, 3.08578312397003173828e-01) (48, 5.04571318626403808594e-01) (49, 1.50000000000000000000e+03) (50, 1.50000000000000000000e+03) (51, 1.50000000000000000000e+03) (52, 1.50000000000000000000e+03) (53, 1.50000000000000000000e+03) (54, 1.50000000000000000000e+03) (55, 1.50000000000000000000e+03) (56, 1.50000000000000000000e+03) (57, 1.50000000000000000000e+03) (58, 1.50000000000000000000e+03) (59, 1.50000000000000000000e+03) (60, 1.50000000000000000000e+03) (61, 1.50000000000000000000e+03) (62, 1.50000000000000000000e+03) (63, 1.50000000000000000000e+03) (64, 1.50000000000000000000e+03) (65, 1.50000000000000000000e+03) (66, 1.50000000000000000000e+03) (67, 1.50000000000000000000e+03) (68, 1.50000000000000000000e+03) (69, 1.50000000000000000000e+03) (70, 1.50000000000000000000e+03) (71, 1.50000000000000000000e+03) (72, 1.50000000000000000000e+03) (73, 1.50000000000000000000e+03) (74, 1.50000000000000000000e+03) (75, 1.50000000000000000000e+03) (76, 1.50000000000000000000e+03) (77, 1.50000000000000000000e+03) (78, 1.50000000000000000000e+03) (79, 1.50000000000000000000e+03) (80, 1.50000000000000000000e+03) (81, -1.67981553077697753906e+00) (82, -1.04306721687316894531e+00) (83, 4.21416139602661132812e+00) (84, 9.44252073764801025391e-01) (85, 1.72731089591979980469e+00) (86, -1.00209295749664306641e+00) (87, 3.48060035705566406250e+00) (88, -1.70724046230316162109e+00) (89, -1.06822514533996582031e+00) (90, -4.64635461568832397461e-01) (82, -7.04821527004241943359e-01) (83, 1.12789106369018554688e+00) (84, 8.03407549858093261719e-01) (85, 1.30363273620605468750e+00) (86, 2.38760924339294433594e+00) (87, 2.35103845596313476562e+00) (88, 4.74833526611328125000e+01) (89, -6.80169761180877685547e-01) (90, -6.46922945976257324219e-01) (82, -8.86942386627197265625e-01) (83, 6.50348434448242187500e+01) (84, 7.79178619384765625000e-01) (85, 1.88387250900268554688e+00) (86, -1.69166719913482666016e+00) (87, 2.11747980117797851562e+00) (88, 1.98474311828613281250e+00) (89, -8.94900023937225341797e-01) (90, -4.43955153226852416992e-01) (82, -2.08067154884338378906e+00) (83, 8.16331481933593750000e+02) (84, 2.66727638244628906250e+01) (85, 2.35450096130371093750e+01) (86, -1.58819591999053955078e+00) (87, 6.81526031494140625000e+01) (88, 1.50000000000000000000e+03) (89, -2.00569701194763183594e+00) (90, -1.12607908248901367188e+00) (82, -8.81205022335052490234e-01) (83, 9.02610683441162109375e+00) (84, 7.06232738494873046875e+00) (85, 3.01664066314697265625e+00) (86, -8.71521294116973876953e-01) (87, 4.12118959426879882812e+00) (88, -4.92294120788574218750e+00) (89, -8.42799186706542968750e-01) (90, -1.75128981471061706543e-01) (82, -9.70225930213928222656e-01) (83, 3.49418258666992187500e+00) (84, 2.13967227935791015625e+00) (85, 2.82076120376586914062e+00) (86, -1.03148221969604492188e+00) (87, 3.67653727531433105469e+00) (88, -3.38046073913574218750e+00) (89, -8.72394621372222900391e-01) (90, -3.70865076780319213867e-01) (82, -9.44315254688262939453e-01) (83, 4.22209692001342773438e+00) (84, 1.05222427845001220703e+00) (85, 1.90332448482513427734e+00) (86, -1.01848065853118896484e+00) (87, 3.38698506355285644531e+00) (88, -1.81852304935455322266e+00) (89, -1.04011893272399902344e+00) (90, -6.04435145854949951172e-01) (82, -1.20594561100006103516e+00) (83, 1.12500000000000000000e+03) (84, 7.60726594924926757812e+00) (85, 1.04811420440673828125e+01) (86, -1.26951420307159423828e+00) (87, 1.35653190612792968750e+01) (88, 1.50000000000000000000e+03) (89, -1.26730895042419433594e+00) (90, -5.53894817829132080078e-01) (91, -5.31185984611511230469e-01) (92, 3.35252404212951660156e-01) (93, -1.93879497051239013672e+00) (94, -3.72012555599212646484e-01) (95, -4.02485340833663940430e-01) (96, -3.72544616460800170898e-01) (97, -4.70097333192825317383e-01) (98, -5.72844922542572021484e-01) (99, 9.29403364658355712891e-01) 
