FANN_FLO_2.1
num_layers=3
learning_rate=0.500000
connection_rate=1.000000
network_type=0
learning_momentum=0.000000
training_algorithm=2
train_error_function=1
train_stop_function=0
cascade_output_change_fraction=0.010000
quickprop_decay=-0.000100
quickprop_mu=1.750000
rprop_increase_factor=1.200000
rprop_decrease_factor=0.500000
rprop_delta_min=0.000000
rprop_delta_max=50.000000
rprop_delta_zero=0.100000
cascade_output_stagnation_epochs=12
cascade_candidate_change_fraction=0.010000
cascade_candidate_stagnation_epochs=12
cascade_max_out_epochs=150
cascade_min_out_epochs=50
cascade_max_cand_epochs=150
cascade_min_cand_epochs=50
cascade_num_candidate_groups=2
bit_fail_limit=3.49999994039535522461e-01
cascade_candidate_limit=1.00000000000000000000e+03
cascade_weight_multiplier=4.00000005960464477539e-01
cascade_activation_functions_count=10
cascade_activation_functions=3 5 7 8 10 11 14 15 16 17 
cascade_activation_steepnesses_count=4
cascade_activation_steepnesses=2.50000000000000000000e-01 5.00000000000000000000e-01 7.50000000000000000000e-01 1.00000000000000000000e+00 
layer_sizes=18 5 2 
scale_included=0
neurons (num_inputs, activation_function, activation_steepness)=(0, 0, 0.00000000000000000000e+00) (0, 0, 0.00000000000000000000e+00) (0, 0, 0.00000000000000000000e+00) (0, 0, 0.00000000000000000000e+00) (0, 0, 0.00000000000000000000e+00) (0, 0, 0.00000000000000000000e+00) (0, 0, 0.00000000000000000000e+00) (0, 0, 0.00000000000000000000e+00) (0, 0, 0.00000000000000000000e+00) (0, 0, 0.00000000000000000000e+00) (0, 0, 0.00000000000000000000e+00) (0, 0, 0.00000000000000000000e+00) (0, 0, 0.00000000000000000000e+00) (0, 0, 0.00000000000000000000e+00) (0, 0, 0.00000000000000000000e+00) (0, 0, 0.00000000000000000000e+00) (0, 0, 0.00000000000000000000e+00) (0, 0, 0.00000000000000000000e+00) (18, 3, 5.00000000000000000000e-01) (18, 3, 5.00000000000000000000e-01) (18, 3, 5.00000000000000000000e-01) (18, 3, 5.00000000000000000000e-01) (0, 3, 0.00000000000000000000e+00) (5, 0, 5.00000000000000000000e-01) (0, 0, 0.00000000000000000000e+00) 
connections (connected_to_neuron, weight)=(0, 5.98569571971893310547e-01) (1, 4.44944471120834350586e-01) (2, 5.68741917610168457031e-01) (3, 4.23248261213302612305e-01) (4, 7.89482295513153076172e-01) (5, -4.26496416330337524414e-01) (6, -7.75938451290130615234e-01) (7, -3.48995923995971679688e-01) (8, -7.16983899474143981934e-02) (9, 7.77856051921844482422e-01) (10, 4.19941604137420654297e-01) (11, 4.90054875612258911133e-01) (12, 5.82272768020629882812e-01) (13, 6.95376217365264892578e-01) (14, 4.77992504835128784180e-01) (15, 5.96273303031921386719e-01) (16, 5.09870648384094238281e-01) (17, -3.55604147911071777344e+00) (0, 1.20195760726928710938e+01) (1, 2.14214591979980468750e+01) (2, 2.40734119415283203125e+01) (3, 2.73477020263671875000e+01) (4, 1.25264692306518554688e+01) (5, -7.65320014953613281250e+00) (6, -1.16642255783081054688e+01) (7, -7.87525253295898437500e+01) (8, 3.83208107948303222656e+00) (9, 1.41490211486816406250e+01) (10, 1.97046890258789062500e+01) (11, 1.91312580108642578125e+01) (12, 2.12569160461425781250e+01) (13, 2.10335388183593750000e+01) (14, 1.96746692657470703125e+01) (15, 1.04604110717773437500e+01) (16, 9.13431262969970703125e+00) (17, -1.80759453773498535156e+00) (0, 9.85604584217071533203e-01) (1, 1.06732869148254394531e+00) (2, 9.38267350196838378906e-01) (3, 1.05702960491180419922e+00) (4, 7.69921541213989257812e-01) (5, -1.10745096206665039062e+00) (6, -7.98297822475433349609e-01) (7, -8.45565795898437500000e-01) (8, 1.93567723035812377930e-01) (9, 8.21073889732360839844e-01) (10, 1.13853287696838378906e+00) (11, 1.13951849937438964844e+00) (12, 8.36604118347167968750e-01) (13, 1.03147566318511962891e+00) (14, 1.03603935241699218750e+00) (15, 1.09342837333679199219e+00) (16, 1.02934920787811279297e+00) (17, -3.75462055206298828125e+00) (0, 6.06436848640441894531e-01) (1, 5.83381533622741699219e-01) (2, 6.99240088462829589844e-01) (3, 5.09180068969726562500e-01) (4, 7.71780848503112792969e-01) (5, -4.47304397821426391602e-01) (6, -1.10439252853393554688e+00) (7, -1.00936841964721679688e+00) (8, -2.07428544759750366211e-01) (9, 5.75752139091491699219e-01) (10, 4.99006748199462890625e-01) (11, 6.10150337219238281250e-01) (12, 7.06795036792755126953e-01) (13, 6.13996446132659912109e-01) (14, 4.59138274192810058594e-01) (15, 5.03127574920654296875e-01) (16, 4.72734868526458740234e-01) (17, -3.05581617355346679688e+00) (18, 3.53862905502319335938e+00) (19, 1.35025382041931152344e+00) (20, 6.35141086578369140625e+00) (21, 3.66463351249694824219e+00) (22, 1.18171870708465576172e+00) 
