FANN_FLO_2.1
num_layers=4
learning_rate=0.300000
connection_rate=1.000000
network_type=0
learning_momentum=0.000000
training_algorithm=2
train_error_function=1
train_stop_function=0
cascade_output_change_fraction=0.010000
quickprop_decay=-0.000100
quickprop_mu=1.750000
rprop_increase_factor=1.200000
rprop_decrease_factor=0.500000
rprop_delta_min=0.000000
rprop_delta_max=50.000000
rprop_delta_zero=0.100000
cascade_output_stagnation_epochs=12
cascade_candidate_change_fraction=0.010000
cascade_candidate_stagnation_epochs=12
cascade_max_out_epochs=150
cascade_min_out_epochs=50
cascade_max_cand_epochs=150
cascade_min_cand_epochs=50
cascade_num_candidate_groups=2
bit_fail_limit=3.49999994039535522461e-01
cascade_candidate_limit=1.00000000000000000000e+03
cascade_weight_multiplier=4.00000005960464477539e-01
cascade_activation_functions_count=10
cascade_activation_functions=3 5 7 8 10 11 14 15 16 17 
cascade_activation_steepnesses_count=4
cascade_activation_steepnesses=2.50000000000000000000e-01 5.00000000000000000000e-01 7.50000000000000000000e-01 1.00000000000000000000e+00 
layer_sizes=2 5 3 3 
scale_included=0
neurons (num_inputs, activation_function, activation_steepness)=(0, 0, 0.00000000000000000000e+00) (0, 0, 0.00000000000000000000e+00) (2, 3, 5.00000000000000000000e-01) (2, 3, 5.00000000000000000000e-01) (2, 3, 5.00000000000000000000e-01) (2, 3, 5.00000000000000000000e-01) (0, 3, 0.00000000000000000000e+00) (5, 3, 5.00000000000000000000e-01) (5, 3, 5.00000000000000000000e-01) (0, 3, 0.00000000000000000000e+00) (3, 0, 5.00000000000000000000e-01) (3, 0, 5.00000000000000000000e-01) (0, 0, 0.00000000000000000000e+00) 
connections (connected_to_neuron, weight)=(0, -4.13659524917602539062e+00) (1, -6.15669822692871093750e+00) (0, -5.12123584747314453125e+00) (1, -2.98678898811340332031e+00) (0, -2.34187679290771484375e+01) (1, -9.11140155792236328125e+00) (0, -3.22223353385925292969e+00) (1, -4.94677829742431640625e+00) (2, 1.32802331447601318359e+00) (3, -3.13259077072143554688e+00) (4, 5.20641374588012695312e+00) (5, 7.43567287921905517578e-01) (6, 4.00539219379425048828e-01) (2, 7.59768295288085937500e+00) (3, -2.23489618301391601562e+00) (4, 7.10272490978240966797e-02) (5, 1.62554180622100830078e+00) (6, -4.22775536775588989258e-01) (7, -1.79323628544807434082e-01) (8, 3.21919858455657958984e-01) (9, -3.73301096260547637939e-02) (7, -7.14696168899536132812e-01) (8, -8.94534111022949218750e-01) (9, -6.11948013305664062500e-01) 
