FANN_FLO_2.1
num_layers=3
learning_rate=0.500000
connection_rate=1.000000
network_type=0
learning_momentum=0.000000
training_algorithm=2
train_error_function=1
train_stop_function=0
cascade_output_change_fraction=0.010000
quickprop_decay=-0.000100
quickprop_mu=1.750000
rprop_increase_factor=1.200000
rprop_decrease_factor=0.500000
rprop_delta_min=0.000000
rprop_delta_max=50.000000
rprop_delta_zero=0.100000
cascade_output_stagnation_epochs=12
cascade_candidate_change_fraction=0.010000
cascade_candidate_stagnation_epochs=12
cascade_max_out_epochs=150
cascade_min_out_epochs=50
cascade_max_cand_epochs=150
cascade_min_cand_epochs=50
cascade_num_candidate_groups=2
bit_fail_limit=3.49999994039535522461e-01
cascade_candidate_limit=1.00000000000000000000e+03
cascade_weight_multiplier=4.00000005960464477539e-01
cascade_activation_functions_count=10
cascade_activation_functions=3 5 7 8 10 11 14 15 16 17 
cascade_activation_steepnesses_count=4
cascade_activation_steepnesses=2.50000000000000000000e-01 5.00000000000000000000e-01 7.50000000000000000000e-01 1.00000000000000000000e+00 
layer_sizes=7 9 2 
scale_included=0
neurons (num_inputs, activation_function, activation_steepness)=(0, 0, 0.00000000000000000000e+00) (0, 0, 0.00000000000000000000e+00) (0, 0, 0.00000000000000000000e+00) (0, 0, 0.00000000000000000000e+00) (0, 0, 0.00000000000000000000e+00) (0, 0, 0.00000000000000000000e+00) (0, 0, 0.00000000000000000000e+00) (7, 3, 5.00000000000000000000e-01) (7, 3, 5.00000000000000000000e-01) (7, 3, 5.00000000000000000000e-01) (7, 3, 5.00000000000000000000e-01) (7, 3, 5.00000000000000000000e-01) (7, 3, 5.00000000000000000000e-01) (7, 3, 5.00000000000000000000e-01) (7, 3, 5.00000000000000000000e-01) (0, 3, 0.00000000000000000000e+00) (9, 0, 5.00000000000000000000e-01) (0, 0, 0.00000000000000000000e+00) 
connections (connected_to_neuron, weight)=(0, 3.57125736773014068604e-02) (1, -1.63525305688381195068e-02) (2, -3.98877769708633422852e-01) (3, -2.44728047400712966919e-02) (4, -5.31544946134090423584e-02) (5, -3.04238581657409667969e+00) (6, -4.56088632345199584961e-01) (0, -2.06313803791999816895e-01) (1, 4.21346485614776611328e-01) (2, -4.69980807974934577942e-03) (3, 3.39428931474685668945e-02) (4, 3.10946315526962280273e-01) (5, -5.56669682264328002930e-02) (6, 6.15163266658782958984e-01) (0, -7.51056623458862304688e+00) (1, -3.14803671836853027344e+00) (2, 4.48195427656173706055e-01) (3, -7.74005413055419921875e+00) (4, -1.53349423408508300781e+00) (5, 1.09062376022338867188e+01) (6, -3.43806505203247070312e-01) (0, 1.20264645665884017944e-02) (1, 1.92919224500656127930e-02) (2, -5.45513689517974853516e-01) (3, -4.54186499118804931641e-01) (4, 2.73563057184219360352e-01) (5, -3.20458579063415527344e+00) (6, -7.43905186653137207031e-01) (0, -1.55143365859985351562e+01) (1, -6.52619314193725585938e+00) (2, 1.38705568313598632812e+01) (3, -5.02666330337524414062e+00) (4, -2.79302740097045898438e+00) (5, 9.72503089904785156250e+00) (6, -5.17234623432159423828e-01) (0, 1.84382661245763301849e-03) (1, -6.00701123476028442383e-02) (2, -4.00161564350128173828e-01) (3, 3.09773627668619155884e-02) (4, -6.26957044005393981934e-02) (5, -2.69199252128601074219e+00) (6, -3.36492687463760375977e-01) (0, 3.75511609017848968506e-02) (1, -2.60593518614768981934e-02) (2, -4.03164774179458618164e-01) (3, 5.93356136232614517212e-03) (4, -4.26535159349441528320e-02) (5, -2.69748759269714355469e+00) (6, -4.32060152292251586914e-01) (0, 1.72259695827960968018e-02) (1, -8.82319062948226928711e-02) (2, -5.59535920619964599609e-01) (3, -3.74030843377113342285e-02) (4, -5.15556037425994873047e-02) (5, -2.60840344429016113281e+00) (6, -3.94676744937896728516e-01) (7, -2.13782073974609375000e+02) (8, -3.07981371879577636719e-02) (9, -1.47010162472724914551e-01) (10, 1.38935134887695312500e+02) (11, 1.02311956882476806641e+00) (12, 1.12166297912597656250e+02) (13, 5.84446220397949218750e+01) (14, -1.21545791625976562500e+02) (15, 6.35740980505943298340e-02) 
