FANN_FLO_2.1
num_layers=3
learning_rate=0.300000
connection_rate=1.000000
network_type=0
learning_momentum=0.000000
training_algorithm=2
train_error_function=1
train_stop_function=0
cascade_output_change_fraction=0.010000
quickprop_decay=-0.000100
quickprop_mu=1.750000
rprop_increase_factor=1.200000
rprop_decrease_factor=0.500000
rprop_delta_min=0.000000
rprop_delta_max=50.000000
rprop_delta_zero=0.100000
cascade_output_stagnation_epochs=12
cascade_candidate_change_fraction=0.010000
cascade_candidate_stagnation_epochs=12
cascade_max_out_epochs=150
cascade_min_out_epochs=50
cascade_max_cand_epochs=150
cascade_min_cand_epochs=50
cascade_num_candidate_groups=2
bit_fail_limit=3.49999994039535522461e-01
cascade_candidate_limit=1.00000000000000000000e+03
cascade_weight_multiplier=4.00000005960464477539e-01
cascade_activation_functions_count=10
cascade_activation_functions=3 5 7 8 10 11 14 15 16 17 
cascade_activation_steepnesses_count=4
cascade_activation_steepnesses=2.50000000000000000000e-01 5.00000000000000000000e-01 7.50000000000000000000e-01 1.00000000000000000000e+00 
layer_sizes=4 17 2 
scale_included=0
neurons (num_inputs, activation_function, activation_steepness)=(0, 0, 0.00000000000000000000e+00) (0, 0, 0.00000000000000000000e+00) (0, 0, 0.00000000000000000000e+00) (0, 0, 0.00000000000000000000e+00) (4, 3, 5.00000000000000000000e-01) (4, 3, 5.00000000000000000000e-01) (4, 3, 5.00000000000000000000e-01) (4, 3, 5.00000000000000000000e-01) (4, 3, 5.00000000000000000000e-01) (4, 3, 5.00000000000000000000e-01) (4, 3, 5.00000000000000000000e-01) (4, 3, 5.00000000000000000000e-01) (4, 3, 5.00000000000000000000e-01) (4, 3, 5.00000000000000000000e-01) (4, 3, 5.00000000000000000000e-01) (4, 3, 5.00000000000000000000e-01) (4, 3, 5.00000000000000000000e-01) (4, 3, 5.00000000000000000000e-01) (4, 3, 5.00000000000000000000e-01) (4, 3, 5.00000000000000000000e-01) (0, 3, 0.00000000000000000000e+00) (17, 3, 5.00000000000000000000e-01) (0, 3, 0.00000000000000000000e+00) 
connections (connected_to_neuron, weight)=(0, 2.68004150390625000000e+02) (1, 3.60735034942626953125e+00) (2, 1.50000000000000000000e+03) (3, 7.90317356586456298828e-01) (0, 2.67969665527343750000e+02) (1, 3.57525730133056640625e+00) (2, 1.50000000000000000000e+03) (3, 6.78331851959228515625e-01) (0, 7.81765580177307128906e-02) (1, 2.79303967952728271484e-01) (2, -4.28284788131713867188e+00) (3, 6.11144065856933593750e-01) (0, 1.45947396755218505859e+00) (1, -3.43155384063720703125e-01) (2, -3.84321832656860351562e+00) (3, -2.82008320093154907227e-01) (0, -8.22255015373229980469e-01) (1, 4.82311517000198364258e-01) (2, -5.60941338539123535156e-01) (3, 4.70485210418701171875e-01) (0, 2.68074615478515625000e+02) (1, 3.51776933670043945312e+00) (2, 1.50000000000000000000e+03) (3, 8.02003860473632812500e-01) (0, 2.18890118598937988281e+00) (1, -2.16859489679336547852e-01) (2, -8.98250579833984375000e+00) (3, -2.05602824687957763672e-01) (0, 1.11753585815429687500e+02) (1, 1.76267802715301513672e+00) (2, 1.50000000000000000000e+03) (3, 7.26427793502807617188e-01) (0, -1.59729853272438049316e-01) (1, 2.76694297790527343750e-02) (2, -1.85400277376174926758e-01) (3, 3.11961650848388671875e+00) (0, -1.01809239387512207031e+00) (1, -5.94471283257007598877e-02) (2, -1.04252672195434570312e+00) (3, -2.60903034359216690063e-02) (0, -1.44631111621856689453e+00) (1, -5.44945955276489257812e-01) (2, 1.10693180561065673828e+00) (3, -1.70517578721046447754e-01) (0, 2.04612159729003906250e+00) (1, -2.56262451410293579102e-01) (2, -7.66638326644897460938e+00) (3, -2.00019523501396179199e-01) (0, 6.18802547454833984375e+00) (1, -3.13242167234420776367e-01) (2, -3.19341354370117187500e+01) (3, -2.08712518215179443359e-01) (0, 3.02651810646057128906e+00) (1, 5.96157073974609375000e-01) (2, 7.03337955474853515625e+00) (3, 5.91451883316040039062e-01) (0, -7.41827785968780517578e-02) (1, 1.74846220761537551880e-02) (2, -2.48864293098449707031e-01) (3, 9.14403200149536132812e-01) (0, 7.46721220016479492188e+00) (1, -3.32194060087203979492e-01) (2, -3.77738456726074218750e+01) (3, -2.01420933008193969727e-01) (4, 2.56745338439941406250e-01) (5, 2.56040632724761962891e-01) (6, -1.52016105651855468750e+01) (7, -4.39932434082031250000e+02) (8, -5.68707525730133056641e-01) (9, 2.62222111225128173828e-01) (10, 2.48284881591796875000e+02) (11, 2.58542686700820922852e-01) (12, -3.50564622879028320312e+00) (13, -1.50000000000000000000e+03) (14, -1.50000000000000000000e+03) (15, 1.86458770751953125000e+02) (16, 2.92058959960937500000e+02) (17, 1.60733744502067565918e-01) (18, -4.11011123657226562500e+00) (19, -2.26767181396484375000e+02) (20, 3.12218159437179565430e-01) 
