FANN_FLO_2.1
num_layers=4
learning_rate=0.500000
connection_rate=1.000000
network_type=0
learning_momentum=0.000000
training_algorithm=2
train_error_function=1
train_stop_function=0
cascade_output_change_fraction=0.010000
quickprop_decay=-0.000100
quickprop_mu=1.750000
rprop_increase_factor=1.200000
rprop_decrease_factor=0.500000
rprop_delta_min=0.000000
rprop_delta_max=50.000000
rprop_delta_zero=0.100000
cascade_output_stagnation_epochs=12
cascade_candidate_change_fraction=0.010000
cascade_candidate_stagnation_epochs=12
cascade_max_out_epochs=150
cascade_min_out_epochs=50
cascade_max_cand_epochs=150
cascade_min_cand_epochs=50
cascade_num_candidate_groups=2
bit_fail_limit=3.49999994039535522461e-01
cascade_candidate_limit=1.00000000000000000000e+03
cascade_weight_multiplier=4.00000005960464477539e-01
cascade_activation_functions_count=10
cascade_activation_functions=3 5 7 8 10 11 14 15 16 17 
cascade_activation_steepnesses_count=4
cascade_activation_steepnesses=2.50000000000000000000e-01 5.00000000000000000000e-01 7.50000000000000000000e-01 1.00000000000000000000e+00 
layer_sizes=82 5 5 2 
scale_included=0
neurons (num_inputs, activation_function, activation_steepness)=(0, 0, 0.00000000000000000000e+00) (0, 0, 0.00000000000000000000e+00) (0, 0, 0.00000000000000000000e+00) (0, 0, 0.00000000000000000000e+00) (0, 0, 0.00000000000000000000e+00) (0, 0, 0.00000000000000000000e+00) (0, 0, 0.00000000000000000000e+00) (0, 0, 0.00000000000000000000e+00) (0, 0, 0.00000000000000000000e+00) (0, 0, 0.00000000000000000000e+00) (0, 0, 0.00000000000000000000e+00) (0, 0, 0.00000000000000000000e+00) (0, 0, 0.00000000000000000000e+00) (0, 0, 0.00000000000000000000e+00) (0, 0, 0.00000000000000000000e+00) (0, 0, 0.00000000000000000000e+00) (0, 0, 0.00000000000000000000e+00) (0, 0, 0.00000000000000000000e+00) (0, 0, 0.00000000000000000000e+00) (0, 0, 0.00000000000000000000e+00) (0, 0, 0.00000000000000000000e+00) (0, 0, 0.00000000000000000000e+00) (0, 0, 0.00000000000000000000e+00) (0, 0, 0.00000000000000000000e+00) (0, 0, 0.00000000000000000000e+00) (0, 0, 0.00000000000000000000e+00) (0, 0, 0.00000000000000000000e+00) (0, 0, 0.00000000000000000000e+00) (0, 0, 0.00000000000000000000e+00) (0, 0, 0.00000000000000000000e+00) (0, 0, 0.00000000000000000000e+00) (0, 0, 0.00000000000000000000e+00) (0, 0, 0.00000000000000000000e+00) (0, 0, 0.00000000000000000000e+00) (0, 0, 0.00000000000000000000e+00) (0, 0, 0.00000000000000000000e+00) (0, 0, 0.00000000000000000000e+00) (0, 0, 0.00000000000000000000e+00) (0, 0, 0.00000000000000000000e+00) (0, 0, 0.00000000000000000000e+00) (0, 0, 0.00000000000000000000e+00) (0, 0, 0.00000000000000000000e+00) (0, 0, 0.00000000000000000000e+00) (0, 0, 0.00000000000000000000e+00) (0, 0, 0.00000000000000000000e+00) (0, 0, 0.00000000000000000000e+00) (0, 0, 0.00000000000000000000e+00) (0, 0, 0.00000000000000000000e+00) (0, 0, 0.00000000000000000000e+00) (0, 0, 0.00000000000000000000e+00) (0, 0, 0.00000000000000000000e+00) (0, 0, 0.00000000000000000000e+00) (0, 0, 0.00000000000000000000e+00) (0, 0, 0.00000000000000000000e+00) (0, 0, 0.00000000000000000000e+00) (0, 0, 0.00000000000000000000e+00) (0, 0, 0.00000000000000000000e+00) (0, 0, 0.00000000000000000000e+00) (0, 0, 0.00000000000000000000e+00) (0, 0, 0.00000000000000000000e+00) (0, 0, 0.00000000000000000000e+00) (0, 0, 0.00000000000000000000e+00) (0, 0, 0.00000000000000000000e+00) (0, 0, 0.00000000000000000000e+00) (0, 0, 0.00000000000000000000e+00) (0, 0, 0.00000000000000000000e+00) (0, 0, 0.00000000000000000000e+00) (0, 0, 0.00000000000000000000e+00) (0, 0, 0.00000000000000000000e+00) (0, 0, 0.00000000000000000000e+00) (0, 0, 0.00000000000000000000e+00) (0, 0, 0.00000000000000000000e+00) (0, 0, 0.00000000000000000000e+00) (0, 0, 0.00000000000000000000e+00) (0, 0, 0.00000000000000000000e+00) (0, 0, 0.00000000000000000000e+00) (0, 0, 0.00000000000000000000e+00) (0, 0, 0.00000000000000000000e+00) (0, 0, 0.00000000000000000000e+00) (0, 0, 0.00000000000000000000e+00) (0, 0, 0.00000000000000000000e+00) (0, 0, 0.00000000000000000000e+00) (82, 3, 5.00000000000000000000e-01) (82, 3, 5.00000000000000000000e-01) (82, 3, 5.00000000000000000000e-01) (82, 3, 5.00000000000000000000e-01) (0, 3, 0.00000000000000000000e+00) (5, 3, 5.00000000000000000000e-01) (5, 3, 5.00000000000000000000e-01) (5, 3, 5.00000000000000000000e-01) (5, 3, 5.00000000000000000000e-01) (0, 3, 0.00000000000000000000e+00) (5, 3, 5.00000000000000000000e-01) (0, 3, 0.00000000000000000000e+00) 
connections (connected_to_neuron, weight)=(0, -1.20978280901908874512e-01) (1, 4.66946400701999664307e-02) (2, 2.16650530695915222168e-01) (3, 1.76597341895103454590e-01) (4, 4.38422679901123046875e-01) (5, 1.00197958946228027344e+00) (6, 8.39888691902160644531e-01) (7, 4.58429664373397827148e-01) (8, 1.10441762953996658325e-02) (9, -2.50059552490711212158e-02) (10, 9.97206449508666992188e-01) (11, 3.90886336565017700195e-01) (12, 3.78316819667816162109e-01) (13, 3.49538415670394897461e-01) (14, -1.04484640061855316162e-01) (15, 4.47976082563400268555e-01) (16, 2.92589396238327026367e-01) (17, 1.40376806259155273438e-01) (18, 7.26174890995025634766e-01) (19, 4.09838438034057617188e-01) (20, 1.73892840743064880371e-01) (21, 1.65353536605834960938e-01) (22, 2.94281877577304840088e-02) (23, 7.93570280075073242188e-02) (24, 4.23822402954101562500e+00) (25, 2.38551616668701171875e-01) (26, 1.19048178195953369141e-01) (27, 5.58781391009688377380e-03) (28, 2.60663509368896484375e-01) (29, 1.35476291179656982422e-01) (30, -5.94620645046234130859e-01) (31, -1.66501346975564956665e-02) (32, 5.27654647827148437500e-01) (33, 1.78787764161825180054e-02) (34, 1.46726772189140319824e-01) (35, -2.91868448257446289062e-02) (36, -7.68139541149139404297e-01) (37, -8.67386609315872192383e-02) (38, -6.91078752279281616211e-02) (39, 2.81747609376907348633e-01) (40, 3.82526218891143798828e-02) (41, 1.09958514571189880371e-01) (42, -6.00231923162937164307e-02) (43, -2.19145044684410095215e-01) (44, -6.72180175781250000000e-01) (45, 1.12740382552146911621e-01) (46, 1.01337850093841552734e-01) (47, 8.98746848106384277344e-02) (48, -2.52897977828979492188e-01) (49, 1.50000000000000000000e+03) (50, 1.50000000000000000000e+03) (51, 1.50000000000000000000e+03) (52, 1.50000000000000000000e+03) (53, 1.50000000000000000000e+03) (54, 1.50000000000000000000e+03) (55, 1.50000000000000000000e+03) (56, 1.50000000000000000000e+03) (57, 1.50000000000000000000e+03) (58, 1.50000000000000000000e+03) (59, 1.50000000000000000000e+03) (60, 1.50000000000000000000e+03) (61, 1.50000000000000000000e+03) (62, 1.50000000000000000000e+03) (63, 1.50000000000000000000e+03) (64, 1.50000000000000000000e+03) (65, 1.50000000000000000000e+03) (66, 1.50000000000000000000e+03) (67, 1.50000000000000000000e+03) (68, 1.50000000000000000000e+03) (69, 1.50000000000000000000e+03) (70, 1.50000000000000000000e+03) (71, 1.50000000000000000000e+03) (72, 1.50000000000000000000e+03) (73, 1.50000000000000000000e+03) (74, 1.50000000000000000000e+03) (75, 1.50000000000000000000e+03) (76, 1.50000000000000000000e+03) (77, 1.50000000000000000000e+03) (78, 1.50000000000000000000e+03) (79, 1.50000000000000000000e+03) (80, 1.50000000000000000000e+03) (81, -6.32027626037597656250e-01) (0, 8.38372930884361267090e-02) (1, 2.78879106044769287109e-01) (2, -2.01017546653747558594e+00) (3, 2.54897892475128173828e-01) (4, -1.71952530741691589355e-01) (5, 8.00863862037658691406e-01) (6, -2.56892681121826171875e+00) (7, 4.37215454876422882080e-02) (8, -2.51822590827941894531e+00) (9, -3.81791859865188598633e-01) (10, 1.29898842424154281616e-02) (11, -9.19940948486328125000e-01) (12, -4.00565683841705322266e-01) (13, 4.99832063913345336914e-01) (14, -4.97545711696147918701e-02) (15, 2.15007051825523376465e-01) (16, 5.11644423007965087891e-01) (17, 4.69396471977233886719e-01) (18, -1.06863164901733398438e+00) (19, -1.58523574471473693848e-01) (20, 3.14695954322814941406e-01) (21, 1.42127469182014465332e-01) (22, -2.22370791435241699219e+00) (23, -5.27996206283569335938e+00) (24, 2.44864559173583984375e+01) (25, 2.54897117614746093750e-01) (26, 5.06111800670623779297e-01) (27, 1.36815547943115234375e+00) (28, -1.57280489802360534668e-01) (29, -1.00729000568389892578e+00) (30, -6.91684007644653320312e-01) (31, 3.19676995277404785156e-01) (32, 7.28966856002807617188e+00) (33, 6.22040867805480957031e-01) (34, 4.03476667404174804688e+00) (35, -3.86931228637695312500e+00) (36, -1.74851858615875244141e+00) (37, 7.82038867473602294922e-01) (38, -8.44713896512985229492e-02) (39, 1.66082054376602172852e-01) (40, 1.38925898075103759766e+00) (41, 3.35720360279083251953e-01) (42, -3.34463894367218017578e-01) (43, -2.61730045080184936523e-01) (44, 4.88759803771972656250e+00) (45, 2.95784425735473632812e+00) (46, 1.92138895392417907715e-01) (47, 5.73681354522705078125e+00) (48, 4.68370819091796875000e+00) (49, 1.50000000000000000000e+03) (50, 1.50000000000000000000e+03) (51, 1.50000000000000000000e+03) (52, 1.50000000000000000000e+03) (53, 1.50000000000000000000e+03) (54, 1.50000000000000000000e+03) (55, 1.50000000000000000000e+03) (56, 1.50000000000000000000e+03) (57, 1.50000000000000000000e+03) (58, 1.50000000000000000000e+03) (59, 1.50000000000000000000e+03) (60, 1.50000000000000000000e+03) (61, 1.50000000000000000000e+03) (62, 1.50000000000000000000e+03) (63, 1.50000000000000000000e+03) (64, 1.50000000000000000000e+03) (65, 1.50000000000000000000e+03) (66, 1.50000000000000000000e+03) (67, 1.50000000000000000000e+03) (68, 1.50000000000000000000e+03) (69, 1.50000000000000000000e+03) (70, 1.50000000000000000000e+03) (71, 1.50000000000000000000e+03) (72, 1.50000000000000000000e+03) (73, 1.50000000000000000000e+03) (74, 1.50000000000000000000e+03) (75, 1.50000000000000000000e+03) (76, 1.50000000000000000000e+03) (77, 1.50000000000000000000e+03) (78, 1.50000000000000000000e+03) (79, 1.50000000000000000000e+03) (80, 1.50000000000000000000e+03) (81, 3.34967911243438720703e-01) (0, -4.97103869915008544922e-01) (1, -5.06144940853118896484e-01) (2, -1.51782870292663574219e-01) (3, -2.92307913303375244141e-01) (4, -3.24484229087829589844e-01) (5, 4.88746583461761474609e-01) (6, 5.65159201622009277344e-01) (7, 1.14375054836273193359e-01) (8, -3.76372218132019042969e-01) (9, -7.71105825901031494141e-01) (10, -5.03624618053436279297e-01) (11, -1.24565109610557556152e-01) (12, 3.90045553445816040039e-01) (13, 3.45251202583312988281e-01) (14, -2.98703879117965698242e-01) (15, -1.06059443950653076172e+00) (16, -6.92677557468414306641e-01) (17, 5.12961000204086303711e-02) (18, -1.60453826189041137695e-01) (19, -2.01880216598510742188e-01) (20, 5.15067219734191894531e-01) (21, -8.62853750586509704590e-02) (22, -1.46341776847839355469e+00) (23, -6.92978620529174804688e-01) (24, -3.05541247129440307617e-01) (25, -5.72663880884647369385e-02) (26, 5.18363356590270996094e-01) (27, 4.35319423675537109375e-01) (28, -3.72145444154739379883e-01) (29, -2.32588267326354980469e+00) (30, -7.38311409950256347656e-01) (31, -4.96606528759002685547e-01) (32, -1.36960998177528381348e-01) (33, 1.79691389203071594238e-01) (34, 3.91575843095779418945e-01) (35, -1.26416698098182678223e-01) (36, -2.61554527282714843750e+00) (37, -4.69164609909057617188e-01) (38, -3.29031556844711303711e-01) (39, -1.64855830371379852295e-02) (40, 3.58785510063171386719e-01) (41, 3.31416219472885131836e-01) (42, 2.99031943082809448242e-01) (43, -1.77070870995521545410e-02) (44, -1.62284731864929199219e+00) (45, -2.64962404966354370117e-01) (46, -1.24201625585556030273e-01) (47, 4.23823684453964233398e-01) (48, -8.73347103595733642578e-01) (49, 1.50000000000000000000e+03) (50, 1.50000000000000000000e+03) (51, 1.50000000000000000000e+03) (52, 1.50000000000000000000e+03) (53, 1.50000000000000000000e+03) (54, 1.50000000000000000000e+03) (55, 1.50000000000000000000e+03) (56, 1.50000000000000000000e+03) (57, 1.50000000000000000000e+03) (58, 1.50000000000000000000e+03) (59, 1.50000000000000000000e+03) (60, 1.50000000000000000000e+03) (61, 1.50000000000000000000e+03) (62, 1.50000000000000000000e+03) (63, 1.50000000000000000000e+03) (64, 1.50000000000000000000e+03) (65, 1.50000000000000000000e+03) (66, 1.50000000000000000000e+03) (67, 1.50000000000000000000e+03) (68, 1.50000000000000000000e+03) (69, 1.50000000000000000000e+03) (70, 1.50000000000000000000e+03) (71, 1.50000000000000000000e+03) (72, 1.50000000000000000000e+03) (73, 1.50000000000000000000e+03) (74, 1.50000000000000000000e+03) (75, 1.50000000000000000000e+03) (76, 1.50000000000000000000e+03) (77, 1.50000000000000000000e+03) (78, 1.50000000000000000000e+03) (79, 1.50000000000000000000e+03) (80, 1.50000000000000000000e+03) (81, 7.09711611270904541016e-01) (0, 1.81948207318782806396e-02) (1, -1.91010341048240661621e-01) (2, -1.84709832072257995605e-01) (3, 6.72237053513526916504e-02) (4, -8.41711536049842834473e-02) (5, -1.84614107012748718262e-01) (6, 3.34405377507209777832e-02) (7, 8.63910242915153503418e-02) (8, 1.30923176184296607971e-02) (9, -1.47829413414001464844e-01) (10, 1.38443842530250549316e-01) (11, -5.80679886043071746826e-02) (12, 1.74186713993549346924e-02) (13, -4.14288677275180816650e-02) (14, 1.38318142853677272797e-03) (15, 4.13585662841796875000e-01) (16, -2.37976163625717163086e-01) (17, -1.52290776371955871582e-01) (18, 1.72732658684253692627e-02) (19, -3.53816151618957519531e-03) (20, 1.49289324879646301270e-01) (21, -3.87539900839328765869e-02) (22, 7.03511014580726623535e-02) (23, -7.58534222841262817383e-02) (24, -3.12866306304931640625e+00) (25, 1.19772128760814666748e-01) (26, -1.98767390102148056030e-02) (27, 1.39119058847427368164e-01) (28, 4.46209795773029327393e-02) (29, 3.36704134941101074219e-01) (30, -4.82823729515075683594e-01) (31, -2.21574708819389343262e-01) (32, 1.17703666910529136658e-03) (33, -8.61438736319541931152e-02) (34, 1.35591074824333190918e-01) (35, -1.40994533896446228027e-01) (36, 7.50010907649993896484e-02) (37, -5.25917559862136840820e-02) (38, -1.20008610188961029053e-01) (39, 3.48394513130187988281e-02) (40, -1.27974152565002441406e-01) (41, 1.23126871883869171143e-01) (42, -1.58651173114776611328e-01) (43, -2.39921301603317260742e-01) (44, -6.93229660391807556152e-02) (45, -1.79514601826667785645e-01) (46, 2.58832991123199462891e-01) (47, -6.71422034502029418945e-02) (48, 1.92553345113992691040e-02) (49, 1.50000000000000000000e+03) (50, 1.50000000000000000000e+03) (51, 1.50000000000000000000e+03) (52, 1.50000000000000000000e+03) (53, 1.50000000000000000000e+03) (54, 1.50000000000000000000e+03) (55, 1.50000000000000000000e+03) (56, 1.50000000000000000000e+03) (57, 1.50000000000000000000e+03) (58, 1.50000000000000000000e+03) (59, 1.50000000000000000000e+03) (60, 1.50000000000000000000e+03) (61, 1.50000000000000000000e+03) (62, 1.50000000000000000000e+03) (63, 1.50000000000000000000e+03) (64, 1.50000000000000000000e+03) (65, 1.50000000000000000000e+03) (66, 1.50000000000000000000e+03) (67, 1.50000000000000000000e+03) (68, 1.50000000000000000000e+03) (69, 1.50000000000000000000e+03) (70, 1.50000000000000000000e+03) (71, 1.50000000000000000000e+03) (72, 1.50000000000000000000e+03) (73, 1.50000000000000000000e+03) (74, 1.50000000000000000000e+03) (75, 1.50000000000000000000e+03) (76, 1.50000000000000000000e+03) (77, 1.50000000000000000000e+03) (78, 1.50000000000000000000e+03) (79, 1.50000000000000000000e+03) (80, 1.50000000000000000000e+03) (81, 2.33805274963378906250e+00) (82, -1.70500588417053222656e+00) (83, -7.65747249126434326172e-01) (84, 1.08756470680236816406e+00) (85, 5.84572219848632812500e+00) (86, -8.61813664436340332031e-01) (82, -2.71338939666748046875e+00) (83, -2.55761653184890747070e-01) (84, 2.68595962524414062500e+01) (85, 5.78804731369018554688e+00) (86, -7.78476297855377197266e-01) (82, -3.84682893753051757812e+00) (83, -1.53113675117492675781e+00) (84, 1.19051027297973632812e+00) (85, 4.28977441787719726562e+00) (86, -4.40550386905670166016e-01) (82, -1.73597884178161621094e+00) (83, -6.71589612960815429688e-01) (84, 1.19615411758422851562e+00) (85, 5.82706594467163085938e+00) (86, -9.35016274452209472656e-01) (87, -6.80845141410827636719e-01) (88, -9.27473962306976318359e-01) (89, -2.74129605293273925781e+00) (90, -6.78966701030731201172e-01) (91, 1.20315635204315185547e+00) 
