FANN_FLO_2.1
num_layers=4
learning_rate=0.500000
connection_rate=1.000000
network_type=0
learning_momentum=0.000000
training_algorithm=2
train_error_function=1
train_stop_function=0
cascade_output_change_fraction=0.010000
quickprop_decay=-0.000100
quickprop_mu=1.750000
rprop_increase_factor=1.200000
rprop_decrease_factor=0.500000
rprop_delta_min=0.000000
rprop_delta_max=50.000000
rprop_delta_zero=0.100000
cascade_output_stagnation_epochs=12
cascade_candidate_change_fraction=0.010000
cascade_candidate_stagnation_epochs=12
cascade_max_out_epochs=150
cascade_min_out_epochs=50
cascade_max_cand_epochs=150
cascade_min_cand_epochs=50
cascade_num_candidate_groups=2
bit_fail_limit=3.49999994039535522461e-01
cascade_candidate_limit=1.00000000000000000000e+03
cascade_weight_multiplier=4.00000005960464477539e-01
cascade_activation_functions_count=10
cascade_activation_functions=3 5 7 8 10 11 14 15 16 17 
cascade_activation_steepnesses_count=4
cascade_activation_steepnesses=2.50000000000000000000e-01 5.00000000000000000000e-01 7.50000000000000000000e-01 1.00000000000000000000e+00 
layer_sizes=4 5 5 2 
scale_included=0
neurons (num_inputs, activation_function, activation_steepness)=(0, 0, 0.00000000000000000000e+00) (0, 0, 0.00000000000000000000e+00) (0, 0, 0.00000000000000000000e+00) (0, 0, 0.00000000000000000000e+00) (4, 3, 5.00000000000000000000e-01) (4, 3, 5.00000000000000000000e-01) (4, 3, 5.00000000000000000000e-01) (4, 3, 5.00000000000000000000e-01) (0, 3, 0.00000000000000000000e+00) (5, 3, 5.00000000000000000000e-01) (5, 3, 5.00000000000000000000e-01) (5, 3, 5.00000000000000000000e-01) (5, 3, 5.00000000000000000000e-01) (0, 3, 0.00000000000000000000e+00) (5, 3, 5.00000000000000000000e-01) (0, 3, 0.00000000000000000000e+00) 
connections (connected_to_neuron, weight)=(0, -1.52246689796447753906e+00) (1, -2.55314502716064453125e+01) (2, 6.70203065872192382812e+00) (3, 4.32320165634155273438e+00) (0, -3.61024528741836547852e-01) (1, -2.17774200439453125000e+01) (2, 1.95306625366210937500e+01) (3, 3.43784308433532714844e+00) (0, -6.21127080917358398438e+00) (1, -3.04488348960876464844e+00) (2, -7.33468890190124511719e-01) (3, 4.39836120605468750000e+00) (0, -1.52585363388061523438e+00) (1, -2.64766769409179687500e+01) (2, 5.94540405273437500000e+00) (3, 4.41658210754394531250e+00) (4, 4.54072856903076171875e+00) (5, -3.07201552391052246094e+00) (6, 3.54828872680664062500e+01) (7, 4.31549549102783203125e+00) (8, -7.40166425704956054688e+00) (4, 1.67003173828125000000e+01) (5, -7.95315170288085937500e+00) (6, 3.58425865173339843750e+01) (7, 4.00895643234252929688e+00) (8, -3.40543150901794433594e+00) (4, -1.50000000000000000000e+03) (5, -1.41037597656250000000e+03) (6, -2.24629684448242187500e+02) (7, -1.50000000000000000000e+03) (8, 3.24982948303222656250e+01) (4, -2.46040019989013671875e+01) (5, 6.64727497100830078125e+00) (6, -2.37944469451904296875e+01) (7, -1.04749469757080078125e+01) (8, 2.49420928955078125000e+00) (9, -5.59562206268310546875e-01) (10, -2.43638944625854492188e+00) (11, -1.35037291049957275391e+00) (12, 1.71583545207977294922e+00) (13, 7.57020533084869384766e-01) 
