FANN_FLO_2.1
num_layers=3
learning_rate=0.500000
connection_rate=1.000000
network_type=0
learning_momentum=0.000000
training_algorithm=2
train_error_function=1
train_stop_function=0
cascade_output_change_fraction=0.010000
quickprop_decay=-0.000100
quickprop_mu=1.750000
rprop_increase_factor=1.200000
rprop_decrease_factor=0.500000
rprop_delta_min=0.000000
rprop_delta_max=50.000000
rprop_delta_zero=0.100000
cascade_output_stagnation_epochs=12
cascade_candidate_change_fraction=0.010000
cascade_candidate_stagnation_epochs=12
cascade_max_out_epochs=150
cascade_min_out_epochs=50
cascade_max_cand_epochs=150
cascade_min_cand_epochs=50
cascade_num_candidate_groups=2
bit_fail_limit=3.49999994039535522461e-01
cascade_candidate_limit=1.00000000000000000000e+03
cascade_weight_multiplier=4.00000005960464477539e-01
cascade_activation_functions_count=10
cascade_activation_functions=3 5 7 8 10 11 14 15 16 17 
cascade_activation_steepnesses_count=4
cascade_activation_steepnesses=2.50000000000000000000e-01 5.00000000000000000000e-01 7.50000000000000000000e-01 1.00000000000000000000e+00 
layer_sizes=3 17 4 
scale_included=0
neurons (num_inputs, activation_function, activation_steepness)=(0, 0, 0.00000000000000000000e+00) (0, 0, 0.00000000000000000000e+00) (0, 0, 0.00000000000000000000e+00) (3, 3, 5.00000000000000000000e-01) (3, 3, 5.00000000000000000000e-01) (3, 3, 5.00000000000000000000e-01) (3, 3, 5.00000000000000000000e-01) (3, 3, 5.00000000000000000000e-01) (3, 3, 5.00000000000000000000e-01) (3, 3, 5.00000000000000000000e-01) (3, 3, 5.00000000000000000000e-01) (3, 3, 5.00000000000000000000e-01) (3, 3, 5.00000000000000000000e-01) (3, 3, 5.00000000000000000000e-01) (3, 3, 5.00000000000000000000e-01) (3, 3, 5.00000000000000000000e-01) (3, 3, 5.00000000000000000000e-01) (3, 3, 5.00000000000000000000e-01) (3, 3, 5.00000000000000000000e-01) (0, 3, 0.00000000000000000000e+00) (17, 0, 5.00000000000000000000e-01) (17, 0, 5.00000000000000000000e-01) (17, 0, 5.00000000000000000000e-01) (0, 0, 0.00000000000000000000e+00) 
connections (connected_to_neuron, weight)=(0, -2.02085614204406738281e+00) (1, 3.37399983406066894531e+00) (2, 2.21934938430786132812e+00) (0, -8.51835846900939941406e-01) (1, 8.74335527420043945312e-01) (2, 1.74482762813568115234e+00) (0, -3.24070787429809570312e+00) (1, 1.53947725892066955566e-01) (2, 1.23289930820465087891e+00) (0, -9.07516574859619140625e+00) (1, -1.39820408821105957031e+00) (2, 4.21246647834777832031e-01) (0, -2.49636554718017578125e+00) (1, 4.99152988195419311523e-01) (2, 1.95461320877075195312e+00) (0, -3.18701720237731933594e+00) (1, 2.50957655906677246094e+00) (2, 1.48666167259216308594e+00) (0, -3.44432878494262695312e+00) (1, 3.35325050354003906250e+00) (2, -2.82943010330200195312e-01) (0, -1.30061852931976318359e+00) (1, 3.76758909225463867188e+00) (2, 1.15700758993625640869e-01) (0, -3.18472838401794433594e+00) (1, 3.97925198078155517578e-01) (2, 1.03817605972290039062e+00) (0, -1.18021976947784423828e+00) (1, -2.87016940116882324219e+00) (2, 4.89856183528900146484e-01) (0, -2.99355030059814453125e+00) (1, 3.10054397583007812500e+00) (2, 2.57832121849060058594e+00) (0, -1.28070092201232910156e+00) (1, 3.43703889846801757812e+00) (2, 7.20404386520385742188e-01) (0, -2.85049057006835937500e+00) (1, 1.21277964115142822266e+00) (2, 1.05249512195587158203e+00) (0, -2.01531052589416503906e+00) (1, 3.38763499259948730469e+00) (2, 2.17918825149536132812e+00) (0, -3.22208285331726074219e+00) (1, 3.16961693763732910156e+00) (2, 2.65324234962463378906e+00) (0, -2.98521733283996582031e+00) (1, -1.94642639160156250000e+00) (2, 6.29108667373657226562e-01) (3, 1.81061133742332458496e-01) (4, 4.41850602626800537109e-01) (5, 7.76333093643188476562e-01) (6, 1.27144670486450195312e+00) (7, -8.11788201332092285156e-01) (8, -7.08405971527099609375e-01) (9, 2.52283191680908203125e+00) (10, 9.89775836467742919922e-01) (11, 9.43030297756195068359e-01) (12, 2.02549648284912109375e+00) (13, 2.02156022191047668457e-01) (14, 5.61812877655029296875e-01) (15, 4.25131738185882568359e-01) (16, 1.55486345291137695312e-01) (17, 1.13192044198513031006e-01) (18, 2.13117337226867675781e+00) (19, -1.81477144360542297363e-01) (3, 9.91259336471557617188e-01) (4, 1.51668572425842285156e+00) (5, 1.92513692378997802734e+00) (6, 2.32147669792175292969e+00) (7, 1.24808013439178466797e+00) (8, 9.67370092868804931641e-01) (9, 1.88665711879730224609e+00) (10, 2.96605658531188964844e+00) (11, 2.55384063720703125000e+00) (12, 7.29884386062622070312e+00) (13, 1.00895226001739501953e+00) (14, 1.58513832092285156250e+00) (15, 2.18324112892150878906e+00) (16, 1.02441596984863281250e+00) (17, 9.97830748558044433594e-01) (18, 5.72370195388793945312e+00) (19, -1.18890595436096191406e+00) (3, 3.67709827423095703125e+00) (4, 5.03398370742797851562e+00) (5, 7.35038042068481445312e+00) (6, 6.97699403762817382812e+00) (7, 8.26447486877441406250e+00) (8, 3.71403145790100097656e+00) (9, 3.77018594741821289062e+00) (10, 4.98772764205932617188e+00) (11, 7.30429029464721679688e+00) (12, 2.62087764739990234375e+01) (13, 3.69571495056152343750e+00) (14, 5.12484741210937500000e+00) (15, 5.16675567626953125000e+00) (16, 3.65079307556152343750e+00) (17, 3.66117334365844726562e+00) (18, 1.68090953826904296875e+01) (19, 3.42320704460144042969e+00) 
