FANN_FLO_2.1
num_layers=3
learning_rate=0.500000
connection_rate=1.000000
network_type=0
learning_momentum=0.000000
training_algorithm=2
train_error_function=1
train_stop_function=0
cascade_output_change_fraction=0.010000
quickprop_decay=-0.000100
quickprop_mu=1.750000
rprop_increase_factor=1.200000
rprop_decrease_factor=0.500000
rprop_delta_min=0.000000
rprop_delta_max=50.000000
rprop_delta_zero=0.100000
cascade_output_stagnation_epochs=12
cascade_candidate_change_fraction=0.010000
cascade_candidate_stagnation_epochs=12
cascade_max_out_epochs=150
cascade_min_out_epochs=50
cascade_max_cand_epochs=150
cascade_min_cand_epochs=50
cascade_num_candidate_groups=2
bit_fail_limit=3.49999994039535522461e-01
cascade_candidate_limit=1.00000000000000000000e+03
cascade_weight_multiplier=4.00000005960464477539e-01
cascade_activation_functions_count=10
cascade_activation_functions=3 5 7 8 10 11 14 15 16 17 
cascade_activation_steepnesses_count=4
cascade_activation_steepnesses=2.50000000000000000000e-01 5.00000000000000000000e-01 7.50000000000000000000e-01 1.00000000000000000000e+00 
layer_sizes=3 5 4 
scale_included=0
neurons (num_inputs, activation_function, activation_steepness)=(0, 0, 0.00000000000000000000e+00) (0, 0, 0.00000000000000000000e+00) (0, 0, 0.00000000000000000000e+00) (3, 3, 5.00000000000000000000e-01) (3, 3, 5.00000000000000000000e-01) (3, 3, 5.00000000000000000000e-01) (3, 3, 5.00000000000000000000e-01) (0, 3, 0.00000000000000000000e+00) (5, 0, 5.00000000000000000000e-01) (5, 0, 5.00000000000000000000e-01) (5, 0, 5.00000000000000000000e-01) (0, 0, 0.00000000000000000000e+00) 
connections (connected_to_neuron, weight)=(0, -1.18361101150512695312e+01) (1, 1.36240100860595703125e+01) (2, 7.38395500183105468750e+00) (0, -1.13371109962463378906e+00) (1, -1.14261806011199951172e+00) (2, 4.15530025959014892578e-01) (0, -5.14007282257080078125e+00) (1, 2.19546198844909667969e+00) (2, -1.90028488636016845703e+00) (0, -1.06767988204956054688e+01) (1, 8.85752773284912109375e+00) (2, 6.86326265335083007812e-01) (3, 1.30715918540954589844e+00) (4, 4.94386243820190429688e+00) (5, 2.62799668312072753906e+00) (6, 1.28851962089538574219e+00) (7, 8.10409486293792724609e-01) (3, 4.95740318298339843750e+00) (4, 1.58733015060424804688e+01) (5, 6.05612802505493164062e+00) (6, 4.42452716827392578125e+00) (7, 3.48383617401123046875e+00) (3, 1.51137237548828125000e+01) (4, 5.33237991333007812500e+01) (5, 1.84276485443115234375e+01) (6, 1.35089969635009765625e+01) (7, 1.74378871917724609375e+01) 
