FANN_FLO_2.1
num_layers=3
learning_rate=0.500000
connection_rate=1.000000
network_type=0
learning_momentum=0.000000
training_algorithm=2
train_error_function=1
train_stop_function=0
cascade_output_change_fraction=0.010000
quickprop_decay=-0.000100
quickprop_mu=1.750000
rprop_increase_factor=1.200000
rprop_decrease_factor=0.500000
rprop_delta_min=0.000000
rprop_delta_max=50.000000
rprop_delta_zero=0.100000
cascade_output_stagnation_epochs=12
cascade_candidate_change_fraction=0.010000
cascade_candidate_stagnation_epochs=12
cascade_max_out_epochs=150
cascade_min_out_epochs=50
cascade_max_cand_epochs=150
cascade_min_cand_epochs=50
cascade_num_candidate_groups=2
bit_fail_limit=3.49999994039535522461e-01
cascade_candidate_limit=1.00000000000000000000e+03
cascade_weight_multiplier=4.00000005960464477539e-01
cascade_activation_functions_count=10
cascade_activation_functions=3 5 7 8 10 11 14 15 16 17 
cascade_activation_steepnesses_count=4
cascade_activation_steepnesses=2.50000000000000000000e-01 5.00000000000000000000e-01 7.50000000000000000000e-01 1.00000000000000000000e+00 
layer_sizes=3 9 4 
scale_included=0
neurons (num_inputs, activation_function, activation_steepness)=(0, 0, 0.00000000000000000000e+00) (0, 0, 0.00000000000000000000e+00) (0, 0, 0.00000000000000000000e+00) (3, 3, 5.00000000000000000000e-01) (3, 3, 5.00000000000000000000e-01) (3, 3, 5.00000000000000000000e-01) (3, 3, 5.00000000000000000000e-01) (3, 3, 5.00000000000000000000e-01) (3, 3, 5.00000000000000000000e-01) (3, 3, 5.00000000000000000000e-01) (3, 3, 5.00000000000000000000e-01) (0, 3, 0.00000000000000000000e+00) (9, 0, 5.00000000000000000000e-01) (9, 0, 5.00000000000000000000e-01) (9, 0, 5.00000000000000000000e-01) (0, 0, 0.00000000000000000000e+00) 
connections (connected_to_neuron, weight)=(0, -4.74658632278442382812e+00) (1, 3.64291691780090332031e+00) (2, 7.53840684890747070312e+00) (0, -6.47073507308959960938e+00) (1, 6.17518091201782226562e+00) (2, 4.25099039077758789062e+00) (0, -4.74602746963500976562e+00) (1, 3.74813938140869140625e+00) (2, 7.47272968292236328125e+00) (0, -2.36131095886230468750e+01) (1, -7.37337589263916015625e+00) (2, 2.38750632852315902710e-02) (0, -8.74565696716308593750e+00) (1, 4.26000499725341796875e+00) (2, 5.45602560043334960938e+00) (0, -6.19142866134643554688e+00) (1, 2.29705110192298889160e-01) (2, 7.57690966129302978516e-01) (0, -1.71974277496337890625e+00) (1, -1.95979881286621093750e+00) (2, 1.60193651914596557617e-01) (0, -8.60939502716064453125e+00) (1, 3.54443597793579101562e+00) (2, 1.51955521106719970703e+00) (3, 5.64355432987213134766e-01) (4, 8.75688970088958740234e-01) (5, 5.74552536010742187500e-01) (6, 1.17159616947174072266e+00) (7, 6.60485446453094482422e-01) (8, 1.97070169448852539062e+00) (9, 2.99205327033996582031e+00) (10, 1.36894524097442626953e+00) (11, 4.53643381595611572266e-01) (3, 2.25297069549560546875e+00) (4, 3.57647371292114257812e+00) (5, 2.23761844635009765625e+00) (6, 2.49657630920410156250e+00) (7, 2.82821440696716308594e+00) (8, 4.97670412063598632812e+00) (9, 9.72991466522216796875e+00) (10, 3.50670242309570312500e+00) (11, 1.73040223121643066406e+00) (3, 8.69834709167480468750e+00) (4, 1.10050344467163085938e+01) (5, 8.70554542541503906250e+00) (6, 7.31774330139160156250e+00) (7, 9.31327629089355468750e+00) (8, 1.66215782165527343750e+01) (9, 3.29784011840820312500e+01) (10, 9.51134395599365234375e+00) (11, 8.65235900878906250000e+00) 
