FANN_FLO_2.1
num_layers=4
learning_rate=0.450000
connection_rate=1.000000
network_type=0
learning_momentum=0.000000
training_algorithm=2
train_error_function=1
train_stop_function=0
cascade_output_change_fraction=0.010000
quickprop_decay=-0.000100
quickprop_mu=1.750000
rprop_increase_factor=1.200000
rprop_decrease_factor=0.500000
rprop_delta_min=0.000000
rprop_delta_max=50.000000
rprop_delta_zero=0.100000
cascade_output_stagnation_epochs=12
cascade_candidate_change_fraction=0.010000
cascade_candidate_stagnation_epochs=12
cascade_max_out_epochs=150
cascade_min_out_epochs=50
cascade_max_cand_epochs=150
cascade_min_cand_epochs=50
cascade_num_candidate_groups=2
bit_fail_limit=3.49999994039535522461e-01
cascade_candidate_limit=1.00000000000000000000e+03
cascade_weight_multiplier=4.00000005960464477539e-01
cascade_activation_functions_count=10
cascade_activation_functions=3 5 7 8 10 11 14 15 16 17 
cascade_activation_steepnesses_count=4
cascade_activation_steepnesses=2.50000000000000000000e-01 5.00000000000000000000e-01 7.50000000000000000000e-01 1.00000000000000000000e+00 
layer_sizes=7 5 3 2 
scale_included=0
neurons (num_inputs, activation_function, activation_steepness)=(0, 0, 0.00000000000000000000e+00) (0, 0, 0.00000000000000000000e+00) (0, 0, 0.00000000000000000000e+00) (0, 0, 0.00000000000000000000e+00) (0, 0, 0.00000000000000000000e+00) (0, 0, 0.00000000000000000000e+00) (0, 0, 0.00000000000000000000e+00) (7, 3, 5.00000000000000000000e-01) (7, 3, 5.00000000000000000000e-01) (7, 3, 5.00000000000000000000e-01) (7, 3, 5.00000000000000000000e-01) (0, 3, 0.00000000000000000000e+00) (5, 3, 5.00000000000000000000e-01) (5, 3, 5.00000000000000000000e-01) (0, 3, 0.00000000000000000000e+00) (3, 0, 5.00000000000000000000e-01) (0, 0, 0.00000000000000000000e+00) 
connections (connected_to_neuron, weight)=(0, -4.49710547924041748047e-01) (1, 3.19863557815551757812e+00) (2, 5.63028907775878906250e+00) (3, -4.61488157510757446289e-01) (4, -3.58727127313613891602e-01) (5, -9.15398120880126953125e+00) (6, -3.66203278303146362305e-01) (0, 1.55682310461997985840e-01) (1, 2.43733644485473632812e-01) (2, 2.62120296247303485870e-03) (3, -1.38873636722564697266e-01) (4, -3.62677842378616333008e-01) (5, 1.97480991482734680176e-02) (6, 2.12655775249004364014e-02) (0, -1.29513323307037353516e-01) (1, 6.58083241432905197144e-03) (2, -3.23339253664016723633e-01) (3, 1.18152521550655364990e-01) (4, 1.92509695887565612793e-01) (5, 1.20933488011360168457e-01) (6, -1.12080313265323638916e-01) (0, 5.63979186117649078369e-02) (1, -2.91880816221237182617e-01) (2, 1.18561841547489166260e-01) (3, 1.06134086847305297852e-01) (4, -2.16094031929969787598e-01) (5, 1.52867168188095092773e-01) (6, -3.92901927232742309570e-01) (7, 2.65398406982421875000e+00) (8, -1.14305496215820312500e+01) (9, -8.63675117492675781250e+00) (10, 4.75567770004272460938e+00) (11, 2.51349937170743942261e-02) (7, -5.85177001953125000000e+02) (8, -1.98799371719360351562e-03) (9, -9.88052597045898437500e+01) (10, 3.02336940765380859375e+01) (11, 1.94093275070190429688e+00) (12, 3.98446297645568847656e+00) (13, -9.93441417813301086426e-03) (14, -1.45757524296641349792e-03) 
