FANN_FLO_2.1
num_layers=3
learning_rate=0.500000
connection_rate=1.000000
network_type=0
learning_momentum=0.000000
training_algorithm=2
train_error_function=1
train_stop_function=0
cascade_output_change_fraction=0.010000
quickprop_decay=-0.000100
quickprop_mu=1.750000
rprop_increase_factor=1.200000
rprop_decrease_factor=0.500000
rprop_delta_min=0.000000
rprop_delta_max=50.000000
rprop_delta_zero=0.100000
cascade_output_stagnation_epochs=12
cascade_candidate_change_fraction=0.010000
cascade_candidate_stagnation_epochs=12
cascade_max_out_epochs=150
cascade_min_out_epochs=50
cascade_max_cand_epochs=150
cascade_min_cand_epochs=50
cascade_num_candidate_groups=2
bit_fail_limit=3.49999994039535522461e-01
cascade_candidate_limit=1.00000000000000000000e+03
cascade_weight_multiplier=4.00000005960464477539e-01
cascade_activation_functions_count=10
cascade_activation_functions=3 5 7 8 10 11 14 15 16 17 
cascade_activation_steepnesses_count=4
cascade_activation_steepnesses=2.50000000000000000000e-01 5.00000000000000000000e-01 7.50000000000000000000e-01 1.00000000000000000000e+00 
layer_sizes=3 17 4 
scale_included=0
neurons (num_inputs, activation_function, activation_steepness)=(0, 0, 0.00000000000000000000e+00) (0, 0, 0.00000000000000000000e+00) (0, 0, 0.00000000000000000000e+00) (3, 3, 5.00000000000000000000e-01) (3, 3, 5.00000000000000000000e-01) (3, 3, 5.00000000000000000000e-01) (3, 3, 5.00000000000000000000e-01) (3, 3, 5.00000000000000000000e-01) (3, 3, 5.00000000000000000000e-01) (3, 3, 5.00000000000000000000e-01) (3, 3, 5.00000000000000000000e-01) (3, 3, 5.00000000000000000000e-01) (3, 3, 5.00000000000000000000e-01) (3, 3, 5.00000000000000000000e-01) (3, 3, 5.00000000000000000000e-01) (3, 3, 5.00000000000000000000e-01) (3, 3, 5.00000000000000000000e-01) (3, 3, 5.00000000000000000000e-01) (3, 3, 5.00000000000000000000e-01) (0, 3, 0.00000000000000000000e+00) (17, 0, 5.00000000000000000000e-01) (17, 0, 5.00000000000000000000e-01) (17, 0, 5.00000000000000000000e-01) (0, 0, 0.00000000000000000000e+00) 
connections (connected_to_neuron, weight)=(0, -3.05567336082458496094e+00) (1, 8.88598978519439697266e-01) (2, 1.19678628444671630859e+00) (0, 1.77096396684646606445e-01) (1, -1.63166880607604980469e+00) (2, 8.14991816878318786621e-02) (0, -2.31569838523864746094e+00) (1, 4.45908164978027343750e+00) (2, 3.88679683208465576172e-01) (0, -2.14492988586425781250e+00) (1, -1.36441957950592041016e+00) (2, 6.31137728691101074219e-01) (0, -1.05708074569702148438e+00) (1, -5.38677310943603515625e+00) (2, 8.30437898635864257812e-01) (0, -2.72165441513061523438e+00) (1, 1.31410968303680419922e+00) (2, 1.69988465309143066406e+00) (0, -2.22673058509826660156e+00) (1, -1.32637846469879150391e+00) (2, 5.85647940635681152344e-01) (0, -1.88161134719848632812e+00) (1, -3.18638157844543457031e+00) (2, 6.60718977451324462891e-01) (0, -2.66531658172607421875e+00) (1, 8.37440729141235351562e-01) (2, 1.77933704853057861328e+00) (0, -3.02795314788818359375e+00) (1, 3.80545997619628906250e+00) (2, -8.10305625200271606445e-02) (0, -2.97936654090881347656e+00) (1, 4.99787998199462890625e+00) (2, 2.75706195831298828125e+00) (0, -2.28988099098205566406e+00) (1, -1.22327625751495361328e+00) (2, 5.83352744579315185547e-01) (0, -2.32142925262451171875e+00) (1, 2.24476385116577148438e+00) (2, 8.66663992404937744141e-01) (0, -5.87678480148315429688e+00) (1, 1.75025582313537597656e+00) (2, -3.79395812749862670898e-01) (0, -2.35191774368286132812e+00) (1, 5.83912229537963867188e+00) (2, 1.01830255985260009766e+00) (0, -5.19578599929809570312e+00) (1, -2.99559067934751510620e-03) (2, -5.68203210830688476562e-01) (3, 6.34276032447814941406e-01) (4, -3.54056000709533691406e+00) (5, 5.42729973793029785156e-01) (6, 7.51874327659606933594e-01) (7, 1.84264719486236572266e+00) (8, 1.25696077942848205566e-01) (9, 7.89275586605072021484e-01) (10, 2.48370313644409179688e+00) (11, 4.94842976331710815430e-01) (12, 4.04669433832168579102e-01) (13, 4.77665513753890991211e-01) (14, 7.21327245235443115234e-01) (15, 5.58012187480926513672e-01) (16, 8.29284489154815673828e-01) (17, 4.79652911424636840820e-01) (18, 1.08930313587188720703e+00) (19, 1.00738966464996337891e+00) (3, 2.12932848930358886719e+00) (4, -3.24558950960636138916e-02) (5, 2.05530786514282226562e+00) (6, 2.28756999969482421875e+00) (7, 2.99111175537109375000e+00) (8, 1.99807572364807128906e+00) (9, 2.31833243370056152344e+00) (10, 5.00385665893554687500e+00) (11, 2.25765562057495117188e+00) (12, 1.82146906852722167969e+00) (13, 1.53330039978027343750e+00) (14, 2.29546713829040527344e+00) (15, 1.48119401931762695312e+00) (16, 1.75788831710815429688e+00) (17, 1.67886984348297119141e+00) (18, 2.46976351737976074219e+00) (19, 1.53243708610534667969e+00) (3, 6.98907566070556640625e+00) (4, 1.08812122344970703125e+01) (5, 6.26303720474243164062e+00) (6, 8.12889480590820312500e+00) (7, 7.67889690399169921875e+00) (8, 6.96096277236938476562e+00) (9, 7.28235054016113281250e+00) (10, 1.39133472442626953125e+01) (11, 7.01084518432617187500e+00) (12, 6.20195102691650390625e+00) (13, 6.24174642562866210938e+00) (14, 7.32396602630615234375e+00) (15, 4.96124887466430664062e+00) (16, 5.98487472534179687500e+00) (17, 6.33489465713500976562e+00) (18, 7.30629491806030273438e+00) (19, 6.14036130905151367188e+00) 
