FANN_FLO_2.1
num_layers=3
learning_rate=0.500000
connection_rate=1.000000
network_type=0
learning_momentum=0.000000
training_algorithm=2
train_error_function=1
train_stop_function=0
cascade_output_change_fraction=0.010000
quickprop_decay=-0.000100
quickprop_mu=1.750000
rprop_increase_factor=1.200000
rprop_decrease_factor=0.500000
rprop_delta_min=0.000000
rprop_delta_max=50.000000
rprop_delta_zero=0.100000
cascade_output_stagnation_epochs=12
cascade_candidate_change_fraction=0.010000
cascade_candidate_stagnation_epochs=12
cascade_max_out_epochs=150
cascade_min_out_epochs=50
cascade_max_cand_epochs=150
cascade_min_cand_epochs=50
cascade_num_candidate_groups=2
bit_fail_limit=3.49999994039535522461e-01
cascade_candidate_limit=1.00000000000000000000e+03
cascade_weight_multiplier=4.00000005960464477539e-01
cascade_activation_functions_count=10
cascade_activation_functions=3 5 7 8 10 11 14 15 16 17 
cascade_activation_steepnesses_count=4
cascade_activation_steepnesses=2.50000000000000000000e-01 5.00000000000000000000e-01 7.50000000000000000000e-01 1.00000000000000000000e+00 
layer_sizes=3 9 4 
scale_included=0
neurons (num_inputs, activation_function, activation_steepness)=(0, 0, 0.00000000000000000000e+00) (0, 0, 0.00000000000000000000e+00) (0, 0, 0.00000000000000000000e+00) (3, 3, 5.00000000000000000000e-01) (3, 3, 5.00000000000000000000e-01) (3, 3, 5.00000000000000000000e-01) (3, 3, 5.00000000000000000000e-01) (3, 3, 5.00000000000000000000e-01) (3, 3, 5.00000000000000000000e-01) (3, 3, 5.00000000000000000000e-01) (3, 3, 5.00000000000000000000e-01) (0, 3, 0.00000000000000000000e+00) (9, 0, 5.00000000000000000000e-01) (9, 0, 5.00000000000000000000e-01) (9, 0, 5.00000000000000000000e-01) (0, 0, 0.00000000000000000000e+00) 
connections (connected_to_neuron, weight)=(0, -1.28559148311614990234e+00) (1, -3.41911649703979492188e+00) (2, 4.37299668788909912109e-01) (0, -4.25231409072875976562e+00) (1, 1.23055064678192138672e+00) (2, 5.91378748416900634766e-01) (0, -6.29099369049072265625e+00) (1, 8.59204387664794921875e+00) (2, 4.34909343719482421875e+00) (0, -3.78309893608093261719e+00) (1, -5.88892638683319091797e-01) (2, 5.82321047782897949219e-01) (0, -5.59737205505371093750e+00) (1, 6.63105964660644531250e+00) (2, 8.04648303985595703125e+00) (0, -4.23215103149414062500e+00) (1, 5.55270719528198242188e+00) (2, -7.31933593750000000000e-01) (0, -7.40368604660034179688e+00) (1, 2.01798701286315917969e+00) (2, 7.23862123489379882812e+00) (0, -3.04858326911926269531e+00) (1, -2.46420717239379882812e+00) (2, 8.52864861488342285156e-01) (3, 2.00754594802856445312e+00) (4, 2.00013852119445800781e+00) (5, 6.41741871833801269531e-01) (6, 1.66821384429931640625e+00) (7, 4.87070292234420776367e-01) (8, 2.15649271011352539062e+00) (9, -3.96969586610794067383e-01) (10, 2.20223045349121093750e+00) (11, 5.04400968551635742188e-01) (3, 6.53805160522460937500e+00) (4, 5.19528961181640625000e+00) (5, 2.54486584663391113281e+00) (6, 4.69844865798950195312e+00) (7, 2.34994626045227050781e+00) (8, 3.78206181526184082031e+00) (9, 2.14280748367309570312e+00) (10, 5.65059375762939453125e+00) (11, 2.21082901954650878906e+00) (3, 2.35830974578857421875e+01) (4, 1.54113950729370117188e+01) (5, 9.07219505310058593750e+00) (6, 1.61545562744140625000e+01) (7, 9.10395431518554687500e+00) (8, 9.06305694580078125000e+00) (9, 8.93872261047363281250e+00) (10, 1.67061100006103515625e+01) (11, 1.12052402496337890625e+01) 
