FANN_FLO_2.1
num_layers=3
learning_rate=0.500000
connection_rate=1.000000
network_type=0
learning_momentum=0.000000
training_algorithm=2
train_error_function=1
train_stop_function=0
cascade_output_change_fraction=0.010000
quickprop_decay=-0.000100
quickprop_mu=1.750000
rprop_increase_factor=1.200000
rprop_decrease_factor=0.500000
rprop_delta_min=0.000000
rprop_delta_max=50.000000
rprop_delta_zero=0.100000
cascade_output_stagnation_epochs=12
cascade_candidate_change_fraction=0.010000
cascade_candidate_stagnation_epochs=12
cascade_max_out_epochs=150
cascade_min_out_epochs=50
cascade_max_cand_epochs=150
cascade_min_cand_epochs=50
cascade_num_candidate_groups=2
bit_fail_limit=3.49999994039535522461e-01
cascade_candidate_limit=1.00000000000000000000e+03
cascade_weight_multiplier=4.00000005960464477539e-01
cascade_activation_functions_count=10
cascade_activation_functions=3 5 7 8 10 11 14 15 16 17 
cascade_activation_steepnesses_count=4
cascade_activation_steepnesses=2.50000000000000000000e-01 5.00000000000000000000e-01 7.50000000000000000000e-01 1.00000000000000000000e+00 
layer_sizes=10 5 2 
scale_included=0
neurons (num_inputs, activation_function, activation_steepness)=(0, 0, 0.00000000000000000000e+00) (0, 0, 0.00000000000000000000e+00) (0, 0, 0.00000000000000000000e+00) (0, 0, 0.00000000000000000000e+00) (0, 0, 0.00000000000000000000e+00) (0, 0, 0.00000000000000000000e+00) (0, 0, 0.00000000000000000000e+00) (0, 0, 0.00000000000000000000e+00) (0, 0, 0.00000000000000000000e+00) (0, 0, 0.00000000000000000000e+00) (10, 3, 5.00000000000000000000e-01) (10, 3, 5.00000000000000000000e-01) (10, 3, 5.00000000000000000000e-01) (10, 3, 5.00000000000000000000e-01) (0, 3, 0.00000000000000000000e+00) (5, 3, 5.00000000000000000000e-01) (0, 3, 0.00000000000000000000e+00) 
connections (connected_to_neuron, weight)=(0, -1.01611979305744171143e-01) (1, -2.58424878120422363281e-01) (2, -7.49425768852233886719e-01) (3, -3.08557838201522827148e-01) (4, -3.74952480196952819824e-02) (5, -3.42571616172790527344e-01) (6, -2.87047195434570312500e+00) (7, -3.36915731430053710938e-01) (8, 8.01785230636596679688e-01) (9, 4.54031646251678466797e-01) (0, -3.88591706752777099609e-01) (1, -5.72883784770965576172e-01) (2, -6.67389810085296630859e-01) (3, -6.17971003055572509766e-01) (4, -7.93159425258636474609e-01) (5, -3.74281436204910278320e-01) (6, -1.21726918220520019531e+00) (7, -6.46207034587860107422e-01) (8, -3.86631131172180175781e-01) (9, 2.93693661689758300781e+00) (0, 1.50000000000000000000e+03) (1, 1.50000000000000000000e+03) (2, 1.50000000000000000000e+03) (3, 4.46341918945312500000e+02) (4, 1.50000000000000000000e+03) (5, 1.50000000000000000000e+03) (6, 1.50000000000000000000e+03) (7, 1.50000000000000000000e+03) (8, 1.50000000000000000000e+03) (9, 8.15927696228027343750e+00) (0, -5.12222588062286376953e-01) (1, -5.51057815551757812500e-01) (2, -3.86496603488922119141e-01) (3, -5.44727981090545654297e-01) (4, -3.70478749275207519531e-01) (5, -6.20425701141357421875e-01) (6, -1.08975954353809356689e-01) (7, -5.04404067993164062500e-01) (8, -5.70403635501861572266e-01) (9, 1.27983069419860839844e+00) (10, -2.80369848012924194336e-01) (11, -9.01262640953063964844e-01) (12, 9.66568887233734130859e-01) (13, -3.06506800651550292969e+00) (14, 5.10968565940856933594e-01) 
