FANN_FLO_2.1
num_layers=4
learning_rate=0.450000
connection_rate=1.000000
network_type=0
learning_momentum=0.000000
training_algorithm=2
train_error_function=1
train_stop_function=0
cascade_output_change_fraction=0.010000
quickprop_decay=-0.000100
quickprop_mu=1.750000
rprop_increase_factor=1.200000
rprop_decrease_factor=0.500000
rprop_delta_min=0.000000
rprop_delta_max=50.000000
rprop_delta_zero=0.100000
cascade_output_stagnation_epochs=12
cascade_candidate_change_fraction=0.010000
cascade_candidate_stagnation_epochs=12
cascade_max_out_epochs=150
cascade_min_out_epochs=50
cascade_max_cand_epochs=150
cascade_min_cand_epochs=50
cascade_num_candidate_groups=2
bit_fail_limit=3.49999994039535522461e-01
cascade_candidate_limit=1.00000000000000000000e+03
cascade_weight_multiplier=4.00000005960464477539e-01
cascade_activation_functions_count=10
cascade_activation_functions=3 5 7 8 10 11 14 15 16 17 
cascade_activation_steepnesses_count=4
cascade_activation_steepnesses=2.50000000000000000000e-01 5.00000000000000000000e-01 7.50000000000000000000e-01 1.00000000000000000000e+00 
layer_sizes=7 5 3 2 
scale_included=0
neurons (num_inputs, activation_function, activation_steepness)=(0, 0, 0.00000000000000000000e+00) (0, 0, 0.00000000000000000000e+00) (0, 0, 0.00000000000000000000e+00) (0, 0, 0.00000000000000000000e+00) (0, 0, 0.00000000000000000000e+00) (0, 0, 0.00000000000000000000e+00) (0, 0, 0.00000000000000000000e+00) (7, 3, 5.00000000000000000000e-01) (7, 3, 5.00000000000000000000e-01) (7, 3, 5.00000000000000000000e-01) (7, 3, 5.00000000000000000000e-01) (0, 3, 0.00000000000000000000e+00) (5, 3, 5.00000000000000000000e-01) (5, 3, 5.00000000000000000000e-01) (0, 3, 0.00000000000000000000e+00) (3, 0, 5.00000000000000000000e-01) (0, 0, 0.00000000000000000000e+00) 
connections (connected_to_neuron, weight)=(0, -3.09022873640060424805e-01) (1, 2.48476314544677734375e+00) (2, 9.41644251346588134766e-01) (3, -2.44638726115226745605e-01) (4, 1.82777547836303710938e+00) (5, 9.89822447299957275391e-02) (6, -2.17131599783897399902e-01) (0, 2.35480666160583496094e-01) (1, -8.35755109786987304688e-01) (2, 1.42350971698760986328e-01) (3, -5.97630976699292659760e-04) (4, -6.50609970092773437500e-01) (5, 5.72205111384391784668e-02) (6, 1.70423194766044616699e-01) (0, -9.52991210937500000000e+02) (1, 3.32887237548828125000e+02) (2, 4.75657806396484375000e+02) (3, -8.55856384277343750000e+02) (4, 1.49969860839843750000e+03) (5, -3.12082916259765625000e+02) (6, 3.20694255828857421875e+00) (0, 2.99786217510700225830e-02) (1, -1.86047390103340148926e-01) (2, -7.41705477237701416016e-01) (3, 3.32914769649505615234e-01) (4, -1.54334807395935058594e+00) (5, -7.25845918059349060059e-02) (6, 2.73045450448989868164e-02) (7, 1.33186321258544921875e+01) (8, -9.87864553928375244141e-01) (9, 6.77781164646148681641e-01) (10, -1.07645454406738281250e+01) (11, -1.52807846665382385254e-01) (7, -5.87605667114257812500e+00) (8, -2.50574517250061035156e+00) (9, 1.93896859884262084961e-01) (10, 7.14474248886108398438e+00) (11, -7.36547857522964477539e-02) (12, -7.96456485986709594727e-02) (13, 3.10132718086242675781e+00) (14, 8.12722370028495788574e-02) 
