FANN_FLO_2.1
num_layers=3
learning_rate=0.400000
connection_rate=1.000000
network_type=0
learning_momentum=0.000000
training_algorithm=2
train_error_function=1
train_stop_function=0
cascade_output_change_fraction=0.010000
quickprop_decay=-0.000100
quickprop_mu=1.750000
rprop_increase_factor=1.200000
rprop_decrease_factor=0.500000
rprop_delta_min=0.000000
rprop_delta_max=50.000000
rprop_delta_zero=0.100000
cascade_output_stagnation_epochs=12
cascade_candidate_change_fraction=0.010000
cascade_candidate_stagnation_epochs=12
cascade_max_out_epochs=150
cascade_min_out_epochs=50
cascade_max_cand_epochs=150
cascade_min_cand_epochs=50
cascade_num_candidate_groups=2
bit_fail_limit=3.49999994039535522461e-01
cascade_candidate_limit=1.00000000000000000000e+03
cascade_weight_multiplier=4.00000005960464477539e-01
cascade_activation_functions_count=10
cascade_activation_functions=3 5 7 8 10 11 14 15 16 17 
cascade_activation_steepnesses_count=4
cascade_activation_steepnesses=2.50000000000000000000e-01 5.00000000000000000000e-01 7.50000000000000000000e-01 1.00000000000000000000e+00 
layer_sizes=6 5 2 
scale_included=0
neurons (num_inputs, activation_function, activation_steepness)=(0, 0, 0.00000000000000000000e+00) (0, 0, 0.00000000000000000000e+00) (0, 0, 0.00000000000000000000e+00) (0, 0, 0.00000000000000000000e+00) (0, 0, 0.00000000000000000000e+00) (0, 0, 0.00000000000000000000e+00) (6, 3, 5.00000000000000000000e-01) (6, 3, 5.00000000000000000000e-01) (6, 3, 5.00000000000000000000e-01) (6, 3, 5.00000000000000000000e-01) (0, 3, 0.00000000000000000000e+00) (5, 0, 5.00000000000000000000e-01) (0, 0, 0.00000000000000000000e+00) 
connections (connected_to_neuron, weight)=(0, -3.46661424636840820312e+00) (1, -2.14989289641380310059e-01) (2, 4.73293997347354888916e-02) (3, -1.60235345363616943359e+00) (4, 2.43732929229736328125e-01) (5, -9.33402180671691894531e-01) (0, -8.77976608276367187500e+00) (1, 3.37352848052978515625e+00) (2, -2.96744823455810546875e+00) (3, -1.04851675033569335938e+00) (4, -2.46399879455566406250e+00) (5, -6.02608740329742431641e-01) (0, -3.10762710571289062500e+01) (1, -2.74847316741943359375e+00) (2, -2.88273453712463378906e-01) (3, -1.12567055225372314453e+00) (4, -4.58669036626815795898e-01) (5, -5.10732829570770263672e-01) (0, -8.80939769744873046875e+00) (1, -7.74766445159912109375e+00) (2, -3.23033428192138671875e+00) (3, -1.23740172386169433594e+00) (4, -1.52099335193634033203e+00) (5, -8.97896766662597656250e-01) (6, 8.20143461227416992188e-01) (7, -1.49471426010131835938e+00) (8, 3.97822761535644531250e+00) (9, 1.91602694988250732422e+00) (10, 4.85495477914810180664e-01) 
