FANN_FLO_2.1
num_layers=4
learning_rate=0.450000
connection_rate=1.000000
network_type=0
learning_momentum=0.000000
training_algorithm=2
train_error_function=1
train_stop_function=0
cascade_output_change_fraction=0.010000
quickprop_decay=-0.000100
quickprop_mu=1.750000
rprop_increase_factor=1.200000
rprop_decrease_factor=0.500000
rprop_delta_min=0.000000
rprop_delta_max=50.000000
rprop_delta_zero=0.100000
cascade_output_stagnation_epochs=12
cascade_candidate_change_fraction=0.010000
cascade_candidate_stagnation_epochs=12
cascade_max_out_epochs=150
cascade_min_out_epochs=50
cascade_max_cand_epochs=150
cascade_min_cand_epochs=50
cascade_num_candidate_groups=2
bit_fail_limit=3.49999994039535522461e-01
cascade_candidate_limit=1.00000000000000000000e+03
cascade_weight_multiplier=4.00000005960464477539e-01
cascade_activation_functions_count=10
cascade_activation_functions=3 5 7 8 10 11 14 15 16 17 
cascade_activation_steepnesses_count=4
cascade_activation_steepnesses=2.50000000000000000000e-01 5.00000000000000000000e-01 7.50000000000000000000e-01 1.00000000000000000000e+00 
layer_sizes=7 3 3 2 
scale_included=0
neurons (num_inputs, activation_function, activation_steepness)=(0, 0, 0.00000000000000000000e+00) (0, 0, 0.00000000000000000000e+00) (0, 0, 0.00000000000000000000e+00) (0, 0, 0.00000000000000000000e+00) (0, 0, 0.00000000000000000000e+00) (0, 0, 0.00000000000000000000e+00) (0, 0, 0.00000000000000000000e+00) (7, 3, 5.00000000000000000000e-01) (7, 3, 5.00000000000000000000e-01) (0, 3, 0.00000000000000000000e+00) (3, 3, 5.00000000000000000000e-01) (3, 3, 5.00000000000000000000e-01) (0, 3, 0.00000000000000000000e+00) (3, 0, 5.00000000000000000000e-01) (0, 0, 0.00000000000000000000e+00) 
connections (connected_to_neuron, weight)=(0, 1.47965788841247558594e+00) (1, 4.58636713027954101562e+00) (2, -6.23332929611206054688e+00) (3, 1.63809561729431152344e+00) (4, 4.99365758895874023438e+00) (5, -6.70517539978027343750e+00) (6, 7.96053791046142578125e+00) (0, -6.02871370315551757812e+00) (1, 8.62152252197265625000e+01) (2, -3.38305603027343750000e+02) (3, -5.67798089981079101562e+00) (4, 1.17704063415527343750e+02) (5, 2.04776702880859375000e+02) (6, 6.07558846473693847656e-01) (7, -3.87488293647766113281e+00) (8, -2.57481536865234375000e+02) (9, 1.14512002468109130859e+00) (7, -1.50000000000000000000e+03) (8, -3.27778077125549316406e+00) (9, 5.68429708480834960938e+00) (10, -1.85244604945182800293e-01) (11, 7.57231354713439941406e-01) (12, 2.26496085524559020996e-02) 
