FANN_FLO_2.1
num_layers=4
learning_rate=0.500000
connection_rate=1.000000
network_type=0
learning_momentum=0.000000
training_algorithm=2
train_error_function=1
train_stop_function=0
cascade_output_change_fraction=0.010000
quickprop_decay=-0.000100
quickprop_mu=1.750000
rprop_increase_factor=1.200000
rprop_decrease_factor=0.500000
rprop_delta_min=0.000000
rprop_delta_max=50.000000
rprop_delta_zero=0.100000
cascade_output_stagnation_epochs=12
cascade_candidate_change_fraction=0.010000
cascade_candidate_stagnation_epochs=12
cascade_max_out_epochs=150
cascade_min_out_epochs=50
cascade_max_cand_epochs=150
cascade_min_cand_epochs=50
cascade_num_candidate_groups=2
bit_fail_limit=3.49999994039535522461e-01
cascade_candidate_limit=1.00000000000000000000e+03
cascade_weight_multiplier=4.00000005960464477539e-01
cascade_activation_functions_count=10
cascade_activation_functions=3 5 7 8 10 11 14 15 16 17 
cascade_activation_steepnesses_count=4
cascade_activation_steepnesses=2.50000000000000000000e-01 5.00000000000000000000e-01 7.50000000000000000000e-01 1.00000000000000000000e+00 
layer_sizes=82 9 9 2 
scale_included=0
neurons (num_inputs, activation_function, activation_steepness)=(0, 0, 0.00000000000000000000e+00) (0, 0, 0.00000000000000000000e+00) (0, 0, 0.00000000000000000000e+00) (0, 0, 0.00000000000000000000e+00) (0, 0, 0.00000000000000000000e+00) (0, 0, 0.00000000000000000000e+00) (0, 0, 0.00000000000000000000e+00) (0, 0, 0.00000000000000000000e+00) (0, 0, 0.00000000000000000000e+00) (0, 0, 0.00000000000000000000e+00) (0, 0, 0.00000000000000000000e+00) (0, 0, 0.00000000000000000000e+00) (0, 0, 0.00000000000000000000e+00) (0, 0, 0.00000000000000000000e+00) (0, 0, 0.00000000000000000000e+00) (0, 0, 0.00000000000000000000e+00) (0, 0, 0.00000000000000000000e+00) (0, 0, 0.00000000000000000000e+00) (0, 0, 0.00000000000000000000e+00) (0, 0, 0.00000000000000000000e+00) (0, 0, 0.00000000000000000000e+00) (0, 0, 0.00000000000000000000e+00) (0, 0, 0.00000000000000000000e+00) (0, 0, 0.00000000000000000000e+00) (0, 0, 0.00000000000000000000e+00) (0, 0, 0.00000000000000000000e+00) (0, 0, 0.00000000000000000000e+00) (0, 0, 0.00000000000000000000e+00) (0, 0, 0.00000000000000000000e+00) (0, 0, 0.00000000000000000000e+00) (0, 0, 0.00000000000000000000e+00) (0, 0, 0.00000000000000000000e+00) (0, 0, 0.00000000000000000000e+00) (0, 0, 0.00000000000000000000e+00) (0, 0, 0.00000000000000000000e+00) (0, 0, 0.00000000000000000000e+00) (0, 0, 0.00000000000000000000e+00) (0, 0, 0.00000000000000000000e+00) (0, 0, 0.00000000000000000000e+00) (0, 0, 0.00000000000000000000e+00) (0, 0, 0.00000000000000000000e+00) (0, 0, 0.00000000000000000000e+00) (0, 0, 0.00000000000000000000e+00) (0, 0, 0.00000000000000000000e+00) (0, 0, 0.00000000000000000000e+00) (0, 0, 0.00000000000000000000e+00) (0, 0, 0.00000000000000000000e+00) (0, 0, 0.00000000000000000000e+00) (0, 0, 0.00000000000000000000e+00) (0, 0, 0.00000000000000000000e+00) (0, 0, 0.00000000000000000000e+00) (0, 0, 0.00000000000000000000e+00) (0, 0, 0.00000000000000000000e+00) (0, 0, 0.00000000000000000000e+00) (0, 0, 0.00000000000000000000e+00) (0, 0, 0.00000000000000000000e+00) (0, 0, 0.00000000000000000000e+00) (0, 0, 0.00000000000000000000e+00) (0, 0, 0.00000000000000000000e+00) (0, 0, 0.00000000000000000000e+00) (0, 0, 0.00000000000000000000e+00) (0, 0, 0.00000000000000000000e+00) (0, 0, 0.00000000000000000000e+00) (0, 0, 0.00000000000000000000e+00) (0, 0, 0.00000000000000000000e+00) (0, 0, 0.00000000000000000000e+00) (0, 0, 0.00000000000000000000e+00) (0, 0, 0.00000000000000000000e+00) (0, 0, 0.00000000000000000000e+00) (0, 0, 0.00000000000000000000e+00) (0, 0, 0.00000000000000000000e+00) (0, 0, 0.00000000000000000000e+00) (0, 0, 0.00000000000000000000e+00) (0, 0, 0.00000000000000000000e+00) (0, 0, 0.00000000000000000000e+00) (0, 0, 0.00000000000000000000e+00) (0, 0, 0.00000000000000000000e+00) (0, 0, 0.00000000000000000000e+00) (0, 0, 0.00000000000000000000e+00) (0, 0, 0.00000000000000000000e+00) (0, 0, 0.00000000000000000000e+00) (0, 0, 0.00000000000000000000e+00) (82, 3, 5.00000000000000000000e-01) (82, 3, 5.00000000000000000000e-01) (82, 3, 5.00000000000000000000e-01) (82, 3, 5.00000000000000000000e-01) (82, 3, 5.00000000000000000000e-01) (82, 3, 5.00000000000000000000e-01) (82, 3, 5.00000000000000000000e-01) (82, 3, 5.00000000000000000000e-01) (0, 3, 0.00000000000000000000e+00) (9, 3, 5.00000000000000000000e-01) (9, 3, 5.00000000000000000000e-01) (9, 3, 5.00000000000000000000e-01) (9, 3, 5.00000000000000000000e-01) (9, 3, 5.00000000000000000000e-01) (9, 3, 5.00000000000000000000e-01) (9, 3, 5.00000000000000000000e-01) (9, 3, 5.00000000000000000000e-01) (0, 3, 0.00000000000000000000e+00) (9, 3, 5.00000000000000000000e-01) (0, 3, 0.00000000000000000000e+00) 
connections (connected_to_neuron, weight)=(0, -3.67954611778259277344e-01) (1, 2.34247446060180664062e-02) (2, -1.52859464287757873535e-01) (3, -2.10100412368774414062e-01) (4, 4.64578019455075263977e-03) (5, -2.05845445394515991211e-01) (6, -2.56093502044677734375e-01) (7, -2.62683238834142684937e-02) (8, -1.85316931456327438354e-02) (9, -3.18001896142959594727e-01) (10, -3.11176449060440063477e-01) (11, -3.73598694801330566406e-01) (12, -1.90938100218772888184e-01) (13, -1.57609716057777404785e-01) (14, 9.26208868622779846191e-02) (15, -9.93011221289634704590e-02) (16, -1.82078227400779724121e-01) (17, -3.30642938613891601562e-01) (18, -2.74661779403686523438e-01) (19, -1.94597572088241577148e-01) (20, -4.98797036707401275635e-02) (21, 1.73672605305910110474e-02) (22, 2.33257368206977844238e-01) (23, -1.28497347235679626465e-01) (24, -1.66641509532928466797e+00) (25, -2.80142247676849365234e-01) (26, -5.47053962945938110352e-02) (27, -5.47134391963481903076e-02) (28, 9.88258495926856994629e-02) (29, -3.20285521447658538818e-02) (30, -6.84789568185806274414e-02) (31, -4.17649894952774047852e-01) (32, -1.67655602097511291504e-01) (33, 2.20305621623992919922e-02) (34, 4.37651544809341430664e-01) (35, 4.68980632722377777100e-02) (36, 3.96509170532226562500e-02) (37, -1.19078777730464935303e-01) (38, -3.50299954414367675781e-01) (39, -1.53027787804603576660e-01) (40, 1.08405753970146179199e-01) (41, 6.93866550922393798828e-01) (42, 1.38218812644481658936e-02) (43, -1.00505918264389038086e-01) (44, -2.09598064422607421875e-01) (45, -2.43307173252105712891e-01) (46, -1.31501868367195129395e-01) (47, 2.13763043284416198730e-01) (48, 1.55656039714813232422e-01) (49, 1.50000000000000000000e+03) (50, 1.50000000000000000000e+03) (51, 1.50000000000000000000e+03) (52, 1.50000000000000000000e+03) (53, 1.50000000000000000000e+03) (54, 1.50000000000000000000e+03) (55, 1.50000000000000000000e+03) (56, 1.50000000000000000000e+03) (57, 1.50000000000000000000e+03) (58, 1.50000000000000000000e+03) (59, 1.50000000000000000000e+03) (60, 1.50000000000000000000e+03) (61, 1.50000000000000000000e+03) (62, 1.50000000000000000000e+03) (63, 1.50000000000000000000e+03) (64, 1.50000000000000000000e+03) (65, 1.50000000000000000000e+03) (66, 1.50000000000000000000e+03) (67, 1.50000000000000000000e+03) (68, 1.50000000000000000000e+03) (69, 1.50000000000000000000e+03) (70, 1.50000000000000000000e+03) (71, 1.50000000000000000000e+03) (72, 1.50000000000000000000e+03) (73, 1.50000000000000000000e+03) (74, 1.50000000000000000000e+03) (75, 1.50000000000000000000e+03) (76, 1.50000000000000000000e+03) (77, 1.50000000000000000000e+03) (78, 1.50000000000000000000e+03) (79, 1.50000000000000000000e+03) (80, 1.50000000000000000000e+03) (81, 6.56694591045379638672e-01) (0, -1.41233980655670166016e-01) (1, -9.17609483003616333008e-02) (2, -1.56494542956352233887e-01) (3, -2.53520071506500244141e-01) (4, 1.69470816850662231445e-01) (5, -1.61595046520233154297e-01) (6, 3.25498193502426147461e-01) (7, 9.51881855726242065430e-02) (8, -7.84023478627204895020e-02) (9, -2.31655806303024291992e-01) (10, -1.99129939079284667969e-01) (11, -2.98238903284072875977e-01) (12, -2.59462952613830566406e-01) (13, 1.00448705255985260010e-01) (14, -3.94738875329494476318e-02) (15, -8.29956668894737958908e-04) (16, -8.15054848790168762207e-02) (17, -2.86552667617797851562e-01) (18, -3.27048212289810180664e-01) (19, -1.77827641367912292480e-01) (20, 3.21818925440311431885e-02) (21, 6.90707042813301086426e-02) (22, 9.18096452951431274414e-02) (23, -1.07007205486297607422e-01) (24, -1.35736536979675292969e+00) (25, -1.25563621520996093750e-01) (26, 3.41193197527900338173e-04) (27, -2.67364680767059326172e-02) (28, 3.17723415791988372803e-02) (29, -7.74127664044499397278e-03) (30, -1.96184813976287841797e-01) (31, -3.47726017236709594727e-01) (32, -4.80338037014007568359e-02) (33, 1.75647780299186706543e-01) (34, 4.76186662912368774414e-01) (35, -2.72799842059612274170e-03) (36, -5.84398731589317321777e-02) (37, -1.24575413763523101807e-01) (38, -2.73481398820877075195e-01) (39, -2.78192609548568725586e-01) (40, 1.17750495672225952148e-01) (41, 6.96968138217926025391e-02) (42, -9.18998345732688903809e-02) (43, -1.16371296346187591553e-01) (44, -2.54985660314559936523e-01) (45, -2.03927084803581237793e-01) (46, -1.55798330903053283691e-01) (47, 6.25722706317901611328e-01) (48, 8.12422335147857666016e-02) (49, 1.50000000000000000000e+03) (50, 1.50000000000000000000e+03) (51, 1.50000000000000000000e+03) (52, 1.50000000000000000000e+03) (53, 1.50000000000000000000e+03) (54, 1.50000000000000000000e+03) (55, 1.50000000000000000000e+03) (56, 1.50000000000000000000e+03) (57, 1.50000000000000000000e+03) (58, 1.50000000000000000000e+03) (59, 1.50000000000000000000e+03) (60, 1.50000000000000000000e+03) (61, 1.50000000000000000000e+03) (62, 1.50000000000000000000e+03) (63, 1.50000000000000000000e+03) (64, 1.50000000000000000000e+03) (65, 1.50000000000000000000e+03) (66, 1.50000000000000000000e+03) (67, 1.50000000000000000000e+03) (68, 1.50000000000000000000e+03) (69, 1.50000000000000000000e+03) (70, 1.50000000000000000000e+03) (71, 1.50000000000000000000e+03) (72, 1.50000000000000000000e+03) (73, 1.50000000000000000000e+03) (74, 1.50000000000000000000e+03) (75, 1.50000000000000000000e+03) (76, 1.50000000000000000000e+03) (77, 1.50000000000000000000e+03) (78, 1.50000000000000000000e+03) (79, 1.50000000000000000000e+03) (80, 1.50000000000000000000e+03) (81, 6.69559478759765625000e-01) (0, 4.79953847825527191162e-02) (1, 3.27426306903362274170e-02) (2, -3.53871956467628479004e-02) (3, -4.80104088783264160156e-02) (4, -1.29423961043357849121e-01) (5, -1.35175243020057678223e-01) (6, -2.67895787954330444336e-01) (7, 2.96792145818471908569e-02) (8, -4.20946776866912841797e-02) (9, -3.08438211679458618164e-01) (10, 3.48991006612777709961e-01) (11, -2.66601264476776123047e-01) (12, -2.55684107542037963867e-01) (13, -6.00028112530708312988e-02) (14, 8.94923731684684753418e-02) (15, 5.72598017752170562744e-02) (16, -1.85290902853012084961e-01) (17, -3.21060895919799804688e-01) (18, 7.55404591560363769531e-01) (19, 3.13951000571250915527e-02) (20, 1.19227543473243713379e-01) (21, 3.79176437854766845703e-02) (22, -2.54369825124740600586e-02) (23, -2.57556229829788208008e-01) (24, -2.92968368530273437500e+00) (25, -2.77600049972534179688e-01) (26, -6.64175003767013549805e-02) (27, -1.57066732645034790039e-02) (28, -1.68404236435890197754e-01) (29, 2.66429483890533447266e-01) (30, -6.11685179173946380615e-02) (31, -4.77718502283096313477e-01) (32, 1.62847086787223815918e-01) (33, 3.44794511795043945312e-01) (34, -3.33205878734588623047e-01) (35, 5.41616491973400115967e-02) (36, 6.52074962854385375977e-02) (37, 2.98155508935451507568e-02) (38, -2.71119713783264160156e-01) (39, -1.65813237428665161133e-01) (40, 1.15964658558368682861e-01) (41, -2.43196859955787658691e-01) (42, -7.60869160294532775879e-02) (43, -1.08112625777721405029e-01) (44, 3.26256424188613891602e-01) (45, 5.58109469711780548096e-02) (46, 4.03432101011276245117e-01) (47, -1.57078295946121215820e-01) (48, -9.28516238927841186523e-02) (49, 1.50000000000000000000e+03) (50, 1.50000000000000000000e+03) (51, 1.50000000000000000000e+03) (52, 1.50000000000000000000e+03) (53, 1.50000000000000000000e+03) (54, 1.50000000000000000000e+03) (55, 1.50000000000000000000e+03) (56, 1.50000000000000000000e+03) (57, 1.50000000000000000000e+03) (58, 1.50000000000000000000e+03) (59, 1.50000000000000000000e+03) (60, 1.50000000000000000000e+03) (61, 1.50000000000000000000e+03) (62, 1.50000000000000000000e+03) (63, 1.50000000000000000000e+03) (64, 1.50000000000000000000e+03) (65, 1.50000000000000000000e+03) (66, 1.50000000000000000000e+03) (67, 1.50000000000000000000e+03) (68, 1.50000000000000000000e+03) (69, 1.50000000000000000000e+03) (70, 1.50000000000000000000e+03) (71, 1.50000000000000000000e+03) (72, 1.50000000000000000000e+03) (73, 1.50000000000000000000e+03) (74, 1.50000000000000000000e+03) (75, 1.50000000000000000000e+03) (76, 1.50000000000000000000e+03) (77, 1.50000000000000000000e+03) (78, 1.50000000000000000000e+03) (79, 1.50000000000000000000e+03) (80, 1.50000000000000000000e+03) (81, 6.22541308403015136719e-01) (0, -1.49375390625000000000e+03) (1, -1.49791308593750000000e+03) (2, -4.54458221435546875000e+02) (3, -1.89600610733032226562e+00) (4, -6.06841206550598144531e-01) (5, -7.49931573867797851562e-01) (6, -1.49806860351562500000e+03) (7, -1.50000000000000000000e+03) (8, -1.50000000000000000000e+03) (9, -1.49968701171875000000e+03) (10, -1.50000000000000000000e+03) (11, -1.50000000000000000000e+03) (12, -1.73273539543151855469e+00) (13, -5.29217541217803955078e-01) (14, -1.50000000000000000000e+03) (15, -1.50000000000000000000e+03) (16, -1.90116691589355468750e+01) (17, -7.86511301994323730469e-01) (18, -1.50000000000000000000e+03) (19, -3.84302228689193725586e-01) (20, -9.03096616268157958984e-01) (21, -1.50000000000000000000e+03) (22, -6.59255676269531250000e+01) (23, -1.49993005371093750000e+03) (24, -1.50000000000000000000e+03) (25, -7.77792394161224365234e-01) (26, -6.99389040470123291016e-01) (27, -1.25149011611938476562e+00) (28, -1.49999792480468750000e+03) (29, -1.50000000000000000000e+03) (30, -1.49499279785156250000e+03) (31, -1.50000000000000000000e+03) (32, -8.68221130371093750000e+01) (33, -4.30716097354888916016e-01) (34, -1.50000000000000000000e+03) (35, -1.50000000000000000000e+03) (36, -1.48133764648437500000e+03) (37, -1.50000000000000000000e+03) (38, -4.23931152343750000000e+02) (39, -4.72416788339614868164e-01) (40, -2.84328247070312500000e+02) (41, -1.50000000000000000000e+03) (42, -1.49767858886718750000e+03) (43, -1.50000000000000000000e+03) (44, -1.50000000000000000000e+03) (45, -4.26594505310058593750e+01) (46, -2.45570278167724609375e+01) (47, -1.50000000000000000000e+03) (48, -4.07025146484375000000e+02) (49, 1.50000000000000000000e+03) (50, 1.50000000000000000000e+03) (51, 1.50000000000000000000e+03) (52, 1.50000000000000000000e+03) (53, 1.50000000000000000000e+03) (54, 1.50000000000000000000e+03) (55, 1.50000000000000000000e+03) (56, 1.50000000000000000000e+03) (57, 1.50000000000000000000e+03) (58, 1.50000000000000000000e+03) (59, 1.50000000000000000000e+03) (60, 1.50000000000000000000e+03) (61, 1.50000000000000000000e+03) (62, 1.50000000000000000000e+03) (63, 1.50000000000000000000e+03) (64, 1.50000000000000000000e+03) (65, 1.50000000000000000000e+03) (66, 1.50000000000000000000e+03) (67, 1.50000000000000000000e+03) (68, 1.50000000000000000000e+03) (69, 1.50000000000000000000e+03) (70, 1.50000000000000000000e+03) (71, 1.50000000000000000000e+03) (72, 1.50000000000000000000e+03) (73, 1.50000000000000000000e+03) (74, 1.50000000000000000000e+03) (75, 1.50000000000000000000e+03) (76, 1.50000000000000000000e+03) (77, 1.50000000000000000000e+03) (78, 1.50000000000000000000e+03) (79, 1.50000000000000000000e+03) (80, 1.50000000000000000000e+03) (81, 5.05113542079925537109e-01) (0, -1.30025278776884078979e-02) (1, 1.25213041901588439941e-01) (2, 2.90857523679733276367e-01) (3, 5.65494336187839508057e-02) (4, -1.77335143089294433594e-01) (5, -7.37560018897056579590e-02) (6, -4.49200451374053955078e-01) (7, -7.22213909029960632324e-02) (8, 4.59204846993088722229e-03) (9, 1.70400261878967285156e-01) (10, -3.05953323841094970703e-01) (11, -2.95011520385742187500e-01) (12, -3.01961630582809448242e-01) (13, -4.55505371093750000000e-01) (14, 1.25302463769912719727e-01) (15, 3.36461998522281646729e-02) (16, 3.17688763141632080078e-01) (17, -2.27013364434242248535e-01) (18, -1.15330958366394042969e+00) (19, -1.86016894876956939697e-02) (20, -7.40919187664985656738e-02) (21, -4.35471767559647560120e-03) (22, 5.75174272060394287109e-01) (23, -2.20289260149002075195e-01) (24, -3.95796036720275878906e+00) (25, -4.41493578255176544189e-02) (26, -2.40118175745010375977e-01) (27, -7.72844105958938598633e-02) (28, 2.31559261679649353027e-01) (29, 1.12687051296234130859e-01) (30, -3.48937511444091796875e-02) (31, -5.28908252716064453125e-01) (32, -7.42190718650817871094e-01) (33, -2.10683777928352355957e-01) (34, -1.29276752471923828125e-01) (35, -3.11716888099908828735e-02) (36, -9.05383899807929992676e-02) (37, -3.68900299072265625000e-02) (38, 2.62743923813104629517e-02) (39, -1.14040985703468322754e-01) (40, -1.93119063973426818848e-01) (41, -2.02020719647407531738e-01) (42, -1.87093000859022140503e-02) (43, 3.98810356855392456055e-02) (44, 2.00007691979408264160e-01) (45, -4.41659539937973022461e-02) (46, -1.05415582656860351562e-01) (47, -7.66715228557586669922e-01) (48, -1.48286387324333190918e-01) (49, 1.50000000000000000000e+03) (50, 1.50000000000000000000e+03) (51, 1.50000000000000000000e+03) (52, 1.50000000000000000000e+03) (53, 1.50000000000000000000e+03) (54, 1.50000000000000000000e+03) (55, 1.50000000000000000000e+03) (56, 1.50000000000000000000e+03) (57, 1.50000000000000000000e+03) (58, 1.50000000000000000000e+03) (59, 1.50000000000000000000e+03) (60, 1.50000000000000000000e+03) (61, 1.50000000000000000000e+03) (62, 1.50000000000000000000e+03) (63, 1.50000000000000000000e+03) (64, 1.50000000000000000000e+03) (65, 1.50000000000000000000e+03) (66, 1.50000000000000000000e+03) (67, 1.50000000000000000000e+03) (68, 1.50000000000000000000e+03) (69, 1.50000000000000000000e+03) (70, 1.50000000000000000000e+03) (71, 1.50000000000000000000e+03) (72, 1.50000000000000000000e+03) (73, 1.50000000000000000000e+03) (74, 1.50000000000000000000e+03) (75, 1.50000000000000000000e+03) (76, 1.50000000000000000000e+03) (77, 1.50000000000000000000e+03) (78, 1.50000000000000000000e+03) (79, 1.50000000000000000000e+03) (80, 1.50000000000000000000e+03) (81, 6.31816029548645019531e-01) (0, -1.49375390625000000000e+03) (1, -1.49791308593750000000e+03) (2, -4.57789825439453125000e+02) (3, -1.72734813690185546875e+01) (4, -2.50975561141967773438e+00) (5, 4.92166280746459960938e-01) (6, -9.78006164550781250000e+02) (7, -1.50000000000000000000e+03) (8, -1.50000000000000000000e+03) (9, -1.49968701171875000000e+03) (10, -1.50000000000000000000e+03) (11, -1.50000000000000000000e+03) (12, -3.74817824363708496094e+00) (13, 1.02713632583618164062e+00) (14, -1.50000000000000000000e+03) (15, -1.50000000000000000000e+03) (16, -8.80959510803222656250e+00) (17, -2.68370151519775390625e+01) (18, -1.50000000000000000000e+03) (19, 6.63437962532043457031e-01) (20, 1.02340817451477050781e+00) (21, -1.50000000000000000000e+03) (22, -6.83951492309570312500e+01) (23, -1.49993005371093750000e+03) (24, -1.50000000000000000000e+03) (25, -8.78856563568115234375e+00) (26, -6.85726255178451538086e-02) (27, -2.24211812019348144531e+00) (28, -1.49999792480468750000e+03) (29, -1.50000000000000000000e+03) (30, -1.49499279785156250000e+03) (31, -1.50000000000000000000e+03) (32, -7.40964355468750000000e+02) (33, -1.81760919094085693359e+00) (34, -1.50000000000000000000e+03) (35, -1.50000000000000000000e+03) (36, -1.48133764648437500000e+03) (37, -1.50000000000000000000e+03) (38, -4.32552062988281250000e+02) (39, -3.75534868240356445312e+00) (40, -2.76911987304687500000e+02) (41, -1.50000000000000000000e+03) (42, -1.49767858886718750000e+03) (43, -1.50000000000000000000e+03) (44, -1.50000000000000000000e+03) (45, -4.96150016784667968750e+01) (46, -2.31424598693847656250e+01) (47, -1.50000000000000000000e+03) (48, -1.49722631835937500000e+03) (49, 1.50000000000000000000e+03) (50, 1.50000000000000000000e+03) (51, 1.50000000000000000000e+03) (52, 1.50000000000000000000e+03) (53, 1.50000000000000000000e+03) (54, 1.50000000000000000000e+03) (55, 1.50000000000000000000e+03) (56, 1.50000000000000000000e+03) (57, 1.50000000000000000000e+03) (58, 1.50000000000000000000e+03) (59, 1.50000000000000000000e+03) (60, 1.50000000000000000000e+03) (61, 1.50000000000000000000e+03) (62, 1.50000000000000000000e+03) (63, 1.50000000000000000000e+03) (64, 1.50000000000000000000e+03) (65, 1.50000000000000000000e+03) (66, 1.50000000000000000000e+03) (67, 1.50000000000000000000e+03) (68, 1.50000000000000000000e+03) (69, 1.50000000000000000000e+03) (70, 1.50000000000000000000e+03) (71, 1.50000000000000000000e+03) (72, 1.50000000000000000000e+03) (73, 1.50000000000000000000e+03) (74, 1.50000000000000000000e+03) (75, 1.50000000000000000000e+03) (76, 1.50000000000000000000e+03) (77, 1.50000000000000000000e+03) (78, 1.50000000000000000000e+03) (79, 1.50000000000000000000e+03) (80, 1.50000000000000000000e+03) (81, 1.30154085159301757812e+00) (0, -1.49375390625000000000e+03) (1, -1.49791308593750000000e+03) (2, -4.70506835937500000000e+02) (3, -6.29555854797363281250e+01) (4, -1.04915132522583007812e+01) (5, -8.61264038085937500000e+00) (6, -1.04899682617187500000e+03) (7, -1.50000000000000000000e+03) (8, -1.50000000000000000000e+03) (9, -1.49968701171875000000e+03) (10, -1.50000000000000000000e+03) (11, -1.50000000000000000000e+03) (12, -1.40178527832031250000e+01) (13, 1.84122622013092041016e+00) (14, -1.50000000000000000000e+03) (15, -1.50000000000000000000e+03) (16, -9.42119827270507812500e+01) (17, -1.67628955841064453125e+01) (18, -1.50000000000000000000e+03) (19, -4.08263874053955078125e+00) (20, 3.61262583732604980469e+00) (21, -1.50000000000000000000e+03) (22, -6.85741729736328125000e+01) (23, -1.49993005371093750000e+03) (24, -1.50000000000000000000e+03) (25, -1.60301780700683593750e+01) (26, -2.33009529113769531250e+00) (27, -9.53761041164398193359e-01) (28, -1.49999792480468750000e+03) (29, -1.50000000000000000000e+03) (30, -1.49499279785156250000e+03) (31, -1.50000000000000000000e+03) (32, -1.64279647827148437500e+02) (33, -6.55743405222892761230e-02) (34, -1.50000000000000000000e+03) (35, -1.50000000000000000000e+03) (36, -1.48133764648437500000e+03) (37, -1.50000000000000000000e+03) (38, -4.33033538818359375000e+02) (39, -7.79814672470092773438e+00) (40, -2.80841644287109375000e+02) (41, -1.50000000000000000000e+03) (42, -1.49767858886718750000e+03) (43, -1.50000000000000000000e+03) (44, -1.50000000000000000000e+03) (45, -5.07424087524414062500e+01) (46, -2.13938045501708984375e+01) (47, -1.50000000000000000000e+03) (48, -1.49722631835937500000e+03) (49, 1.50000000000000000000e+03) (50, 1.50000000000000000000e+03) (51, 1.50000000000000000000e+03) (52, 1.50000000000000000000e+03) (53, 1.50000000000000000000e+03) (54, 1.50000000000000000000e+03) (55, 1.50000000000000000000e+03) (56, 1.50000000000000000000e+03) (57, 1.50000000000000000000e+03) (58, 1.50000000000000000000e+03) (59, 1.50000000000000000000e+03) (60, 1.50000000000000000000e+03) (61, 1.50000000000000000000e+03) (62, 1.50000000000000000000e+03) (63, 1.50000000000000000000e+03) (64, 1.50000000000000000000e+03) (65, 1.50000000000000000000e+03) (66, 1.50000000000000000000e+03) (67, 1.50000000000000000000e+03) (68, 1.50000000000000000000e+03) (69, 1.50000000000000000000e+03) (70, 1.50000000000000000000e+03) (71, 1.50000000000000000000e+03) (72, 1.50000000000000000000e+03) (73, 1.50000000000000000000e+03) (74, 1.50000000000000000000e+03) (75, 1.50000000000000000000e+03) (76, 1.50000000000000000000e+03) (77, 1.50000000000000000000e+03) (78, 1.50000000000000000000e+03) (79, 1.50000000000000000000e+03) (80, 1.50000000000000000000e+03) (81, 4.29973185062408447266e-01) (0, 1.50000000000000000000e+03) (1, 1.50000000000000000000e+03) (2, 3.89039707183837890625e+00) (3, 1.16838541030883789062e+01) (4, 2.72079634666442871094e+00) (5, 1.79243540763854980469e+00) (6, 1.50000000000000000000e+03) (7, 1.50000000000000000000e+03) (8, 1.50000000000000000000e+03) (9, 1.50000000000000000000e+03) (10, 1.50000000000000000000e+03) (11, 1.50000000000000000000e+03) (12, 2.90164661407470703125e+01) (13, 4.73253250122070312500e+00) (14, 1.50000000000000000000e+03) (15, 1.50000000000000000000e+03) (16, 3.60042095184326171875e+00) (17, 8.82543182373046875000e+00) (18, 1.50000000000000000000e+03) (19, 1.82682609558105468750e+00) (20, 1.59390509128570556641e+00) (21, 9.67104553222656250000e+02) (22, 2.95122838020324707031e+00) (23, 1.50000000000000000000e+03) (24, 1.50000000000000000000e+03) (25, 9.93397712707519531250e+00) (26, 2.07950186729431152344e+00) (27, 1.46793413162231445312e+01) (28, 1.50000000000000000000e+03) (29, 8.19980468750000000000e+01) (30, 3.77179031372070312500e+01) (31, 1.50000000000000000000e+03) (32, 6.60515197753906250000e+02) (33, 1.62427103519439697266e+00) (34, 1.50000000000000000000e+03) (35, 1.50000000000000000000e+03) (36, 1.50000000000000000000e+03) (37, 7.90767211914062500000e+01) (38, 1.06909799575805664062e+01) (39, 2.00939226150512695312e+00) (40, 1.50000000000000000000e+03) (41, 1.50000000000000000000e+03) (42, 1.50000000000000000000e+03) (43, 3.56362991333007812500e+01) (44, 8.24853897094726562500e+00) (45, 5.95861244201660156250e+00) (46, 1.32449150085449218750e+01) (47, 1.50000000000000000000e+03) (48, 1.50000000000000000000e+03) (49, 1.50000000000000000000e+03) (50, 1.50000000000000000000e+03) (51, 1.50000000000000000000e+03) (52, 1.50000000000000000000e+03) (53, 1.50000000000000000000e+03) (54, 1.50000000000000000000e+03) (55, 1.50000000000000000000e+03) (56, 1.50000000000000000000e+03) (57, 1.50000000000000000000e+03) (58, 1.50000000000000000000e+03) (59, 1.50000000000000000000e+03) (60, 1.50000000000000000000e+03) (61, 1.50000000000000000000e+03) (62, 1.50000000000000000000e+03) (63, 1.50000000000000000000e+03) (64, 1.50000000000000000000e+03) (65, 1.50000000000000000000e+03) (66, 1.50000000000000000000e+03) (67, 1.50000000000000000000e+03) (68, 1.50000000000000000000e+03) (69, 1.50000000000000000000e+03) (70, 1.50000000000000000000e+03) (71, 1.50000000000000000000e+03) (72, 1.50000000000000000000e+03) (73, 1.50000000000000000000e+03) (74, 1.50000000000000000000e+03) (75, 1.50000000000000000000e+03) (76, 1.50000000000000000000e+03) (77, 1.50000000000000000000e+03) (78, 1.50000000000000000000e+03) (79, 1.50000000000000000000e+03) (80, 1.50000000000000000000e+03) (81, 1.03320515155792236328e+00) (82, 5.35664415359497070312e+00) (83, 8.40367221832275390625e+00) (84, 1.88431625366210937500e+01) (85, 1.50000000000000000000e+03) (86, -1.18725814819335937500e+01) (87, 1.50000000000000000000e+03) (88, 1.50000000000000000000e+03) (89, -1.85238814353942871094e+00) (90, -1.81414341926574707031e+00) (82, 1.66184341907501220703e+00) (83, 1.83375549316406250000e+00) (84, 2.13455796241760253906e+00) (85, 1.50000000000000000000e+03) (86, 1.36062085628509521484e+00) (87, 1.50000000000000000000e+03) (88, 1.50000000000000000000e+03) (89, -1.82407605648040771484e+00) (90, -1.79045760631561279297e+00) (82, 2.62183165550231933594e+00) (83, 2.51503825187683105469e+00) (84, 2.78124260902404785156e+00) (85, 1.50000000000000000000e+03) (86, 3.64390182495117187500e+00) (87, 1.50000000000000000000e+03) (88, 1.50000000000000000000e+03) (89, -3.19291925430297851562e+00) (90, -3.00617861747741699219e+00) (82, 2.46196222305297851562e+00) (83, 2.61026716232299804688e+00) (84, 3.47203254699707031250e+00) (85, 1.50000000000000000000e+03) (86, 3.70885062217712402344e+00) (87, 1.50000000000000000000e+03) (88, 1.50000000000000000000e+03) (89, -3.40189790725708007812e+00) (90, -3.32988762855529785156e+00) (82, 3.48506832122802734375e+00) (83, 3.53025865554809570312e+00) (84, 3.77134990692138671875e+00) (85, 1.50000000000000000000e+03) (86, 7.41313457489013671875e+00) (87, 1.50000000000000000000e+03) (88, 1.50000000000000000000e+03) (89, -1.47901654243469238281e+00) (90, -1.52633500099182128906e+00) (82, 3.41740107536315917969e+00) (83, 4.34688997268676757812e+00) (84, 3.68917417526245117188e+00) (85, 1.50000000000000000000e+03) (86, 6.54925203323364257812e+00) (87, 1.50000000000000000000e+03) (88, 1.50000000000000000000e+03) (89, -1.41741919517517089844e+00) (90, -1.52299118041992187500e+00) (82, 3.73746490478515625000e+00) (83, 4.36872148513793945312e+00) (84, 3.72398185729980468750e+00) (85, 1.50000000000000000000e+03) (86, 6.36608266830444335938e+00) (87, 1.50000000000000000000e+03) (88, 1.50000000000000000000e+03) (89, -1.43882632255554199219e+00) (90, -1.53696155548095703125e+00) (82, 6.51375102996826171875e+00) (83, 1.10315780639648437500e+01) (84, 1.11680746078491210938e+01) (85, 1.50000000000000000000e+03) (86, -8.88120460510253906250e+00) (87, 1.50000000000000000000e+03) (88, 1.50000000000000000000e+03) (89, -1.56734824180603027344e+00) (90, -1.67468070983886718750e+00) (91, -3.48545014858245849609e-01) (92, -3.39820206165313720703e-01) (93, -1.18638610839843750000e+00) (94, -1.54911088943481445312e+00) (95, -3.18331003189086914062e-01) (96, -3.87565255165100097656e-01) (97, -6.23993635177612304688e-01) (98, -4.15863007307052612305e-01) (99, 1.06067156791687011719e+00) 
