FANN_FLO_2.1
num_layers=3
learning_rate=0.500000
connection_rate=1.000000
network_type=0
learning_momentum=0.000000
training_algorithm=2
train_error_function=1
train_stop_function=0
cascade_output_change_fraction=0.010000
quickprop_decay=-0.000100
quickprop_mu=1.750000
rprop_increase_factor=1.200000
rprop_decrease_factor=0.500000
rprop_delta_min=0.000000
rprop_delta_max=50.000000
rprop_delta_zero=0.100000
cascade_output_stagnation_epochs=12
cascade_candidate_change_fraction=0.010000
cascade_candidate_stagnation_epochs=12
cascade_max_out_epochs=150
cascade_min_out_epochs=50
cascade_max_cand_epochs=150
cascade_min_cand_epochs=50
cascade_num_candidate_groups=2
bit_fail_limit=3.49999994039535522461e-01
cascade_candidate_limit=1.00000000000000000000e+03
cascade_weight_multiplier=4.00000005960464477539e-01
cascade_activation_functions_count=10
cascade_activation_functions=3 5 7 8 10 11 14 15 16 17 
cascade_activation_steepnesses_count=4
cascade_activation_steepnesses=2.50000000000000000000e-01 5.00000000000000000000e-01 7.50000000000000000000e-01 1.00000000000000000000e+00 
layer_sizes=3 9 4 
scale_included=0
neurons (num_inputs, activation_function, activation_steepness)=(0, 0, 0.00000000000000000000e+00) (0, 0, 0.00000000000000000000e+00) (0, 0, 0.00000000000000000000e+00) (3, 3, 5.00000000000000000000e-01) (3, 3, 5.00000000000000000000e-01) (3, 3, 5.00000000000000000000e-01) (3, 3, 5.00000000000000000000e-01) (3, 3, 5.00000000000000000000e-01) (3, 3, 5.00000000000000000000e-01) (3, 3, 5.00000000000000000000e-01) (3, 3, 5.00000000000000000000e-01) (0, 3, 0.00000000000000000000e+00) (9, 0, 5.00000000000000000000e-01) (9, 0, 5.00000000000000000000e-01) (9, 0, 5.00000000000000000000e-01) (0, 0, 0.00000000000000000000e+00) 
connections (connected_to_neuron, weight)=(0, -6.50401735305786132812e+00) (1, 2.92116284370422363281e+00) (2, 1.20119943618774414062e+01) (0, -4.44757366180419921875e+00) (1, -2.95347285270690917969e+00) (2, 7.67823517322540283203e-01) (0, -6.42452669143676757812e+00) (1, 3.00377368927001953125e+00) (2, -3.27400326728820800781e-01) (0, -5.79480981826782226562e+00) (1, 7.41844511032104492188e+00) (2, 4.84080410003662109375e+00) (0, -3.54134798049926757812e+00) (1, -4.29927647113800048828e-01) (2, 1.23661077022552490234e+00) (0, -2.77971029281616210938e+00) (1, -5.03612041473388671875e+00) (2, 1.93975120782852172852e-01) (0, -7.81924152374267578125e+00) (1, 3.17831301689147949219e+00) (2, 5.33061695098876953125e+00) (0, -7.51528882980346679688e+00) (1, 5.76310014724731445312e+00) (2, 5.43957138061523437500e+00) (3, 4.14385139942169189453e-01) (4, 2.50074744224548339844e+00) (5, 2.53992509841918945312e+00) (6, 7.12925255298614501953e-01) (7, 1.20212256908416748047e+00) (8, 1.98634111881256103516e+00) (9, -3.53886544704437255859e-01) (10, 1.44275438785552978516e+00) (11, 6.03471457958221435547e-01) (3, 2.24548625946044921875e+00) (4, 5.68005847930908203125e+00) (5, 3.56810235977172851562e+00) (6, 2.97320199012756347656e+00) (7, 6.13975048065185546875e+00) (8, 5.63894081115722656250e+00) (9, 2.25743246078491210938e+00) (10, 3.14705801010131835938e+00) (11, 2.10179662704467773438e+00) (3, 9.26195240020751953125e+00) (4, 1.71250324249267578125e+01) (5, 9.83824348449707031250e+00) (6, 8.82638740539550781250e+00) (7, 2.04581851959228515625e+01) (8, 1.85702075958251953125e+01) (9, 8.57492637634277343750e+00) (10, 8.91480064392089843750e+00) (11, 1.13397092819213867188e+01) 
