FANN_FLO_2.1
num_layers=3
learning_rate=0.400000
connection_rate=1.000000
network_type=0
learning_momentum=0.000000
training_algorithm=2
train_error_function=1
train_stop_function=0
cascade_output_change_fraction=0.010000
quickprop_decay=-0.000100
quickprop_mu=1.750000
rprop_increase_factor=1.200000
rprop_decrease_factor=0.500000
rprop_delta_min=0.000000
rprop_delta_max=50.000000
rprop_delta_zero=0.100000
cascade_output_stagnation_epochs=12
cascade_candidate_change_fraction=0.010000
cascade_candidate_stagnation_epochs=12
cascade_max_out_epochs=150
cascade_min_out_epochs=50
cascade_max_cand_epochs=150
cascade_min_cand_epochs=50
cascade_num_candidate_groups=2
bit_fail_limit=3.49999994039535522461e-01
cascade_candidate_limit=1.00000000000000000000e+03
cascade_weight_multiplier=4.00000005960464477539e-01
cascade_activation_functions_count=10
cascade_activation_functions=3 5 7 8 10 11 14 15 16 17 
cascade_activation_steepnesses_count=4
cascade_activation_steepnesses=2.50000000000000000000e-01 5.00000000000000000000e-01 7.50000000000000000000e-01 1.00000000000000000000e+00 
layer_sizes=10 3 2 
scale_included=0
neurons (num_inputs, activation_function, activation_steepness)=(0, 0, 0.00000000000000000000e+00) (0, 0, 0.00000000000000000000e+00) (0, 0, 0.00000000000000000000e+00) (0, 0, 0.00000000000000000000e+00) (0, 0, 0.00000000000000000000e+00) (0, 0, 0.00000000000000000000e+00) (0, 0, 0.00000000000000000000e+00) (0, 0, 0.00000000000000000000e+00) (0, 0, 0.00000000000000000000e+00) (0, 0, 0.00000000000000000000e+00) (10, 3, 5.00000000000000000000e-01) (10, 3, 5.00000000000000000000e-01) (0, 3, 0.00000000000000000000e+00) (3, 3, 5.00000000000000000000e-01) (0, 3, 0.00000000000000000000e+00) 
connections (connected_to_neuron, weight)=(0, 3.96417826414108276367e-02) (1, 9.01491716504096984863e-02) (2, 2.07117587327957153320e-01) (3, 7.14071318507194519043e-02) (4, 4.74818572402000427246e-02) (5, 1.09350703656673431396e-01) (6, 3.26543450355529785156e-02) (7, 1.98240935802459716797e-01) (8, 3.54704186320304870605e-02) (9, 1.69984906911849975586e-01) (0, 5.51248341798782348633e-02) (1, 8.37937667965888977051e-02) (2, 1.41080856323242187500e-01) (3, 1.75272136926651000977e-01) (4, 1.77784562110900878906e-01) (5, 1.27868562936782836914e-01) (6, 1.69465810060501098633e-01) (7, 6.67916834354400634766e-02) (8, 9.94103848934173583984e-02) (9, 7.54318982362747192383e-02) (10, -1.35373041033744812012e-01) (11, -1.61411672830581665039e-01) (12, -6.50404617190361022949e-02) 
