FANN_FLO_2.1
num_layers=4
learning_rate=0.450000
connection_rate=1.000000
network_type=0
learning_momentum=0.000000
training_algorithm=2
train_error_function=1
train_stop_function=0
cascade_output_change_fraction=0.010000
quickprop_decay=-0.000100
quickprop_mu=1.750000
rprop_increase_factor=1.200000
rprop_decrease_factor=0.500000
rprop_delta_min=0.000000
rprop_delta_max=50.000000
rprop_delta_zero=0.100000
cascade_output_stagnation_epochs=12
cascade_candidate_change_fraction=0.010000
cascade_candidate_stagnation_epochs=12
cascade_max_out_epochs=150
cascade_min_out_epochs=50
cascade_max_cand_epochs=150
cascade_min_cand_epochs=50
cascade_num_candidate_groups=2
bit_fail_limit=3.49999994039535522461e-01
cascade_candidate_limit=1.00000000000000000000e+03
cascade_weight_multiplier=4.00000005960464477539e-01
cascade_activation_functions_count=10
cascade_activation_functions=3 5 7 8 10 11 14 15 16 17 
cascade_activation_steepnesses_count=4
cascade_activation_steepnesses=2.50000000000000000000e-01 5.00000000000000000000e-01 7.50000000000000000000e-01 1.00000000000000000000e+00 
layer_sizes=7 5 3 2 
scale_included=0
neurons (num_inputs, activation_function, activation_steepness)=(0, 0, 0.00000000000000000000e+00) (0, 0, 0.00000000000000000000e+00) (0, 0, 0.00000000000000000000e+00) (0, 0, 0.00000000000000000000e+00) (0, 0, 0.00000000000000000000e+00) (0, 0, 0.00000000000000000000e+00) (0, 0, 0.00000000000000000000e+00) (7, 3, 5.00000000000000000000e-01) (7, 3, 5.00000000000000000000e-01) (7, 3, 5.00000000000000000000e-01) (7, 3, 5.00000000000000000000e-01) (0, 3, 0.00000000000000000000e+00) (5, 3, 5.00000000000000000000e-01) (5, 3, 5.00000000000000000000e-01) (0, 3, 0.00000000000000000000e+00) (3, 0, 5.00000000000000000000e-01) (0, 0, 0.00000000000000000000e+00) 
connections (connected_to_neuron, weight)=(0, -3.28722596168518066406e+00) (1, -4.00631666183471679688e-01) (2, -3.80429626464843750000e+02) (3, 6.08648300170898437500e+01) (4, -1.40858936309814453125e+00) (5, -1.50000000000000000000e+03) (6, -1.18373535156250000000e+02) (0, -4.82476204633712768555e-02) (1, 9.66413840651512145996e-02) (2, 6.36836707592010498047e-01) (3, -4.84906546771526336670e-02) (4, -4.09483224153518676758e-01) (5, 3.00279855728149414062e-02) (6, -6.62859678268432617188e+00) (0, -8.24579772949218750000e+02) (1, -2.78519892692565917969e+00) (2, -1.50000000000000000000e+03) (3, -5.73227172851562500000e+02) (4, -3.50243449211120605469e+00) (5, -1.50000000000000000000e+03) (6, -9.21803405761718750000e+02) (0, 6.78053319454193115234e-01) (1, 6.86566889286041259766e-01) (2, 2.01206405639648437500e+02) (3, 1.54027328491210937500e+01) (4, 3.99567151069641113281e+00) (5, -2.65977844238281250000e+02) (6, -9.06523254394531250000e+02) (7, 1.92479972839355468750e+01) (8, 4.27323493957519531250e+01) (9, 1.50000000000000000000e+03) (10, 1.47359997558593750000e+03) (11, -1.52305002212524414062e+01) (7, 2.12112274169921875000e+01) (8, 2.97901191711425781250e+01) (9, 1.50000000000000000000e+03) (10, 1.02163705825805664062e+01) (11, -7.09526634216308593750e+00) (12, -4.02090847492218017578e-01) (13, 4.00232821702957153320e-01) (14, 1.39564769342541694641e-02) 
