FANN_FLO_2.1
num_layers=3
learning_rate=0.500000
connection_rate=1.000000
network_type=0
learning_momentum=0.000000
training_algorithm=2
train_error_function=1
train_stop_function=0
cascade_output_change_fraction=0.010000
quickprop_decay=-0.000100
quickprop_mu=1.750000
rprop_increase_factor=1.200000
rprop_decrease_factor=0.500000
rprop_delta_min=0.000000
rprop_delta_max=50.000000
rprop_delta_zero=0.100000
cascade_output_stagnation_epochs=12
cascade_candidate_change_fraction=0.010000
cascade_candidate_stagnation_epochs=12
cascade_max_out_epochs=150
cascade_min_out_epochs=50
cascade_max_cand_epochs=150
cascade_min_cand_epochs=50
cascade_num_candidate_groups=2
bit_fail_limit=3.49999994039535522461e-01
cascade_candidate_limit=1.00000000000000000000e+03
cascade_weight_multiplier=4.00000005960464477539e-01
cascade_activation_functions_count=10
cascade_activation_functions=3 5 7 8 10 11 14 15 16 17 
cascade_activation_steepnesses_count=4
cascade_activation_steepnesses=2.50000000000000000000e-01 5.00000000000000000000e-01 7.50000000000000000000e-01 1.00000000000000000000e+00 
layer_sizes=18 5 2 
scale_included=0
neurons (num_inputs, activation_function, activation_steepness)=(0, 0, 0.00000000000000000000e+00) (0, 0, 0.00000000000000000000e+00) (0, 0, 0.00000000000000000000e+00) (0, 0, 0.00000000000000000000e+00) (0, 0, 0.00000000000000000000e+00) (0, 0, 0.00000000000000000000e+00) (0, 0, 0.00000000000000000000e+00) (0, 0, 0.00000000000000000000e+00) (0, 0, 0.00000000000000000000e+00) (0, 0, 0.00000000000000000000e+00) (0, 0, 0.00000000000000000000e+00) (0, 0, 0.00000000000000000000e+00) (0, 0, 0.00000000000000000000e+00) (0, 0, 0.00000000000000000000e+00) (0, 0, 0.00000000000000000000e+00) (0, 0, 0.00000000000000000000e+00) (0, 0, 0.00000000000000000000e+00) (0, 0, 0.00000000000000000000e+00) (18, 3, 5.00000000000000000000e-01) (18, 3, 5.00000000000000000000e-01) (18, 3, 5.00000000000000000000e-01) (18, 3, 5.00000000000000000000e-01) (0, 3, 0.00000000000000000000e+00) (5, 0, 5.00000000000000000000e-01) (0, 0, 0.00000000000000000000e+00) 
connections (connected_to_neuron, weight)=(0, 7.45089471340179443359e-01) (1, 7.38603949546813964844e-01) (2, 8.18146169185638427734e-01) (3, 1.07236468791961669922e+00) (4, 9.04333591461181640625e-01) (5, -9.81090486049652099609e-01) (6, -8.88761341571807861328e-01) (7, -9.59219872951507568359e-01) (8, -1.04086764156818389893e-01) (9, 9.33992743492126464844e-01) (10, 7.20282137393951416016e-01) (11, 8.11614632606506347656e-01) (12, 7.73314952850341796875e-01) (13, 9.21151816844940185547e-01) (14, 8.80075991153717041016e-01) (15, 9.35722768306732177734e-01) (16, 2.96771973371505737305e-01) (17, -2.68764543533325195312e+00) (0, 1.47763085937500000000e+03) (1, 1.50000000000000000000e+03) (2, 8.37964782714843750000e+01) (3, 1.14341407775878906250e+02) (4, 1.50000000000000000000e+03) (5, 7.91447219848632812500e+01) (6, 1.66815452575683593750e+01) (7, 4.64813652038574218750e+01) (8, 4.26872070312500000000e+02) (9, 4.62550292968750000000e+02) (10, 1.50000000000000000000e+03) (11, 1.50000000000000000000e+03) (12, 7.93877334594726562500e+01) (13, 9.88813842773437500000e+02) (14, 7.91876831054687500000e+01) (15, 1.50000000000000000000e+03) (16, 1.50000000000000000000e+03) (17, 6.16525530815124511719e-01) (0, 1.06053817272186279297e+00) (1, 8.00921916961669921875e-01) (2, 5.36423563957214355469e-01) (3, 4.04461286962032318115e-02) (4, 5.76026260852813720703e-01) (5, -4.05821532011032104492e-01) (6, -7.29738712310791015625e-01) (7, -3.05977344512939453125e-01) (8, 2.40877553820610046387e-01) (9, 5.93925893306732177734e-01) (10, 1.01892781257629394531e+00) (11, 6.87464475631713867188e-01) (12, 9.96083676815032958984e-01) (13, 1.86125308275222778320e-01) (14, 6.23478591442108154297e-01) (15, 8.33174705505371093750e-01) (16, 1.72090923786163330078e+00) (17, -4.86501979827880859375e+00) (0, 1.47763085937500000000e+03) (1, 1.50000000000000000000e+03) (2, 8.38323822021484375000e+01) (3, 1.14366950988769531250e+02) (4, 1.50000000000000000000e+03) (5, 7.91019287109375000000e+01) (6, 1.67530479431152343750e+01) (7, 4.65304145812988281250e+01) (8, 4.26782073974609375000e+02) (9, 4.62433288574218750000e+02) (10, 1.50000000000000000000e+03) (11, 1.50000000000000000000e+03) (12, 7.94275894165039062500e+01) (13, 9.88878234863281250000e+02) (14, 7.93090515136718750000e+01) (15, 1.50000000000000000000e+03) (16, 1.50000000000000000000e+03) (17, 5.94406485557556152344e-01) (18, 8.94499492645263671875e+00) (19, 6.86630606651306152344e-01) (20, 4.33981466293334960938e+00) (21, 6.72776818275451660156e-01) (22, 5.87890267372131347656e-01) 
