FANN_FLO_2.1
num_layers=3
learning_rate=0.500000
connection_rate=1.000000
network_type=0
learning_momentum=0.000000
training_algorithm=2
train_error_function=1
train_stop_function=0
cascade_output_change_fraction=0.010000
quickprop_decay=-0.000100
quickprop_mu=1.750000
rprop_increase_factor=1.200000
rprop_decrease_factor=0.500000
rprop_delta_min=0.000000
rprop_delta_max=50.000000
rprop_delta_zero=0.100000
cascade_output_stagnation_epochs=12
cascade_candidate_change_fraction=0.010000
cascade_candidate_stagnation_epochs=12
cascade_max_out_epochs=150
cascade_min_out_epochs=50
cascade_max_cand_epochs=150
cascade_min_cand_epochs=50
cascade_num_candidate_groups=2
bit_fail_limit=3.49999994039535522461e-01
cascade_candidate_limit=1.00000000000000000000e+03
cascade_weight_multiplier=4.00000005960464477539e-01
cascade_activation_functions_count=10
cascade_activation_functions=3 5 7 8 10 11 14 15 16 17 
cascade_activation_steepnesses_count=4
cascade_activation_steepnesses=2.50000000000000000000e-01 5.00000000000000000000e-01 7.50000000000000000000e-01 1.00000000000000000000e+00 
layer_sizes=7 9 2 
scale_included=0
neurons (num_inputs, activation_function, activation_steepness)=(0, 0, 0.00000000000000000000e+00) (0, 0, 0.00000000000000000000e+00) (0, 0, 0.00000000000000000000e+00) (0, 0, 0.00000000000000000000e+00) (0, 0, 0.00000000000000000000e+00) (0, 0, 0.00000000000000000000e+00) (0, 0, 0.00000000000000000000e+00) (7, 3, 5.00000000000000000000e-01) (7, 3, 5.00000000000000000000e-01) (7, 3, 5.00000000000000000000e-01) (7, 3, 5.00000000000000000000e-01) (7, 3, 5.00000000000000000000e-01) (7, 3, 5.00000000000000000000e-01) (7, 3, 5.00000000000000000000e-01) (7, 3, 5.00000000000000000000e-01) (0, 3, 0.00000000000000000000e+00) (9, 0, 5.00000000000000000000e-01) (0, 0, 0.00000000000000000000e+00) 
connections (connected_to_neuron, weight)=(0, 1.60898342728614807129e-01) (1, -2.29173585772514343262e-01) (2, 2.24924296140670776367e-01) (3, -1.50757342576980590820e-01) (4, 1.59369277954101562500e+00) (5, -9.72309291362762451172e-01) (6, 7.41850793361663818359e-01) (0, -1.87902107834815979004e-01) (1, 1.07945322990417480469e+00) (2, 9.30612236261367797852e-02) (3, -4.89368885755538940430e-01) (4, 7.49773859977722167969e-01) (5, -6.70024156570434570312e-01) (6, -3.40139675140380859375e+00) (0, 8.20583701133728027344e-01) (1, -1.50798439979553222656e+00) (2, -1.18199090957641601562e+01) (3, -6.68826639652252197266e-01) (4, -6.70517063140869140625e+00) (5, 6.83660745620727539062e+00) (6, 1.46136432886123657227e-01) (0, -3.68886083364486694336e-01) (1, -9.76491808891296386719e-01) (2, -1.59031704068183898926e-01) (3, -3.41807067394256591797e-01) (4, 9.21795845031738281250e-01) (5, -1.05748571455478668213e-01) (6, 1.61498088836669921875e+01) (0, 4.37635555863380432129e-02) (1, -1.35940182209014892578e+00) (2, 3.26104015111923217773e-01) (3, 1.13319680094718933105e-01) (4, -1.85668504238128662109e+00) (5, 1.53743839263916015625e+00) (6, -2.44505190849304199219e+00) (0, -5.40733754634857177734e-01) (1, -9.69538497924804687500e+00) (2, -7.37610721588134765625e+00) (3, -4.89056974649429321289e-01) (4, 8.01591396331787109375e+00) (5, -3.91137878417968750000e+02) (6, -1.53209090232849121094e-01) (0, -4.57302868366241455078e-01) (1, 4.47673857212066650391e-01) (2, -6.56801700592041015625e-01) (3, -4.35229510068893432617e-01) (4, 5.09698629379272460938e-01) (5, -8.74482318758964538574e-02) (6, 5.57145535945892333984e-01) (0, -1.80997371673583984375e+00) (1, -2.51878261566162109375e+01) (2, 1.44666576385498046875e+01) (3, -1.04614725112915039062e+01) (4, -2.51048946380615234375e+01) (5, -6.71679382324218750000e+01) (6, -7.45111778378486633301e-02) (7, -3.19136343896389007568e-02) (8, -7.80484378337860107422e-02) (9, 3.40800048828125000000e+02) (10, -1.13240413367748260498e-01) (11, 5.42286396026611328125e+00) (12, 1.50000000000000000000e+03) (13, 1.02011956274509429932e-01) (14, 1.33895727539062500000e+03) (15, 1.21356099843978881836e-01) 
