FANN_FLO_2.1
num_layers=4
learning_rate=0.500000
connection_rate=1.000000
network_type=0
learning_momentum=0.000000
training_algorithm=2
train_error_function=1
train_stop_function=0
cascade_output_change_fraction=0.010000
quickprop_decay=-0.000100
quickprop_mu=1.750000
rprop_increase_factor=1.200000
rprop_decrease_factor=0.500000
rprop_delta_min=0.000000
rprop_delta_max=50.000000
rprop_delta_zero=0.100000
cascade_output_stagnation_epochs=12
cascade_candidate_change_fraction=0.010000
cascade_candidate_stagnation_epochs=12
cascade_max_out_epochs=150
cascade_min_out_epochs=50
cascade_max_cand_epochs=150
cascade_min_cand_epochs=50
cascade_num_candidate_groups=2
bit_fail_limit=3.49999994039535522461e-01
cascade_candidate_limit=1.00000000000000000000e+03
cascade_weight_multiplier=4.00000005960464477539e-01
cascade_activation_functions_count=10
cascade_activation_functions=3 5 7 8 10 11 14 15 16 17 
cascade_activation_steepnesses_count=4
cascade_activation_steepnesses=2.50000000000000000000e-01 5.00000000000000000000e-01 7.50000000000000000000e-01 1.00000000000000000000e+00 
layer_sizes=82 5 3 2 
scale_included=0
neurons (num_inputs, activation_function, activation_steepness)=(0, 0, 0.00000000000000000000e+00) (0, 0, 0.00000000000000000000e+00) (0, 0, 0.00000000000000000000e+00) (0, 0, 0.00000000000000000000e+00) (0, 0, 0.00000000000000000000e+00) (0, 0, 0.00000000000000000000e+00) (0, 0, 0.00000000000000000000e+00) (0, 0, 0.00000000000000000000e+00) (0, 0, 0.00000000000000000000e+00) (0, 0, 0.00000000000000000000e+00) (0, 0, 0.00000000000000000000e+00) (0, 0, 0.00000000000000000000e+00) (0, 0, 0.00000000000000000000e+00) (0, 0, 0.00000000000000000000e+00) (0, 0, 0.00000000000000000000e+00) (0, 0, 0.00000000000000000000e+00) (0, 0, 0.00000000000000000000e+00) (0, 0, 0.00000000000000000000e+00) (0, 0, 0.00000000000000000000e+00) (0, 0, 0.00000000000000000000e+00) (0, 0, 0.00000000000000000000e+00) (0, 0, 0.00000000000000000000e+00) (0, 0, 0.00000000000000000000e+00) (0, 0, 0.00000000000000000000e+00) (0, 0, 0.00000000000000000000e+00) (0, 0, 0.00000000000000000000e+00) (0, 0, 0.00000000000000000000e+00) (0, 0, 0.00000000000000000000e+00) (0, 0, 0.00000000000000000000e+00) (0, 0, 0.00000000000000000000e+00) (0, 0, 0.00000000000000000000e+00) (0, 0, 0.00000000000000000000e+00) (0, 0, 0.00000000000000000000e+00) (0, 0, 0.00000000000000000000e+00) (0, 0, 0.00000000000000000000e+00) (0, 0, 0.00000000000000000000e+00) (0, 0, 0.00000000000000000000e+00) (0, 0, 0.00000000000000000000e+00) (0, 0, 0.00000000000000000000e+00) (0, 0, 0.00000000000000000000e+00) (0, 0, 0.00000000000000000000e+00) (0, 0, 0.00000000000000000000e+00) (0, 0, 0.00000000000000000000e+00) (0, 0, 0.00000000000000000000e+00) (0, 0, 0.00000000000000000000e+00) (0, 0, 0.00000000000000000000e+00) (0, 0, 0.00000000000000000000e+00) (0, 0, 0.00000000000000000000e+00) (0, 0, 0.00000000000000000000e+00) (0, 0, 0.00000000000000000000e+00) (0, 0, 0.00000000000000000000e+00) (0, 0, 0.00000000000000000000e+00) (0, 0, 0.00000000000000000000e+00) (0, 0, 0.00000000000000000000e+00) (0, 0, 0.00000000000000000000e+00) (0, 0, 0.00000000000000000000e+00) (0, 0, 0.00000000000000000000e+00) (0, 0, 0.00000000000000000000e+00) (0, 0, 0.00000000000000000000e+00) (0, 0, 0.00000000000000000000e+00) (0, 0, 0.00000000000000000000e+00) (0, 0, 0.00000000000000000000e+00) (0, 0, 0.00000000000000000000e+00) (0, 0, 0.00000000000000000000e+00) (0, 0, 0.00000000000000000000e+00) (0, 0, 0.00000000000000000000e+00) (0, 0, 0.00000000000000000000e+00) (0, 0, 0.00000000000000000000e+00) (0, 0, 0.00000000000000000000e+00) (0, 0, 0.00000000000000000000e+00) (0, 0, 0.00000000000000000000e+00) (0, 0, 0.00000000000000000000e+00) (0, 0, 0.00000000000000000000e+00) (0, 0, 0.00000000000000000000e+00) (0, 0, 0.00000000000000000000e+00) (0, 0, 0.00000000000000000000e+00) (0, 0, 0.00000000000000000000e+00) (0, 0, 0.00000000000000000000e+00) (0, 0, 0.00000000000000000000e+00) (0, 0, 0.00000000000000000000e+00) (0, 0, 0.00000000000000000000e+00) (0, 0, 0.00000000000000000000e+00) (82, 3, 5.00000000000000000000e-01) (82, 3, 5.00000000000000000000e-01) (82, 3, 5.00000000000000000000e-01) (82, 3, 5.00000000000000000000e-01) (0, 3, 0.00000000000000000000e+00) (5, 3, 5.00000000000000000000e-01) (5, 3, 5.00000000000000000000e-01) (0, 3, 0.00000000000000000000e+00) (3, 3, 5.00000000000000000000e-01) (0, 3, 0.00000000000000000000e+00) 
connections (connected_to_neuron, weight)=(0, -7.72830963134765625000e+00) (1, -5.96671485900878906250e+01) (2, -2.83709430694580078125e+01) (3, -7.07118511199951171875e-01) (4, -7.80434703826904296875e+00) (5, -1.95855721831321716309e-01) (6, -3.73954868316650390625e+00) (7, 3.94739955663681030273e-01) (8, -9.42767560482025146484e-02) (9, -1.42503008246421813965e-01) (10, -3.35831373929977416992e-01) (11, -8.23378264904022216797e-02) (12, -3.09393405914306640625e-01) (13, -9.73941683769226074219e-01) (14, 8.51985346525907516479e-03) (15, -1.92440420389175415039e-01) (16, -2.76627693176269531250e+01) (17, -2.23933666944503784180e-01) (18, -2.81040936708450317383e-01) (19, -2.97677427530288696289e-01) (20, -3.75811314582824707031e+00) (21, 2.19483263790607452393e-02) (22, -9.00937393307685852051e-02) (23, -3.67137283086776733398e-01) (24, -2.80005645751953125000e+01) (25, -2.99167275428771972656e-01) (26, -6.09318304061889648438e+00) (27, -8.88472652435302734375e+00) (28, -2.67548620700836181641e-01) (29, 2.25767586380243301392e-02) (30, -4.58536100387573242188e+00) (31, -4.06307131052017211914e-01) (32, -4.99090641736984252930e-01) (33, -2.41240525245666503906e+00) (34, -1.75426254272460937500e+01) (35, -1.83299899101257324219e-01) (36, -1.84787243604660034180e-01) (37, -7.49610567092895507812e+00) (38, -2.54494023323059082031e+00) (39, -3.32109659910202026367e-01) (40, -4.25770431756973266602e-01) (41, -2.98456358909606933594e+00) (42, -2.64028966426849365234e-01) (43, -3.26125204563140869141e-01) (44, -4.40102458000183105469e-01) (45, -2.85665690898895263672e-01) (46, -3.35037469863891601562e-01) (47, -6.38706624507904052734e-01) (48, -2.31190347671508789062e+00) (49, 1.50000000000000000000e+03) (50, 1.50000000000000000000e+03) (51, 1.50000000000000000000e+03) (52, 1.50000000000000000000e+03) (53, 1.50000000000000000000e+03) (54, 1.50000000000000000000e+03) (55, 1.50000000000000000000e+03) (56, 1.50000000000000000000e+03) (57, 1.50000000000000000000e+03) (58, 1.50000000000000000000e+03) (59, 1.50000000000000000000e+03) (60, 1.50000000000000000000e+03) (61, 1.50000000000000000000e+03) (62, 1.50000000000000000000e+03) (63, 1.50000000000000000000e+03) (64, 1.50000000000000000000e+03) (65, 1.50000000000000000000e+03) (66, 1.50000000000000000000e+03) (67, 1.50000000000000000000e+03) (68, 1.50000000000000000000e+03) (69, 1.50000000000000000000e+03) (70, 1.50000000000000000000e+03) (71, 1.50000000000000000000e+03) (72, 1.50000000000000000000e+03) (73, 1.50000000000000000000e+03) (74, 1.50000000000000000000e+03) (75, 1.50000000000000000000e+03) (76, 1.50000000000000000000e+03) (77, 1.50000000000000000000e+03) (78, 1.50000000000000000000e+03) (79, 1.50000000000000000000e+03) (80, 1.50000000000000000000e+03) (81, 1.23718090057373046875e+01) (0, -8.59685391187667846680e-02) (1, -5.63598312437534332275e-02) (2, -1.57696664333343505859e-01) (3, -1.21567621827125549316e-01) (4, 4.24164831638336181641e-02) (5, -6.26136511564254760742e-02) (6, -7.20354020595550537109e-02) (7, -3.96576166152954101562e-01) (8, 1.34881764650344848633e-01) (9, -8.37408304214477539062e-02) (10, 6.00695796310901641846e-02) (11, 1.79487392306327819824e-01) (12, 3.83178703486919403076e-02) (13, -8.68399292230606079102e-02) (14, 2.57647875696420669556e-02) (15, -3.86914946138858795166e-02) (16, -8.68208855390548706055e-02) (17, 1.17742903530597686768e-01) (18, 2.50825643539428710938e-01) (19, 3.67905572056770324707e-02) (20, -1.27236053347587585449e-01) (21, 7.30930194258689880371e-02) (22, 8.58285203576087951660e-02) (23, -2.19133459031581878662e-02) (24, -2.81039786338806152344e+00) (25, -2.16201514005661010742e-01) (26, 2.45898738503456115723e-02) (27, -3.26190772466361522675e-03) (28, -5.93580491840839385986e-02) (29, 6.86714425683021545410e-02) (30, 7.38277286291122436523e-02) (31, 1.75139635801315307617e-01) (32, 1.60943027585744857788e-02) (33, 2.69419327378273010254e-02) (34, -8.41423794627189636230e-02) (35, -7.74874165654182434082e-02) (36, 1.64181005675345659256e-03) (37, -2.80470084398984909058e-02) (38, -1.20961435139179229736e-01) (39, -1.08740895986557006836e-01) (40, -7.72644579410552978516e-02) (41, 8.96934717893600463867e-02) (42, -7.46997520327568054199e-02) (43, -5.72733245790004730225e-02) (44, -6.74398615956306457520e-02) (45, 2.81868904829025268555e-01) (46, -8.03230479359626770020e-02) (47, -4.76015955209732055664e-02) (48, -9.84184294939041137695e-02) (49, 1.50000000000000000000e+03) (50, 1.50000000000000000000e+03) (51, 1.50000000000000000000e+03) (52, 1.50000000000000000000e+03) (53, 1.50000000000000000000e+03) (54, 1.50000000000000000000e+03) (55, 1.50000000000000000000e+03) (56, 1.50000000000000000000e+03) (57, 1.50000000000000000000e+03) (58, 1.50000000000000000000e+03) (59, 1.50000000000000000000e+03) (60, 1.50000000000000000000e+03) (61, 1.50000000000000000000e+03) (62, 1.50000000000000000000e+03) (63, 1.50000000000000000000e+03) (64, 1.50000000000000000000e+03) (65, 1.50000000000000000000e+03) (66, 1.50000000000000000000e+03) (67, 1.50000000000000000000e+03) (68, 1.50000000000000000000e+03) (69, 1.50000000000000000000e+03) (70, 1.50000000000000000000e+03) (71, 1.50000000000000000000e+03) (72, 1.50000000000000000000e+03) (73, 1.50000000000000000000e+03) (74, 1.50000000000000000000e+03) (75, 1.50000000000000000000e+03) (76, 1.50000000000000000000e+03) (77, 1.50000000000000000000e+03) (78, 1.50000000000000000000e+03) (79, 1.50000000000000000000e+03) (80, 1.50000000000000000000e+03) (81, 1.21130263805389404297e+00) (0, 7.88713842630386352539e-02) (1, -1.54732987284660339355e-01) (2, 2.11498402059078216553e-02) (3, 1.15161366760730743408e-01) (4, 2.65509523451328277588e-02) (5, -5.15766404569149017334e-02) (6, -1.46745011210441589355e-01) (7, 3.20062935352325439453e-01) (8, -2.99610663205385208130e-02) (9, 8.67442637681961059570e-02) (10, -3.91438543796539306641e-01) (11, -1.33342936635017395020e-01) (12, -9.71415340900421142578e-02) (13, -7.59595856070518493652e-02) (14, 2.59836047887802124023e-01) (15, -4.20980453491210937500e-02) (16, -1.17028981447219848633e-01) (17, -3.93471926450729370117e-01) (18, -3.78676712512969970703e-01) (19, -1.32474631071090698242e-01) (20, 3.64471822977066040039e-01) (21, 1.32530173286795616150e-02) (22, -5.29420003294944763184e-02) (23, -1.49499118328094482422e-01) (24, -2.19605898857116699219e+00) (25, -3.61628830432891845703e-01) (26, -1.39396637678146362305e-01) (27, 2.63093598186969757080e-03) (28, -1.66707873344421386719e-01) (29, -1.95979215204715728760e-02) (30, -1.47561535239219665527e-01) (31, -5.28753399848937988281e-01) (32, -2.85823017358779907227e-01) (33, 8.78334864974021911621e-02) (34, -9.58797931671142578125e-02) (35, -4.35740090906620025635e-02) (36, -7.91696161031723022461e-02) (37, -1.05184502899646759033e-01) (38, -3.33952277898788452148e-01) (39, -2.13820487260818481445e-01) (40, 5.89943602681159973145e-02) (41, 9.62311848998069763184e-02) (42, -4.13584150373935699463e-02) (43, 8.23244377970695495605e-02) (44, -3.32393543794751167297e-03) (45, -1.17069818079471588135e-01) (46, -8.22712182998657226562e-02) (47, 2.68283355981111526489e-02) (48, 1.47124156355857849121e-01) (49, 1.50000000000000000000e+03) (50, 1.50000000000000000000e+03) (51, 1.50000000000000000000e+03) (52, 1.50000000000000000000e+03) (53, 1.50000000000000000000e+03) (54, 1.50000000000000000000e+03) (55, 1.50000000000000000000e+03) (56, 1.50000000000000000000e+03) (57, 1.50000000000000000000e+03) (58, 1.50000000000000000000e+03) (59, 1.50000000000000000000e+03) (60, 1.50000000000000000000e+03) (61, 1.50000000000000000000e+03) (62, 1.50000000000000000000e+03) (63, 1.50000000000000000000e+03) (64, 1.50000000000000000000e+03) (65, 1.50000000000000000000e+03) (66, 1.50000000000000000000e+03) (67, 1.50000000000000000000e+03) (68, 1.50000000000000000000e+03) (69, 1.50000000000000000000e+03) (70, 1.50000000000000000000e+03) (71, 1.50000000000000000000e+03) (72, 1.50000000000000000000e+03) (73, 1.50000000000000000000e+03) (74, 1.50000000000000000000e+03) (75, 1.50000000000000000000e+03) (76, 1.50000000000000000000e+03) (77, 1.50000000000000000000e+03) (78, 1.50000000000000000000e+03) (79, 1.50000000000000000000e+03) (80, 1.50000000000000000000e+03) (81, 1.48974835872650146484e+00) (0, -7.39075541496276855469e-01) (1, -1.68434071540832519531e+00) (2, -1.06308460235595703125e+00) (3, -7.59474873542785644531e-01) (4, -1.76950752735137939453e+00) (5, -4.43790405988693237305e-01) (6, -5.81643879413604736328e-01) (7, 8.86108502745628356934e-02) (8, -5.92630095779895782471e-02) (9, -5.41817486286163330078e-01) (10, -1.27784729003906250000e+00) (11, -8.30101788043975830078e-01) (12, -4.77816671133041381836e-01) (13, -7.05778360366821289062e-01) (14, -2.08490014076232910156e-01) (15, 1.70045122504234313965e-01) (16, -1.36213064193725585938e+00) (17, -1.23370230197906494141e+00) (18, -9.19845163822174072266e-01) (19, -5.07442831993103027344e-01) (20, -6.42237439751625061035e-02) (21, -3.12711507081985473633e-01) (22, -4.02442872524261474609e-01) (23, -7.55415797233581542969e-01) (24, -6.21594505310058593750e+01) (25, -2.02192378044128417969e+00) (26, -7.53324687480926513672e-01) (27, -7.61753916740417480469e-01) (28, -4.81885164976119995117e-01) (29, -4.26873743534088134766e-01) (30, -1.10705680847167968750e+01) (31, -7.89529752731323242188e+00) (32, -2.52152204513549804688e+00) (33, -6.02078020572662353516e-01) (34, -1.02250289916992187500e+00) (35, -4.64122146368026733398e-01) (36, -4.81045514345169067383e-01) (37, -9.51708889007568359375e+00) (38, -3.77616405487060546875e+00) (39, -7.74813354015350341797e-01) (40, -3.79792273044586181641e-01) (41, -3.28604888916015625000e+00) (42, -6.28602981567382812500e-01) (43, -4.12675976753234863281e-01) (44, -4.56804370880126953125e+00) (45, -7.36221194267272949219e-01) (46, -5.51785707473754882812e-01) (47, -5.78780591487884521484e-01) (48, -2.67488121986389160156e-01) (49, 1.50000000000000000000e+03) (50, 1.50000000000000000000e+03) (51, 1.50000000000000000000e+03) (52, 1.50000000000000000000e+03) (53, 1.50000000000000000000e+03) (54, 1.50000000000000000000e+03) (55, 1.50000000000000000000e+03) (56, 1.50000000000000000000e+03) (57, 1.50000000000000000000e+03) (58, 1.50000000000000000000e+03) (59, 1.50000000000000000000e+03) (60, 1.50000000000000000000e+03) (61, 1.50000000000000000000e+03) (62, 1.50000000000000000000e+03) (63, 1.50000000000000000000e+03) (64, 1.50000000000000000000e+03) (65, 1.50000000000000000000e+03) (66, 1.50000000000000000000e+03) (67, 1.50000000000000000000e+03) (68, 1.50000000000000000000e+03) (69, 1.50000000000000000000e+03) (70, 1.50000000000000000000e+03) (71, 1.50000000000000000000e+03) (72, 1.50000000000000000000e+03) (73, 1.50000000000000000000e+03) (74, 1.50000000000000000000e+03) (75, 1.50000000000000000000e+03) (76, 1.50000000000000000000e+03) (77, 1.50000000000000000000e+03) (78, 1.50000000000000000000e+03) (79, 1.50000000000000000000e+03) (80, 1.50000000000000000000e+03) (81, 6.67055034637451171875e+00) (82, 1.50000000000000000000e+03) (83, 4.96047449111938476562e+00) (84, 3.42521333694458007812e+00) (85, 1.50000000000000000000e+03) (86, -3.31343436241149902344e+00) (82, 1.50000000000000000000e+03) (83, -1.95101470947265625000e+01) (84, 3.63176994323730468750e+01) (85, 1.50000000000000000000e+03) (86, -1.26694936752319335938e+01) (87, -2.66845464706420898438e+00) (88, -1.06853079795837402344e+00) (89, 9.57677781581878662109e-01) 
