FANN_FLO_2.1
num_layers=4
learning_rate=0.500000
connection_rate=1.000000
network_type=0
learning_momentum=0.000000
training_algorithm=2
train_error_function=1
train_stop_function=0
cascade_output_change_fraction=0.010000
quickprop_decay=-0.000100
quickprop_mu=1.750000
rprop_increase_factor=1.200000
rprop_decrease_factor=0.500000
rprop_delta_min=0.000000
rprop_delta_max=50.000000
rprop_delta_zero=0.100000
cascade_output_stagnation_epochs=12
cascade_candidate_change_fraction=0.010000
cascade_candidate_stagnation_epochs=12
cascade_max_out_epochs=150
cascade_min_out_epochs=50
cascade_max_cand_epochs=150
cascade_min_cand_epochs=50
cascade_num_candidate_groups=2
bit_fail_limit=3.49999994039535522461e-01
cascade_candidate_limit=1.00000000000000000000e+03
cascade_weight_multiplier=4.00000005960464477539e-01
cascade_activation_functions_count=10
cascade_activation_functions=3 5 7 8 10 11 14 15 16 17 
cascade_activation_steepnesses_count=4
cascade_activation_steepnesses=2.50000000000000000000e-01 5.00000000000000000000e-01 7.50000000000000000000e-01 1.00000000000000000000e+00 
layer_sizes=82 5 5 2 
scale_included=0
neurons (num_inputs, activation_function, activation_steepness)=(0, 0, 0.00000000000000000000e+00) (0, 0, 0.00000000000000000000e+00) (0, 0, 0.00000000000000000000e+00) (0, 0, 0.00000000000000000000e+00) (0, 0, 0.00000000000000000000e+00) (0, 0, 0.00000000000000000000e+00) (0, 0, 0.00000000000000000000e+00) (0, 0, 0.00000000000000000000e+00) (0, 0, 0.00000000000000000000e+00) (0, 0, 0.00000000000000000000e+00) (0, 0, 0.00000000000000000000e+00) (0, 0, 0.00000000000000000000e+00) (0, 0, 0.00000000000000000000e+00) (0, 0, 0.00000000000000000000e+00) (0, 0, 0.00000000000000000000e+00) (0, 0, 0.00000000000000000000e+00) (0, 0, 0.00000000000000000000e+00) (0, 0, 0.00000000000000000000e+00) (0, 0, 0.00000000000000000000e+00) (0, 0, 0.00000000000000000000e+00) (0, 0, 0.00000000000000000000e+00) (0, 0, 0.00000000000000000000e+00) (0, 0, 0.00000000000000000000e+00) (0, 0, 0.00000000000000000000e+00) (0, 0, 0.00000000000000000000e+00) (0, 0, 0.00000000000000000000e+00) (0, 0, 0.00000000000000000000e+00) (0, 0, 0.00000000000000000000e+00) (0, 0, 0.00000000000000000000e+00) (0, 0, 0.00000000000000000000e+00) (0, 0, 0.00000000000000000000e+00) (0, 0, 0.00000000000000000000e+00) (0, 0, 0.00000000000000000000e+00) (0, 0, 0.00000000000000000000e+00) (0, 0, 0.00000000000000000000e+00) (0, 0, 0.00000000000000000000e+00) (0, 0, 0.00000000000000000000e+00) (0, 0, 0.00000000000000000000e+00) (0, 0, 0.00000000000000000000e+00) (0, 0, 0.00000000000000000000e+00) (0, 0, 0.00000000000000000000e+00) (0, 0, 0.00000000000000000000e+00) (0, 0, 0.00000000000000000000e+00) (0, 0, 0.00000000000000000000e+00) (0, 0, 0.00000000000000000000e+00) (0, 0, 0.00000000000000000000e+00) (0, 0, 0.00000000000000000000e+00) (0, 0, 0.00000000000000000000e+00) (0, 0, 0.00000000000000000000e+00) (0, 0, 0.00000000000000000000e+00) (0, 0, 0.00000000000000000000e+00) (0, 0, 0.00000000000000000000e+00) (0, 0, 0.00000000000000000000e+00) (0, 0, 0.00000000000000000000e+00) (0, 0, 0.00000000000000000000e+00) (0, 0, 0.00000000000000000000e+00) (0, 0, 0.00000000000000000000e+00) (0, 0, 0.00000000000000000000e+00) (0, 0, 0.00000000000000000000e+00) (0, 0, 0.00000000000000000000e+00) (0, 0, 0.00000000000000000000e+00) (0, 0, 0.00000000000000000000e+00) (0, 0, 0.00000000000000000000e+00) (0, 0, 0.00000000000000000000e+00) (0, 0, 0.00000000000000000000e+00) (0, 0, 0.00000000000000000000e+00) (0, 0, 0.00000000000000000000e+00) (0, 0, 0.00000000000000000000e+00) (0, 0, 0.00000000000000000000e+00) (0, 0, 0.00000000000000000000e+00) (0, 0, 0.00000000000000000000e+00) (0, 0, 0.00000000000000000000e+00) (0, 0, 0.00000000000000000000e+00) (0, 0, 0.00000000000000000000e+00) (0, 0, 0.00000000000000000000e+00) (0, 0, 0.00000000000000000000e+00) (0, 0, 0.00000000000000000000e+00) (0, 0, 0.00000000000000000000e+00) (0, 0, 0.00000000000000000000e+00) (0, 0, 0.00000000000000000000e+00) (0, 0, 0.00000000000000000000e+00) (0, 0, 0.00000000000000000000e+00) (82, 3, 5.00000000000000000000e-01) (82, 3, 5.00000000000000000000e-01) (82, 3, 5.00000000000000000000e-01) (82, 3, 5.00000000000000000000e-01) (0, 3, 0.00000000000000000000e+00) (5, 3, 5.00000000000000000000e-01) (5, 3, 5.00000000000000000000e-01) (5, 3, 5.00000000000000000000e-01) (5, 3, 5.00000000000000000000e-01) (0, 3, 0.00000000000000000000e+00) (5, 3, 5.00000000000000000000e-01) (0, 3, 0.00000000000000000000e+00) 
connections (connected_to_neuron, weight)=(0, -6.46000728011131286621e-02) (1, -1.14559613168239593506e-01) (2, -3.03324032574892044067e-02) (3, -1.79782330989837646484e-01) (4, -4.71261739730834960938e-01) (5, -1.35568067431449890137e-01) (6, 2.12797731161117553711e-01) (7, -3.72880876064300537109e-01) (8, -1.57774046063423156738e-01) (9, -4.09366846084594726562e-01) (10, -4.61883515119552612305e-01) (11, -2.26236090064048767090e-01) (12, -3.10221582651138305664e-01) (13, 1.67158901691436767578e-01) (14, -7.82225281000137329102e-03) (15, -1.19031518697738647461e-01) (16, -2.61836588382720947266e-01) (17, -3.15869718790054321289e-01) (18, -2.03101843595504760742e-01) (19, -9.75944623351097106934e-02) (20, -2.09024086594581604004e-01) (21, -6.73486068844795227051e-02) (22, 7.03918039798736572266e-02) (23, 3.33570279181003570557e-02) (24, -3.52816653251647949219e+00) (25, -1.82804942131042480469e-01) (26, -1.33952915668487548828e-01) (27, 3.88258546590805053711e-01) (28, 2.64370322227478027344e-01) (29, -1.56718552112579345703e-01) (30, 2.56386160850524902344e-01) (31, -8.03669035434722900391e-01) (32, -1.51264861226081848145e-01) (33, -2.29382470250129699707e-01) (34, -1.13379582762718200684e-02) (35, -5.55564463138580322266e-02) (36, -6.79178774356842041016e-01) (37, -2.41659767925739288330e-03) (38, -5.10759890079498291016e-01) (39, -1.31856173276901245117e-01) (40, -9.22932550311088562012e-02) (41, 1.87375638633966445923e-02) (42, 4.38656359910964965820e-02) (43, 1.95320378988981246948e-02) (44, -2.75969505310058593750e-03) (45, -2.76384223252534866333e-02) (46, -2.36033648252487182617e-01) (47, -1.18814744055271148682e-01) (48, -1.68925881385803222656e-01) (49, 1.50000000000000000000e+03) (50, 1.50000000000000000000e+03) (51, 1.50000000000000000000e+03) (52, 1.50000000000000000000e+03) (53, 1.50000000000000000000e+03) (54, 1.50000000000000000000e+03) (55, 1.50000000000000000000e+03) (56, 1.50000000000000000000e+03) (57, 1.50000000000000000000e+03) (58, 1.50000000000000000000e+03) (59, 1.50000000000000000000e+03) (60, 1.50000000000000000000e+03) (61, 1.50000000000000000000e+03) (62, 1.50000000000000000000e+03) (63, 1.50000000000000000000e+03) (64, 1.50000000000000000000e+03) (65, 1.50000000000000000000e+03) (66, 1.50000000000000000000e+03) (67, 1.50000000000000000000e+03) (68, 1.50000000000000000000e+03) (69, 1.50000000000000000000e+03) (70, 1.50000000000000000000e+03) (71, 1.50000000000000000000e+03) (72, 1.50000000000000000000e+03) (73, 1.50000000000000000000e+03) (74, 1.50000000000000000000e+03) (75, 1.50000000000000000000e+03) (76, 1.50000000000000000000e+03) (77, 1.50000000000000000000e+03) (78, 1.50000000000000000000e+03) (79, 1.50000000000000000000e+03) (80, 1.50000000000000000000e+03) (81, 4.21897077560424804688e+00) (0, -2.01893657445907592773e-01) (1, -1.49104269221425056458e-02) (2, 1.19414873421192169189e-01) (3, 4.02995526790618896484e-01) (4, 6.78947091102600097656e-01) (5, 4.92833465337753295898e-01) (6, -6.35839030146598815918e-02) (7, -5.13523221015930175781e-02) (8, -2.68865108489990234375e-01) (9, -2.47988384217023849487e-02) (10, 3.11141043901443481445e-01) (11, 1.04578167200088500977e-01) (12, -7.29446113109588623047e-02) (13, 2.23388776183128356934e-01) (14, -2.13365443050861358643e-02) (15, 2.66885250806808471680e-01) (16, 6.61236047744750976562e-02) (17, -2.55996078252792358398e-01) (18, 2.23702877759933471680e-01) (19, -1.27655133605003356934e-01) (20, 8.00000578165054321289e-02) (21, 2.03161668032407760620e-02) (22, -2.98175495117902755737e-03) (23, -9.30955037474632263184e-02) (24, -5.55574750900268554688e+00) (25, -9.42698717117309570312e-02) (26, 2.46798619627952575684e-02) (27, -8.26436504721641540527e-02) (28, 1.46833434700965881348e-01) (29, 4.60747778415679931641e-02) (30, -8.30519795417785644531e-02) (31, -7.32352674007415771484e-01) (32, 6.93273901939392089844e-01) (33, 7.55467772483825683594e-01) (34, -2.88463477045297622681e-03) (35, -1.96378603577613830566e-01) (36, -5.67810162901878356934e-02) (37, -2.72726744413375854492e-01) (38, -3.49657505750656127930e-01) (39, -1.94651931524276733398e-01) (40, -2.65896290540695190430e-01) (41, -3.35110314190387725830e-02) (42, 6.03176513686776161194e-03) (43, -4.00101333856582641602e-01) (44, -2.01807707548141479492e-01) (45, -2.48499751091003417969e-01) (46, 2.72165127098560333252e-02) (47, -2.36961007118225097656e-01) (48, 4.72622551023960113525e-02) (49, 1.50000000000000000000e+03) (50, 1.50000000000000000000e+03) (51, 1.50000000000000000000e+03) (52, 1.50000000000000000000e+03) (53, 1.50000000000000000000e+03) (54, 1.50000000000000000000e+03) (55, 1.50000000000000000000e+03) (56, 1.50000000000000000000e+03) (57, 1.50000000000000000000e+03) (58, 1.50000000000000000000e+03) (59, 1.50000000000000000000e+03) (60, 1.50000000000000000000e+03) (61, 1.50000000000000000000e+03) (62, 1.50000000000000000000e+03) (63, 1.50000000000000000000e+03) (64, 1.50000000000000000000e+03) (65, 1.50000000000000000000e+03) (66, 1.50000000000000000000e+03) (67, 1.50000000000000000000e+03) (68, 1.50000000000000000000e+03) (69, 1.50000000000000000000e+03) (70, 1.50000000000000000000e+03) (71, 1.50000000000000000000e+03) (72, 1.50000000000000000000e+03) (73, 1.50000000000000000000e+03) (74, 1.50000000000000000000e+03) (75, 1.50000000000000000000e+03) (76, 1.50000000000000000000e+03) (77, 1.50000000000000000000e+03) (78, 1.50000000000000000000e+03) (79, 1.50000000000000000000e+03) (80, 1.50000000000000000000e+03) (81, 4.79747772216796875000e+00) (0, 3.73258054256439208984e-01) (1, -9.06802639365196228027e-02) (2, 8.42010322958230972290e-03) (3, -1.51617801189422607422e+00) (4, -2.56923890113830566406e+00) (5, -7.35857427120208740234e-01) (6, 1.82397454977035522461e-01) (7, 1.07962653040885925293e-01) (8, 2.96244174242019653320e-01) (9, 2.56854981184005737305e-01) (10, -6.33679986000061035156e-01) (11, -1.30840253829956054688e+00) (12, 2.31349557638168334961e-01) (13, -1.21313989162445068359e+00) (14, -5.43022453784942626953e-02) (15, -2.50153988599777221680e-01) (16, -6.10374450683593750000e-01) (17, -2.54799914360046386719e+00) (18, -1.41031551361083984375e+00) (19, -1.12120597623288631439e-03) (20, -8.01345288753509521484e-01) (21, -2.47424811124801635742e-01) (22, -1.72844618558883666992e-01) (23, 7.28445529937744140625e-01) (24, -1.13778104782104492188e+01) (25, -5.01150846481323242188e-01) (26, -9.58583056926727294922e-02) (27, 2.76170164346694946289e-01) (28, -1.34776934981346130371e-01) (29, -3.15315753221511840820e-01) (30, -4.94233667850494384766e-01) (31, -8.38558852672576904297e-01) (32, -6.51694059371948242188e-01) (33, -8.76492917537689208984e-01) (34, 2.62127965688705444336e-01) (35, 5.92158377170562744141e-01) (36, -8.38862732052803039551e-02) (37, 9.04643416404724121094e-01) (38, 7.88003131747245788574e-02) (39, 9.26407892256975173950e-03) (40, 9.38876271247863769531e-01) (41, -6.06113970279693603516e-02) (42, -1.09094738960266113281e-01) (43, 1.86001241207122802734e-01) (44, -3.33804152905941009521e-02) (45, -8.95641028881072998047e-01) (46, 7.29885697364807128906e-01) (47, 6.57995879650115966797e-01) (48, -4.59097214043140411377e-02) (49, 1.50000000000000000000e+03) (50, 1.50000000000000000000e+03) (51, 1.50000000000000000000e+03) (52, 1.50000000000000000000e+03) (53, 1.50000000000000000000e+03) (54, 1.50000000000000000000e+03) (55, 1.50000000000000000000e+03) (56, 1.50000000000000000000e+03) (57, 1.50000000000000000000e+03) (58, 1.50000000000000000000e+03) (59, 1.50000000000000000000e+03) (60, 1.50000000000000000000e+03) (61, 1.50000000000000000000e+03) (62, 1.50000000000000000000e+03) (63, 1.50000000000000000000e+03) (64, 1.50000000000000000000e+03) (65, 1.50000000000000000000e+03) (66, 1.50000000000000000000e+03) (67, 1.50000000000000000000e+03) (68, 1.50000000000000000000e+03) (69, 1.50000000000000000000e+03) (70, 1.50000000000000000000e+03) (71, 1.50000000000000000000e+03) (72, 1.50000000000000000000e+03) (73, 1.50000000000000000000e+03) (74, 1.50000000000000000000e+03) (75, 1.50000000000000000000e+03) (76, 1.50000000000000000000e+03) (77, 1.50000000000000000000e+03) (78, 1.50000000000000000000e+03) (79, 1.50000000000000000000e+03) (80, 1.50000000000000000000e+03) (81, 1.96302533149719238281e+00) (0, -1.18050148010253906250e+02) (1, -1.47500000000000000000e+03) (2, -1.47500000000000000000e+03) (3, -1.07006933593750000000e+03) (4, -1.01773939132690429688e+01) (5, -1.56191217899322509766e+00) (6, -1.47500000000000000000e+03) (7, -1.47500000000000000000e+03) (8, -1.47500000000000000000e+03) (9, -1.47500000000000000000e+03) (10, -6.18257713317871093750e+00) (11, -1.76875019073486328125e+01) (12, -1.47500000000000000000e+03) (13, -1.47500000000000000000e+03) (14, -1.45670175552368164062e+00) (15, -1.47500000000000000000e+03) (16, -1.47500000000000000000e+03) (17, -1.30087633132934570312e+01) (18, -8.90385723114013671875e+00) (19, -5.22026062011718750000e+00) (20, -1.47500000000000000000e+03) (21, -1.47500000000000000000e+03) (22, -1.19119458007812500000e+03) (23, -1.47500000000000000000e+03) (24, -1.49862878417968750000e+03) (25, -1.03033838272094726562e+01) (26, -3.67846775054931640625e+00) (27, -1.47500000000000000000e+03) (28, -2.32912216186523437500e+01) (29, -1.47500000000000000000e+03) (30, -1.47500000000000000000e+03) (31, -8.80474472045898437500e+00) (32, -7.48619079589843750000e+00) (33, -1.47500000000000000000e+03) (34, -1.66944813728332519531e+00) (35, -1.47500000000000000000e+03) (36, -1.49993725585937500000e+03) (37, -1.47500000000000000000e+03) (38, -5.72104549407958984375e+00) (39, -8.94064998626708984375e+00) (40, -1.16836108398437500000e+03) (41, -1.47500000000000000000e+03) (42, -1.47500000000000000000e+03) (43, -1.47500000000000000000e+03) (44, -1.05590076446533203125e+01) (45, -6.03041505813598632812e+00) (46, -1.45600610351562500000e+03) (47, -1.47500000000000000000e+03) (48, -9.86141860485076904297e-01) (49, 1.50000000000000000000e+03) (50, 1.50000000000000000000e+03) (51, 1.50000000000000000000e+03) (52, 1.50000000000000000000e+03) (53, 1.50000000000000000000e+03) (54, 1.50000000000000000000e+03) (55, 1.50000000000000000000e+03) (56, 1.50000000000000000000e+03) (57, 1.50000000000000000000e+03) (58, 1.50000000000000000000e+03) (59, 1.50000000000000000000e+03) (60, 1.50000000000000000000e+03) (61, 1.50000000000000000000e+03) (62, 1.50000000000000000000e+03) (63, 1.50000000000000000000e+03) (64, 1.50000000000000000000e+03) (65, 1.50000000000000000000e+03) (66, 1.50000000000000000000e+03) (67, 1.50000000000000000000e+03) (68, 1.50000000000000000000e+03) (69, 1.50000000000000000000e+03) (70, 1.50000000000000000000e+03) (71, 1.50000000000000000000e+03) (72, 1.50000000000000000000e+03) (73, 1.50000000000000000000e+03) (74, 1.50000000000000000000e+03) (75, 1.50000000000000000000e+03) (76, 1.50000000000000000000e+03) (77, 1.50000000000000000000e+03) (78, 1.50000000000000000000e+03) (79, 1.50000000000000000000e+03) (80, 1.50000000000000000000e+03) (81, 9.94237124919891357422e-01) (82, -3.79356473684310913086e-01) (83, -1.57703173160552978516e+00) (84, -1.38264596462249755859e+00) (85, 1.50000000000000000000e+03) (86, 5.29058635234832763672e-01) (82, 1.68373763561248779297e+00) (83, 1.72191345691680908203e+00) (84, 1.65027248859405517578e+00) (85, 1.50000000000000000000e+03) (86, -2.86151027679443359375e+00) (82, 1.57474589347839355469e+00) (83, 1.55770492553710937500e+00) (84, 1.62872374057769775391e+00) (85, 1.50000000000000000000e+03) (86, -2.85363698005676269531e+00) (82, 1.69567525386810302734e+00) (83, 1.58531415462493896484e+00) (84, 1.78501749038696289062e+00) (85, 1.50000000000000000000e+03) (86, -3.55670309066772460938e+00) (87, 1.68300008773803710938e+00) (88, -1.20204997062683105469e+00) (89, -1.20680427551269531250e+00) (90, -2.63425493240356445312e+00) (91, 7.55423188209533691406e-01) 
