FANN_FLO_2.1
num_layers=3
learning_rate=0.400000
connection_rate=1.000000
network_type=0
learning_momentum=0.000000
training_algorithm=2
train_error_function=1
train_stop_function=0
cascade_output_change_fraction=0.010000
quickprop_decay=-0.000100
quickprop_mu=1.750000
rprop_increase_factor=1.200000
rprop_decrease_factor=0.500000
rprop_delta_min=0.000000
rprop_delta_max=50.000000
rprop_delta_zero=0.100000
cascade_output_stagnation_epochs=12
cascade_candidate_change_fraction=0.010000
cascade_candidate_stagnation_epochs=12
cascade_max_out_epochs=150
cascade_min_out_epochs=50
cascade_max_cand_epochs=150
cascade_min_cand_epochs=50
cascade_num_candidate_groups=2
bit_fail_limit=3.49999994039535522461e-01
cascade_candidate_limit=1.00000000000000000000e+03
cascade_weight_multiplier=4.00000005960464477539e-01
cascade_activation_functions_count=10
cascade_activation_functions=3 5 7 8 10 11 14 15 16 17 
cascade_activation_steepnesses_count=4
cascade_activation_steepnesses=2.50000000000000000000e-01 5.00000000000000000000e-01 7.50000000000000000000e-01 1.00000000000000000000e+00 
layer_sizes=6 5 2 
scale_included=0
neurons (num_inputs, activation_function, activation_steepness)=(0, 0, 0.00000000000000000000e+00) (0, 0, 0.00000000000000000000e+00) (0, 0, 0.00000000000000000000e+00) (0, 0, 0.00000000000000000000e+00) (0, 0, 0.00000000000000000000e+00) (0, 0, 0.00000000000000000000e+00) (6, 3, 5.00000000000000000000e-01) (6, 3, 5.00000000000000000000e-01) (6, 3, 5.00000000000000000000e-01) (6, 3, 5.00000000000000000000e-01) (0, 3, 0.00000000000000000000e+00) (5, 0, 5.00000000000000000000e-01) (0, 0, 0.00000000000000000000e+00) 
connections (connected_to_neuron, weight)=(0, 1.02409219741821289062e+00) (1, -2.32521533966064453125e+00) (2, 2.53208309412002563477e-01) (3, 1.11232511699199676514e-02) (4, 1.15412318706512451172e+00) (5, -4.17430067062377929688e+00) (0, -8.28603286743164062500e+01) (1, -3.72021389007568359375e+00) (2, 1.72300729900598526001e-02) (3, -2.75666207075119018555e-01) (4, 2.52881020307540893555e-01) (5, -7.56698727607727050781e-01) (0, -2.01621174812316894531e+00) (1, -8.59880670905113220215e-02) (2, -6.03123456239700317383e-02) (3, -1.13485789299011230469e+00) (4, -1.70482636895030736923e-03) (5, -5.54310977458953857422e-01) (0, -1.81891422271728515625e+01) (1, -2.22072744369506835938e+00) (2, 2.27428302168846130371e-01) (3, -2.32909351587295532227e-01) (4, 1.94465726613998413086e-01) (5, -9.75908339023590087891e-01) (6, 7.04062998294830322266e-01) (7, 4.07176065444946289062e+00) (8, 1.04233705997467041016e+00) (9, 3.90081381797790527344e+00) (10, 3.09007793664932250977e-01) 
