FANN_FLO_2.1
num_layers=3
learning_rate=0.500000
connection_rate=1.000000
network_type=0
learning_momentum=0.000000
training_algorithm=2
train_error_function=1
train_stop_function=0
cascade_output_change_fraction=0.010000
quickprop_decay=-0.000100
quickprop_mu=1.750000
rprop_increase_factor=1.200000
rprop_decrease_factor=0.500000
rprop_delta_min=0.000000
rprop_delta_max=50.000000
rprop_delta_zero=0.100000
cascade_output_stagnation_epochs=12
cascade_candidate_change_fraction=0.010000
cascade_candidate_stagnation_epochs=12
cascade_max_out_epochs=150
cascade_min_out_epochs=50
cascade_max_cand_epochs=150
cascade_min_cand_epochs=50
cascade_num_candidate_groups=2
bit_fail_limit=3.49999994039535522461e-01
cascade_candidate_limit=1.00000000000000000000e+03
cascade_weight_multiplier=4.00000005960464477539e-01
cascade_activation_functions_count=10
cascade_activation_functions=3 5 7 8 10 11 14 15 16 17 
cascade_activation_steepnesses_count=4
cascade_activation_steepnesses=2.50000000000000000000e-01 5.00000000000000000000e-01 7.50000000000000000000e-01 1.00000000000000000000e+00 
layer_sizes=18 5 2 
scale_included=0
neurons (num_inputs, activation_function, activation_steepness)=(0, 0, 0.00000000000000000000e+00) (0, 0, 0.00000000000000000000e+00) (0, 0, 0.00000000000000000000e+00) (0, 0, 0.00000000000000000000e+00) (0, 0, 0.00000000000000000000e+00) (0, 0, 0.00000000000000000000e+00) (0, 0, 0.00000000000000000000e+00) (0, 0, 0.00000000000000000000e+00) (0, 0, 0.00000000000000000000e+00) (0, 0, 0.00000000000000000000e+00) (0, 0, 0.00000000000000000000e+00) (0, 0, 0.00000000000000000000e+00) (0, 0, 0.00000000000000000000e+00) (0, 0, 0.00000000000000000000e+00) (0, 0, 0.00000000000000000000e+00) (0, 0, 0.00000000000000000000e+00) (0, 0, 0.00000000000000000000e+00) (0, 0, 0.00000000000000000000e+00) (18, 3, 5.00000000000000000000e-01) (18, 3, 5.00000000000000000000e-01) (18, 3, 5.00000000000000000000e-01) (18, 3, 5.00000000000000000000e-01) (0, 3, 0.00000000000000000000e+00) (5, 0, 5.00000000000000000000e-01) (0, 0, 0.00000000000000000000e+00) 
connections (connected_to_neuron, weight)=(0, 1.10332317352294921875e+01) (1, 3.64286155700683593750e+01) (2, 7.10914325714111328125e+00) (3, 3.86767005920410156250e+01) (4, 2.55893573760986328125e+01) (5, -6.79896316528320312500e+01) (6, -2.68012475967407226562e+00) (7, -4.34108591079711914062e+00) (8, -1.49677202105522155762e-01) (9, 1.42531001567840576172e+00) (10, 2.85234966278076171875e+01) (11, 2.74025325775146484375e+01) (12, 4.91540765762329101562e+00) (13, 4.27719068527221679688e+00) (14, -1.06505374908447265625e+01) (15, 6.13471889495849609375e+00) (16, 7.00034475326538085938e+00) (17, 1.30841720104217529297e+00) (0, 5.81094503402709960938e-01) (1, 5.51998674869537353516e-01) (2, 6.53431117534637451172e-01) (3, 7.97921299934387207031e-01) (4, 6.25321447849273681641e-01) (5, -4.08675402402877807617e-01) (6, -1.33536672592163085938e+00) (7, -6.80984556674957275391e-01) (8, 1.46359736099839210510e-02) (9, 7.84455478191375732422e-01) (10, 7.27450251579284667969e-01) (11, 6.41788363456726074219e-01) (12, 6.80216312408447265625e-01) (13, 7.38748371601104736328e-01) (14, 7.63406753540039062500e-02) (15, 7.38822817802429199219e-01) (16, 4.21798139810562133789e-01) (17, -3.83483552932739257812e+00) (0, 9.95906639099121093750e+00) (1, 3.29698715209960937500e+01) (2, 5.67036533355712890625e+00) (3, 3.89044113159179687500e+01) (4, 1.76884579658508300781e+00) (5, -8.08168869018554687500e+01) (6, -3.07877564430236816406e+00) (7, -2.41284990310668945312e+00) (8, 7.27138042449951171875e-01) (9, 1.14083755016326904297e+00) (10, 2.85185146331787109375e+01) (11, 2.09574079513549804688e+00) (12, -1.87881290912628173828e+00) (13, 1.27803344726562500000e+01) (14, -1.29118728637695312500e+01) (15, 6.46660804748535156250e+00) (16, 5.24586677551269531250e+00) (17, 1.29188728332519531250e+00) (0, 7.48152315616607666016e-01) (1, 1.02029705047607421875e+00) (2, 7.89854705333709716797e-01) (3, 8.08427751064300537109e-01) (4, 7.18758106231689453125e-01) (5, -7.59977519512176513672e-01) (6, -4.18421804904937744141e-01) (7, -8.82259428501129150391e-01) (8, 1.21102593839168548584e-01) (9, 5.71632027626037597656e-01) (10, 8.65185618400573730469e-01) (11, 8.25510799884796142578e-01) (12, 8.37025284767150878906e-01) (13, 7.08275437355041503906e-01) (14, 1.35348784923553466797e+00) (15, 6.37764811515808105469e-01) (16, 1.12285315990447998047e+00) (17, -3.38965392112731933594e+00) (18, 1.15855443477630615234e+00) (19, 6.63350725173950195312e+00) (20, 1.17692321538925170898e-01) (21, 7.54348993301391601562e+00) (22, 1.34916532039642333984e+00) 
