FANN_FLO_2.1
num_layers=3
learning_rate=0.300000
connection_rate=1.000000
network_type=0
learning_momentum=0.000000
training_algorithm=2
train_error_function=1
train_stop_function=0
cascade_output_change_fraction=0.010000
quickprop_decay=-0.000100
quickprop_mu=1.750000
rprop_increase_factor=1.200000
rprop_decrease_factor=0.500000
rprop_delta_min=0.000000
rprop_delta_max=50.000000
rprop_delta_zero=0.100000
cascade_output_stagnation_epochs=12
cascade_candidate_change_fraction=0.010000
cascade_candidate_stagnation_epochs=12
cascade_max_out_epochs=150
cascade_min_out_epochs=50
cascade_max_cand_epochs=150
cascade_min_cand_epochs=50
cascade_num_candidate_groups=2
bit_fail_limit=3.49999994039535522461e-01
cascade_candidate_limit=1.00000000000000000000e+03
cascade_weight_multiplier=4.00000005960464477539e-01
cascade_activation_functions_count=10
cascade_activation_functions=3 5 7 8 10 11 14 15 16 17 
cascade_activation_steepnesses_count=4
cascade_activation_steepnesses=2.50000000000000000000e-01 5.00000000000000000000e-01 7.50000000000000000000e-01 1.00000000000000000000e+00 
layer_sizes=4 9 2 
scale_included=0
neurons (num_inputs, activation_function, activation_steepness)=(0, 0, 0.00000000000000000000e+00) (0, 0, 0.00000000000000000000e+00) (0, 0, 0.00000000000000000000e+00) (0, 0, 0.00000000000000000000e+00) (4, 3, 5.00000000000000000000e-01) (4, 3, 5.00000000000000000000e-01) (4, 3, 5.00000000000000000000e-01) (4, 3, 5.00000000000000000000e-01) (4, 3, 5.00000000000000000000e-01) (4, 3, 5.00000000000000000000e-01) (4, 3, 5.00000000000000000000e-01) (4, 3, 5.00000000000000000000e-01) (0, 3, 0.00000000000000000000e+00) (9, 3, 5.00000000000000000000e-01) (0, 3, 0.00000000000000000000e+00) 
connections (connected_to_neuron, weight)=(0, -7.44461596012115478516e-01) (1, 7.67586350440979003906e-01) (2, -2.35350608825683593750e+00) (3, 8.70272517204284667969e-01) (0, -9.72891628742218017578e-01) (1, 6.73476338386535644531e-01) (2, -1.67566883563995361328e+00) (3, 1.04554331302642822266e+00) (0, -6.77209079265594482422e-01) (1, 7.93218672275543212891e-01) (2, -2.70376944541931152344e+00) (3, 9.61765110492706298828e-01) (0, -1.28506898880004882812e-01) (1, 7.00008571147918701172e-01) (2, -3.00631117820739746094e+00) (3, 8.92969489097595214844e-01) (0, -6.24056942760944366455e-02) (1, 2.76909340173006057739e-02) (2, -4.48879897594451904297e-01) (3, 4.04615104198455810547e-01) (0, -1.01016573607921600342e-01) (1, 2.12195981293916702271e-02) (2, -1.40937924385070800781e-01) (3, 2.13013172149658203125e+00) (0, 1.74940407276153564453e-01) (1, -2.16515194624662399292e-02) (2, 1.50626093149185180664e-01) (3, -2.08295941352844238281e+00) (0, -4.12796318531036376953e-01) (1, -5.95180243253707885742e-02) (2, 3.57602722942829132080e-02) (3, 5.75605630874633789062e-02) (4, -1.76988750696182250977e-01) (5, -2.48012110590934753418e-01) (6, -2.32779920101165771484e-01) (7, -1.80923596024513244629e-01) (8, -4.66342878341674804688e+00) (9, -3.54692006111145019531e+00) (10, 2.17595100402832031250e+00) (11, -8.18980590820312500000e+02) (12, -1.20108500123023986816e-01) 
