FANN_FLO_2.1
num_layers=4
learning_rate=0.500000
connection_rate=1.000000
network_type=0
learning_momentum=0.000000
training_algorithm=2
train_error_function=1
train_stop_function=0
cascade_output_change_fraction=0.010000
quickprop_decay=-0.000100
quickprop_mu=1.750000
rprop_increase_factor=1.200000
rprop_decrease_factor=0.500000
rprop_delta_min=0.000000
rprop_delta_max=50.000000
rprop_delta_zero=0.100000
cascade_output_stagnation_epochs=12
cascade_candidate_change_fraction=0.010000
cascade_candidate_stagnation_epochs=12
cascade_max_out_epochs=150
cascade_min_out_epochs=50
cascade_max_cand_epochs=150
cascade_min_cand_epochs=50
cascade_num_candidate_groups=2
bit_fail_limit=3.49999994039535522461e-01
cascade_candidate_limit=1.00000000000000000000e+03
cascade_weight_multiplier=4.00000005960464477539e-01
cascade_activation_functions_count=10
cascade_activation_functions=3 5 7 8 10 11 14 15 16 17 
cascade_activation_steepnesses_count=4
cascade_activation_steepnesses=2.50000000000000000000e-01 5.00000000000000000000e-01 7.50000000000000000000e-01 1.00000000000000000000e+00 
layer_sizes=82 5 5 2 
scale_included=0
neurons (num_inputs, activation_function, activation_steepness)=(0, 0, 0.00000000000000000000e+00) (0, 0, 0.00000000000000000000e+00) (0, 0, 0.00000000000000000000e+00) (0, 0, 0.00000000000000000000e+00) (0, 0, 0.00000000000000000000e+00) (0, 0, 0.00000000000000000000e+00) (0, 0, 0.00000000000000000000e+00) (0, 0, 0.00000000000000000000e+00) (0, 0, 0.00000000000000000000e+00) (0, 0, 0.00000000000000000000e+00) (0, 0, 0.00000000000000000000e+00) (0, 0, 0.00000000000000000000e+00) (0, 0, 0.00000000000000000000e+00) (0, 0, 0.00000000000000000000e+00) (0, 0, 0.00000000000000000000e+00) (0, 0, 0.00000000000000000000e+00) (0, 0, 0.00000000000000000000e+00) (0, 0, 0.00000000000000000000e+00) (0, 0, 0.00000000000000000000e+00) (0, 0, 0.00000000000000000000e+00) (0, 0, 0.00000000000000000000e+00) (0, 0, 0.00000000000000000000e+00) (0, 0, 0.00000000000000000000e+00) (0, 0, 0.00000000000000000000e+00) (0, 0, 0.00000000000000000000e+00) (0, 0, 0.00000000000000000000e+00) (0, 0, 0.00000000000000000000e+00) (0, 0, 0.00000000000000000000e+00) (0, 0, 0.00000000000000000000e+00) (0, 0, 0.00000000000000000000e+00) (0, 0, 0.00000000000000000000e+00) (0, 0, 0.00000000000000000000e+00) (0, 0, 0.00000000000000000000e+00) (0, 0, 0.00000000000000000000e+00) (0, 0, 0.00000000000000000000e+00) (0, 0, 0.00000000000000000000e+00) (0, 0, 0.00000000000000000000e+00) (0, 0, 0.00000000000000000000e+00) (0, 0, 0.00000000000000000000e+00) (0, 0, 0.00000000000000000000e+00) (0, 0, 0.00000000000000000000e+00) (0, 0, 0.00000000000000000000e+00) (0, 0, 0.00000000000000000000e+00) (0, 0, 0.00000000000000000000e+00) (0, 0, 0.00000000000000000000e+00) (0, 0, 0.00000000000000000000e+00) (0, 0, 0.00000000000000000000e+00) (0, 0, 0.00000000000000000000e+00) (0, 0, 0.00000000000000000000e+00) (0, 0, 0.00000000000000000000e+00) (0, 0, 0.00000000000000000000e+00) (0, 0, 0.00000000000000000000e+00) (0, 0, 0.00000000000000000000e+00) (0, 0, 0.00000000000000000000e+00) (0, 0, 0.00000000000000000000e+00) (0, 0, 0.00000000000000000000e+00) (0, 0, 0.00000000000000000000e+00) (0, 0, 0.00000000000000000000e+00) (0, 0, 0.00000000000000000000e+00) (0, 0, 0.00000000000000000000e+00) (0, 0, 0.00000000000000000000e+00) (0, 0, 0.00000000000000000000e+00) (0, 0, 0.00000000000000000000e+00) (0, 0, 0.00000000000000000000e+00) (0, 0, 0.00000000000000000000e+00) (0, 0, 0.00000000000000000000e+00) (0, 0, 0.00000000000000000000e+00) (0, 0, 0.00000000000000000000e+00) (0, 0, 0.00000000000000000000e+00) (0, 0, 0.00000000000000000000e+00) (0, 0, 0.00000000000000000000e+00) (0, 0, 0.00000000000000000000e+00) (0, 0, 0.00000000000000000000e+00) (0, 0, 0.00000000000000000000e+00) (0, 0, 0.00000000000000000000e+00) (0, 0, 0.00000000000000000000e+00) (0, 0, 0.00000000000000000000e+00) (0, 0, 0.00000000000000000000e+00) (0, 0, 0.00000000000000000000e+00) (0, 0, 0.00000000000000000000e+00) (0, 0, 0.00000000000000000000e+00) (0, 0, 0.00000000000000000000e+00) (82, 3, 5.00000000000000000000e-01) (82, 3, 5.00000000000000000000e-01) (82, 3, 5.00000000000000000000e-01) (82, 3, 5.00000000000000000000e-01) (0, 3, 0.00000000000000000000e+00) (5, 3, 5.00000000000000000000e-01) (5, 3, 5.00000000000000000000e-01) (5, 3, 5.00000000000000000000e-01) (5, 3, 5.00000000000000000000e-01) (0, 3, 0.00000000000000000000e+00) (5, 3, 5.00000000000000000000e-01) (0, 3, 0.00000000000000000000e+00) 
connections (connected_to_neuron, weight)=(0, 2.36436694860458374023e-01) (1, 3.03081661462783813477e-01) (2, -2.42973655462265014648e-01) (3, -3.09814631938934326172e-01) (4, -8.72372210025787353516e-01) (5, -5.52215948700904846191e-02) (6, 5.72139441967010498047e-01) (7, -3.25764119625091552734e-01) (8, -3.00250798463821411133e-01) (9, -1.51285722851753234863e-01) (10, -4.81163799762725830078e-01) (11, -8.14918458461761474609e-01) (12, 1.07073813676834106445e-01) (13, -1.32901072502136230469e-01) (14, 1.82221204042434692383e-01) (15, -3.24843883514404296875e-01) (16, -1.96815401315689086914e-01) (17, -1.71750414371490478516e+00) (18, -5.35327136516571044922e-01) (19, -3.51218968629837036133e-01) (20, -9.57005739212036132812e-01) (21, -1.10935747623443603516e-01) (22, -2.58458256721496582031e-01) (23, -1.29791513085365295410e-01) (24, -7.07981920242309570312e+00) (25, -7.55596816539764404297e-01) (26, -2.03129217028617858887e-01) (27, -3.62850338220596313477e-01) (28, 1.86381369829177856445e-01) (29, -3.57439219951629638672e-01) (30, -1.00342361256480216980e-02) (31, -1.19687044620513916016e+00) (32, -1.79370775818824768066e-01) (33, 2.66413211822509765625e-01) (34, 2.57643520832061767578e-01) (35, 3.23123514652252197266e-01) (36, -2.84644424915313720703e-01) (37, 6.26028552651405334473e-02) (38, 2.15002611279487609863e-01) (39, -1.42943620681762695312e-01) (40, -1.76601067185401916504e-01) (41, 2.65792131423950195312e-01) (42, -6.08781464397907257080e-02) (43, 5.30577659606933593750e-01) (44, -4.97287362813949584961e-01) (45, -1.98883071541786193848e-01) (46, 3.75016450881958007812e-01) (47, 2.93425619602203369141e-01) (48, -5.37309348583221435547e-02) (49, 1.50000000000000000000e+03) (50, 1.50000000000000000000e+03) (51, 1.50000000000000000000e+03) (52, 1.50000000000000000000e+03) (53, 1.50000000000000000000e+03) (54, 1.50000000000000000000e+03) (55, 1.50000000000000000000e+03) (56, 1.50000000000000000000e+03) (57, 1.50000000000000000000e+03) (58, 1.50000000000000000000e+03) (59, 1.50000000000000000000e+03) (60, 1.50000000000000000000e+03) (61, 1.50000000000000000000e+03) (62, 1.50000000000000000000e+03) (63, 1.50000000000000000000e+03) (64, 1.50000000000000000000e+03) (65, 1.50000000000000000000e+03) (66, 1.50000000000000000000e+03) (67, 1.50000000000000000000e+03) (68, 1.50000000000000000000e+03) (69, 1.50000000000000000000e+03) (70, 1.50000000000000000000e+03) (71, 1.50000000000000000000e+03) (72, 1.50000000000000000000e+03) (73, 1.50000000000000000000e+03) (74, 1.50000000000000000000e+03) (75, 1.50000000000000000000e+03) (76, 1.50000000000000000000e+03) (77, 1.50000000000000000000e+03) (78, 1.50000000000000000000e+03) (79, 1.50000000000000000000e+03) (80, 1.50000000000000000000e+03) (81, 3.31724357604980468750e+00) (0, -4.04296875000000000000e-01) (1, 2.05257568359375000000e+01) (2, -2.41218872070312500000e+02) (3, 1.50000000000000000000e+03) (4, 1.50000000000000000000e+03) (5, 1.50000000000000000000e+03) (6, 1.50000000000000000000e+03) (7, 1.85015258789062500000e+02) (8, 9.57295715332031250000e+02) (9, 8.30631446838378906250e+00) (10, 1.50000000000000000000e+03) (11, 1.50000000000000000000e+03) (12, 1.34852172851562500000e+03) (13, 1.50000000000000000000e+03) (14, 1.39736096191406250000e+03) (15, 5.07115844726562500000e+02) (16, -7.88682708740234375000e+01) (17, 1.50000000000000000000e+03) (18, 1.11870373535156250000e+03) (19, 1.30611450195312500000e+02) (20, 8.15956665039062500000e+02) (21, 1.57803848266601562500e+02) (22, -3.92613525390625000000e+01) (23, -9.05542602539062500000e+01) (24, 1.50000000000000000000e+03) (25, 1.35958593750000000000e+03) (26, 1.50000000000000000000e+03) (27, 1.50000000000000000000e+03) (28, 8.40675476074218750000e+02) (29, 8.98982299804687500000e+02) (30, -3.11463743448257446289e-01) (31, 1.50000000000000000000e+03) (32, 1.50000000000000000000e+03) (33, 1.07078613281250000000e+03) (34, 1.50000000000000000000e+03) (35, 1.85015258789062500000e+02) (36, 9.81237640380859375000e+01) (37, -2.01176449656486511230e-01) (38, 1.50000000000000000000e+03) (39, 1.50000000000000000000e+03) (40, 1.50000000000000000000e+03) (41, 1.50000000000000000000e+03) (42, 1.72497116088867187500e+02) (43, 9.75640441894531250000e+02) (44, -3.02048534154891967773e-01) (45, 1.50000000000000000000e+03) (46, 1.11818774414062500000e+03) (47, 1.50000000000000000000e+03) (48, 1.50000000000000000000e+03) (49, 1.50000000000000000000e+03) (50, 1.50000000000000000000e+03) (51, 1.50000000000000000000e+03) (52, 1.50000000000000000000e+03) (53, 1.50000000000000000000e+03) (54, 1.50000000000000000000e+03) (55, 1.50000000000000000000e+03) (56, 1.50000000000000000000e+03) (57, 1.50000000000000000000e+03) (58, 1.50000000000000000000e+03) (59, 1.50000000000000000000e+03) (60, 1.50000000000000000000e+03) (61, 1.50000000000000000000e+03) (62, 1.50000000000000000000e+03) (63, 1.50000000000000000000e+03) (64, 1.50000000000000000000e+03) (65, 1.50000000000000000000e+03) (66, 1.50000000000000000000e+03) (67, 1.50000000000000000000e+03) (68, 1.50000000000000000000e+03) (69, 1.50000000000000000000e+03) (70, 1.50000000000000000000e+03) (71, 1.50000000000000000000e+03) (72, 1.50000000000000000000e+03) (73, 1.50000000000000000000e+03) (74, 1.50000000000000000000e+03) (75, 1.50000000000000000000e+03) (76, 1.50000000000000000000e+03) (77, 1.50000000000000000000e+03) (78, 1.50000000000000000000e+03) (79, 1.50000000000000000000e+03) (80, 1.50000000000000000000e+03) (81, 1.83380675315856933594e+00) (0, -4.42666299641132354736e-02) (1, -3.54875504970550537109e-01) (2, 4.02217209339141845703e-01) (3, 5.66769599914550781250e-01) (4, 2.47609078884124755859e-01) (5, 2.68812209367752075195e-01) (6, 3.41942757368087768555e-01) (7, 2.45583906769752502441e-01) (8, 2.05584213137626647949e-01) (9, -7.62048780918121337891e-01) (10, 1.31603091955184936523e-01) (11, -3.63469481468200683594e-01) (12, 1.34465917944908142090e-01) (13, 1.79676428437232971191e-01) (14, 1.27679094672203063965e-01) (15, 2.52516478300094604492e-01) (16, -2.45023399591445922852e-01) (17, -1.62458407878875732422e+00) (18, 4.43770974874496459961e-01) (19, 2.06759870052337646484e-01) (20, -1.59166723489761352539e-01) (21, -8.10010917484760284424e-03) (22, 2.18866646289825439453e-01) (23, -1.47426867485046386719e+00) (24, -6.31132221221923828125e+00) (25, -1.88617229461669921875e-01) (26, -2.53464162349700927734e-01) (27, 2.98655945807695388794e-02) (28, 2.55881369113922119141e-01) (29, -1.99979897588491439819e-02) (30, -2.06320390105247497559e-01) (31, -1.75484704971313476562e+00) (32, 6.19225144386291503906e-01) (33, 4.13041174411773681641e-01) (34, 1.14442631602287292480e-01) (35, -4.69625517725944519043e-02) (36, -5.12523412704467773438e-01) (37, -1.06321501731872558594e+00) (38, -1.04320383071899414062e+00) (39, -3.66995900869369506836e-01) (40, 1.66659131646156311035e-01) (41, -1.11561408266425132751e-02) (42, 2.70778030157089233398e-01) (43, -3.42529982328414916992e-01) (44, -6.18213355541229248047e-01) (45, -4.26506489515304565430e-01) (46, -2.23939895629882812500e-01) (47, -3.21336060762405395508e-01) (48, -1.59056872129440307617e-01) (49, 1.50000000000000000000e+03) (50, 1.50000000000000000000e+03) (51, 1.50000000000000000000e+03) (52, 1.50000000000000000000e+03) (53, 1.50000000000000000000e+03) (54, 1.50000000000000000000e+03) (55, 1.50000000000000000000e+03) (56, 1.50000000000000000000e+03) (57, 1.50000000000000000000e+03) (58, 1.50000000000000000000e+03) (59, 1.50000000000000000000e+03) (60, 1.50000000000000000000e+03) (61, 1.50000000000000000000e+03) (62, 1.50000000000000000000e+03) (63, 1.50000000000000000000e+03) (64, 1.50000000000000000000e+03) (65, 1.50000000000000000000e+03) (66, 1.50000000000000000000e+03) (67, 1.50000000000000000000e+03) (68, 1.50000000000000000000e+03) (69, 1.50000000000000000000e+03) (70, 1.50000000000000000000e+03) (71, 1.50000000000000000000e+03) (72, 1.50000000000000000000e+03) (73, 1.50000000000000000000e+03) (74, 1.50000000000000000000e+03) (75, 1.50000000000000000000e+03) (76, 1.50000000000000000000e+03) (77, 1.50000000000000000000e+03) (78, 1.50000000000000000000e+03) (79, 1.50000000000000000000e+03) (80, 1.50000000000000000000e+03) (81, 7.03660535812377929688e+00) (0, -2.86587009429931640625e+01) (1, -1.62852811813354492188e+00) (2, -4.74037981033325195312e+00) (3, -2.63348274230957031250e+01) (4, -3.25133850097656250000e+02) (5, -3.09551119804382324219e+00) (6, -9.74077343940734863281e-01) (7, -1.35376777648925781250e+01) (8, -1.39369659423828125000e+02) (9, -2.65496459960937500000e+02) (10, -1.25159521484375000000e+03) (11, -1.50000000000000000000e+03) (12, -4.15724229812622070312e+00) (13, -6.35685110092163085938e+00) (14, -4.98913269042968750000e+01) (15, -8.15343284606933593750e+00) (16, -1.50000000000000000000e+03) (17, -3.37740745544433593750e+01) (18, -3.16991149902343750000e+02) (19, -2.69750499725341796875e+00) (20, -2.10019826889038085938e+00) (21, -4.15861663818359375000e+01) (22, -1.96803808212280273438e+00) (23, -1.50000000000000000000e+03) (24, -1.50000000000000000000e+03) (25, -1.50000000000000000000e+03) (26, -5.92106723785400390625e+00) (27, -2.61039972305297851562e+00) (28, -1.97366409301757812500e+02) (29, -4.38344764709472656250e+00) (30, -3.62529754638671875000e+01) (31, -1.50000000000000000000e+03) (32, -7.98260009765625000000e+02) (33, -7.11115956306457519531e-01) (34, -4.26332801580429077148e-01) (35, -6.56159448623657226562e+00) (36, -2.02658737182617187500e+02) (37, -1.98625791072845458984e+00) (38, -1.50000000000000000000e+03) (39, -1.50000000000000000000e+03) (40, -1.65447115898132324219e+00) (41, -4.30147320032119750977e-01) (42, -2.11411738395690917969e+00) (43, -5.14964628219604492188e+00) (44, -2.75826883316040039062e+00) (45, -1.50000000000000000000e+03) (46, -1.16327404785156250000e+03) (47, -4.53659729003906250000e+02) (48, -9.60773132324218750000e+02) (49, 1.50000000000000000000e+03) (50, 1.50000000000000000000e+03) (51, 1.50000000000000000000e+03) (52, 1.50000000000000000000e+03) (53, 1.50000000000000000000e+03) (54, 1.50000000000000000000e+03) (55, 1.50000000000000000000e+03) (56, 1.50000000000000000000e+03) (57, 1.50000000000000000000e+03) (58, 1.50000000000000000000e+03) (59, 1.50000000000000000000e+03) (60, 1.50000000000000000000e+03) (61, 1.50000000000000000000e+03) (62, 1.50000000000000000000e+03) (63, 1.50000000000000000000e+03) (64, 1.50000000000000000000e+03) (65, 1.50000000000000000000e+03) (66, 1.50000000000000000000e+03) (67, 1.50000000000000000000e+03) (68, 1.50000000000000000000e+03) (69, 1.50000000000000000000e+03) (70, 1.50000000000000000000e+03) (71, 1.50000000000000000000e+03) (72, 1.50000000000000000000e+03) (73, 1.50000000000000000000e+03) (74, 1.50000000000000000000e+03) (75, 1.50000000000000000000e+03) (76, 1.50000000000000000000e+03) (77, 1.50000000000000000000e+03) (78, 1.50000000000000000000e+03) (79, 1.50000000000000000000e+03) (80, 1.50000000000000000000e+03) (81, 1.39576733112335205078e+00) (82, 3.17613840103149414062e+00) (83, 1.23265635967254638672e+00) (84, 2.21040248870849609375e+00) (85, 1.50000000000000000000e+03) (86, -3.17866420745849609375e+00) (82, 1.18392400741577148438e+01) (83, -1.48836926269531250000e+03) (84, 9.94214296340942382812e-01) (85, 1.50000000000000000000e+03) (86, -8.36191463470458984375e+00) (82, 1.53636581420898437500e+02) (83, -1.26706695556640625000e+02) (84, 4.00114154815673828125e+00) (85, 1.50000000000000000000e+03) (86, -6.36730957031250000000e+00) (82, 1.50000000000000000000e+03) (83, -5.69195739746093750000e+02) (84, 1.78923416137695312500e+01) (85, 1.50000000000000000000e+03) (86, -3.61159706115722656250e+00) (87, -2.66527175903320312500e+00) (88, -3.84794533252716064453e-01) (89, -1.15491890907287597656e+00) (90, -9.08676013350486755371e-02) (91, 1.01714766025543212891e+00) 
