FANN_FLO_2.1
num_layers=3
learning_rate=0.500000
connection_rate=1.000000
network_type=0
learning_momentum=0.000000
training_algorithm=2
train_error_function=1
train_stop_function=0
cascade_output_change_fraction=0.010000
quickprop_decay=-0.000100
quickprop_mu=1.750000
rprop_increase_factor=1.200000
rprop_decrease_factor=0.500000
rprop_delta_min=0.000000
rprop_delta_max=50.000000
rprop_delta_zero=0.100000
cascade_output_stagnation_epochs=12
cascade_candidate_change_fraction=0.010000
cascade_candidate_stagnation_epochs=12
cascade_max_out_epochs=150
cascade_min_out_epochs=50
cascade_max_cand_epochs=150
cascade_min_cand_epochs=50
cascade_num_candidate_groups=2
bit_fail_limit=3.49999994039535522461e-01
cascade_candidate_limit=1.00000000000000000000e+03
cascade_weight_multiplier=4.00000005960464477539e-01
cascade_activation_functions_count=10
cascade_activation_functions=3 5 7 8 10 11 14 15 16 17 
cascade_activation_steepnesses_count=4
cascade_activation_steepnesses=2.50000000000000000000e-01 5.00000000000000000000e-01 7.50000000000000000000e-01 1.00000000000000000000e+00 
layer_sizes=82 3 2 
scale_included=0
neurons (num_inputs, activation_function, activation_steepness)=(0, 0, 0.00000000000000000000e+00) (0, 0, 0.00000000000000000000e+00) (0, 0, 0.00000000000000000000e+00) (0, 0, 0.00000000000000000000e+00) (0, 0, 0.00000000000000000000e+00) (0, 0, 0.00000000000000000000e+00) (0, 0, 0.00000000000000000000e+00) (0, 0, 0.00000000000000000000e+00) (0, 0, 0.00000000000000000000e+00) (0, 0, 0.00000000000000000000e+00) (0, 0, 0.00000000000000000000e+00) (0, 0, 0.00000000000000000000e+00) (0, 0, 0.00000000000000000000e+00) (0, 0, 0.00000000000000000000e+00) (0, 0, 0.00000000000000000000e+00) (0, 0, 0.00000000000000000000e+00) (0, 0, 0.00000000000000000000e+00) (0, 0, 0.00000000000000000000e+00) (0, 0, 0.00000000000000000000e+00) (0, 0, 0.00000000000000000000e+00) (0, 0, 0.00000000000000000000e+00) (0, 0, 0.00000000000000000000e+00) (0, 0, 0.00000000000000000000e+00) (0, 0, 0.00000000000000000000e+00) (0, 0, 0.00000000000000000000e+00) (0, 0, 0.00000000000000000000e+00) (0, 0, 0.00000000000000000000e+00) (0, 0, 0.00000000000000000000e+00) (0, 0, 0.00000000000000000000e+00) (0, 0, 0.00000000000000000000e+00) (0, 0, 0.00000000000000000000e+00) (0, 0, 0.00000000000000000000e+00) (0, 0, 0.00000000000000000000e+00) (0, 0, 0.00000000000000000000e+00) (0, 0, 0.00000000000000000000e+00) (0, 0, 0.00000000000000000000e+00) (0, 0, 0.00000000000000000000e+00) (0, 0, 0.00000000000000000000e+00) (0, 0, 0.00000000000000000000e+00) (0, 0, 0.00000000000000000000e+00) (0, 0, 0.00000000000000000000e+00) (0, 0, 0.00000000000000000000e+00) (0, 0, 0.00000000000000000000e+00) (0, 0, 0.00000000000000000000e+00) (0, 0, 0.00000000000000000000e+00) (0, 0, 0.00000000000000000000e+00) (0, 0, 0.00000000000000000000e+00) (0, 0, 0.00000000000000000000e+00) (0, 0, 0.00000000000000000000e+00) (0, 0, 0.00000000000000000000e+00) (0, 0, 0.00000000000000000000e+00) (0, 0, 0.00000000000000000000e+00) (0, 0, 0.00000000000000000000e+00) (0, 0, 0.00000000000000000000e+00) (0, 0, 0.00000000000000000000e+00) (0, 0, 0.00000000000000000000e+00) (0, 0, 0.00000000000000000000e+00) (0, 0, 0.00000000000000000000e+00) (0, 0, 0.00000000000000000000e+00) (0, 0, 0.00000000000000000000e+00) (0, 0, 0.00000000000000000000e+00) (0, 0, 0.00000000000000000000e+00) (0, 0, 0.00000000000000000000e+00) (0, 0, 0.00000000000000000000e+00) (0, 0, 0.00000000000000000000e+00) (0, 0, 0.00000000000000000000e+00) (0, 0, 0.00000000000000000000e+00) (0, 0, 0.00000000000000000000e+00) (0, 0, 0.00000000000000000000e+00) (0, 0, 0.00000000000000000000e+00) (0, 0, 0.00000000000000000000e+00) (0, 0, 0.00000000000000000000e+00) (0, 0, 0.00000000000000000000e+00) (0, 0, 0.00000000000000000000e+00) (0, 0, 0.00000000000000000000e+00) (0, 0, 0.00000000000000000000e+00) (0, 0, 0.00000000000000000000e+00) (0, 0, 0.00000000000000000000e+00) (0, 0, 0.00000000000000000000e+00) (0, 0, 0.00000000000000000000e+00) (0, 0, 0.00000000000000000000e+00) (0, 0, 0.00000000000000000000e+00) (82, 3, 5.00000000000000000000e-01) (82, 3, 5.00000000000000000000e-01) (0, 3, 0.00000000000000000000e+00) (3, 3, 5.00000000000000000000e-01) (0, 3, 0.00000000000000000000e+00) 
connections (connected_to_neuron, weight)=(0, -2.63941377401351928711e-01) (1, 3.14778447151184082031e-01) (2, 2.61234283447265625000e-01) (3, 2.19631895422935485840e-01) (4, -2.77939379215240478516e-01) (5, 8.17806541919708251953e-01) (6, -2.57492829114198684692e-02) (7, -6.83965444564819335938e-01) (8, -3.44341844320297241211e-02) (9, -1.53781190514564514160e-01) (10, -1.23772963881492614746e-01) (11, 5.07861137390136718750e-01) (12, -1.62980988621711730957e-01) (13, -2.08277851343154907227e-01) (14, -2.31554657220840454102e-02) (15, -3.89377325773239135742e-01) (16, -9.47740197181701660156e-01) (17, -6.50564253330230712891e-01) (18, 9.10237431526184082031e-01) (19, 1.20712958276271820068e-01) (20, 2.09542229771614074707e-01) (21, -2.33413632959127426147e-02) (22, -5.76182678341865539551e-02) (23, -5.72090208530426025391e-01) (24, -5.29245758056640625000e+00) (25, -1.65134310722351074219e-01) (26, 1.20385490357875823975e-01) (27, -3.60422469675540924072e-02) (28, -2.36725240945816040039e-01) (29, 1.03558925911784172058e-02) (30, -2.97899663448333740234e-01) (31, -1.00327861309051513672e+00) (32, -8.09670016169548034668e-02) (33, 1.42143353819847106934e-01) (34, 4.41991120576858520508e-01) (35, 1.87725219875574111938e-02) (36, -6.98627755045890808105e-02) (37, -1.59289747476577758789e-01) (38, -2.23803311586380004883e-01) (39, -9.59652125835418701172e-01) (40, -5.18509268760681152344e-01) (41, 5.26834070682525634766e-01) (42, 2.54896134138107299805e-01) (43, -1.46303012967109680176e-01) (44, -6.76942646503448486328e-01) (45, -6.12018220126628875732e-02) (46, 2.19699352979660034180e-01) (47, -1.36766090989112854004e-01) (48, -7.48701095581054687500e-01) (49, 1.50000000000000000000e+03) (50, 1.50000000000000000000e+03) (51, 1.50000000000000000000e+03) (52, 1.50000000000000000000e+03) (53, 1.50000000000000000000e+03) (54, 1.50000000000000000000e+03) (55, 1.50000000000000000000e+03) (56, 1.50000000000000000000e+03) (57, 1.50000000000000000000e+03) (58, 1.50000000000000000000e+03) (59, 1.50000000000000000000e+03) (60, 1.50000000000000000000e+03) (61, 1.50000000000000000000e+03) (62, 1.50000000000000000000e+03) (63, 1.50000000000000000000e+03) (64, 1.50000000000000000000e+03) (65, 1.50000000000000000000e+03) (66, 1.50000000000000000000e+03) (67, 1.50000000000000000000e+03) (68, 1.50000000000000000000e+03) (69, 1.50000000000000000000e+03) (70, 1.50000000000000000000e+03) (71, 1.50000000000000000000e+03) (72, 1.50000000000000000000e+03) (73, 1.50000000000000000000e+03) (74, 1.50000000000000000000e+03) (75, 1.50000000000000000000e+03) (76, 1.50000000000000000000e+03) (77, 1.50000000000000000000e+03) (78, 1.50000000000000000000e+03) (79, 1.50000000000000000000e+03) (80, 1.50000000000000000000e+03) (81, 5.38615512847900390625e+00) (0, -4.59971576929092407227e-02) (1, 1.97240799665451049805e-01) (2, -2.58795082569122314453e-01) (3, -4.14330095052719116211e-01) (4, -3.16881835460662841797e-01) (5, -3.90440404415130615234e-01) (6, -4.80622798204421997070e-01) (7, 4.15446236729621887207e-02) (8, 1.17130288854241371155e-02) (9, -1.06769099831581115723e-01) (10, -2.71624684333801269531e-01) (11, -5.70104420185089111328e-01) (12, -1.77634388208389282227e-01) (13, -7.34751820564270019531e-02) (14, 1.11988760530948638916e-01) (15, -5.35676442086696624756e-02) (16, -3.25538143515586853027e-02) (17, -4.35414046049118041992e-01) (18, -5.19295275211334228516e-01) (19, -1.00229278206825256348e-01) (20, -1.79221883416175842285e-01) (21, 5.57827390730381011963e-02) (22, -2.34997309744358062744e-02) (23, -1.57356306910514831543e-01) (24, -3.69794893264770507812e+00) (25, -3.55581253767013549805e-01) (26, 3.26595939695835113525e-02) (27, 1.88438184559345245361e-02) (28, -1.09011240303516387939e-01) (29, -1.24034464359283447266e-01) (30, -2.22609922289848327637e-01) (31, -4.28109705448150634766e-01) (32, -1.82111516594886779785e-01) (33, -3.45816910266876220703e-02) (34, 2.72982150316238403320e-01) (35, -8.63687917590141296387e-02) (36, -7.25252851843833923340e-02) (37, 4.89256717264652252197e-02) (38, -3.52956950664520263672e-01) (39, -2.91988611221313476562e-01) (40, 6.69336915016174316406e-02) (41, 5.44871054589748382568e-02) (42, 6.03053830564022064209e-02) (43, 3.14724515192210674286e-04) (44, 2.15600475668907165527e-01) (45, -6.62664882838726043701e-03) (46, -1.82407587766647338867e-01) (47, -1.15303078200668096542e-03) (48, 7.57261365652084350586e-02) (49, 1.50000000000000000000e+03) (50, 1.50000000000000000000e+03) (51, 1.50000000000000000000e+03) (52, 1.50000000000000000000e+03) (53, 1.50000000000000000000e+03) (54, 1.50000000000000000000e+03) (55, 1.50000000000000000000e+03) (56, 1.50000000000000000000e+03) (57, 1.50000000000000000000e+03) (58, 1.50000000000000000000e+03) (59, 1.50000000000000000000e+03) (60, 1.50000000000000000000e+03) (61, 1.50000000000000000000e+03) (62, 1.50000000000000000000e+03) (63, 1.50000000000000000000e+03) (64, 1.50000000000000000000e+03) (65, 1.50000000000000000000e+03) (66, 1.50000000000000000000e+03) (67, 1.50000000000000000000e+03) (68, 1.50000000000000000000e+03) (69, 1.50000000000000000000e+03) (70, 1.50000000000000000000e+03) (71, 1.50000000000000000000e+03) (72, 1.50000000000000000000e+03) (73, 1.50000000000000000000e+03) (74, 1.50000000000000000000e+03) (75, 1.50000000000000000000e+03) (76, 1.50000000000000000000e+03) (77, 1.50000000000000000000e+03) (78, 1.50000000000000000000e+03) (79, 1.50000000000000000000e+03) (80, 1.50000000000000000000e+03) (81, 4.02757197618484497070e-01) (82, -1.56665265560150146484e+00) (83, -4.69309282302856445312e+00) (84, 9.64169204235076904297e-01) 
