FANN_FLO_2.1
num_layers=3
learning_rate=0.500000
connection_rate=1.000000
network_type=0
learning_momentum=0.000000
training_algorithm=2
train_error_function=1
train_stop_function=0
cascade_output_change_fraction=0.010000
quickprop_decay=-0.000100
quickprop_mu=1.750000
rprop_increase_factor=1.200000
rprop_decrease_factor=0.500000
rprop_delta_min=0.000000
rprop_delta_max=50.000000
rprop_delta_zero=0.100000
cascade_output_stagnation_epochs=12
cascade_candidate_change_fraction=0.010000
cascade_candidate_stagnation_epochs=12
cascade_max_out_epochs=150
cascade_min_out_epochs=50
cascade_max_cand_epochs=150
cascade_min_cand_epochs=50
cascade_num_candidate_groups=2
bit_fail_limit=3.49999994039535522461e-01
cascade_candidate_limit=1.00000000000000000000e+03
cascade_weight_multiplier=4.00000005960464477539e-01
cascade_activation_functions_count=10
cascade_activation_functions=3 5 7 8 10 11 14 15 16 17 
cascade_activation_steepnesses_count=4
cascade_activation_steepnesses=2.50000000000000000000e-01 5.00000000000000000000e-01 7.50000000000000000000e-01 1.00000000000000000000e+00 
layer_sizes=7 9 2 
scale_included=0
neurons (num_inputs, activation_function, activation_steepness)=(0, 0, 0.00000000000000000000e+00) (0, 0, 0.00000000000000000000e+00) (0, 0, 0.00000000000000000000e+00) (0, 0, 0.00000000000000000000e+00) (0, 0, 0.00000000000000000000e+00) (0, 0, 0.00000000000000000000e+00) (0, 0, 0.00000000000000000000e+00) (7, 3, 5.00000000000000000000e-01) (7, 3, 5.00000000000000000000e-01) (7, 3, 5.00000000000000000000e-01) (7, 3, 5.00000000000000000000e-01) (7, 3, 5.00000000000000000000e-01) (7, 3, 5.00000000000000000000e-01) (7, 3, 5.00000000000000000000e-01) (7, 3, 5.00000000000000000000e-01) (0, 3, 0.00000000000000000000e+00) (9, 0, 5.00000000000000000000e-01) (0, 0, 0.00000000000000000000e+00) 
connections (connected_to_neuron, weight)=(0, -1.18927910923957824707e-01) (1, -2.22991213202476501465e-01) (2, -8.79585981369018554688e-01) (3, 8.01823437213897705078e-02) (4, 9.67511713504791259766e-01) (5, 1.13148249685764312744e-01) (6, -3.27472877502441406250e+00) (0, -1.97874593734741210938e+00) (1, 2.60978293418884277344e+00) (2, 6.54732763767242431641e-01) (3, -7.21459341049194335938e+00) (4, 4.86553579568862915039e-01) (5, 9.46413803100585937500e+00) (6, -6.40248775482177734375e+00) (0, -2.75799721479415893555e-01) (1, -3.92892569303512573242e-01) (2, 2.38405942916870117188e+00) (3, -1.00921189785003662109e+00) (4, -8.89290124177932739258e-02) (5, -2.52336654663085937500e+02) (6, -2.29222679138183593750e+00) (0, 1.83314728736877441406e+00) (1, -1.05859553813934326172e+00) (2, -7.13439331054687500000e+02) (3, -1.73523831367492675781e+00) (4, 8.13213512301445007324e-02) (5, -5.60833251953125000000e+02) (6, -1.71879589557647705078e+00) (0, -7.04322829842567443848e-02) (1, 2.35287451744079589844e+00) (2, -1.59276556968688964844e+00) (3, -2.15731531381607055664e-01) (4, 8.34341144561767578125e+00) (5, -5.49502897262573242188e+00) (6, 6.61367416381835937500e-01) (0, -3.66196811199188232422e-01) (1, 4.50867414474487304688e-01) (2, 4.14174556732177734375e-01) (3, -3.50128859281539916992e-01) (4, -1.37958481907844543457e-01) (5, 1.79687827825546264648e-01) (6, 7.82997786998748779297e-01) (0, 1.11161375045776367188e+01) (1, -1.07939124107360839844e+00) (2, 1.38561450195312500000e+03) (3, 1.58041238784790039062e+00) (4, 1.33077636361122131348e-01) (5, 1.19927539062500000000e+03) (6, -2.36482143402099609375e+00) (0, -1.03915297985076904297e+00) (1, -1.07719965279102325439e-01) (2, 1.11368484497070312500e+01) (3, -9.79040026664733886719e-01) (4, -1.99840217828750610352e-02) (5, -3.09820495605468750000e+02) (6, -2.05313253402709960938e+00) (7, -6.22638277709484100342e-02) (8, 5.42818754911422729492e-02) (9, 6.75386474609375000000e+02) (10, 9.02557434082031250000e+02) (11, -9.67539966106414794922e-01) (12, -8.65533277392387390137e-02) (13, 7.47120678424835205078e-02) (14, -5.92764988541603088379e-02) (15, 9.47400033473968505859e-01) 
