FANN_FLO_2.1
num_layers=3
learning_rate=0.500000
connection_rate=1.000000
network_type=0
learning_momentum=0.000000
training_algorithm=2
train_error_function=1
train_stop_function=0
cascade_output_change_fraction=0.010000
quickprop_decay=-0.000100
quickprop_mu=1.750000
rprop_increase_factor=1.200000
rprop_decrease_factor=0.500000
rprop_delta_min=0.000000
rprop_delta_max=50.000000
rprop_delta_zero=0.100000
cascade_output_stagnation_epochs=12
cascade_candidate_change_fraction=0.010000
cascade_candidate_stagnation_epochs=12
cascade_max_out_epochs=150
cascade_min_out_epochs=50
cascade_max_cand_epochs=150
cascade_min_cand_epochs=50
cascade_num_candidate_groups=2
bit_fail_limit=3.49999994039535522461e-01
cascade_candidate_limit=1.00000000000000000000e+03
cascade_weight_multiplier=4.00000005960464477539e-01
cascade_activation_functions_count=10
cascade_activation_functions=3 5 7 8 10 11 14 15 16 17 
cascade_activation_steepnesses_count=4
cascade_activation_steepnesses=2.50000000000000000000e-01 5.00000000000000000000e-01 7.50000000000000000000e-01 1.00000000000000000000e+00 
layer_sizes=82 3 2 
scale_included=0
neurons (num_inputs, activation_function, activation_steepness)=(0, 0, 0.00000000000000000000e+00) (0, 0, 0.00000000000000000000e+00) (0, 0, 0.00000000000000000000e+00) (0, 0, 0.00000000000000000000e+00) (0, 0, 0.00000000000000000000e+00) (0, 0, 0.00000000000000000000e+00) (0, 0, 0.00000000000000000000e+00) (0, 0, 0.00000000000000000000e+00) (0, 0, 0.00000000000000000000e+00) (0, 0, 0.00000000000000000000e+00) (0, 0, 0.00000000000000000000e+00) (0, 0, 0.00000000000000000000e+00) (0, 0, 0.00000000000000000000e+00) (0, 0, 0.00000000000000000000e+00) (0, 0, 0.00000000000000000000e+00) (0, 0, 0.00000000000000000000e+00) (0, 0, 0.00000000000000000000e+00) (0, 0, 0.00000000000000000000e+00) (0, 0, 0.00000000000000000000e+00) (0, 0, 0.00000000000000000000e+00) (0, 0, 0.00000000000000000000e+00) (0, 0, 0.00000000000000000000e+00) (0, 0, 0.00000000000000000000e+00) (0, 0, 0.00000000000000000000e+00) (0, 0, 0.00000000000000000000e+00) (0, 0, 0.00000000000000000000e+00) (0, 0, 0.00000000000000000000e+00) (0, 0, 0.00000000000000000000e+00) (0, 0, 0.00000000000000000000e+00) (0, 0, 0.00000000000000000000e+00) (0, 0, 0.00000000000000000000e+00) (0, 0, 0.00000000000000000000e+00) (0, 0, 0.00000000000000000000e+00) (0, 0, 0.00000000000000000000e+00) (0, 0, 0.00000000000000000000e+00) (0, 0, 0.00000000000000000000e+00) (0, 0, 0.00000000000000000000e+00) (0, 0, 0.00000000000000000000e+00) (0, 0, 0.00000000000000000000e+00) (0, 0, 0.00000000000000000000e+00) (0, 0, 0.00000000000000000000e+00) (0, 0, 0.00000000000000000000e+00) (0, 0, 0.00000000000000000000e+00) (0, 0, 0.00000000000000000000e+00) (0, 0, 0.00000000000000000000e+00) (0, 0, 0.00000000000000000000e+00) (0, 0, 0.00000000000000000000e+00) (0, 0, 0.00000000000000000000e+00) (0, 0, 0.00000000000000000000e+00) (0, 0, 0.00000000000000000000e+00) (0, 0, 0.00000000000000000000e+00) (0, 0, 0.00000000000000000000e+00) (0, 0, 0.00000000000000000000e+00) (0, 0, 0.00000000000000000000e+00) (0, 0, 0.00000000000000000000e+00) (0, 0, 0.00000000000000000000e+00) (0, 0, 0.00000000000000000000e+00) (0, 0, 0.00000000000000000000e+00) (0, 0, 0.00000000000000000000e+00) (0, 0, 0.00000000000000000000e+00) (0, 0, 0.00000000000000000000e+00) (0, 0, 0.00000000000000000000e+00) (0, 0, 0.00000000000000000000e+00) (0, 0, 0.00000000000000000000e+00) (0, 0, 0.00000000000000000000e+00) (0, 0, 0.00000000000000000000e+00) (0, 0, 0.00000000000000000000e+00) (0, 0, 0.00000000000000000000e+00) (0, 0, 0.00000000000000000000e+00) (0, 0, 0.00000000000000000000e+00) (0, 0, 0.00000000000000000000e+00) (0, 0, 0.00000000000000000000e+00) (0, 0, 0.00000000000000000000e+00) (0, 0, 0.00000000000000000000e+00) (0, 0, 0.00000000000000000000e+00) (0, 0, 0.00000000000000000000e+00) (0, 0, 0.00000000000000000000e+00) (0, 0, 0.00000000000000000000e+00) (0, 0, 0.00000000000000000000e+00) (0, 0, 0.00000000000000000000e+00) (0, 0, 0.00000000000000000000e+00) (0, 0, 0.00000000000000000000e+00) (82, 3, 5.00000000000000000000e-01) (82, 3, 5.00000000000000000000e-01) (0, 3, 0.00000000000000000000e+00) (3, 3, 5.00000000000000000000e-01) (0, 3, 0.00000000000000000000e+00) 
connections (connected_to_neuron, weight)=(0, -7.94834196567535400391e-02) (1, 1.44634425640106201172e-01) (2, 9.37698855996131896973e-02) (3, -3.40394936501979827881e-02) (4, -4.42799776792526245117e-01) (5, -2.56122022867202758789e-01) (6, -2.46103301644325256348e-01) (7, 7.83219188451766967773e-02) (8, 1.95677056908607482910e-01) (9, -4.81696380302309989929e-03) (10, -4.37577486038208007812e-01) (11, -4.04009699821472167969e-01) (12, -3.61718326807022094727e-01) (13, -2.38953277468681335449e-01) (14, -6.67977938428521156311e-03) (15, -1.12650021910667419434e-01) (16, -1.71067565679550170898e-01) (17, -6.92191362380981445312e-01) (18, -4.12313550710678100586e-01) (19, -3.20475429296493530273e-01) (20, -2.16417491436004638672e-01) (21, 8.15376788377761840820e-02) (22, -1.69310450553894042969e-01) (23, -1.65862768888473510742e-01) (24, -4.16010332107543945312e+00) (25, -3.75884026288986206055e-01) (26, -1.18325449526309967041e-01) (27, -1.16006754338741302490e-01) (28, 9.01964604854583740234e-02) (29, -4.40224334597587585449e-02) (30, -2.57696121931076049805e-01) (31, -5.03495037555694580078e-01) (32, -1.50367885828018188477e-01) (33, -9.85828787088394165039e-02) (34, 2.95366495847702026367e-02) (35, -1.33322641253471374512e-01) (36, -7.35572502017021179199e-02) (37, -2.21875980496406555176e-01) (38, -5.59822261333465576172e-01) (39, -6.55034333467483520508e-02) (40, -1.15596786141395568848e-01) (41, -2.35573407262563705444e-02) (42, -1.25641748309135437012e-01) (43, 1.93670317530632019043e-01) (44, 1.92703634500503540039e-01) (45, -1.77772283554077148438e-01) (46, 3.69862467050552368164e-02) (47, -2.26464301347732543945e-01) (48, -4.11663530394434928894e-03) (49, 1.50000000000000000000e+03) (50, 1.50000000000000000000e+03) (51, 1.50000000000000000000e+03) (52, 1.50000000000000000000e+03) (53, 1.50000000000000000000e+03) (54, 1.50000000000000000000e+03) (55, 1.50000000000000000000e+03) (56, 1.50000000000000000000e+03) (57, 1.50000000000000000000e+03) (58, 1.50000000000000000000e+03) (59, 1.50000000000000000000e+03) (60, 1.50000000000000000000e+03) (61, 1.50000000000000000000e+03) (62, 1.50000000000000000000e+03) (63, 1.50000000000000000000e+03) (64, 1.50000000000000000000e+03) (65, 1.50000000000000000000e+03) (66, 1.50000000000000000000e+03) (67, 1.50000000000000000000e+03) (68, 1.50000000000000000000e+03) (69, 1.50000000000000000000e+03) (70, 1.50000000000000000000e+03) (71, 1.50000000000000000000e+03) (72, 1.50000000000000000000e+03) (73, 1.50000000000000000000e+03) (74, 1.50000000000000000000e+03) (75, 1.50000000000000000000e+03) (76, 1.50000000000000000000e+03) (77, 1.50000000000000000000e+03) (78, 1.50000000000000000000e+03) (79, 1.50000000000000000000e+03) (80, 1.50000000000000000000e+03) (81, 1.01911723613739013672e+00) (0, 7.51284882426261901855e-02) (1, 7.42366537451744079590e-02) (2, -7.94427692890167236328e-02) (3, -3.17261010408401489258e-01) (4, 4.23665553331375122070e-01) (5, 5.40197901427745819092e-02) (6, -3.39680701494216918945e-01) (7, -3.28443318605422973633e-01) (8, -4.96240518987178802490e-02) (9, -1.24488390982151031494e-01) (10, 2.12771728634834289551e-01) (11, -3.90318274497985839844e-01) (12, -2.25331932306289672852e-01) (13, 5.76923675835132598877e-02) (14, 1.86138793826103210449e-01) (15, 4.14116561412811279297e-01) (16, -3.90266925096511840820e-01) (17, -1.08321130275726318359e+00) (18, -5.56858301162719726562e-01) (19, 9.85463149845600128174e-04) (20, 2.18974143266677856445e-01) (21, 3.12172859907150268555e-01) (22, -3.29910308122634887695e-01) (23, -5.26459217071533203125e-01) (24, -4.59987258911132812500e+00) (25, -8.11512231826782226562e-01) (26, 3.79865527153015136719e-01) (27, -8.56945067644119262695e-02) (28, 2.07401290535926818848e-01) (29, -4.54379945993423461914e-01) (30, -7.64233410358428955078e-01) (31, -1.24269866943359375000e+00) (32, 3.77358734607696533203e-01) (33, -2.65050470829010009766e-01) (34, 9.13594290614128112793e-02) (35, -2.42521315813064575195e-01) (36, 3.01281243562698364258e-01) (37, -5.53230047225952148438e-01) (38, -3.87904167175292968750e-01) (39, 3.62853258848190307617e-01) (40, 3.32972705364227294922e-01) (41, 2.77896314859390258789e-01) (42, 1.82049229741096496582e-01) (43, 1.55621945858001708984e-01) (44, 2.52342224121093750000e-01) (45, -7.70083546638488769531e-01) (46, 2.40605011582374572754e-01) (47, 4.23213332891464233398e-01) (48, -1.03460378944873809814e-01) (49, 1.50000000000000000000e+03) (50, 1.50000000000000000000e+03) (51, 1.50000000000000000000e+03) (52, 1.50000000000000000000e+03) (53, 1.50000000000000000000e+03) (54, 1.50000000000000000000e+03) (55, 1.50000000000000000000e+03) (56, 1.50000000000000000000e+03) (57, 1.50000000000000000000e+03) (58, 1.50000000000000000000e+03) (59, 1.50000000000000000000e+03) (60, 1.50000000000000000000e+03) (61, 1.50000000000000000000e+03) (62, 1.50000000000000000000e+03) (63, 1.50000000000000000000e+03) (64, 1.50000000000000000000e+03) (65, 1.50000000000000000000e+03) (66, 1.50000000000000000000e+03) (67, 1.50000000000000000000e+03) (68, 1.50000000000000000000e+03) (69, 1.50000000000000000000e+03) (70, 1.50000000000000000000e+03) (71, 1.50000000000000000000e+03) (72, 1.50000000000000000000e+03) (73, 1.50000000000000000000e+03) (74, 1.50000000000000000000e+03) (75, 1.50000000000000000000e+03) (76, 1.50000000000000000000e+03) (77, 1.50000000000000000000e+03) (78, 1.50000000000000000000e+03) (79, 1.50000000000000000000e+03) (80, 1.50000000000000000000e+03) (81, 5.28450012207031250000e+00) (82, -3.58528757095336914062e+00) (83, -1.85522890090942382812e+00) (84, 1.21120321750640869141e+00) 
