FANN_FLO_2.1
num_layers=4
learning_rate=0.500000
connection_rate=1.000000
network_type=0
learning_momentum=0.000000
training_algorithm=2
train_error_function=1
train_stop_function=0
cascade_output_change_fraction=0.010000
quickprop_decay=-0.000100
quickprop_mu=1.750000
rprop_increase_factor=1.200000
rprop_decrease_factor=0.500000
rprop_delta_min=0.000000
rprop_delta_max=50.000000
rprop_delta_zero=0.100000
cascade_output_stagnation_epochs=12
cascade_candidate_change_fraction=0.010000
cascade_candidate_stagnation_epochs=12
cascade_max_out_epochs=150
cascade_min_out_epochs=50
cascade_max_cand_epochs=150
cascade_min_cand_epochs=50
cascade_num_candidate_groups=2
bit_fail_limit=3.49999994039535522461e-01
cascade_candidate_limit=1.00000000000000000000e+03
cascade_weight_multiplier=4.00000005960464477539e-01
cascade_activation_functions_count=10
cascade_activation_functions=3 5 7 8 10 11 14 15 16 17 
cascade_activation_steepnesses_count=4
cascade_activation_steepnesses=2.50000000000000000000e-01 5.00000000000000000000e-01 7.50000000000000000000e-01 1.00000000000000000000e+00 
layer_sizes=4 5 5 2 
scale_included=0
neurons (num_inputs, activation_function, activation_steepness)=(0, 0, 0.00000000000000000000e+00) (0, 0, 0.00000000000000000000e+00) (0, 0, 0.00000000000000000000e+00) (0, 0, 0.00000000000000000000e+00) (4, 3, 5.00000000000000000000e-01) (4, 3, 5.00000000000000000000e-01) (4, 3, 5.00000000000000000000e-01) (4, 3, 5.00000000000000000000e-01) (0, 3, 0.00000000000000000000e+00) (5, 3, 5.00000000000000000000e-01) (5, 3, 5.00000000000000000000e-01) (5, 3, 5.00000000000000000000e-01) (5, 3, 5.00000000000000000000e-01) (0, 3, 0.00000000000000000000e+00) (5, 3, 5.00000000000000000000e-01) (0, 3, 0.00000000000000000000e+00) 
connections (connected_to_neuron, weight)=(0, -3.47491669654846191406e+00) (1, -1.81396079063415527344e+00) (2, -1.47285246849060058594e+00) (3, 2.14647889137268066406e+00) (0, -5.31523656845092773438e+00) (1, 2.22715330123901367188e+00) (2, -5.07875776290893554688e+00) (3, 3.43716526031494140625e+00) (0, -3.38296627998352050781e+00) (1, -1.45884552001953125000e+01) (2, 3.76984190940856933594e+00) (3, 4.02473783493041992188e+00) (0, -4.26807355880737304688e+00) (1, -2.78113746643066406250e+00) (2, -1.39958572387695312500e+00) (3, 2.33906054496765136719e+00) (4, 5.83752250671386718750e+00) (5, 1.41915063858032226562e+01) (6, 8.09432220458984375000e+00) (7, 6.16305398941040039062e+00) (8, -6.54830646514892578125e+00) (4, 6.15197324752807617188e+00) (5, 2.11459465026855468750e+01) (6, 1.01152915954589843750e+01) (7, 7.05971431732177734375e+00) (8, -8.78577518463134765625e+00) (4, -1.26041233539581298828e+00) (5, -1.93468260765075683594e+00) (6, -1.73107647895812988281e+00) (7, -6.36872577667236328125e+00) (8, 4.85809355974197387695e-01) (4, 5.14981603622436523438e+00) (5, 1.81804866790771484375e+01) (6, 9.35164165496826171875e+00) (7, 5.77617120742797851562e+00) (8, -7.50403976440429687500e+00) (9, -1.90827643871307373047e+00) (10, -2.67060136795043945312e+00) (11, -6.32913649082183837891e-01) (12, -4.07424718141555786133e-01) (13, 2.73832130432128906250e+00) 
