FANN_FLO_2.1
num_layers=3
learning_rate=0.500000
connection_rate=1.000000
network_type=0
learning_momentum=0.000000
training_algorithm=2
train_error_function=1
train_stop_function=0
cascade_output_change_fraction=0.010000
quickprop_decay=-0.000100
quickprop_mu=1.750000
rprop_increase_factor=1.200000
rprop_decrease_factor=0.500000
rprop_delta_min=0.000000
rprop_delta_max=50.000000
rprop_delta_zero=0.100000
cascade_output_stagnation_epochs=12
cascade_candidate_change_fraction=0.010000
cascade_candidate_stagnation_epochs=12
cascade_max_out_epochs=150
cascade_min_out_epochs=50
cascade_max_cand_epochs=150
cascade_min_cand_epochs=50
cascade_num_candidate_groups=2
bit_fail_limit=3.49999994039535522461e-01
cascade_candidate_limit=1.00000000000000000000e+03
cascade_weight_multiplier=4.00000005960464477539e-01
cascade_activation_functions_count=10
cascade_activation_functions=3 5 7 8 10 11 14 15 16 17 
cascade_activation_steepnesses_count=4
cascade_activation_steepnesses=2.50000000000000000000e-01 5.00000000000000000000e-01 7.50000000000000000000e-01 1.00000000000000000000e+00 
layer_sizes=82 9 2 
scale_included=0
neurons (num_inputs, activation_function, activation_steepness)=(0, 0, 0.00000000000000000000e+00) (0, 0, 0.00000000000000000000e+00) (0, 0, 0.00000000000000000000e+00) (0, 0, 0.00000000000000000000e+00) (0, 0, 0.00000000000000000000e+00) (0, 0, 0.00000000000000000000e+00) (0, 0, 0.00000000000000000000e+00) (0, 0, 0.00000000000000000000e+00) (0, 0, 0.00000000000000000000e+00) (0, 0, 0.00000000000000000000e+00) (0, 0, 0.00000000000000000000e+00) (0, 0, 0.00000000000000000000e+00) (0, 0, 0.00000000000000000000e+00) (0, 0, 0.00000000000000000000e+00) (0, 0, 0.00000000000000000000e+00) (0, 0, 0.00000000000000000000e+00) (0, 0, 0.00000000000000000000e+00) (0, 0, 0.00000000000000000000e+00) (0, 0, 0.00000000000000000000e+00) (0, 0, 0.00000000000000000000e+00) (0, 0, 0.00000000000000000000e+00) (0, 0, 0.00000000000000000000e+00) (0, 0, 0.00000000000000000000e+00) (0, 0, 0.00000000000000000000e+00) (0, 0, 0.00000000000000000000e+00) (0, 0, 0.00000000000000000000e+00) (0, 0, 0.00000000000000000000e+00) (0, 0, 0.00000000000000000000e+00) (0, 0, 0.00000000000000000000e+00) (0, 0, 0.00000000000000000000e+00) (0, 0, 0.00000000000000000000e+00) (0, 0, 0.00000000000000000000e+00) (0, 0, 0.00000000000000000000e+00) (0, 0, 0.00000000000000000000e+00) (0, 0, 0.00000000000000000000e+00) (0, 0, 0.00000000000000000000e+00) (0, 0, 0.00000000000000000000e+00) (0, 0, 0.00000000000000000000e+00) (0, 0, 0.00000000000000000000e+00) (0, 0, 0.00000000000000000000e+00) (0, 0, 0.00000000000000000000e+00) (0, 0, 0.00000000000000000000e+00) (0, 0, 0.00000000000000000000e+00) (0, 0, 0.00000000000000000000e+00) (0, 0, 0.00000000000000000000e+00) (0, 0, 0.00000000000000000000e+00) (0, 0, 0.00000000000000000000e+00) (0, 0, 0.00000000000000000000e+00) (0, 0, 0.00000000000000000000e+00) (0, 0, 0.00000000000000000000e+00) (0, 0, 0.00000000000000000000e+00) (0, 0, 0.00000000000000000000e+00) (0, 0, 0.00000000000000000000e+00) (0, 0, 0.00000000000000000000e+00) (0, 0, 0.00000000000000000000e+00) (0, 0, 0.00000000000000000000e+00) (0, 0, 0.00000000000000000000e+00) (0, 0, 0.00000000000000000000e+00) (0, 0, 0.00000000000000000000e+00) (0, 0, 0.00000000000000000000e+00) (0, 0, 0.00000000000000000000e+00) (0, 0, 0.00000000000000000000e+00) (0, 0, 0.00000000000000000000e+00) (0, 0, 0.00000000000000000000e+00) (0, 0, 0.00000000000000000000e+00) (0, 0, 0.00000000000000000000e+00) (0, 0, 0.00000000000000000000e+00) (0, 0, 0.00000000000000000000e+00) (0, 0, 0.00000000000000000000e+00) (0, 0, 0.00000000000000000000e+00) (0, 0, 0.00000000000000000000e+00) (0, 0, 0.00000000000000000000e+00) (0, 0, 0.00000000000000000000e+00) (0, 0, 0.00000000000000000000e+00) (0, 0, 0.00000000000000000000e+00) (0, 0, 0.00000000000000000000e+00) (0, 0, 0.00000000000000000000e+00) (0, 0, 0.00000000000000000000e+00) (0, 0, 0.00000000000000000000e+00) (0, 0, 0.00000000000000000000e+00) (0, 0, 0.00000000000000000000e+00) (0, 0, 0.00000000000000000000e+00) (82, 3, 5.00000000000000000000e-01) (82, 3, 5.00000000000000000000e-01) (82, 3, 5.00000000000000000000e-01) (82, 3, 5.00000000000000000000e-01) (82, 3, 5.00000000000000000000e-01) (82, 3, 5.00000000000000000000e-01) (82, 3, 5.00000000000000000000e-01) (82, 3, 5.00000000000000000000e-01) (0, 3, 0.00000000000000000000e+00) (9, 3, 5.00000000000000000000e-01) (0, 3, 0.00000000000000000000e+00) 
connections (connected_to_neuron, weight)=(0, 7.77991041541099548340e-02) (1, -1.10317684710025787354e-01) (2, -1.32744729518890380859e-01) (3, -5.29463171958923339844e-01) (4, -3.64569723606109619141e-02) (5, 7.01817497611045837402e-02) (6, -3.74177051708102226257e-03) (7, 7.01583549380302429199e-02) (8, 1.13860756158828735352e-01) (9, -1.00048325955867767334e-01) (10, -3.45002442598342895508e-01) (11, -5.71759454905986785889e-02) (12, -9.22203180380165576935e-04) (13, -6.37364313006401062012e-02) (14, -4.49974788352847099304e-03) (15, 1.41805009916424751282e-02) (16, -7.71445855498313903809e-02) (17, -2.40566477179527282715e-01) (18, -2.18611299991607666016e-01) (19, -4.14389297366142272949e-02) (20, -4.15445208549499511719e-01) (21, 6.76588267087936401367e-02) (22, -4.53249439597129821777e-02) (23, -7.32696801424026489258e-02) (24, -1.13905942440032958984e+00) (25, -2.30252444744110107422e-01) (26, -6.82274475693702697754e-02) (27, -5.91892488300800323486e-02) (28, -2.06755418330430984497e-02) (29, -2.12912604212760925293e-01) (30, -1.77532911300659179688e-01) (31, -2.36646130681037902832e-01) (32, -3.55627626180648803711e-01) (33, 5.26958554983139038086e-02) (34, -9.56942960619926452637e-02) (35, -5.94401620328426361084e-02) (36, 2.91163139045238494873e-02) (37, 3.04895304143428802490e-02) (38, -1.68111920356750488281e-01) (39, -1.97065800428390502930e-01) (40, -1.33824869990348815918e-01) (41, 5.71932829916477203369e-02) (42, 2.76892840862274169922e-01) (43, -6.81789964437484741211e-02) (44, -8.33444595336914062500e-02) (45, -1.93570554256439208984e-01) (46, -1.60236716270446777344e-01) (47, 3.85905131697654724121e-02) (48, 8.71471837162971496582e-02) (49, 1.50000000000000000000e+03) (50, 1.50000000000000000000e+03) (51, 1.50000000000000000000e+03) (52, 1.50000000000000000000e+03) (53, 1.50000000000000000000e+03) (54, 1.50000000000000000000e+03) (55, 1.50000000000000000000e+03) (56, 1.50000000000000000000e+03) (57, 1.50000000000000000000e+03) (58, 1.50000000000000000000e+03) (59, 1.50000000000000000000e+03) (60, 1.50000000000000000000e+03) (61, 1.50000000000000000000e+03) (62, 1.50000000000000000000e+03) (63, 1.50000000000000000000e+03) (64, 1.50000000000000000000e+03) (65, 1.50000000000000000000e+03) (66, 1.50000000000000000000e+03) (67, 1.50000000000000000000e+03) (68, 1.50000000000000000000e+03) (69, 1.50000000000000000000e+03) (70, 1.50000000000000000000e+03) (71, 1.50000000000000000000e+03) (72, 1.50000000000000000000e+03) (73, 1.50000000000000000000e+03) (74, 1.50000000000000000000e+03) (75, 1.50000000000000000000e+03) (76, 1.50000000000000000000e+03) (77, 1.50000000000000000000e+03) (78, 1.50000000000000000000e+03) (79, 1.50000000000000000000e+03) (80, 1.50000000000000000000e+03) (81, 6.30642414093017578125e-01) (0, -1.21660068631172180176e-01) (1, -1.53564751148223876953e-01) (2, -2.75295451283454895020e-02) (3, -1.11456245183944702148e-01) (4, 1.29503846168518066406e-01) (5, 2.86516577005386352539e-01) (6, 1.00397672504186630249e-02) (7, -1.14898182451725006104e-01) (8, -1.31989493966102600098e-01) (9, -3.07831969112157821655e-02) (10, -6.02792836725711822510e-02) (11, -1.96787565946578979492e-02) (12, -8.70618000626564025879e-02) (13, -5.67864887416362762451e-02) (14, -1.83019489049911499023e-01) (15, 1.60750783979892730713e-02) (16, -2.15438365936279296875e-01) (17, -6.93854987621307373047e-02) (18, 2.68675312399864196777e-02) (19, -9.72759127616882324219e-02) (20, -7.02854618430137634277e-02) (21, -2.54431776702404022217e-02) (22, 1.08618676662445068359e-01) (23, -1.96667477488517761230e-01) (24, -1.06635451316833496094e+00) (25, 9.92241725325584411621e-02) (26, -1.50194196030497550964e-02) (27, -1.03583872318267822266e-01) (28, -9.24930423498153686523e-02) (29, -1.38368889689445495605e-01) (30, -5.86380697786808013916e-02) (31, -3.65260764956474304199e-02) (32, -3.43853868544101715088e-02) (33, -2.68060509115457534790e-02) (34, -6.51361569762229919434e-02) (35, -1.19185701012611389160e-01) (36, 9.91705581545829772949e-02) (37, 4.03994359076023101807e-02) (38, -1.49867504835128784180e-01) (39, 8.65498259663581848145e-02) (40, 2.43903264403343200684e-01) (41, -5.47869466245174407959e-02) (42, -1.44684270024299621582e-01) (43, -3.53581085801124572754e-02) (44, -2.79577206820249557495e-02) (45, -2.57890254259109497070e-01) (46, -8.43011364340782165527e-02) (47, -1.07735767960548400879e-01) (48, -4.52468320727348327637e-02) (49, 1.50000000000000000000e+03) (50, 1.50000000000000000000e+03) (51, 1.50000000000000000000e+03) (52, 1.50000000000000000000e+03) (53, 1.50000000000000000000e+03) (54, 1.50000000000000000000e+03) (55, 1.50000000000000000000e+03) (56, 1.50000000000000000000e+03) (57, 1.50000000000000000000e+03) (58, 1.50000000000000000000e+03) (59, 1.50000000000000000000e+03) (60, 1.50000000000000000000e+03) (61, 1.50000000000000000000e+03) (62, 1.50000000000000000000e+03) (63, 1.50000000000000000000e+03) (64, 1.50000000000000000000e+03) (65, 1.50000000000000000000e+03) (66, 1.50000000000000000000e+03) (67, 1.50000000000000000000e+03) (68, 1.50000000000000000000e+03) (69, 1.50000000000000000000e+03) (70, 1.50000000000000000000e+03) (71, 1.50000000000000000000e+03) (72, 1.50000000000000000000e+03) (73, 1.50000000000000000000e+03) (74, 1.50000000000000000000e+03) (75, 1.50000000000000000000e+03) (76, 1.50000000000000000000e+03) (77, 1.50000000000000000000e+03) (78, 1.50000000000000000000e+03) (79, 1.50000000000000000000e+03) (80, 1.50000000000000000000e+03) (81, 1.64505541324615478516e+00) (0, -1.76357701420783996582e-02) (1, -8.53901654481887817383e-02) (2, -6.34097382426261901855e-02) (3, -1.76276966929435729980e-01) (4, 4.13543939590454101562e-01) (5, 7.02104791998863220215e-02) (6, 2.04511240124702453613e-01) (7, -9.35924146324396133423e-03) (8, -3.39933596551418304443e-02) (9, -4.00898382067680358887e-02) (10, -6.83183446526527404785e-02) (11, -7.78177082538604736328e-02) (12, -3.35489474236965179443e-02) (13, -4.41737137734889984131e-02) (14, -5.83290159702301025391e-02) (15, -8.29007774591445922852e-02) (16, -1.79318174719810485840e-01) (17, 1.62768185138702392578e-01) (18, -1.77184909582138061523e-01) (19, 4.93483133614063262939e-02) (20, -1.65954306721687316895e-02) (21, -1.76916703581809997559e-01) (22, -1.36291846632957458496e-01) (23, -1.86189606785774230957e-01) (24, -1.17716622352600097656e+00) (25, 3.35168242454528808594e-02) (26, -6.99346512556076049805e-02) (27, 7.12047005072236061096e-03) (28, -1.03795319795608520508e-01) (29, -2.60322783142328262329e-02) (30, -1.10042087733745574951e-01) (31, -1.36736422777175903320e-01) (32, -3.40190418064594268799e-02) (33, -1.89576335251331329346e-02) (34, -3.66743355989456176758e-02) (35, -9.34758111834526062012e-02) (36, -9.08073037862777709961e-02) (37, 3.12039745040237903595e-03) (38, -1.60993978381156921387e-01) (39, -4.07373644411563873291e-02) (40, 1.90540000796318054199e-01) (41, -6.54783472418785095215e-02) (42, -4.38605025410652160645e-02) (43, -3.04395500570535659790e-02) (44, -5.81419132649898529053e-02) (45, -1.97720736265182495117e-01) (46, -1.92952573299407958984e-01) (47, -6.45114704966545104980e-02) (48, -6.44743442535400390625e-02) (49, 1.50000000000000000000e+03) (50, 1.50000000000000000000e+03) (51, 1.50000000000000000000e+03) (52, 1.50000000000000000000e+03) (53, 1.50000000000000000000e+03) (54, 1.50000000000000000000e+03) (55, 1.50000000000000000000e+03) (56, 1.50000000000000000000e+03) (57, 1.50000000000000000000e+03) (58, 1.50000000000000000000e+03) (59, 1.50000000000000000000e+03) (60, 1.50000000000000000000e+03) (61, 1.50000000000000000000e+03) (62, 1.50000000000000000000e+03) (63, 1.50000000000000000000e+03) (64, 1.50000000000000000000e+03) (65, 1.50000000000000000000e+03) (66, 1.50000000000000000000e+03) (67, 1.50000000000000000000e+03) (68, 1.50000000000000000000e+03) (69, 1.50000000000000000000e+03) (70, 1.50000000000000000000e+03) (71, 1.50000000000000000000e+03) (72, 1.50000000000000000000e+03) (73, 1.50000000000000000000e+03) (74, 1.50000000000000000000e+03) (75, 1.50000000000000000000e+03) (76, 1.50000000000000000000e+03) (77, 1.50000000000000000000e+03) (78, 1.50000000000000000000e+03) (79, 1.50000000000000000000e+03) (80, 1.50000000000000000000e+03) (81, 1.70660603046417236328e+00) (0, -8.62014293670654296875e-02) (1, -2.29296699166297912598e-01) (2, -5.72715252637863159180e-02) (3, -2.16551095247268676758e-01) (4, 2.90705323219299316406e-01) (5, 1.05708912014961242676e-01) (6, 1.81238442659378051758e-01) (7, -4.55695874989032745361e-02) (8, -3.00072766840457916260e-02) (9, -1.05862900614738464355e-01) (10, -9.20232385396957397461e-02) (11, -8.39109867811203002930e-02) (12, 9.31629724800586700439e-03) (13, -4.24914322793483734131e-02) (14, -9.17952582240104675293e-02) (15, 4.01758216321468353271e-02) (16, -2.01177895069122314453e-01) (17, -2.01763045042753219604e-02) (18, -9.10104811191558837891e-02) (19, -7.73790851235389709473e-02) (20, -5.71086071431636810303e-02) (21, -9.92472991347312927246e-02) (22, -4.76477034389972686768e-02) (23, -5.59511482715606689453e-02) (24, -1.11272287368774414062e+00) (25, -5.83166163414716720581e-03) (26, -7.78262391686439514160e-02) (27, 2.94564403593540191650e-02) (28, 4.23901202157139778137e-03) (29, -1.63904521614313125610e-02) (30, -1.51743769645690917969e-01) (31, -8.35484787821769714355e-02) (32, -1.52242220938205718994e-02) (33, -1.17083489894866943359e-01) (34, -3.30419912934303283691e-02) (35, -1.15438684821128845215e-01) (36, 1.61589786410331726074e-01) (37, -2.04432941973209381104e-02) (38, -2.19028815627098083496e-01) (39, -1.04561308398842811584e-02) (40, 1.86897441744804382324e-01) (41, 4.02352623641490936279e-02) (42, -7.39435628056526184082e-02) (43, -2.40208581089973449707e-02) (44, -1.13381072878837585449e-01) (45, -2.74472504854202270508e-01) (46, -8.98195207118988037109e-02) (47, 1.39842499047517776489e-02) (48, -4.82874847948551177979e-02) (49, 1.50000000000000000000e+03) (50, 1.50000000000000000000e+03) (51, 1.50000000000000000000e+03) (52, 1.50000000000000000000e+03) (53, 1.50000000000000000000e+03) (54, 1.50000000000000000000e+03) (55, 1.50000000000000000000e+03) (56, 1.50000000000000000000e+03) (57, 1.50000000000000000000e+03) (58, 1.50000000000000000000e+03) (59, 1.50000000000000000000e+03) (60, 1.50000000000000000000e+03) (61, 1.50000000000000000000e+03) (62, 1.50000000000000000000e+03) (63, 1.50000000000000000000e+03) (64, 1.50000000000000000000e+03) (65, 1.50000000000000000000e+03) (66, 1.50000000000000000000e+03) (67, 1.50000000000000000000e+03) (68, 1.50000000000000000000e+03) (69, 1.50000000000000000000e+03) (70, 1.50000000000000000000e+03) (71, 1.50000000000000000000e+03) (72, 1.50000000000000000000e+03) (73, 1.50000000000000000000e+03) (74, 1.50000000000000000000e+03) (75, 1.50000000000000000000e+03) (76, 1.50000000000000000000e+03) (77, 1.50000000000000000000e+03) (78, 1.50000000000000000000e+03) (79, 1.50000000000000000000e+03) (80, 1.50000000000000000000e+03) (81, 1.57918608188629150391e+00) (0, 1.50000000000000000000e+03) (1, 1.50000000000000000000e+03) (2, 1.50000000000000000000e+03) (3, 1.50000000000000000000e+03) (4, 1.50000000000000000000e+03) (5, 1.50000000000000000000e+03) (6, 1.50000000000000000000e+03) (7, 1.50000000000000000000e+03) (8, 1.50000000000000000000e+03) (9, 1.50000000000000000000e+03) (10, 1.50000000000000000000e+03) (11, 1.50000000000000000000e+03) (12, 1.50000000000000000000e+03) (13, 1.50000000000000000000e+03) (14, 1.50000000000000000000e+03) (15, 1.50000000000000000000e+03) (16, 1.50000000000000000000e+03) (17, 1.50000000000000000000e+03) (18, 1.50000000000000000000e+03) (19, 1.50000000000000000000e+03) (20, 1.50000000000000000000e+03) (21, 1.50000000000000000000e+03) (22, 1.50000000000000000000e+03) (23, 1.50000000000000000000e+03) (24, 1.50000000000000000000e+03) (25, 1.50000000000000000000e+03) (26, 1.50000000000000000000e+03) (27, 1.50000000000000000000e+03) (28, 1.50000000000000000000e+03) (29, 1.50000000000000000000e+03) (30, 1.50000000000000000000e+03) (31, 1.50000000000000000000e+03) (32, 1.50000000000000000000e+03) (33, 1.50000000000000000000e+03) (34, 1.50000000000000000000e+03) (35, 1.50000000000000000000e+03) (36, 1.50000000000000000000e+03) (37, 1.50000000000000000000e+03) (38, 1.50000000000000000000e+03) (39, 1.50000000000000000000e+03) (40, 1.50000000000000000000e+03) (41, 1.50000000000000000000e+03) (42, 1.50000000000000000000e+03) (43, 1.50000000000000000000e+03) (44, 1.50000000000000000000e+03) (45, 1.50000000000000000000e+03) (46, 1.50000000000000000000e+03) (47, 1.50000000000000000000e+03) (48, 1.50000000000000000000e+03) (49, 1.50000000000000000000e+03) (50, 1.50000000000000000000e+03) (51, 1.50000000000000000000e+03) (52, 1.50000000000000000000e+03) (53, 1.50000000000000000000e+03) (54, 1.50000000000000000000e+03) (55, 1.50000000000000000000e+03) (56, 1.50000000000000000000e+03) (57, 1.50000000000000000000e+03) (58, 1.50000000000000000000e+03) (59, 1.50000000000000000000e+03) (60, 1.50000000000000000000e+03) (61, 1.50000000000000000000e+03) (62, 1.50000000000000000000e+03) (63, 1.50000000000000000000e+03) (64, 1.50000000000000000000e+03) (65, 1.50000000000000000000e+03) (66, 1.50000000000000000000e+03) (67, 1.50000000000000000000e+03) (68, 1.50000000000000000000e+03) (69, 1.50000000000000000000e+03) (70, 1.50000000000000000000e+03) (71, 1.50000000000000000000e+03) (72, 1.50000000000000000000e+03) (73, 1.50000000000000000000e+03) (74, 1.50000000000000000000e+03) (75, 1.50000000000000000000e+03) (76, 1.50000000000000000000e+03) (77, 1.50000000000000000000e+03) (78, 1.50000000000000000000e+03) (79, 1.50000000000000000000e+03) (80, 1.50000000000000000000e+03) (81, 1.03119909763336181641e-01) (0, -4.26690690219402313232e-02) (1, -1.06903359293937683105e-01) (2, 8.41771364212036132812e-02) (3, 7.31141790747642517090e-02) (4, -4.01804409921169281006e-02) (5, 4.55716662108898162842e-02) (6, -2.00313851237297058105e-02) (7, -7.80437439680099487305e-02) (8, -2.32994891703128814697e-02) (9, 1.76357477903366088867e-01) (10, 1.06202006340026855469e-01) (11, -8.73541401233524084091e-04) (12, 6.62590051069855690002e-03) (13, 9.72869023680686950684e-02) (14, -2.47667971998453140259e-02) (15, -1.87164191156625747681e-02) (16, 8.89874696731567382812e-02) (17, 1.31703734397888183594e-01) (18, -5.41216731071472167969e-02) (19, 6.10912740230560302734e-02) (20, -1.37537240982055664062e-01) (21, 4.13929745554924011230e-02) (22, 2.19864547252655029297e-02) (23, 1.04708299040794372559e-01) (24, -3.69964122772216796875e+00) (25, 2.00581505894660949707e-01) (26, 9.13954898715019226074e-02) (27, -4.73252162337303161621e-02) (28, -8.20493400096893310547e-02) (29, 1.06520809233188629150e-01) (30, -6.26216875389218330383e-03) (31, -1.01840861141681671143e-01) (32, 9.02156904339790344238e-02) (33, 6.05568885803222656250e-02) (34, 6.24526143074035644531e-02) (35, 8.61457586288452148438e-02) (36, 8.46586525440216064453e-02) (37, 3.85929122567176818848e-02) (38, 1.68423019349575042725e-02) (39, 3.61467488110065460205e-02) (40, -2.53901761025190353394e-02) (41, -9.08190906047821044922e-02) (42, 1.40926629304885864258e-01) (43, 5.09308762848377227783e-02) (44, 1.63230985403060913086e-01) (45, -1.50959566235542297363e-01) (46, 1.05223178863525390625e-01) (47, 4.26919497549533843994e-02) (48, -5.14612123370170593262e-02) (49, 1.50000000000000000000e+03) (50, 1.50000000000000000000e+03) (51, 1.50000000000000000000e+03) (52, 1.50000000000000000000e+03) (53, 1.50000000000000000000e+03) (54, 1.50000000000000000000e+03) (55, 1.50000000000000000000e+03) (56, 1.50000000000000000000e+03) (57, 1.50000000000000000000e+03) (58, 1.50000000000000000000e+03) (59, 1.50000000000000000000e+03) (60, 1.50000000000000000000e+03) (61, 1.50000000000000000000e+03) (62, 1.50000000000000000000e+03) (63, 1.50000000000000000000e+03) (64, 1.50000000000000000000e+03) (65, 1.50000000000000000000e+03) (66, 1.50000000000000000000e+03) (67, 1.50000000000000000000e+03) (68, 1.50000000000000000000e+03) (69, 1.50000000000000000000e+03) (70, 1.50000000000000000000e+03) (71, 1.50000000000000000000e+03) (72, 1.50000000000000000000e+03) (73, 1.50000000000000000000e+03) (74, 1.50000000000000000000e+03) (75, 1.50000000000000000000e+03) (76, 1.50000000000000000000e+03) (77, 1.50000000000000000000e+03) (78, 1.50000000000000000000e+03) (79, 1.50000000000000000000e+03) (80, 1.50000000000000000000e+03) (81, 7.12904393672943115234e-01) (0, -4.90048974752426147461e-02) (1, 1.86467189341783523560e-02) (2, -3.36747942492365837097e-03) (3, 2.48573124408721923828e-02) (4, -5.28017804026603698730e-02) (5, 1.77493646740913391113e-01) (6, 8.82459990680217742920e-03) (7, 8.29623118042945861816e-02) (8, 1.31873562932014465332e-01) (9, 4.36446070671081542969e-02) (10, 5.02371154725551605225e-02) (11, 1.07484877109527587891e-01) (12, 8.21777358651161193848e-02) (13, -8.27686935663223266602e-02) (14, -7.65942931175231933594e-02) (15, 1.45054236054420471191e-01) (16, 1.10806420445442199707e-01) (17, -1.63320019841194152832e-01) (18, -8.28199554234743118286e-03) (19, -6.84814602136611938477e-02) (20, -2.83954367041587829590e-02) (21, -5.96108399331569671631e-02) (22, 5.94215141609311103821e-03) (23, 1.02271661162376403809e-01) (24, -3.01063370704650878906e+00) (25, -2.78424844145774841309e-02) (26, 6.73293769359588623047e-02) (27, 9.90690216422080993652e-02) (28, -8.63587185740470886230e-02) (29, 7.67708644270896911621e-02) (30, -2.89051141589879989624e-03) (31, -3.94938997924327850342e-02) (32, -8.84101632982492446899e-03) (33, 8.93192552030086517334e-03) (34, 5.75287155807018280029e-02) (35, -1.69076491147279739380e-02) (36, 1.25962138175964355469e-01) (37, 1.42946569249033927917e-02) (38, -2.07287430763244628906e-01) (39, -9.34458710253238677979e-03) (40, -2.76262164115905761719e-02) (41, -2.80658639967441558838e-02) (42, -1.10582765191793441772e-02) (43, -6.16835542023181915283e-02) (44, -1.51089690625667572021e-02) (45, -4.45804931223392486572e-02) (46, 9.77115407586097717285e-02) (47, -1.16933975368738174438e-02) (48, 5.05726300179958343506e-02) (49, 1.50000000000000000000e+03) (50, 1.50000000000000000000e+03) (51, 1.50000000000000000000e+03) (52, 1.50000000000000000000e+03) (53, 1.50000000000000000000e+03) (54, 1.50000000000000000000e+03) (55, 1.50000000000000000000e+03) (56, 1.50000000000000000000e+03) (57, 1.50000000000000000000e+03) (58, 1.50000000000000000000e+03) (59, 1.50000000000000000000e+03) (60, 1.50000000000000000000e+03) (61, 1.50000000000000000000e+03) (62, 1.50000000000000000000e+03) (63, 1.50000000000000000000e+03) (64, 1.50000000000000000000e+03) (65, 1.50000000000000000000e+03) (66, 1.50000000000000000000e+03) (67, 1.50000000000000000000e+03) (68, 1.50000000000000000000e+03) (69, 1.50000000000000000000e+03) (70, 1.50000000000000000000e+03) (71, 1.50000000000000000000e+03) (72, 1.50000000000000000000e+03) (73, 1.50000000000000000000e+03) (74, 1.50000000000000000000e+03) (75, 1.50000000000000000000e+03) (76, 1.50000000000000000000e+03) (77, 1.50000000000000000000e+03) (78, 1.50000000000000000000e+03) (79, 1.50000000000000000000e+03) (80, 1.50000000000000000000e+03) (81, 7.13733792304992675781e-01) (0, 1.50000000000000000000e+03) (1, 1.50000000000000000000e+03) (2, 1.50000000000000000000e+03) (3, 1.50000000000000000000e+03) (4, 1.50000000000000000000e+03) (5, 1.50000000000000000000e+03) (6, 1.50000000000000000000e+03) (7, 1.50000000000000000000e+03) (8, 1.50000000000000000000e+03) (9, 1.50000000000000000000e+03) (10, 1.50000000000000000000e+03) (11, 1.50000000000000000000e+03) (12, 1.50000000000000000000e+03) (13, 1.50000000000000000000e+03) (14, 1.50000000000000000000e+03) (15, 1.50000000000000000000e+03) (16, 1.50000000000000000000e+03) (17, 1.50000000000000000000e+03) (18, 1.50000000000000000000e+03) (19, 1.50000000000000000000e+03) (20, 1.50000000000000000000e+03) (21, 1.50000000000000000000e+03) (22, 1.50000000000000000000e+03) (23, 1.50000000000000000000e+03) (24, 1.50000000000000000000e+03) (25, 1.50000000000000000000e+03) (26, 1.50000000000000000000e+03) (27, 1.50000000000000000000e+03) (28, 1.50000000000000000000e+03) (29, 1.50000000000000000000e+03) (30, 1.50000000000000000000e+03) (31, 1.50000000000000000000e+03) (32, 1.50000000000000000000e+03) (33, 1.50000000000000000000e+03) (34, 1.50000000000000000000e+03) (35, 1.50000000000000000000e+03) (36, 1.50000000000000000000e+03) (37, 1.50000000000000000000e+03) (38, 1.50000000000000000000e+03) (39, 1.50000000000000000000e+03) (40, 1.50000000000000000000e+03) (41, 1.50000000000000000000e+03) (42, 1.50000000000000000000e+03) (43, 1.50000000000000000000e+03) (44, 1.50000000000000000000e+03) (45, 1.50000000000000000000e+03) (46, 1.50000000000000000000e+03) (47, 1.50000000000000000000e+03) (48, 1.50000000000000000000e+03) (49, 1.50000000000000000000e+03) (50, 1.50000000000000000000e+03) (51, 1.50000000000000000000e+03) (52, 1.50000000000000000000e+03) (53, 1.50000000000000000000e+03) (54, 1.50000000000000000000e+03) (55, 1.50000000000000000000e+03) (56, 1.50000000000000000000e+03) (57, 1.50000000000000000000e+03) (58, 1.50000000000000000000e+03) (59, 1.50000000000000000000e+03) (60, 1.50000000000000000000e+03) (61, 1.50000000000000000000e+03) (62, 1.50000000000000000000e+03) (63, 1.50000000000000000000e+03) (64, 1.50000000000000000000e+03) (65, 1.50000000000000000000e+03) (66, 1.50000000000000000000e+03) (67, 1.50000000000000000000e+03) (68, 1.50000000000000000000e+03) (69, 1.50000000000000000000e+03) (70, 1.50000000000000000000e+03) (71, 1.50000000000000000000e+03) (72, 1.50000000000000000000e+03) (73, 1.50000000000000000000e+03) (74, 1.50000000000000000000e+03) (75, 1.50000000000000000000e+03) (76, 1.50000000000000000000e+03) (77, 1.50000000000000000000e+03) (78, 1.50000000000000000000e+03) (79, 1.50000000000000000000e+03) (80, 1.50000000000000000000e+03) (81, 7.18788653612136840820e-02) (82, -2.27602481842041015625e+00) (83, -7.86956250667572021484e-01) (84, -6.89489722251892089844e-01) (85, -6.96830034255981445312e-01) (86, 1.09348201751708984375e+00) (87, -1.46378970146179199219e+00) (88, -1.37217915058135986328e+00) (89, 1.07729423046112060547e+00) (90, 3.99716198444366455078e-01) 
