FANN_FLO_2.1
num_layers=4
learning_rate=0.500000
connection_rate=1.000000
network_type=0
learning_momentum=0.000000
training_algorithm=2
train_error_function=1
train_stop_function=0
cascade_output_change_fraction=0.010000
quickprop_decay=-0.000100
quickprop_mu=1.750000
rprop_increase_factor=1.200000
rprop_decrease_factor=0.500000
rprop_delta_min=0.000000
rprop_delta_max=50.000000
rprop_delta_zero=0.100000
cascade_output_stagnation_epochs=12
cascade_candidate_change_fraction=0.010000
cascade_candidate_stagnation_epochs=12
cascade_max_out_epochs=150
cascade_min_out_epochs=50
cascade_max_cand_epochs=150
cascade_min_cand_epochs=50
cascade_num_candidate_groups=2
bit_fail_limit=3.49999994039535522461e-01
cascade_candidate_limit=1.00000000000000000000e+03
cascade_weight_multiplier=4.00000005960464477539e-01
cascade_activation_functions_count=10
cascade_activation_functions=3 5 7 8 10 11 14 15 16 17 
cascade_activation_steepnesses_count=4
cascade_activation_steepnesses=2.50000000000000000000e-01 5.00000000000000000000e-01 7.50000000000000000000e-01 1.00000000000000000000e+00 
layer_sizes=18 5 5 2 
scale_included=0
neurons (num_inputs, activation_function, activation_steepness)=(0, 0, 0.00000000000000000000e+00) (0, 0, 0.00000000000000000000e+00) (0, 0, 0.00000000000000000000e+00) (0, 0, 0.00000000000000000000e+00) (0, 0, 0.00000000000000000000e+00) (0, 0, 0.00000000000000000000e+00) (0, 0, 0.00000000000000000000e+00) (0, 0, 0.00000000000000000000e+00) (0, 0, 0.00000000000000000000e+00) (0, 0, 0.00000000000000000000e+00) (0, 0, 0.00000000000000000000e+00) (0, 0, 0.00000000000000000000e+00) (0, 0, 0.00000000000000000000e+00) (0, 0, 0.00000000000000000000e+00) (0, 0, 0.00000000000000000000e+00) (0, 0, 0.00000000000000000000e+00) (0, 0, 0.00000000000000000000e+00) (0, 0, 0.00000000000000000000e+00) (18, 3, 5.00000000000000000000e-01) (18, 3, 5.00000000000000000000e-01) (18, 3, 5.00000000000000000000e-01) (18, 3, 5.00000000000000000000e-01) (0, 3, 0.00000000000000000000e+00) (5, 3, 5.00000000000000000000e-01) (5, 3, 5.00000000000000000000e-01) (5, 3, 5.00000000000000000000e-01) (5, 3, 5.00000000000000000000e-01) (0, 3, 0.00000000000000000000e+00) (5, 0, 5.00000000000000000000e-01) (0, 0, 0.00000000000000000000e+00) 
connections (connected_to_neuron, weight)=(0, 1.46711105346679687500e+02) (1, 7.86154098510742187500e+01) (2, 4.34158325195312500000e+01) (3, -4.18818359375000000000e+02) (4, -7.43704040527343750000e+02) (5, 5.80103683471679687500e+01) (6, -1.56021255493164062500e+02) (7, 1.27784838867187500000e+03) (8, -5.89365112304687500000e+02) (9, -7.79966735839843750000e+02) (10, 4.35830421447753906250e+01) (11, 4.13598236083984375000e+02) (12, 7.62849731445312500000e+01) (13, 1.43453002929687500000e+03) (14, 1.27398254394531250000e+02) (15, 5.68859367370605468750e+01) (16, 3.91483993530273437500e+01) (17, -6.95113372802734375000e+00) (0, 7.72491931915283203125e-01) (1, 1.38248550891876220703e+00) (2, 1.29530835151672363281e+00) (3, 1.01533269882202148438e+00) (4, 1.07464516162872314453e+00) (5, -8.29245150089263916016e-01) (6, -1.68772709369659423828e+00) (7, -1.28946852684020996094e+00) (8, 2.28032007813453674316e-01) (9, 1.12762713432312011719e+00) (10, 8.60746264457702636719e-01) (11, 1.36922097206115722656e+00) (12, 9.09663379192352294922e-01) (13, 1.02253854274749755859e+00) (14, 1.22199857234954833984e+00) (15, 1.09370028972625732422e+00) (16, 1.16097891330718994141e+00) (17, -4.94753646850585937500e+00) (0, 1.04847736358642578125e+01) (1, 9.93461685180664062500e+01) (2, 1.51495361328125000000e+01) (3, -1.28313159179687500000e+03) (4, 3.50560226440429687500e+01) (5, 6.28790016174316406250e+01) (6, 4.14969024658203125000e+02) (7, 1.48138818359375000000e+03) (8, 1.62856903076171875000e+01) (9, 1.89669982910156250000e+02) (10, 3.81013069152832031250e+01) (11, 1.32934463500976562500e+02) (12, 5.16853942871093750000e+01) (13, 1.49450415039062500000e+03) (14, 8.75807113647460937500e+01) (15, 5.42860641479492187500e+01) (16, 3.75747375488281250000e+01) (17, 3.22452712059020996094e+00) (0, 1.00221166610717773438e+01) (1, 2.11519575119018554688e+00) (2, 1.84312076568603515625e+01) (3, 2.17012214660644531250e+00) (4, 1.29719495773315429688e+00) (5, 4.35332804918289184570e-01) (6, 2.78020530939102172852e-01) (7, -9.95686948299407958984e-01) (8, 3.43136042356491088867e-01) (9, 7.59402942657470703125e+00) (10, 4.32029247283935546875e+00) (11, 6.16884660720825195312e+00) (12, 6.91775417327880859375e+00) (13, 1.13608684539794921875e+01) (14, 1.09332284927368164062e+01) (15, 1.02057714462280273438e+01) (16, 1.28983330726623535156e+00) (17, -2.47779941558837890625e+01) (18, -3.97033959627151489258e-01) (19, 4.51553010940551757812e+00) (20, -1.67151343822479248047e+00) (21, 2.38046145439147949219e+00) (22, -2.45960640907287597656e+00) (18, -5.05911684036254882812e+00) (19, 1.50000000000000000000e+03) (20, -1.71265792846679687500e+01) (21, 1.50000000000000000000e+03) (22, 1.06747412681579589844e+00) (18, -5.03305482864379882812e+00) (19, 1.50000000000000000000e+03) (20, -1.73076858520507812500e+01) (21, 1.50000000000000000000e+03) (22, 1.11313581466674804688e+00) (18, -4.87706422805786132812e+00) (19, 1.50000000000000000000e+03) (20, -1.71631698608398437500e+01) (21, 1.50000000000000000000e+03) (22, 1.23028922080993652344e+00) (23, 8.73172187805175781250e+00) (24, 1.13834786415100097656e+00) (25, 1.22925543785095214844e+00) (26, 1.21597528457641601562e+00) (27, 1.09847402572631835938e+00) 
