FANN_FLO_2.1
num_layers=3
learning_rate=0.500000
connection_rate=1.000000
network_type=0
learning_momentum=0.000000
training_algorithm=2
train_error_function=1
train_stop_function=0
cascade_output_change_fraction=0.010000
quickprop_decay=-0.000100
quickprop_mu=1.750000
rprop_increase_factor=1.200000
rprop_decrease_factor=0.500000
rprop_delta_min=0.000000
rprop_delta_max=50.000000
rprop_delta_zero=0.100000
cascade_output_stagnation_epochs=12
cascade_candidate_change_fraction=0.010000
cascade_candidate_stagnation_epochs=12
cascade_max_out_epochs=150
cascade_min_out_epochs=50
cascade_max_cand_epochs=150
cascade_min_cand_epochs=50
cascade_num_candidate_groups=2
bit_fail_limit=3.49999994039535522461e-01
cascade_candidate_limit=1.00000000000000000000e+03
cascade_weight_multiplier=4.00000005960464477539e-01
cascade_activation_functions_count=10
cascade_activation_functions=3 5 7 8 10 11 14 15 16 17 
cascade_activation_steepnesses_count=4
cascade_activation_steepnesses=2.50000000000000000000e-01 5.00000000000000000000e-01 7.50000000000000000000e-01 1.00000000000000000000e+00 
layer_sizes=82 3 2 
scale_included=0
neurons (num_inputs, activation_function, activation_steepness)=(0, 0, 0.00000000000000000000e+00) (0, 0, 0.00000000000000000000e+00) (0, 0, 0.00000000000000000000e+00) (0, 0, 0.00000000000000000000e+00) (0, 0, 0.00000000000000000000e+00) (0, 0, 0.00000000000000000000e+00) (0, 0, 0.00000000000000000000e+00) (0, 0, 0.00000000000000000000e+00) (0, 0, 0.00000000000000000000e+00) (0, 0, 0.00000000000000000000e+00) (0, 0, 0.00000000000000000000e+00) (0, 0, 0.00000000000000000000e+00) (0, 0, 0.00000000000000000000e+00) (0, 0, 0.00000000000000000000e+00) (0, 0, 0.00000000000000000000e+00) (0, 0, 0.00000000000000000000e+00) (0, 0, 0.00000000000000000000e+00) (0, 0, 0.00000000000000000000e+00) (0, 0, 0.00000000000000000000e+00) (0, 0, 0.00000000000000000000e+00) (0, 0, 0.00000000000000000000e+00) (0, 0, 0.00000000000000000000e+00) (0, 0, 0.00000000000000000000e+00) (0, 0, 0.00000000000000000000e+00) (0, 0, 0.00000000000000000000e+00) (0, 0, 0.00000000000000000000e+00) (0, 0, 0.00000000000000000000e+00) (0, 0, 0.00000000000000000000e+00) (0, 0, 0.00000000000000000000e+00) (0, 0, 0.00000000000000000000e+00) (0, 0, 0.00000000000000000000e+00) (0, 0, 0.00000000000000000000e+00) (0, 0, 0.00000000000000000000e+00) (0, 0, 0.00000000000000000000e+00) (0, 0, 0.00000000000000000000e+00) (0, 0, 0.00000000000000000000e+00) (0, 0, 0.00000000000000000000e+00) (0, 0, 0.00000000000000000000e+00) (0, 0, 0.00000000000000000000e+00) (0, 0, 0.00000000000000000000e+00) (0, 0, 0.00000000000000000000e+00) (0, 0, 0.00000000000000000000e+00) (0, 0, 0.00000000000000000000e+00) (0, 0, 0.00000000000000000000e+00) (0, 0, 0.00000000000000000000e+00) (0, 0, 0.00000000000000000000e+00) (0, 0, 0.00000000000000000000e+00) (0, 0, 0.00000000000000000000e+00) (0, 0, 0.00000000000000000000e+00) (0, 0, 0.00000000000000000000e+00) (0, 0, 0.00000000000000000000e+00) (0, 0, 0.00000000000000000000e+00) (0, 0, 0.00000000000000000000e+00) (0, 0, 0.00000000000000000000e+00) (0, 0, 0.00000000000000000000e+00) (0, 0, 0.00000000000000000000e+00) (0, 0, 0.00000000000000000000e+00) (0, 0, 0.00000000000000000000e+00) (0, 0, 0.00000000000000000000e+00) (0, 0, 0.00000000000000000000e+00) (0, 0, 0.00000000000000000000e+00) (0, 0, 0.00000000000000000000e+00) (0, 0, 0.00000000000000000000e+00) (0, 0, 0.00000000000000000000e+00) (0, 0, 0.00000000000000000000e+00) (0, 0, 0.00000000000000000000e+00) (0, 0, 0.00000000000000000000e+00) (0, 0, 0.00000000000000000000e+00) (0, 0, 0.00000000000000000000e+00) (0, 0, 0.00000000000000000000e+00) (0, 0, 0.00000000000000000000e+00) (0, 0, 0.00000000000000000000e+00) (0, 0, 0.00000000000000000000e+00) (0, 0, 0.00000000000000000000e+00) (0, 0, 0.00000000000000000000e+00) (0, 0, 0.00000000000000000000e+00) (0, 0, 0.00000000000000000000e+00) (0, 0, 0.00000000000000000000e+00) (0, 0, 0.00000000000000000000e+00) (0, 0, 0.00000000000000000000e+00) (0, 0, 0.00000000000000000000e+00) (0, 0, 0.00000000000000000000e+00) (82, 3, 5.00000000000000000000e-01) (82, 3, 5.00000000000000000000e-01) (0, 3, 0.00000000000000000000e+00) (3, 3, 5.00000000000000000000e-01) (0, 3, 0.00000000000000000000e+00) 
connections (connected_to_neuron, weight)=(0, -9.32712927460670471191e-02) (1, 1.73116728663444519043e-01) (2, 1.00948788225650787354e-01) (3, -1.23720847070217132568e-01) (4, -3.22797536849975585938e-01) (5, -2.26066455245018005371e-01) (6, -2.50321388244628906250e-01) (7, 5.19288331270217895508e-02) (8, 1.19972631335258483887e-01) (9, 1.96887664496898651123e-02) (10, -3.03658574819564819336e-01) (11, -3.59019398689270019531e-01) (12, -3.16456943750381469727e-01) (13, -1.79708182811737060547e-01) (14, 2.81595066189765930176e-02) (15, -5.72204850614070892334e-02) (16, -1.80313482880592346191e-01) (17, -6.26104176044464111328e-01) (18, -3.68825435638427734375e-01) (19, -3.01539510488510131836e-01) (20, -1.17765963077545166016e-01) (21, 6.07815384864807128906e-02) (22, -1.93886160850524902344e-01) (23, -2.58400142192840576172e-01) (24, -3.58070588111877441406e+00) (25, -3.63484770059585571289e-01) (26, -1.55984135344624519348e-02) (27, -7.17409253120422363281e-02) (28, 7.19284033402800559998e-03) (29, -1.44050121307373046875e-01) (30, -2.05668106675148010254e-01) (31, -5.37987112998962402344e-01) (32, -1.01389177143573760986e-01) (33, -7.06463530659675598145e-02) (34, 2.60833563515916466713e-04) (35, -4.71198409795761108398e-02) (36, 1.84323284775018692017e-02) (37, -2.26819753646850585938e-01) (38, -5.05975961685180664062e-01) (39, -5.53827360272407531738e-02) (40, -7.96798467636108398438e-02) (41, 1.60350054502487182617e-02) (42, -1.13516896963119506836e-01) (43, 2.15371951460838317871e-01) (44, 1.51156976819038391113e-01) (45, -2.54104971885681152344e-01) (46, -1.72285847365856170654e-02) (47, -1.59729525446891784668e-01) (48, -3.31704057753086090088e-02) (49, 1.50000000000000000000e+03) (50, 1.50000000000000000000e+03) (51, 1.50000000000000000000e+03) (52, 1.50000000000000000000e+03) (53, 1.50000000000000000000e+03) (54, 1.50000000000000000000e+03) (55, 1.50000000000000000000e+03) (56, 1.50000000000000000000e+03) (57, 1.50000000000000000000e+03) (58, 1.50000000000000000000e+03) (59, 1.50000000000000000000e+03) (60, 1.50000000000000000000e+03) (61, 1.50000000000000000000e+03) (62, 1.50000000000000000000e+03) (63, 1.50000000000000000000e+03) (64, 1.50000000000000000000e+03) (65, 1.50000000000000000000e+03) (66, 1.50000000000000000000e+03) (67, 1.50000000000000000000e+03) (68, 1.50000000000000000000e+03) (69, 1.50000000000000000000e+03) (70, 1.50000000000000000000e+03) (71, 1.50000000000000000000e+03) (72, 1.50000000000000000000e+03) (73, 1.50000000000000000000e+03) (74, 1.50000000000000000000e+03) (75, 1.50000000000000000000e+03) (76, 1.50000000000000000000e+03) (77, 1.50000000000000000000e+03) (78, 1.50000000000000000000e+03) (79, 1.50000000000000000000e+03) (80, 1.50000000000000000000e+03) (81, 9.79042768478393554688e-01) (0, -9.53089967370033264160e-02) (1, 9.25087183713912963867e-02) (2, 1.37761294841766357422e-01) (3, 4.25475805997848510742e-01) (4, 3.42368304729461669922e-01) (5, 9.78545174002647399902e-02) (6, -1.43607899546623229980e-01) (7, -1.93749263882637023926e-01) (8, 3.58703434467315673828e-02) (9, -3.32745134830474853516e-01) (10, -6.04866921901702880859e-01) (11, -3.74070078134536743164e-01) (12, -1.50632798671722412109e-01) (13, 2.67038643360137939453e-01) (14, 1.21566645801067352295e-01) (15, 3.06093646213412284851e-03) (16, -1.90939828753471374512e-02) (17, -1.18855965137481689453e+00) (18, -2.89677232503890991211e-01) (19, -2.52568461000919342041e-02) (20, 2.83738464117050170898e-01) (21, -8.73143970966339111328e-03) (22, -5.10706119239330291748e-02) (23, -3.02440226078033447266e-01) (24, -7.29465818405151367188e+00) (25, -3.20724904537200927734e-01) (26, -1.17788046598434448242e-01) (27, -2.93714612722396850586e-01) (28, 2.19775363802909851074e-01) (29, -3.38692992925643920898e-01) (30, -1.26005959510803222656e+00) (31, -1.29340076446533203125e+00) (32, 6.99150189757347106934e-02) (33, 1.84680908918380737305e-01) (34, 3.41535538434982299805e-01) (35, -4.23520207405090332031e-02) (36, 1.31456822156906127930e-01) (37, -6.48812577128410339355e-02) (38, -8.08969974517822265625e-01) (39, 4.00045245885848999023e-01) (40, 2.54505753517150878906e-01) (41, 6.42323419451713562012e-02) (42, 6.80617541074752807617e-02) (43, 2.36534550786018371582e-02) (44, -6.12554326653480529785e-02) (45, -4.31895643472671508789e-01) (46, 2.73208230733871459961e-01) (47, 2.94661968946456909180e-01) (48, -2.06627458333969116211e-01) (49, 1.50000000000000000000e+03) (50, 1.50000000000000000000e+03) (51, 1.50000000000000000000e+03) (52, 1.50000000000000000000e+03) (53, 1.50000000000000000000e+03) (54, 1.50000000000000000000e+03) (55, 1.50000000000000000000e+03) (56, 1.50000000000000000000e+03) (57, 1.50000000000000000000e+03) (58, 1.50000000000000000000e+03) (59, 1.50000000000000000000e+03) (60, 1.50000000000000000000e+03) (61, 1.50000000000000000000e+03) (62, 1.50000000000000000000e+03) (63, 1.50000000000000000000e+03) (64, 1.50000000000000000000e+03) (65, 1.50000000000000000000e+03) (66, 1.50000000000000000000e+03) (67, 1.50000000000000000000e+03) (68, 1.50000000000000000000e+03) (69, 1.50000000000000000000e+03) (70, 1.50000000000000000000e+03) (71, 1.50000000000000000000e+03) (72, 1.50000000000000000000e+03) (73, 1.50000000000000000000e+03) (74, 1.50000000000000000000e+03) (75, 1.50000000000000000000e+03) (76, 1.50000000000000000000e+03) (77, 1.50000000000000000000e+03) (78, 1.50000000000000000000e+03) (79, 1.50000000000000000000e+03) (80, 1.50000000000000000000e+03) (81, 7.04350996017456054688e+00) (82, -3.94234943389892578125e+00) (83, -1.46101343631744384766e+00) (84, 1.09655582904815673828e+00) 
