FANN_FLO_2.1
num_layers=3
learning_rate=0.450000
connection_rate=1.000000
network_type=0
learning_momentum=0.000000
training_algorithm=2
train_error_function=1
train_stop_function=0
cascade_output_change_fraction=0.010000
quickprop_decay=-0.000100
quickprop_mu=1.750000
rprop_increase_factor=1.200000
rprop_decrease_factor=0.500000
rprop_delta_min=0.000000
rprop_delta_max=50.000000
rprop_delta_zero=0.100000
cascade_output_stagnation_epochs=12
cascade_candidate_change_fraction=0.010000
cascade_candidate_stagnation_epochs=12
cascade_max_out_epochs=150
cascade_min_out_epochs=50
cascade_max_cand_epochs=150
cascade_min_cand_epochs=50
cascade_num_candidate_groups=2
bit_fail_limit=3.49999994039535522461e-01
cascade_candidate_limit=1.00000000000000000000e+03
cascade_weight_multiplier=4.00000005960464477539e-01
cascade_activation_functions_count=10
cascade_activation_functions=3 5 7 8 10 11 14 15 16 17 
cascade_activation_steepnesses_count=4
cascade_activation_steepnesses=2.50000000000000000000e-01 5.00000000000000000000e-01 7.50000000000000000000e-01 1.00000000000000000000e+00 
layer_sizes=7 5 2 
scale_included=0
neurons (num_inputs, activation_function, activation_steepness)=(0, 0, 0.00000000000000000000e+00) (0, 0, 0.00000000000000000000e+00) (0, 0, 0.00000000000000000000e+00) (0, 0, 0.00000000000000000000e+00) (0, 0, 0.00000000000000000000e+00) (0, 0, 0.00000000000000000000e+00) (0, 0, 0.00000000000000000000e+00) (7, 3, 5.00000000000000000000e-01) (7, 3, 5.00000000000000000000e-01) (7, 3, 5.00000000000000000000e-01) (7, 3, 5.00000000000000000000e-01) (0, 3, 0.00000000000000000000e+00) (5, 0, 5.00000000000000000000e-01) (0, 0, 0.00000000000000000000e+00) 
connections (connected_to_neuron, weight)=(0, -1.97295773029327392578e+00) (1, -2.10664844512939453125e+00) (2, 1.23200587928295135498e-01) (3, -5.74928903579711914062e+00) (4, -1.07288666069507598877e-01) (5, 1.54230308532714843750e+01) (6, -9.81508731842041015625e-01) (0, -7.67068433761596679688e+00) (1, 6.41681253910064697266e-01) (2, -1.36798591613769531250e+01) (3, -2.39700927734375000000e+01) (4, 5.20138626098632812500e+01) (5, 2.63801391601562500000e+02) (6, -3.16475505828857421875e+01) (0, 4.16104125976562500000e+01) (1, -3.30548629760742187500e+01) (2, 2.61757259368896484375e+01) (3, 1.50000000000000000000e+03) (4, -9.64040946960449218750e+00) (5, -1.65831726074218750000e+02) (6, -6.52943229675292968750e+00) (0, 2.43957445025444030762e-01) (1, 6.46322965621948242188e-01) (2, 1.45902385711669921875e+01) (3, -1.39460599422454833984e+00) (4, 3.51067423820495605469e+00) (5, -8.19500327110290527344e-01) (6, -1.47371029853820800781e+00) (7, -9.84074361622333526611e-03) (8, 2.71431785076856613159e-02) (9, 1.18932023644447326660e-01) (10, -1.04818773269653320312e+00) (11, 9.16187465190887451172e-01) 
