FANN_FLO_2.1
num_layers=3
learning_rate=0.300000
connection_rate=1.000000
network_type=0
learning_momentum=0.000000
training_algorithm=2
train_error_function=1
train_stop_function=0
cascade_output_change_fraction=0.010000
quickprop_decay=-0.000100
quickprop_mu=1.750000
rprop_increase_factor=1.200000
rprop_decrease_factor=0.500000
rprop_delta_min=0.000000
rprop_delta_max=50.000000
rprop_delta_zero=0.100000
cascade_output_stagnation_epochs=12
cascade_candidate_change_fraction=0.010000
cascade_candidate_stagnation_epochs=12
cascade_max_out_epochs=150
cascade_min_out_epochs=50
cascade_max_cand_epochs=150
cascade_min_cand_epochs=50
cascade_num_candidate_groups=2
bit_fail_limit=3.49999994039535522461e-01
cascade_candidate_limit=1.00000000000000000000e+03
cascade_weight_multiplier=4.00000005960464477539e-01
cascade_activation_functions_count=10
cascade_activation_functions=3 5 7 8 10 11 14 15 16 17 
cascade_activation_steepnesses_count=4
cascade_activation_steepnesses=2.50000000000000000000e-01 5.00000000000000000000e-01 7.50000000000000000000e-01 1.00000000000000000000e+00 
layer_sizes=4 33 2 
scale_included=0
neurons (num_inputs, activation_function, activation_steepness)=(0, 0, 0.00000000000000000000e+00) (0, 0, 0.00000000000000000000e+00) (0, 0, 0.00000000000000000000e+00) (0, 0, 0.00000000000000000000e+00) (4, 3, 5.00000000000000000000e-01) (4, 3, 5.00000000000000000000e-01) (4, 3, 5.00000000000000000000e-01) (4, 3, 5.00000000000000000000e-01) (4, 3, 5.00000000000000000000e-01) (4, 3, 5.00000000000000000000e-01) (4, 3, 5.00000000000000000000e-01) (4, 3, 5.00000000000000000000e-01) (4, 3, 5.00000000000000000000e-01) (4, 3, 5.00000000000000000000e-01) (4, 3, 5.00000000000000000000e-01) (4, 3, 5.00000000000000000000e-01) (4, 3, 5.00000000000000000000e-01) (4, 3, 5.00000000000000000000e-01) (4, 3, 5.00000000000000000000e-01) (4, 3, 5.00000000000000000000e-01) (4, 3, 5.00000000000000000000e-01) (4, 3, 5.00000000000000000000e-01) (4, 3, 5.00000000000000000000e-01) (4, 3, 5.00000000000000000000e-01) (4, 3, 5.00000000000000000000e-01) (4, 3, 5.00000000000000000000e-01) (4, 3, 5.00000000000000000000e-01) (4, 3, 5.00000000000000000000e-01) (4, 3, 5.00000000000000000000e-01) (4, 3, 5.00000000000000000000e-01) (4, 3, 5.00000000000000000000e-01) (4, 3, 5.00000000000000000000e-01) (4, 3, 5.00000000000000000000e-01) (4, 3, 5.00000000000000000000e-01) (4, 3, 5.00000000000000000000e-01) (4, 3, 5.00000000000000000000e-01) (0, 3, 0.00000000000000000000e+00) (33, 3, 5.00000000000000000000e-01) (0, 3, 0.00000000000000000000e+00) 
connections (connected_to_neuron, weight)=(0, -4.48058307170867919922e-01) (1, 2.38781109452247619629e-01) (2, -1.77425384521484375000e+00) (3, 9.29235839843750000000e+00) (0, -2.45036578178405761719e+00) (1, -2.15785473585128784180e-01) (2, -1.03966264724731445312e+01) (3, -3.05804640054702758789e-01) (0, 1.77730773925781250000e+02) (1, 6.85233652591705322266e-01) (2, 1.10347694396972656250e+02) (3, 2.58959949016571044922e-01) (0, 2.53141670227050781250e+01) (1, 5.47109603881835937500e-01) (2, 1.81419050693511962891e+00) (3, 3.13536196947097778320e-01) (0, -3.94597506523132324219e+00) (1, 3.46228569746017456055e-01) (2, -4.87802773714065551758e-01) (3, 1.92489326000213623047e-01) (0, 3.96975731849670410156e+00) (1, -3.22390764951705932617e-01) (2, -1.94466686248779296875e+01) (3, -2.97088295221328735352e-01) (0, 1.78015533447265625000e+02) (1, 5.71193635463714599609e-01) (2, 1.96219425201416015625e+01) (3, 2.75517940521240234375e-01) (0, -1.70271742343902587891e+00) (1, 2.20789879560470581055e-01) (2, -7.50968575477600097656e-01) (3, 6.16918444633483886719e-01) (0, -8.26363265514373779297e-01) (1, -2.45420321822166442871e-01) (2, 2.88606500625610351562e+00) (3, -4.72838133573532104492e-01) (0, -8.71688723564147949219e-01) (1, -1.46000981330871582031e-01) (2, 2.27905392646789550781e+00) (3, -2.01071351766586303711e-01) (0, 2.13331079483032226562e+00) (1, -3.76069009304046630859e-01) (2, -8.53977680206298828125e+00) (3, -2.66249895095825195312e-01) (0, 3.46761441230773925781e+00) (1, -1.64205446839332580566e-01) (2, -1.79163990020751953125e+01) (3, -1.90600305795669555664e-01) (0, 1.82423567771911621094e+00) (1, -1.29409417510032653809e-01) (2, -9.13021564483642578125e+00) (3, -1.81813925504684448242e-01) (0, -6.12651491165161132812e+00) (1, -7.41866827011108398438e-01) (2, 1.63076591491699218750e+01) (3, -2.08538725972175598145e-01) (0, 1.49879809570312500000e+03) (1, 8.36354315280914306641e-01) (2, 2.64615051269531250000e+02) (3, 2.73116767406463623047e-01) (0, -1.00622761249542236328e+00) (1, 1.95059299468994140625e-01) (2, 6.04618072509765625000e+00) (3, -1.85641174316406250000e+01) (0, -3.73601675033569335938e-01) (1, 2.54858434200286865234e-01) (2, -4.16422545909881591797e-01) (3, 6.07449054718017578125e-01) (0, -3.47956824302673339844e+00) (1, -1.35333746671676635742e-01) (2, 4.01889896392822265625e+00) (3, -4.15017038583755493164e-01) (0, 2.44353580474853515625e+00) (1, -2.18479543924331665039e-01) (2, -1.71710319519042968750e+01) (3, -4.34002466499805450439e-02) (0, -3.96469444036483764648e-01) (1, 3.96212428808212280273e-01) (2, -1.87229359149932861328e+00) (3, 5.45069217681884765625e+00) (0, -3.60123372077941894531e+00) (1, -3.35429668426513671875e-01) (2, 7.23387622833251953125e+00) (3, -6.11973404884338378906e-01) (0, 1.01285247802734375000e+01) (1, -4.27852690219879150391e-01) (2, -3.25384979248046875000e+01) (3, -8.46544456481933593750e+00) (0, -3.48365157842636108398e-01) (1, 1.74320653080940246582e-01) (2, -1.45103204250335693359e+00) (3, 3.01664519309997558594e+00) (0, -4.07641977071762084961e-01) (1, 1.99487000703811645508e-01) (2, 1.60945701599121093750e+00) (3, -1.41840658187866210938e+01) (0, -2.34114341437816619873e-02) (1, -3.11275482177734375000e-01) (2, 1.10163128376007080078e+00) (3, -5.51777556538581848145e-02) (0, -5.98326385021209716797e-01) (1, 3.77965390682220458984e-01) (2, -4.14234429597854614258e-01) (3, 6.44522905349731445312e-01) (0, 2.14825749397277832031e+00) (1, -2.69405722618103027344e-01) (2, -8.77140331268310546875e+00) (3, -1.56025528907775878906e-01) (0, 4.00756835937500000000e+00) (1, -3.69396358728408813477e-01) (2, -1.80495433807373046875e+01) (3, -1.66532188653945922852e-01) (0, -2.42088645696640014648e-01) (1, 2.47831255197525024414e-01) (2, -5.81327772140502929688e+00) (3, 4.73478883504867553711e-01) (0, -7.13054895401000976562e-01) (1, -9.08516421914100646973e-02) (2, 1.66963267326354980469e+00) (3, -7.64662250876426696777e-02) (0, -1.79095828533172607422e+00) (1, 1.95600718259811401367e-01) (2, 4.85348403453826904297e-01) (3, 1.96726679801940917969e-01) (0, -5.16562461853027343750e+00) (1, 4.48958694934844970703e-01) (2, -1.72146987915039062500e+00) (3, 3.96839570999145507812e+00) (4, -1.16531205177307128906e+00) (5, 1.50000000000000000000e+03) (6, 1.44857972860336303711e-01) (7, 4.99618574976921081543e-02) (8, 1.13233666992187500000e+03) (9, 5.36359741210937500000e+02) (10, 1.33755132555961608887e-02) (11, -1.01889434814453125000e+03) (12, 2.24391174316406250000e+02) (13, -6.31834289550781250000e+02) (14, 1.05494709014892578125e+01) (15, 6.79681062698364257812e+00) (16, 5.84509338378906250000e+02) (17, 4.01106224060058593750e+01) (18, 1.97874158620834350586e-02) (19, 1.82084226608276367188e+00) (20, -1.86560010910034179688e+00) (21, 1.45035644531250000000e+02) (22, -3.04026145935058593750e+01) (23, -4.86335873603820800781e-01) (24, 4.20344726562500000000e+02) (25, 2.56109476089477539062e-01) (26, -2.47807765007019042969e+00) (27, 5.74322521686553955078e-01) (28, -8.25185302734375000000e+02) (29, -4.97291862964630126953e-01) (30, -4.04439697265625000000e+01) (31, -1.75145919799804687500e+02) (32, -1.50000000000000000000e+03) (33, -1.91396057128906250000e+02) (34, -7.04182624816894531250e+00) (35, -1.95563751220703125000e+02) (36, 2.80156172811985015869e-02) 
