FANN_FLO_2.1
num_layers=3
learning_rate=0.500000
connection_rate=1.000000
network_type=0
learning_momentum=0.000000
training_algorithm=2
train_error_function=1
train_stop_function=0
cascade_output_change_fraction=0.010000
quickprop_decay=-0.000100
quickprop_mu=1.750000
rprop_increase_factor=1.200000
rprop_decrease_factor=0.500000
rprop_delta_min=0.000000
rprop_delta_max=50.000000
rprop_delta_zero=0.100000
cascade_output_stagnation_epochs=12
cascade_candidate_change_fraction=0.010000
cascade_candidate_stagnation_epochs=12
cascade_max_out_epochs=150
cascade_min_out_epochs=50
cascade_max_cand_epochs=150
cascade_min_cand_epochs=50
cascade_num_candidate_groups=2
bit_fail_limit=3.49999994039535522461e-01
cascade_candidate_limit=1.00000000000000000000e+03
cascade_weight_multiplier=4.00000005960464477539e-01
cascade_activation_functions_count=10
cascade_activation_functions=3 5 7 8 10 11 14 15 16 17 
cascade_activation_steepnesses_count=4
cascade_activation_steepnesses=2.50000000000000000000e-01 5.00000000000000000000e-01 7.50000000000000000000e-01 1.00000000000000000000e+00 
layer_sizes=82 9 2 
scale_included=0
neurons (num_inputs, activation_function, activation_steepness)=(0, 0, 0.00000000000000000000e+00) (0, 0, 0.00000000000000000000e+00) (0, 0, 0.00000000000000000000e+00) (0, 0, 0.00000000000000000000e+00) (0, 0, 0.00000000000000000000e+00) (0, 0, 0.00000000000000000000e+00) (0, 0, 0.00000000000000000000e+00) (0, 0, 0.00000000000000000000e+00) (0, 0, 0.00000000000000000000e+00) (0, 0, 0.00000000000000000000e+00) (0, 0, 0.00000000000000000000e+00) (0, 0, 0.00000000000000000000e+00) (0, 0, 0.00000000000000000000e+00) (0, 0, 0.00000000000000000000e+00) (0, 0, 0.00000000000000000000e+00) (0, 0, 0.00000000000000000000e+00) (0, 0, 0.00000000000000000000e+00) (0, 0, 0.00000000000000000000e+00) (0, 0, 0.00000000000000000000e+00) (0, 0, 0.00000000000000000000e+00) (0, 0, 0.00000000000000000000e+00) (0, 0, 0.00000000000000000000e+00) (0, 0, 0.00000000000000000000e+00) (0, 0, 0.00000000000000000000e+00) (0, 0, 0.00000000000000000000e+00) (0, 0, 0.00000000000000000000e+00) (0, 0, 0.00000000000000000000e+00) (0, 0, 0.00000000000000000000e+00) (0, 0, 0.00000000000000000000e+00) (0, 0, 0.00000000000000000000e+00) (0, 0, 0.00000000000000000000e+00) (0, 0, 0.00000000000000000000e+00) (0, 0, 0.00000000000000000000e+00) (0, 0, 0.00000000000000000000e+00) (0, 0, 0.00000000000000000000e+00) (0, 0, 0.00000000000000000000e+00) (0, 0, 0.00000000000000000000e+00) (0, 0, 0.00000000000000000000e+00) (0, 0, 0.00000000000000000000e+00) (0, 0, 0.00000000000000000000e+00) (0, 0, 0.00000000000000000000e+00) (0, 0, 0.00000000000000000000e+00) (0, 0, 0.00000000000000000000e+00) (0, 0, 0.00000000000000000000e+00) (0, 0, 0.00000000000000000000e+00) (0, 0, 0.00000000000000000000e+00) (0, 0, 0.00000000000000000000e+00) (0, 0, 0.00000000000000000000e+00) (0, 0, 0.00000000000000000000e+00) (0, 0, 0.00000000000000000000e+00) (0, 0, 0.00000000000000000000e+00) (0, 0, 0.00000000000000000000e+00) (0, 0, 0.00000000000000000000e+00) (0, 0, 0.00000000000000000000e+00) (0, 0, 0.00000000000000000000e+00) (0, 0, 0.00000000000000000000e+00) (0, 0, 0.00000000000000000000e+00) (0, 0, 0.00000000000000000000e+00) (0, 0, 0.00000000000000000000e+00) (0, 0, 0.00000000000000000000e+00) (0, 0, 0.00000000000000000000e+00) (0, 0, 0.00000000000000000000e+00) (0, 0, 0.00000000000000000000e+00) (0, 0, 0.00000000000000000000e+00) (0, 0, 0.00000000000000000000e+00) (0, 0, 0.00000000000000000000e+00) (0, 0, 0.00000000000000000000e+00) (0, 0, 0.00000000000000000000e+00) (0, 0, 0.00000000000000000000e+00) (0, 0, 0.00000000000000000000e+00) (0, 0, 0.00000000000000000000e+00) (0, 0, 0.00000000000000000000e+00) (0, 0, 0.00000000000000000000e+00) (0, 0, 0.00000000000000000000e+00) (0, 0, 0.00000000000000000000e+00) (0, 0, 0.00000000000000000000e+00) (0, 0, 0.00000000000000000000e+00) (0, 0, 0.00000000000000000000e+00) (0, 0, 0.00000000000000000000e+00) (0, 0, 0.00000000000000000000e+00) (0, 0, 0.00000000000000000000e+00) (0, 0, 0.00000000000000000000e+00) (82, 3, 5.00000000000000000000e-01) (82, 3, 5.00000000000000000000e-01) (82, 3, 5.00000000000000000000e-01) (82, 3, 5.00000000000000000000e-01) (82, 3, 5.00000000000000000000e-01) (82, 3, 5.00000000000000000000e-01) (82, 3, 5.00000000000000000000e-01) (82, 3, 5.00000000000000000000e-01) (0, 3, 0.00000000000000000000e+00) (9, 3, 5.00000000000000000000e-01) (0, 3, 0.00000000000000000000e+00) 
connections (connected_to_neuron, weight)=(0, -1.00008077919483184814e-01) (1, -2.88031641393899917603e-02) (2, -7.04256519675254821777e-02) (3, 6.29279688000679016113e-02) (4, 3.17007869482040405273e-01) (5, -1.38105258345603942871e-01) (6, -1.26793771982192993164e-01) (7, 5.25225438177585601807e-02) (8, -3.63647472113370895386e-03) (9, -1.53187498450279235840e-01) (10, 2.93176434934139251709e-02) (11, -9.20139476656913757324e-02) (12, -1.55896097421646118164e-01) (13, -6.42676874995231628418e-02) (14, -8.37310478091239929199e-02) (15, -1.64190083742141723633e-01) (16, -8.69498774409294128418e-02) (17, -2.47542575001716613770e-01) (18, -7.60434791445732116699e-02) (19, -1.00335486233234405518e-01) (20, -1.70016840100288391113e-01) (21, -7.86077231168746948242e-02) (22, -7.05601498484611511230e-02) (23, -1.66700497269630432129e-01) (24, -1.27617454528808593750e+00) (25, -1.05069302022457122803e-01) (26, -6.42801076173782348633e-02) (27, -1.63853093981742858887e-01) (28, -3.45382764935493469238e-02) (29, 9.83689576387405395508e-02) (30, -2.35881984233856201172e-01) (31, -3.46709221601486206055e-01) (32, -2.86619272083044052124e-02) (33, -1.40774836763739585876e-02) (34, -1.87593400478363037109e-01) (35, -7.79530704021453857422e-02) (36, -1.79154455661773681641e-01) (37, -1.15688845515251159668e-01) (38, -2.54700064659118652344e-01) (39, -7.82384797930717468262e-02) (40, 3.01037907600402832031e-01) (41, 4.57993626594543457031e-01) (42, -7.42210969328880310059e-02) (43, -9.72539186477661132812e-02) (44, -1.50257162749767303467e-02) (45, -2.41928756237030029297e-01) (46, -1.22619867324829101562e-01) (47, 2.49808818101882934570e-01) (48, 1.45590141415596008301e-01) (49, 1.50000000000000000000e+03) (50, 1.50000000000000000000e+03) (51, 1.50000000000000000000e+03) (52, 1.50000000000000000000e+03) (53, 1.50000000000000000000e+03) (54, 1.50000000000000000000e+03) (55, 1.50000000000000000000e+03) (56, 1.50000000000000000000e+03) (57, 1.50000000000000000000e+03) (58, 1.50000000000000000000e+03) (59, 1.50000000000000000000e+03) (60, 1.50000000000000000000e+03) (61, 1.50000000000000000000e+03) (62, 1.50000000000000000000e+03) (63, 1.50000000000000000000e+03) (64, 1.50000000000000000000e+03) (65, 1.50000000000000000000e+03) (66, 1.50000000000000000000e+03) (67, 1.50000000000000000000e+03) (68, 1.50000000000000000000e+03) (69, 1.50000000000000000000e+03) (70, 1.50000000000000000000e+03) (71, 1.50000000000000000000e+03) (72, 1.50000000000000000000e+03) (73, 1.50000000000000000000e+03) (74, 1.50000000000000000000e+03) (75, 1.50000000000000000000e+03) (76, 1.50000000000000000000e+03) (77, 1.50000000000000000000e+03) (78, 1.50000000000000000000e+03) (79, 1.50000000000000000000e+03) (80, 1.50000000000000000000e+03) (81, 5.13836979866027832031e-01) (0, -4.45733040571212768555e-01) (1, 2.30456978082656860352e-01) (2, -2.15814635157585144043e-02) (3, -5.88499642908573150635e-02) (4, -1.77550449967384338379e-01) (5, -2.56070137023925781250e-01) (6, 1.05070285499095916748e-01) (7, 2.69776880741119384766e-01) (8, 8.31584483385086059570e-02) (9, 8.34521055221557617188e-02) (10, -3.99256825447082519531e-01) (11, -1.63699939846992492676e-01) (12, 9.42946448922157287598e-02) (13, 7.23219737410545349121e-02) (14, 5.47316565643996000290e-04) (15, 8.83961170911788940430e-02) (16, -8.89655575156211853027e-02) (17, -3.79490464925765991211e-01) (18, -2.94392287731170654297e-01) (19, 1.01020112633705139160e-02) (20, 4.59690727293491363525e-02) (21, 7.27663710713386535645e-02) (22, 2.25650474429130554199e-01) (23, -2.38922968506813049316e-01) (24, -2.94526219367980957031e+00) (25, -2.47145220637321472168e-01) (26, -3.81898544728755950928e-02) (27, 8.09891074895858764648e-02) (28, 5.29576502740383148193e-02) (29, 1.96213901042938232422e-01) (30, -4.43030335009098052979e-02) (31, -5.94588220119476318359e-01) (32, -9.14640072733163833618e-03) (33, 1.39104634523391723633e-01) (34, -1.87572576105594635010e-02) (35, 1.18521392345428466797e-01) (36, 6.93427398800849914551e-02) (37, 2.73428764194250106812e-02) (38, -4.63241070508956909180e-01) (39, 1.28403589129447937012e-01) (40, 1.17947906255722045898e-01) (41, -5.57887442409992218018e-02) (42, 3.21477744728326797485e-03) (43, 1.22380919754505157471e-01) (44, 2.15983688831329345703e-01) (45, -1.79693013429641723633e-01) (46, 1.04641027748584747314e-01) (47, 7.39285573363304138184e-02) (48, 5.73250353336334228516e-02) (49, 1.50000000000000000000e+03) (50, 1.50000000000000000000e+03) (51, 1.50000000000000000000e+03) (52, 1.50000000000000000000e+03) (53, 1.50000000000000000000e+03) (54, 1.50000000000000000000e+03) (55, 1.50000000000000000000e+03) (56, 1.50000000000000000000e+03) (57, 1.50000000000000000000e+03) (58, 1.50000000000000000000e+03) (59, 1.50000000000000000000e+03) (60, 1.50000000000000000000e+03) (61, 1.50000000000000000000e+03) (62, 1.50000000000000000000e+03) (63, 1.50000000000000000000e+03) (64, 1.50000000000000000000e+03) (65, 1.50000000000000000000e+03) (66, 1.50000000000000000000e+03) (67, 1.50000000000000000000e+03) (68, 1.50000000000000000000e+03) (69, 1.50000000000000000000e+03) (70, 1.50000000000000000000e+03) (71, 1.50000000000000000000e+03) (72, 1.50000000000000000000e+03) (73, 1.50000000000000000000e+03) (74, 1.50000000000000000000e+03) (75, 1.50000000000000000000e+03) (76, 1.50000000000000000000e+03) (77, 1.50000000000000000000e+03) (78, 1.50000000000000000000e+03) (79, 1.50000000000000000000e+03) (80, 1.50000000000000000000e+03) (81, 3.24109673500061035156e-01) (0, -2.94227142333984375000e+02) (1, -1.15357757568359375000e+02) (2, 9.81367015838623046875e+00) (3, 3.31455749511718750000e+02) (4, 2.58704624176025390625e+01) (5, -5.54542541503906250000e-01) (6, -6.69077253341674804688e+00) (7, -4.68720001220703125000e+02) (8, -5.84131574630737304688e+00) (9, 2.38754684448242187500e+02) (10, 5.29365966796875000000e+02) (11, 2.11599183082580566406e+00) (12, -2.31412172317504882812e+00) (13, -1.17546958923339843750e+01) (14, 1.09766855239868164062e+01) (15, 2.19452152252197265625e+01) (16, 3.10567047119140625000e+02) (17, 1.52033538818359375000e+02) (18, -1.52418823242187500000e+01) (19, -5.29951810836791992188e-01) (20, -5.81014709472656250000e+01) (21, -8.63656520843505859375e+00) (22, 3.23762588500976562500e+01) (23, 4.19365844726562500000e+01) (24, -4.92451477050781250000e+02) (25, -1.56815183162689208984e+00) (26, 6.53928833007812500000e+01) (27, -6.13245677947998046875e+00) (28, -1.55510311126708984375e+01) (29, -8.45336246490478515625e+00) (30, 6.93895387649536132812e+00) (31, -2.35504135131835937500e+02) (32, -1.12885322570800781250e+01) (33, -2.43689131736755371094e+00) (34, -3.67194366455078125000e+02) (35, -3.81769828796386718750e+01) (36, -1.98250045776367187500e+01) (37, 5.14010906219482421875e+00) (38, 4.20839271545410156250e+01) (39, -1.48847599029541015625e+01) (40, 1.99671936035156250000e+01) (41, -5.80052452087402343750e+01) (42, -9.47995071411132812500e+01) (43, -1.02773904800415039062e+00) (44, -1.32986938476562500000e+02) (45, 1.39483428001403808594e+00) (46, -1.32492895126342773438e+01) (47, -5.28961364746093750000e+02) (48, -7.67446975708007812500e+01) (49, 1.50000000000000000000e+03) (50, 1.50000000000000000000e+03) (51, 1.50000000000000000000e+03) (52, 1.50000000000000000000e+03) (53, 1.50000000000000000000e+03) (54, 1.50000000000000000000e+03) (55, 1.50000000000000000000e+03) (56, 1.50000000000000000000e+03) (57, 1.50000000000000000000e+03) (58, 1.50000000000000000000e+03) (59, 1.50000000000000000000e+03) (60, 1.50000000000000000000e+03) (61, 1.50000000000000000000e+03) (62, 1.50000000000000000000e+03) (63, 1.50000000000000000000e+03) (64, 1.50000000000000000000e+03) (65, 1.50000000000000000000e+03) (66, 1.50000000000000000000e+03) (67, 1.50000000000000000000e+03) (68, 1.50000000000000000000e+03) (69, 1.50000000000000000000e+03) (70, 1.50000000000000000000e+03) (71, 1.50000000000000000000e+03) (72, 1.50000000000000000000e+03) (73, 1.50000000000000000000e+03) (74, 1.50000000000000000000e+03) (75, 1.50000000000000000000e+03) (76, 1.50000000000000000000e+03) (77, 1.50000000000000000000e+03) (78, 1.50000000000000000000e+03) (79, 1.50000000000000000000e+03) (80, 1.50000000000000000000e+03) (81, 2.09577918052673339844e-01) (0, 2.73323893547058105469e+00) (1, 1.93069183349609375000e+02) (2, 1.47872070312500000000e+02) (3, -4.29079620361328125000e+02) (4, -1.47798339843750000000e+02) (5, 4.75269699096679687500e+01) (6, 2.17134876251220703125e+01) (7, 1.09624969959259033203e+00) (8, 8.84065818786621093750e+00) (9, -5.96602233886718750000e+02) (10, -7.71985092163085937500e+01) (11, 1.46953933715820312500e+02) (12, 2.73917541503906250000e+01) (13, 1.02199546813964843750e+02) (14, 5.54058730602264404297e-01) (15, 3.65510368347167968750e+01) (16, 4.22828025817871093750e+01) (17, -4.29772071838378906250e+01) (18, 4.92133522033691406250e+00) (19, 8.96473236083984375000e+01) (20, 2.07597869873046875000e+02) (21, -3.97359108924865722656e+00) (22, 4.33580905199050903320e-01) (23, -5.01444610595703125000e+02) (24, -3.27144226074218750000e+02) (25, 2.88084411621093750000e+01) (26, 2.14371566772460937500e+02) (27, 9.98635053634643554688e-01) (28, -2.64259452819824218750e+01) (29, -8.71917605400085449219e-02) (30, 3.67115631103515625000e+01) (31, -4.96328210830688476562e+00) (32, 8.68770480155944824219e-01) (33, 1.14421226501464843750e+02) (34, -6.31545837402343750000e+02) (35, 5.36294460296630859375e-01) (36, -1.06319260597229003906e+00) (37, 1.60597183227539062500e+02) (38, 1.97539932250976562500e+02) (39, 3.17697763442993164062e+00) (40, 1.08877731323242187500e+02) (41, 1.00264747619628906250e+02) (42, 5.51420555114746093750e+01) (43, 2.23287463188171386719e+00) (44, 8.81145000457763671875e+00) (45, -4.52571441650390625000e+02) (46, 6.37635564804077148438e+00) (47, 4.46652173995971679688e+00) (48, -4.22352203369140625000e+02) (49, 1.50000000000000000000e+03) (50, 1.50000000000000000000e+03) (51, 1.50000000000000000000e+03) (52, 1.50000000000000000000e+03) (53, 1.50000000000000000000e+03) (54, 1.50000000000000000000e+03) (55, 1.50000000000000000000e+03) (56, 1.50000000000000000000e+03) (57, 1.50000000000000000000e+03) (58, 1.50000000000000000000e+03) (59, 1.50000000000000000000e+03) (60, 1.50000000000000000000e+03) (61, 1.50000000000000000000e+03) (62, 1.50000000000000000000e+03) (63, 1.50000000000000000000e+03) (64, 1.50000000000000000000e+03) (65, 1.50000000000000000000e+03) (66, 1.50000000000000000000e+03) (67, 1.50000000000000000000e+03) (68, 1.50000000000000000000e+03) (69, 1.50000000000000000000e+03) (70, 1.50000000000000000000e+03) (71, 1.50000000000000000000e+03) (72, 1.50000000000000000000e+03) (73, 1.50000000000000000000e+03) (74, 1.50000000000000000000e+03) (75, 1.50000000000000000000e+03) (76, 1.50000000000000000000e+03) (77, 1.50000000000000000000e+03) (78, 1.50000000000000000000e+03) (79, 1.50000000000000000000e+03) (80, 1.50000000000000000000e+03) (81, 2.41842120885848999023e-03) (0, -6.06928169727325439453e-01) (1, 2.41276517510414123535e-01) (2, -6.03113807737827301025e-02) (3, -1.57138649374246597290e-02) (4, -8.74924585223197937012e-02) (5, -2.61983931064605712891e-01) (6, -6.34681805968284606934e-02) (7, 2.89449751377105712891e-01) (8, 7.32850134372711181641e-02) (9, -8.41759741306304931641e-02) (10, -4.20074880123138427734e-01) (11, -2.71157085895538330078e-01) (12, 6.68098703026771545410e-02) (13, -2.94523313641548156738e-02) (14, 5.16765639185905456543e-02) (15, 1.56977191567420959473e-01) (16, -1.10514104366302490234e-01) (17, -3.53214681148529052734e-01) (18, -4.04845982789993286133e-01) (19, 1.13356411457061767578e-02) (20, 5.87763413786888122559e-02) (21, 1.18319407105445861816e-01) (22, 1.09946951270103454590e-01) (23, -9.37930643558502197266e-02) (24, -2.79066824913024902344e+00) (25, -3.93083781003952026367e-01) (26, 6.21029101312160491943e-02) (27, 3.17071042954921722412e-02) (28, 1.47025913000106811523e-01) (29, 2.25790470838546752930e-01) (30, -1.50968253612518310547e-01) (31, -6.15864694118499755859e-01) (32, 6.16374276578426361084e-02) (33, 9.52033773064613342285e-02) (34, -5.95940798521041870117e-02) (35, 2.53927409648895263672e-01) (36, 1.28052830696105957031e-01) (37, -1.51597723364830017090e-01) (38, -3.26248645782470703125e-01) (39, 1.72537982463836669922e-01) (40, 8.90810564160346984863e-02) (41, 1.08635909855365753174e-01) (42, 3.86398918926715850830e-02) (43, 2.49015629291534423828e-01) (44, 1.92690551280975341797e-01) (45, -1.23151473701000213623e-01) (46, 1.15939795970916748047e-01) (47, 7.50162675976753234863e-02) (48, 2.89728902280330657959e-02) (49, 1.50000000000000000000e+03) (50, 1.50000000000000000000e+03) (51, 1.50000000000000000000e+03) (52, 1.50000000000000000000e+03) (53, 1.50000000000000000000e+03) (54, 1.50000000000000000000e+03) (55, 1.50000000000000000000e+03) (56, 1.50000000000000000000e+03) (57, 1.50000000000000000000e+03) (58, 1.50000000000000000000e+03) (59, 1.50000000000000000000e+03) (60, 1.50000000000000000000e+03) (61, 1.50000000000000000000e+03) (62, 1.50000000000000000000e+03) (63, 1.50000000000000000000e+03) (64, 1.50000000000000000000e+03) (65, 1.50000000000000000000e+03) (66, 1.50000000000000000000e+03) (67, 1.50000000000000000000e+03) (68, 1.50000000000000000000e+03) (69, 1.50000000000000000000e+03) (70, 1.50000000000000000000e+03) (71, 1.50000000000000000000e+03) (72, 1.50000000000000000000e+03) (73, 1.50000000000000000000e+03) (74, 1.50000000000000000000e+03) (75, 1.50000000000000000000e+03) (76, 1.50000000000000000000e+03) (77, 1.50000000000000000000e+03) (78, 1.50000000000000000000e+03) (79, 1.50000000000000000000e+03) (80, 1.50000000000000000000e+03) (81, 3.15903007984161376953e-01) (0, 1.02214112877845764160e-01) (1, -1.23252429068088531494e-01) (2, -1.15124821662902832031e-01) (3, -1.01836763322353363037e-01) (4, 3.07951062917709350586e-01) (5, -7.78176113963127136230e-02) (6, -1.30557939410209655762e-01) (7, -9.78712178766727447510e-03) (8, 1.85140613466501235962e-02) (9, -1.44460752606391906738e-01) (10, -6.49021491408348083496e-02) (11, -9.39215719699859619141e-02) (12, 9.10371840000152587891e-02) (13, -7.83565789461135864258e-02) (14, -2.25340560078620910645e-01) (15, -6.67438358068466186523e-02) (16, -2.23584443330764770508e-01) (17, -2.62576401233673095703e-01) (18, -1.30216047167778015137e-01) (19, -1.27539232373237609863e-01) (20, -1.07494503259658813477e-01) (21, -9.65003445744514465332e-02) (22, -1.94756284356117248535e-01) (23, -2.54684031009674072266e-01) (24, -1.03839373588562011719e+00) (25, 2.67548728734254837036e-02) (26, -5.40859550237655639648e-02) (27, -1.50255694985389709473e-01) (28, -2.90814507752656936646e-03) (29, -1.44479572772979736328e-01) (30, -1.73932939767837524414e-01) (31, -2.39010244607925415039e-01) (32, 9.22035127878189086914e-02) (33, 7.36259249970316886902e-03) (34, -3.47368925809860229492e-01) (35, -8.43082889914512634277e-02) (36, 6.02392032742500305176e-02) (37, -1.57838940620422363281e-01) (38, -1.67325511574745178223e-01) (39, -1.44390761852264404297e-01) (40, 1.81751653552055358887e-01) (41, 1.67537391185760498047e-01) (42, 8.65227356553077697754e-02) (43, -1.96821108460426330566e-01) (44, -3.20429988205432891846e-02) (45, -2.47049406170845031738e-01) (46, -2.52708848565816879272e-02) (47, 1.87289476394653320312e-01) (48, 1.27430886030197143555e-01) (49, 1.50000000000000000000e+03) (50, 1.50000000000000000000e+03) (51, 1.50000000000000000000e+03) (52, 1.50000000000000000000e+03) (53, 1.50000000000000000000e+03) (54, 1.50000000000000000000e+03) (55, 1.50000000000000000000e+03) (56, 1.50000000000000000000e+03) (57, 1.50000000000000000000e+03) (58, 1.50000000000000000000e+03) (59, 1.50000000000000000000e+03) (60, 1.50000000000000000000e+03) (61, 1.50000000000000000000e+03) (62, 1.50000000000000000000e+03) (63, 1.50000000000000000000e+03) (64, 1.50000000000000000000e+03) (65, 1.50000000000000000000e+03) (66, 1.50000000000000000000e+03) (67, 1.50000000000000000000e+03) (68, 1.50000000000000000000e+03) (69, 1.50000000000000000000e+03) (70, 1.50000000000000000000e+03) (71, 1.50000000000000000000e+03) (72, 1.50000000000000000000e+03) (73, 1.50000000000000000000e+03) (74, 1.50000000000000000000e+03) (75, 1.50000000000000000000e+03) (76, 1.50000000000000000000e+03) (77, 1.50000000000000000000e+03) (78, 1.50000000000000000000e+03) (79, 1.50000000000000000000e+03) (80, 1.50000000000000000000e+03) (81, 5.66332757472991943359e-01) (0, -9.95293903350830078125e+00) (1, -7.83321619033813476562e+00) (2, -2.15493631362915039062e+00) (3, -1.04477977752685546875e+00) (4, -1.20213594436645507812e+01) (5, -1.41194775700569152832e-01) (6, -8.60785692930221557617e-02) (7, -3.60735988616943359375e+00) (8, -1.70084011554718017578e+00) (9, -3.55713576078414916992e-01) (10, -6.54514193534851074219e-01) (11, -3.95234489440917968750e+00) (12, -2.29147100448608398438e+00) (13, -1.13483130931854248047e+00) (14, -4.33848237991333007812e+00) (15, -1.45196962356567382812e+00) (16, -9.45434212684631347656e-01) (17, -1.21023356914520263672e+00) (18, -1.57931864261627197266e-01) (19, -5.10701537132263183594e-01) (20, -7.65590965747833251953e-01) (21, -6.60842776298522949219e-01) (22, -1.71358752250671386719e+00) (23, -8.22783887386322021484e-01) (24, -1.81225621700286865234e+00) (25, -6.22485056519508361816e-02) (26, -2.77143859863281250000e+00) (27, -5.49324393272399902344e-01) (28, -2.47754383087158203125e+00) (29, -8.11577129364013671875e+00) (30, -2.13546514511108398438e+00) (31, -3.44689369201660156250e-01) (32, -3.89487206935882568359e-01) (33, -1.22937059402465820312e+00) (34, -6.95540964603424072266e-01) (35, -7.62547492980957031250e-01) (36, -5.40722417831420898438e+00) (37, -2.19146990776062011719e+00) (38, -2.35352134704589843750e+00) (39, -4.04572069644927978516e-01) (40, -1.00825996398925781250e+01) (41, -7.85594272613525390625e+00) (42, -2.33833122253417968750e+00) (43, -6.79760837554931640625e+00) (44, -3.58747787475585937500e+01) (45, -1.49947719573974609375e+01) (46, -1.72351703047752380371e-01) (47, -1.74105155467987060547e+00) (48, -7.02747011184692382812e+00) (49, 1.50000000000000000000e+03) (50, 1.50000000000000000000e+03) (51, 1.50000000000000000000e+03) (52, 1.50000000000000000000e+03) (53, 1.50000000000000000000e+03) (54, 1.50000000000000000000e+03) (55, 1.50000000000000000000e+03) (56, 1.50000000000000000000e+03) (57, 1.50000000000000000000e+03) (58, 1.50000000000000000000e+03) (59, 1.50000000000000000000e+03) (60, 1.50000000000000000000e+03) (61, 1.50000000000000000000e+03) (62, 1.50000000000000000000e+03) (63, 1.50000000000000000000e+03) (64, 1.50000000000000000000e+03) (65, 1.50000000000000000000e+03) (66, 1.50000000000000000000e+03) (67, 1.50000000000000000000e+03) (68, 1.50000000000000000000e+03) (69, 1.50000000000000000000e+03) (70, 1.50000000000000000000e+03) (71, 1.50000000000000000000e+03) (72, 1.50000000000000000000e+03) (73, 1.50000000000000000000e+03) (74, 1.50000000000000000000e+03) (75, 1.50000000000000000000e+03) (76, 1.50000000000000000000e+03) (77, 1.50000000000000000000e+03) (78, 1.50000000000000000000e+03) (79, 1.50000000000000000000e+03) (80, 1.50000000000000000000e+03) (81, 9.25888538360595703125e-01) (0, 1.50000000000000000000e+03) (1, 1.50000000000000000000e+03) (2, 1.50000000000000000000e+03) (3, 1.50000000000000000000e+03) (4, 1.47000000000000000000e+03) (5, 1.30000000000000000000e+03) (6, 1.30000000000000000000e+03) (7, 1.50000000000000000000e+03) (8, 1.50000000000000000000e+03) (9, 1.50000000000000000000e+03) (10, 1.50000000000000000000e+03) (11, 1.38600000000000000000e+03) (12, 1.30000000000000000000e+03) (13, 1.30000000000000000000e+03) (14, 1.50000000000000000000e+03) (15, 1.50000000000000000000e+03) (16, 1.50000000000000000000e+03) (17, 1.50000000000000000000e+03) (18, 1.30000000000000000000e+03) (19, 1.38600000000000000000e+03) (20, 1.38600000000000000000e+03) (21, 1.50000000000000000000e+03) (22, 1.50000000000000000000e+03) (23, 1.50000000000000000000e+03) (24, 1.50000000000000000000e+03) (25, 1.38600000000000000000e+03) (26, 1.30000000000000000000e+03) (27, 1.30000000000000000000e+03) (28, 1.50000000000000000000e+03) (29, 1.50000000000000000000e+03) (30, 1.50000000000000000000e+03) (31, 1.50000000000000000000e+03) (32, 1.38600000000000000000e+03) (33, 1.42519995117187500000e+03) (34, 1.47000000000000000000e+03) (35, 1.50000000000000000000e+03) (36, 1.50000000000000000000e+03) (37, 1.50000000000000000000e+03) (38, 1.50000000000000000000e+03) (39, 1.47000000000000000000e+03) (40, 1.47000000000000000000e+03) (41, 1.47000000000000000000e+03) (42, 1.50000000000000000000e+03) (43, 1.50000000000000000000e+03) (44, 1.50000000000000000000e+03) (45, 1.50000000000000000000e+03) (46, 1.38600000000000000000e+03) (47, 1.47000000000000000000e+03) (48, 1.47000000000000000000e+03) (49, 1.50000000000000000000e+03) (50, 1.50000000000000000000e+03) (51, 1.50000000000000000000e+03) (52, 1.50000000000000000000e+03) (53, 1.50000000000000000000e+03) (54, 1.50000000000000000000e+03) (55, 1.50000000000000000000e+03) (56, 1.50000000000000000000e+03) (57, 1.50000000000000000000e+03) (58, 1.50000000000000000000e+03) (59, 1.50000000000000000000e+03) (60, 1.50000000000000000000e+03) (61, 1.50000000000000000000e+03) (62, 1.50000000000000000000e+03) (63, 1.50000000000000000000e+03) (64, 1.50000000000000000000e+03) (65, 1.50000000000000000000e+03) (66, 1.50000000000000000000e+03) (67, 1.50000000000000000000e+03) (68, 1.50000000000000000000e+03) (69, 1.50000000000000000000e+03) (70, 1.50000000000000000000e+03) (71, 1.50000000000000000000e+03) (72, 1.50000000000000000000e+03) (73, 1.50000000000000000000e+03) (74, 1.50000000000000000000e+03) (75, 1.50000000000000000000e+03) (76, 1.50000000000000000000e+03) (77, 1.50000000000000000000e+03) (78, 1.50000000000000000000e+03) (79, 1.50000000000000000000e+03) (80, 1.50000000000000000000e+03) (81, 1.82318353652954101562e+00) (82, -2.43674588203430175781e+00) (83, -1.62045133113861083984e+00) (84, -3.99071909487247467041e-02) (85, -2.36785739660263061523e-01) (86, -1.46449673175811767578e+00) (87, -1.14204287528991699219e+00) (88, -3.21515693664550781250e+01) (89, 4.11664903163909912109e-01) (90, 7.99330413341522216797e-01) 
