FANN_FLO_2.1
num_layers=4
learning_rate=0.500000
connection_rate=1.000000
network_type=0
learning_momentum=0.000000
training_algorithm=2
train_error_function=1
train_stop_function=0
cascade_output_change_fraction=0.010000
quickprop_decay=-0.000100
quickprop_mu=1.750000
rprop_increase_factor=1.200000
rprop_decrease_factor=0.500000
rprop_delta_min=0.000000
rprop_delta_max=50.000000
rprop_delta_zero=0.100000
cascade_output_stagnation_epochs=12
cascade_candidate_change_fraction=0.010000
cascade_candidate_stagnation_epochs=12
cascade_max_out_epochs=150
cascade_min_out_epochs=50
cascade_max_cand_epochs=150
cascade_min_cand_epochs=50
cascade_num_candidate_groups=2
bit_fail_limit=3.49999994039535522461e-01
cascade_candidate_limit=1.00000000000000000000e+03
cascade_weight_multiplier=4.00000005960464477539e-01
cascade_activation_functions_count=10
cascade_activation_functions=3 5 7 8 10 11 14 15 16 17 
cascade_activation_steepnesses_count=4
cascade_activation_steepnesses=2.50000000000000000000e-01 5.00000000000000000000e-01 7.50000000000000000000e-01 1.00000000000000000000e+00 
layer_sizes=82 5 3 2 
scale_included=0
neurons (num_inputs, activation_function, activation_steepness)=(0, 0, 0.00000000000000000000e+00) (0, 0, 0.00000000000000000000e+00) (0, 0, 0.00000000000000000000e+00) (0, 0, 0.00000000000000000000e+00) (0, 0, 0.00000000000000000000e+00) (0, 0, 0.00000000000000000000e+00) (0, 0, 0.00000000000000000000e+00) (0, 0, 0.00000000000000000000e+00) (0, 0, 0.00000000000000000000e+00) (0, 0, 0.00000000000000000000e+00) (0, 0, 0.00000000000000000000e+00) (0, 0, 0.00000000000000000000e+00) (0, 0, 0.00000000000000000000e+00) (0, 0, 0.00000000000000000000e+00) (0, 0, 0.00000000000000000000e+00) (0, 0, 0.00000000000000000000e+00) (0, 0, 0.00000000000000000000e+00) (0, 0, 0.00000000000000000000e+00) (0, 0, 0.00000000000000000000e+00) (0, 0, 0.00000000000000000000e+00) (0, 0, 0.00000000000000000000e+00) (0, 0, 0.00000000000000000000e+00) (0, 0, 0.00000000000000000000e+00) (0, 0, 0.00000000000000000000e+00) (0, 0, 0.00000000000000000000e+00) (0, 0, 0.00000000000000000000e+00) (0, 0, 0.00000000000000000000e+00) (0, 0, 0.00000000000000000000e+00) (0, 0, 0.00000000000000000000e+00) (0, 0, 0.00000000000000000000e+00) (0, 0, 0.00000000000000000000e+00) (0, 0, 0.00000000000000000000e+00) (0, 0, 0.00000000000000000000e+00) (0, 0, 0.00000000000000000000e+00) (0, 0, 0.00000000000000000000e+00) (0, 0, 0.00000000000000000000e+00) (0, 0, 0.00000000000000000000e+00) (0, 0, 0.00000000000000000000e+00) (0, 0, 0.00000000000000000000e+00) (0, 0, 0.00000000000000000000e+00) (0, 0, 0.00000000000000000000e+00) (0, 0, 0.00000000000000000000e+00) (0, 0, 0.00000000000000000000e+00) (0, 0, 0.00000000000000000000e+00) (0, 0, 0.00000000000000000000e+00) (0, 0, 0.00000000000000000000e+00) (0, 0, 0.00000000000000000000e+00) (0, 0, 0.00000000000000000000e+00) (0, 0, 0.00000000000000000000e+00) (0, 0, 0.00000000000000000000e+00) (0, 0, 0.00000000000000000000e+00) (0, 0, 0.00000000000000000000e+00) (0, 0, 0.00000000000000000000e+00) (0, 0, 0.00000000000000000000e+00) (0, 0, 0.00000000000000000000e+00) (0, 0, 0.00000000000000000000e+00) (0, 0, 0.00000000000000000000e+00) (0, 0, 0.00000000000000000000e+00) (0, 0, 0.00000000000000000000e+00) (0, 0, 0.00000000000000000000e+00) (0, 0, 0.00000000000000000000e+00) (0, 0, 0.00000000000000000000e+00) (0, 0, 0.00000000000000000000e+00) (0, 0, 0.00000000000000000000e+00) (0, 0, 0.00000000000000000000e+00) (0, 0, 0.00000000000000000000e+00) (0, 0, 0.00000000000000000000e+00) (0, 0, 0.00000000000000000000e+00) (0, 0, 0.00000000000000000000e+00) (0, 0, 0.00000000000000000000e+00) (0, 0, 0.00000000000000000000e+00) (0, 0, 0.00000000000000000000e+00) (0, 0, 0.00000000000000000000e+00) (0, 0, 0.00000000000000000000e+00) (0, 0, 0.00000000000000000000e+00) (0, 0, 0.00000000000000000000e+00) (0, 0, 0.00000000000000000000e+00) (0, 0, 0.00000000000000000000e+00) (0, 0, 0.00000000000000000000e+00) (0, 0, 0.00000000000000000000e+00) (0, 0, 0.00000000000000000000e+00) (0, 0, 0.00000000000000000000e+00) (82, 3, 5.00000000000000000000e-01) (82, 3, 5.00000000000000000000e-01) (82, 3, 5.00000000000000000000e-01) (82, 3, 5.00000000000000000000e-01) (0, 3, 0.00000000000000000000e+00) (5, 3, 5.00000000000000000000e-01) (5, 3, 5.00000000000000000000e-01) (0, 3, 0.00000000000000000000e+00) (3, 3, 5.00000000000000000000e-01) (0, 3, 0.00000000000000000000e+00) 
connections (connected_to_neuron, weight)=(0, -3.39364618062973022461e-01) (1, -2.17092084884643554688e+00) (2, 2.27963376045227050781e+00) (3, 1.29913663864135742188e+00) (4, 2.29400849342346191406e+00) (5, 1.25113558769226074219e+00) (6, 9.67892587184906005859e-01) (7, 3.31433713436126708984e-01) (8, 1.10198831558227539062e+00) (9, 3.49569296836853027344e+00) (10, 4.11361074447631835938e+00) (11, 1.49341523647308349609e+00) (12, 1.81893193721771240234e+00) (13, 7.83949851989746093750e-01) (14, -1.23560605570673942566e-02) (15, 4.67912286520004272461e-01) (16, 1.41688513755798339844e+00) (17, 1.30348455905914306641e+00) (18, 3.76791501045227050781e+00) (19, 1.63277065753936767578e+00) (20, 1.39926505088806152344e+00) (21, 9.28064703941345214844e-01) (22, 1.17320621013641357422e+00) (23, 1.14972305297851562500e+00) (24, 2.14336757659912109375e+01) (25, 1.44584286212921142578e+00) (26, -9.18711781501770019531e-01) (27, 3.89345526695251464844e-01) (28, 1.12846863269805908203e+00) (29, -2.18209552764892578125e+00) (30, 1.92481720447540283203e+00) (31, -1.12834775447845458984e+00) (32, 8.46375107765197753906e-01) (33, 7.89693295955657958984e-01) (34, -1.82087206840515136719e+00) (35, -1.16270899772644042969e+00) (36, 2.12053373456001281738e-01) (37, -1.42325329780578613281e+00) (38, 9.37163233757019042969e-01) (39, 1.79282292723655700684e-01) (40, -6.31943583488464355469e-01) (41, -3.38378071784973144531e+00) (42, -1.35344946384429931641e+00) (43, 2.03839707374572753906e+00) (44, 9.95052456855773925781e-01) (45, 7.05337047576904296875e-01) (46, -2.27134823799133300781e+00) (47, -8.45342338085174560547e-01) (48, -1.21798956394195556641e+00) (49, 1.50000000000000000000e+03) (50, 1.50000000000000000000e+03) (51, 1.50000000000000000000e+03) (52, 1.50000000000000000000e+03) (53, 1.50000000000000000000e+03) (54, 1.50000000000000000000e+03) (55, 1.50000000000000000000e+03) (56, 1.50000000000000000000e+03) (57, 1.50000000000000000000e+03) (58, 1.50000000000000000000e+03) (59, 1.50000000000000000000e+03) (60, 1.50000000000000000000e+03) (61, 1.50000000000000000000e+03) (62, 1.50000000000000000000e+03) (63, 1.50000000000000000000e+03) (64, 1.50000000000000000000e+03) (65, 1.50000000000000000000e+03) (66, 1.50000000000000000000e+03) (67, 1.50000000000000000000e+03) (68, 1.50000000000000000000e+03) (69, 1.50000000000000000000e+03) (70, 1.50000000000000000000e+03) (71, 1.50000000000000000000e+03) (72, 1.50000000000000000000e+03) (73, 1.50000000000000000000e+03) (74, 1.50000000000000000000e+03) (75, 1.50000000000000000000e+03) (76, 1.50000000000000000000e+03) (77, 1.50000000000000000000e+03) (78, 1.50000000000000000000e+03) (79, 1.50000000000000000000e+03) (80, 1.50000000000000000000e+03) (81, -3.42981839179992675781e+00) (0, -2.35764816403388977051e-01) (1, 1.21892027556896209717e-01) (2, -9.36186313629150390625e-02) (3, 5.77620744705200195312e-01) (4, -3.02926331758499145508e-01) (5, -9.30990800261497497559e-02) (6, -9.10906940698623657227e-02) (7, -1.46402105689048767090e-01) (8, -1.31886988878250122070e-01) (9, -6.33359476923942565918e-02) (10, 2.89001643657684326172e-01) (11, 1.71169817447662353516e-01) (12, -1.28626719117164611816e-01) (13, -1.60420268774032592773e-01) (14, -1.44954547286033630371e-01) (15, -1.58078148961067199707e-01) (16, -2.13760286569595336914e-01) (17, -1.64795011281967163086e-01) (18, -1.06858730316162109375e-01) (19, -1.06312088668346405029e-01) (20, -1.30677998065948486328e-01) (21, -1.67388588190078735352e-01) (22, -6.72448575496673583984e-02) (23, -3.90390902757644653320e-01) (24, -1.64509642124176025391e+00) (25, -2.30802923440933227539e-01) (26, 1.62633448839187622070e-01) (27, 1.23534038662910461426e-01) (28, -8.18544030189514160156e-02) (29, 1.82137995958328247070e-01) (30, -2.73290306329727172852e-01) (31, -1.11599832773208618164e-01) (32, -1.58509925007820129395e-01) (33, -1.33204478770494461060e-02) (34, 2.14705005288124084473e-01) (35, -9.03273075819015502930e-02) (36, -1.62543445825576782227e-01) (37, -3.45162391662597656250e-01) (38, -3.38206499814987182617e-01) (39, -8.30132588744163513184e-02) (40, 4.02488291263580322266e-01) (41, 9.91793051362037658691e-02) (42, -1.76219999790191650391e-01) (43, 1.49582130834460258484e-02) (44, -8.33459012210369110107e-03) (45, -5.75437992811203002930e-02) (46, -5.46626932919025421143e-02) (47, 2.36211165785789489746e-01) (48, -1.49621650576591491699e-01) (49, 1.50000000000000000000e+03) (50, 1.50000000000000000000e+03) (51, 1.50000000000000000000e+03) (52, 1.50000000000000000000e+03) (53, 1.50000000000000000000e+03) (54, 1.50000000000000000000e+03) (55, 1.50000000000000000000e+03) (56, 1.50000000000000000000e+03) (57, 1.50000000000000000000e+03) (58, 1.50000000000000000000e+03) (59, 1.50000000000000000000e+03) (60, 1.50000000000000000000e+03) (61, 1.50000000000000000000e+03) (62, 1.50000000000000000000e+03) (63, 1.50000000000000000000e+03) (64, 1.50000000000000000000e+03) (65, 1.50000000000000000000e+03) (66, 1.50000000000000000000e+03) (67, 1.50000000000000000000e+03) (68, 1.50000000000000000000e+03) (69, 1.50000000000000000000e+03) (70, 1.50000000000000000000e+03) (71, 1.50000000000000000000e+03) (72, 1.50000000000000000000e+03) (73, 1.50000000000000000000e+03) (74, 1.50000000000000000000e+03) (75, 1.50000000000000000000e+03) (76, 1.50000000000000000000e+03) (77, 1.50000000000000000000e+03) (78, 1.50000000000000000000e+03) (79, 1.50000000000000000000e+03) (80, 1.50000000000000000000e+03) (81, 2.50891542434692382812e+00) (0, -9.61183011531829833984e-02) (1, -1.77703961730003356934e-01) (2, 1.84030570089817047119e-02) (3, -1.62981823086738586426e-01) (4, 1.92132834345102310181e-02) (5, 1.23281821608543395996e-01) (6, -1.13694198429584503174e-01) (7, -3.18129688501358032227e-01) (8, -9.01980549097061157227e-02) (9, 5.65118249505758285522e-03) (10, 3.18266786634922027588e-02) (11, -4.75454702973365783691e-02) (12, -1.43111526966094970703e-01) (13, -1.52488753199577331543e-01) (14, 5.07574453949928283691e-02) (15, -6.65594562888145446777e-02) (16, 2.59054936468601226807e-02) (17, 2.22316458821296691895e-01) (18, -6.30517676472663879395e-02) (19, -1.02027282118797302246e-01) (20, 4.79118973016738891602e-02) (21, -1.21539548039436340332e-01) (22, -4.49992828071117401123e-02) (23, -1.61999151110649108887e-01) (24, -3.62220478057861328125e+00) (25, -1.08865380287170410156e-01) (26, -4.57509636878967285156e-01) (27, -1.86901688575744628906e-01) (28, 1.08510918915271759033e-01) (29, -2.77898430824279785156e-01) (30, -5.29004037380218505859e-01) (31, -3.50155413150787353516e-01) (32, -3.51171165704727172852e-01) (33, -2.53214418888092041016e-01) (34, -5.46522974967956542969e-01) (35, -1.48885414004325866699e-01) (36, -5.17382770776748657227e-02) (37, -1.93979322910308837891e-01) (38, -2.29415953159332275391e-01) (39, -2.67162352800369262695e-01) (40, -3.90706092119216918945e-01) (41, -1.84412732720375061035e-01) (42, -2.43852920830249786377e-02) (43, -1.60897504538297653198e-02) (44, -2.15871885418891906738e-01) (45, -6.50836527347564697266e-01) (46, -7.13250115513801574707e-02) (47, -5.12081861495971679688e-01) (48, -4.28147882223129272461e-01) (49, 1.50000000000000000000e+03) (50, 1.50000000000000000000e+03) (51, 1.50000000000000000000e+03) (52, 1.50000000000000000000e+03) (53, 1.50000000000000000000e+03) (54, 1.50000000000000000000e+03) (55, 1.50000000000000000000e+03) (56, 1.50000000000000000000e+03) (57, 1.50000000000000000000e+03) (58, 1.50000000000000000000e+03) (59, 1.50000000000000000000e+03) (60, 1.50000000000000000000e+03) (61, 1.50000000000000000000e+03) (62, 1.50000000000000000000e+03) (63, 1.50000000000000000000e+03) (64, 1.50000000000000000000e+03) (65, 1.50000000000000000000e+03) (66, 1.50000000000000000000e+03) (67, 1.50000000000000000000e+03) (68, 1.50000000000000000000e+03) (69, 1.50000000000000000000e+03) (70, 1.50000000000000000000e+03) (71, 1.50000000000000000000e+03) (72, 1.50000000000000000000e+03) (73, 1.50000000000000000000e+03) (74, 1.50000000000000000000e+03) (75, 1.50000000000000000000e+03) (76, 1.50000000000000000000e+03) (77, 1.50000000000000000000e+03) (78, 1.50000000000000000000e+03) (79, 1.50000000000000000000e+03) (80, 1.50000000000000000000e+03) (81, 1.39838933944702148438e+00) (0, -5.21561945788562297821e-04) (1, 2.83959090709686279297e-01) (2, 1.35983619838953018188e-02) (3, -1.21531881392002105713e-01) (4, 6.54760822653770446777e-02) (5, 5.93640282750129699707e-02) (6, -4.53166961669921875000e-02) (7, 1.83935128152370452881e-02) (8, 1.06133678928017616272e-02) (9, 1.01989105343818664551e-01) (10, -7.81777724623680114746e-02) (11, -1.57332215458154678345e-02) (12, -2.17352863401174545288e-02) (13, -6.18744790554046630859e-02) (14, 5.77122159302234649658e-02) (15, -1.15410812199115753174e-01) (16, 1.30933821201324462891e-02) (17, -1.29733934998512268066e-01) (18, 3.26917842030525207520e-02) (19, 2.87205219268798828125e-01) (20, 2.47687492519617080688e-02) (21, 7.82834663987159729004e-02) (22, 8.10049027204513549805e-02) (23, -1.11423268914222717285e-01) (24, -2.77473354339599609375e+00) (25, -1.45681634545326232910e-01) (26, 1.27295702695846557617e-01) (27, 2.73947358131408691406e-01) (28, -3.31107079982757568359e-02) (29, 1.15241006016731262207e-01) (30, 6.49681761860847473145e-02) (31, -5.75908303260803222656e-01) (32, 7.80852809548377990723e-02) (33, -1.20320193469524383545e-01) (34, 2.01537087559700012207e-01) (35, -8.05237591266632080078e-02) (36, 8.47488865256309509277e-02) (37, -1.71795681118965148926e-01) (38, -8.40399935841560363770e-02) (39, -5.29949218034744262695e-02) (40, -6.81065246462821960449e-02) (41, -9.62625890970230102539e-02) (42, -1.29365921020507812500e-01) (43, 4.83524687588214874268e-02) (44, -3.27240116894245147705e-02) (45, -1.50110749527812004089e-02) (46, -1.63945659995079040527e-01) (47, -4.08746451139450073242e-02) (48, -1.38200297951698303223e-01) (49, 1.50000000000000000000e+03) (50, 1.50000000000000000000e+03) (51, 1.50000000000000000000e+03) (52, 1.50000000000000000000e+03) (53, 1.50000000000000000000e+03) (54, 1.50000000000000000000e+03) (55, 1.50000000000000000000e+03) (56, 1.50000000000000000000e+03) (57, 1.50000000000000000000e+03) (58, 1.50000000000000000000e+03) (59, 1.50000000000000000000e+03) (60, 1.50000000000000000000e+03) (61, 1.50000000000000000000e+03) (62, 1.50000000000000000000e+03) (63, 1.50000000000000000000e+03) (64, 1.50000000000000000000e+03) (65, 1.50000000000000000000e+03) (66, 1.50000000000000000000e+03) (67, 1.50000000000000000000e+03) (68, 1.50000000000000000000e+03) (69, 1.50000000000000000000e+03) (70, 1.50000000000000000000e+03) (71, 1.50000000000000000000e+03) (72, 1.50000000000000000000e+03) (73, 1.50000000000000000000e+03) (74, 1.50000000000000000000e+03) (75, 1.50000000000000000000e+03) (76, 1.50000000000000000000e+03) (77, 1.50000000000000000000e+03) (78, 1.50000000000000000000e+03) (79, 1.50000000000000000000e+03) (80, 1.50000000000000000000e+03) (81, 1.45767700672149658203e+00) (82, -2.02621245384216308594e+00) (83, 3.94189310073852539062e+00) (84, 2.69120955467224121094e+00) (85, 3.37610507011413574219e+00) (86, -2.02998423576354980469e+00) (82, -2.50952649116516113281e+00) (83, 1.80160140991210937500e+00) (84, 1.76080501079559326172e+00) (85, 1.31432461738586425781e+00) (86, -9.04724836349487304688e-01) (87, -1.75005245208740234375e+00) (88, -2.59295773506164550781e+00) (89, 1.20580375194549560547e+00) 
