FANN_FLO_2.1
num_layers=4
learning_rate=0.500000
connection_rate=1.000000
network_type=0
learning_momentum=0.000000
training_algorithm=2
train_error_function=1
train_stop_function=0
cascade_output_change_fraction=0.010000
quickprop_decay=-0.000100
quickprop_mu=1.750000
rprop_increase_factor=1.200000
rprop_decrease_factor=0.500000
rprop_delta_min=0.000000
rprop_delta_max=50.000000
rprop_delta_zero=0.100000
cascade_output_stagnation_epochs=12
cascade_candidate_change_fraction=0.010000
cascade_candidate_stagnation_epochs=12
cascade_max_out_epochs=150
cascade_min_out_epochs=50
cascade_max_cand_epochs=150
cascade_min_cand_epochs=50
cascade_num_candidate_groups=2
bit_fail_limit=3.49999994039535522461e-01
cascade_candidate_limit=1.00000000000000000000e+03
cascade_weight_multiplier=4.00000005960464477539e-01
cascade_activation_functions_count=10
cascade_activation_functions=3 5 7 8 10 11 14 15 16 17 
cascade_activation_steepnesses_count=4
cascade_activation_steepnesses=2.50000000000000000000e-01 5.00000000000000000000e-01 7.50000000000000000000e-01 1.00000000000000000000e+00 
layer_sizes=4 5 3 2 
scale_included=0
neurons (num_inputs, activation_function, activation_steepness)=(0, 0, 0.00000000000000000000e+00) (0, 0, 0.00000000000000000000e+00) (0, 0, 0.00000000000000000000e+00) (0, 0, 0.00000000000000000000e+00) (4, 3, 5.00000000000000000000e-01) (4, 3, 5.00000000000000000000e-01) (4, 3, 5.00000000000000000000e-01) (4, 3, 5.00000000000000000000e-01) (0, 3, 0.00000000000000000000e+00) (5, 3, 5.00000000000000000000e-01) (5, 3, 5.00000000000000000000e-01) (0, 3, 0.00000000000000000000e+00) (3, 3, 5.00000000000000000000e-01) (0, 3, 0.00000000000000000000e+00) 
connections (connected_to_neuron, weight)=(0, -2.32847476005554199219e+00) (1, -6.59858179092407226562e+00) (2, 2.05852627754211425781e+00) (3, 1.86109042167663574219e+00) (0, -2.19562697410583496094e+00) (1, -9.34186458587646484375e+00) (2, 4.37926673889160156250e+00) (3, 1.80834043025970458984e+00) (0, 2.59202575683593750000e+00) (1, -2.41340231895446777344e+00) (2, 4.65935468673706054688e+00) (3, -1.75415980815887451172e+00) (0, -2.09970688819885253906e+00) (1, 1.71276915073394775391e+00) (2, -3.05498194694519042969e+00) (3, 1.17905282974243164062e+00) (4, 4.37720441818237304688e+00) (5, 1.11238622665405273438e+01) (6, -9.71184539794921875000e+00) (7, 1.11403417587280273438e+01) (8, -4.31804209947586059570e-02) (4, 3.70006752014160156250e+00) (5, 8.33236885070800781250e+00) (6, -5.92934751510620117188e+00) (7, 8.15089797973632812500e+00) (8, -6.24192595481872558594e-01) (9, -5.23385810852050781250e+00) (10, -5.26981294155120849609e-01) (11, 3.35442137718200683594e+00) 
