FANN_FLO_2.1
num_layers=3
learning_rate=0.450000
connection_rate=1.000000
network_type=0
learning_momentum=0.000000
training_algorithm=2
train_error_function=1
train_stop_function=0
cascade_output_change_fraction=0.010000
quickprop_decay=-0.000100
quickprop_mu=1.750000
rprop_increase_factor=1.200000
rprop_decrease_factor=0.500000
rprop_delta_min=0.000000
rprop_delta_max=50.000000
rprop_delta_zero=0.100000
cascade_output_stagnation_epochs=12
cascade_candidate_change_fraction=0.010000
cascade_candidate_stagnation_epochs=12
cascade_max_out_epochs=150
cascade_min_out_epochs=50
cascade_max_cand_epochs=150
cascade_min_cand_epochs=50
cascade_num_candidate_groups=2
bit_fail_limit=3.49999994039535522461e-01
cascade_candidate_limit=1.00000000000000000000e+03
cascade_weight_multiplier=4.00000005960464477539e-01
cascade_activation_functions_count=10
cascade_activation_functions=3 5 7 8 10 11 14 15 16 17 
cascade_activation_steepnesses_count=4
cascade_activation_steepnesses=2.50000000000000000000e-01 5.00000000000000000000e-01 7.50000000000000000000e-01 1.00000000000000000000e+00 
layer_sizes=7 5 2 
scale_included=0
neurons (num_inputs, activation_function, activation_steepness)=(0, 0, 0.00000000000000000000e+00) (0, 0, 0.00000000000000000000e+00) (0, 0, 0.00000000000000000000e+00) (0, 0, 0.00000000000000000000e+00) (0, 0, 0.00000000000000000000e+00) (0, 0, 0.00000000000000000000e+00) (0, 0, 0.00000000000000000000e+00) (7, 3, 5.00000000000000000000e-01) (7, 3, 5.00000000000000000000e-01) (7, 3, 5.00000000000000000000e-01) (7, 3, 5.00000000000000000000e-01) (0, 3, 0.00000000000000000000e+00) (5, 0, 5.00000000000000000000e-01) (0, 0, 0.00000000000000000000e+00) 
connections (connected_to_neuron, weight)=(0, 5.66943176090717315674e-02) (1, 4.71515208482742309570e-01) (2, -5.30889987945556640625e-01) (3, -2.37080026417970657349e-02) (4, 4.69973951578140258789e-01) (5, -4.02633905410766601562e-01) (6, 9.18177485466003417969e-01) (0, -1.24237995147705078125e+01) (1, 1.13465666770935058594e+00) (2, 1.16707410812377929688e+01) (3, 8.86765599250793457031e-01) (4, 7.81835436820983886719e-01) (5, 2.05102190375328063965e-02) (6, 3.44683456420898437500e+00) (0, -3.17596359252929687500e+01) (1, 8.59958744049072265625e+00) (2, -1.97018890380859375000e+01) (3, 4.33132514953613281250e+01) (4, 5.34967362880706787109e-01) (5, -2.73318767547607421875e+00) (6, -4.34710383415222167969e-01) (0, -2.01889877319335937500e+01) (1, -8.11100721359252929688e-01) (2, 1.89262447357177734375e+01) (3, -5.13373076915740966797e-01) (4, 2.52780377864837646484e-01) (5, 1.45395970344543457031e+00) (6, -5.31746566295623779297e-01) (7, -2.45725572109222412109e-01) (8, -5.18071651458740234375e-02) (9, 6.74115773290395736694e-03) (10, 7.57711455225944519043e-02) (11, 2.40498915314674377441e-01) 
