FANN_FLO_2.1
num_layers=3
learning_rate=0.500000
connection_rate=1.000000
network_type=0
learning_momentum=0.000000
training_algorithm=2
train_error_function=1
train_stop_function=0
cascade_output_change_fraction=0.010000
quickprop_decay=-0.000100
quickprop_mu=1.750000
rprop_increase_factor=1.200000
rprop_decrease_factor=0.500000
rprop_delta_min=0.000000
rprop_delta_max=50.000000
rprop_delta_zero=0.100000
cascade_output_stagnation_epochs=12
cascade_candidate_change_fraction=0.010000
cascade_candidate_stagnation_epochs=12
cascade_max_out_epochs=150
cascade_min_out_epochs=50
cascade_max_cand_epochs=150
cascade_min_cand_epochs=50
cascade_num_candidate_groups=2
bit_fail_limit=3.49999994039535522461e-01
cascade_candidate_limit=1.00000000000000000000e+03
cascade_weight_multiplier=4.00000005960464477539e-01
cascade_activation_functions_count=10
cascade_activation_functions=3 5 7 8 10 11 14 15 16 17 
cascade_activation_steepnesses_count=4
cascade_activation_steepnesses=2.50000000000000000000e-01 5.00000000000000000000e-01 7.50000000000000000000e-01 1.00000000000000000000e+00 
layer_sizes=82 9 2 
scale_included=0
neurons (num_inputs, activation_function, activation_steepness)=(0, 0, 0.00000000000000000000e+00) (0, 0, 0.00000000000000000000e+00) (0, 0, 0.00000000000000000000e+00) (0, 0, 0.00000000000000000000e+00) (0, 0, 0.00000000000000000000e+00) (0, 0, 0.00000000000000000000e+00) (0, 0, 0.00000000000000000000e+00) (0, 0, 0.00000000000000000000e+00) (0, 0, 0.00000000000000000000e+00) (0, 0, 0.00000000000000000000e+00) (0, 0, 0.00000000000000000000e+00) (0, 0, 0.00000000000000000000e+00) (0, 0, 0.00000000000000000000e+00) (0, 0, 0.00000000000000000000e+00) (0, 0, 0.00000000000000000000e+00) (0, 0, 0.00000000000000000000e+00) (0, 0, 0.00000000000000000000e+00) (0, 0, 0.00000000000000000000e+00) (0, 0, 0.00000000000000000000e+00) (0, 0, 0.00000000000000000000e+00) (0, 0, 0.00000000000000000000e+00) (0, 0, 0.00000000000000000000e+00) (0, 0, 0.00000000000000000000e+00) (0, 0, 0.00000000000000000000e+00) (0, 0, 0.00000000000000000000e+00) (0, 0, 0.00000000000000000000e+00) (0, 0, 0.00000000000000000000e+00) (0, 0, 0.00000000000000000000e+00) (0, 0, 0.00000000000000000000e+00) (0, 0, 0.00000000000000000000e+00) (0, 0, 0.00000000000000000000e+00) (0, 0, 0.00000000000000000000e+00) (0, 0, 0.00000000000000000000e+00) (0, 0, 0.00000000000000000000e+00) (0, 0, 0.00000000000000000000e+00) (0, 0, 0.00000000000000000000e+00) (0, 0, 0.00000000000000000000e+00) (0, 0, 0.00000000000000000000e+00) (0, 0, 0.00000000000000000000e+00) (0, 0, 0.00000000000000000000e+00) (0, 0, 0.00000000000000000000e+00) (0, 0, 0.00000000000000000000e+00) (0, 0, 0.00000000000000000000e+00) (0, 0, 0.00000000000000000000e+00) (0, 0, 0.00000000000000000000e+00) (0, 0, 0.00000000000000000000e+00) (0, 0, 0.00000000000000000000e+00) (0, 0, 0.00000000000000000000e+00) (0, 0, 0.00000000000000000000e+00) (0, 0, 0.00000000000000000000e+00) (0, 0, 0.00000000000000000000e+00) (0, 0, 0.00000000000000000000e+00) (0, 0, 0.00000000000000000000e+00) (0, 0, 0.00000000000000000000e+00) (0, 0, 0.00000000000000000000e+00) (0, 0, 0.00000000000000000000e+00) (0, 0, 0.00000000000000000000e+00) (0, 0, 0.00000000000000000000e+00) (0, 0, 0.00000000000000000000e+00) (0, 0, 0.00000000000000000000e+00) (0, 0, 0.00000000000000000000e+00) (0, 0, 0.00000000000000000000e+00) (0, 0, 0.00000000000000000000e+00) (0, 0, 0.00000000000000000000e+00) (0, 0, 0.00000000000000000000e+00) (0, 0, 0.00000000000000000000e+00) (0, 0, 0.00000000000000000000e+00) (0, 0, 0.00000000000000000000e+00) (0, 0, 0.00000000000000000000e+00) (0, 0, 0.00000000000000000000e+00) (0, 0, 0.00000000000000000000e+00) (0, 0, 0.00000000000000000000e+00) (0, 0, 0.00000000000000000000e+00) (0, 0, 0.00000000000000000000e+00) (0, 0, 0.00000000000000000000e+00) (0, 0, 0.00000000000000000000e+00) (0, 0, 0.00000000000000000000e+00) (0, 0, 0.00000000000000000000e+00) (0, 0, 0.00000000000000000000e+00) (0, 0, 0.00000000000000000000e+00) (0, 0, 0.00000000000000000000e+00) (0, 0, 0.00000000000000000000e+00) (82, 3, 5.00000000000000000000e-01) (82, 3, 5.00000000000000000000e-01) (82, 3, 5.00000000000000000000e-01) (82, 3, 5.00000000000000000000e-01) (82, 3, 5.00000000000000000000e-01) (82, 3, 5.00000000000000000000e-01) (82, 3, 5.00000000000000000000e-01) (82, 3, 5.00000000000000000000e-01) (0, 3, 0.00000000000000000000e+00) (9, 3, 5.00000000000000000000e-01) (0, 3, 0.00000000000000000000e+00) 
connections (connected_to_neuron, weight)=(0, -1.96917921304702758789e-01) (1, -2.76113972067832946777e-02) (2, -6.17296323180198669434e-02) (3, 7.95012563467025756836e-02) (4, 8.01274925470352172852e-03) (5, -1.64486393332481384277e-01) (6, 2.56490446627140045166e-02) (7, 1.05727493762969970703e-01) (8, -4.19054150581359863281e-01) (9, 5.85715509951114654541e-02) (10, -1.29516687593422830105e-04) (11, 1.22694140300154685974e-02) (12, 8.41453820466995239258e-02) (13, -2.43936199694871902466e-02) (14, 6.75965100526809692383e-02) (15, 2.95064840465784072876e-02) (16, 1.08619164675474166870e-02) (17, -2.42261756211519241333e-02) (18, -2.88117602467536926270e-02) (19, 7.56659582257270812988e-02) (20, -7.36931785941123962402e-02) (21, 1.54551025480031967163e-02) (22, 2.11806505918502807617e-01) (23, -3.89363020658493041992e-01) (24, -2.95501065254211425781e+00) (25, -5.46701177954673767090e-02) (26, -1.09310217201709747314e-01) (27, 4.44722361862659454346e-02) (28, 8.98672863841056823730e-02) (29, -8.83662551641464233398e-02) (30, -2.24567607045173645020e-01) (31, -2.54045248031616210938e-01) (32, 2.65364199876785278320e-01) (33, -6.66217952966690063477e-02) (34, 4.53695058822631835938e-02) (35, 7.16545581817626953125e-02) (36, -5.01123964786529541016e-02) (37, 2.23597558215260505676e-03) (38, -3.32226715981960296631e-02) (39, 3.35540801286697387695e-01) (40, 1.05948761105537414551e-01) (41, 7.82226920127868652344e-02) (42, 6.15003034472465515137e-02) (43, 1.48236537352204322815e-02) (44, -7.28307068347930908203e-02) (45, -7.77853429317474365234e-02) (46, 1.40723446384072303772e-02) (47, 4.50770296156406402588e-02) (48, -9.37205329537391662598e-02) (49, 1.50000000000000000000e+03) (50, 1.50000000000000000000e+03) (51, 1.50000000000000000000e+03) (52, 1.50000000000000000000e+03) (53, 1.50000000000000000000e+03) (54, 1.50000000000000000000e+03) (55, 1.50000000000000000000e+03) (56, 1.50000000000000000000e+03) (57, 1.50000000000000000000e+03) (58, 1.50000000000000000000e+03) (59, 1.50000000000000000000e+03) (60, 1.50000000000000000000e+03) (61, 1.50000000000000000000e+03) (62, 1.50000000000000000000e+03) (63, 1.50000000000000000000e+03) (64, 1.50000000000000000000e+03) (65, 1.50000000000000000000e+03) (66, 1.50000000000000000000e+03) (67, 1.50000000000000000000e+03) (68, 1.50000000000000000000e+03) (69, 1.50000000000000000000e+03) (70, 1.50000000000000000000e+03) (71, 1.50000000000000000000e+03) (72, 1.50000000000000000000e+03) (73, 1.50000000000000000000e+03) (74, 1.50000000000000000000e+03) (75, 1.50000000000000000000e+03) (76, 1.50000000000000000000e+03) (77, 1.50000000000000000000e+03) (78, 1.50000000000000000000e+03) (79, 1.50000000000000000000e+03) (80, 1.50000000000000000000e+03) (81, 2.22069263458251953125e+00) (0, 1.50000000000000000000e+03) (1, 1.50000000000000000000e+03) (2, 1.50000000000000000000e+03) (3, 1.50000000000000000000e+03) (4, 1.50000000000000000000e+03) (5, 1.50000000000000000000e+03) (6, 1.50000000000000000000e+03) (7, 1.50000000000000000000e+03) (8, 1.50000000000000000000e+03) (9, 1.50000000000000000000e+03) (10, 1.50000000000000000000e+03) (11, 1.50000000000000000000e+03) (12, 1.50000000000000000000e+03) (13, 1.50000000000000000000e+03) (14, 1.50000000000000000000e+03) (15, 1.50000000000000000000e+03) (16, 1.50000000000000000000e+03) (17, 1.50000000000000000000e+03) (18, 1.50000000000000000000e+03) (19, 1.50000000000000000000e+03) (20, 1.50000000000000000000e+03) (21, 1.50000000000000000000e+03) (22, 1.50000000000000000000e+03) (23, 1.50000000000000000000e+03) (24, 1.50000000000000000000e+03) (25, 1.50000000000000000000e+03) (26, 1.50000000000000000000e+03) (27, 1.50000000000000000000e+03) (28, 1.50000000000000000000e+03) (29, 1.50000000000000000000e+03) (30, 1.50000000000000000000e+03) (31, 1.50000000000000000000e+03) (32, 1.50000000000000000000e+03) (33, 1.50000000000000000000e+03) (34, 1.50000000000000000000e+03) (35, 1.50000000000000000000e+03) (36, 1.50000000000000000000e+03) (37, 1.50000000000000000000e+03) (38, 1.50000000000000000000e+03) (39, 1.50000000000000000000e+03) (40, 1.50000000000000000000e+03) (41, 1.50000000000000000000e+03) (42, 1.50000000000000000000e+03) (43, 1.50000000000000000000e+03) (44, 1.50000000000000000000e+03) (45, 1.50000000000000000000e+03) (46, 1.50000000000000000000e+03) (47, 1.50000000000000000000e+03) (48, 1.50000000000000000000e+03) (49, 1.50000000000000000000e+03) (50, 1.50000000000000000000e+03) (51, 1.50000000000000000000e+03) (52, 1.50000000000000000000e+03) (53, 1.50000000000000000000e+03) (54, 1.50000000000000000000e+03) (55, 1.50000000000000000000e+03) (56, 1.50000000000000000000e+03) (57, 1.50000000000000000000e+03) (58, 1.50000000000000000000e+03) (59, 1.50000000000000000000e+03) (60, 1.50000000000000000000e+03) (61, 1.50000000000000000000e+03) (62, 1.50000000000000000000e+03) (63, 1.50000000000000000000e+03) (64, 1.50000000000000000000e+03) (65, 1.50000000000000000000e+03) (66, 1.50000000000000000000e+03) (67, 1.50000000000000000000e+03) (68, 1.50000000000000000000e+03) (69, 1.50000000000000000000e+03) (70, 1.50000000000000000000e+03) (71, 1.50000000000000000000e+03) (72, 1.50000000000000000000e+03) (73, 1.50000000000000000000e+03) (74, 1.50000000000000000000e+03) (75, 1.50000000000000000000e+03) (76, 1.50000000000000000000e+03) (77, 1.50000000000000000000e+03) (78, 1.50000000000000000000e+03) (79, 1.50000000000000000000e+03) (80, 1.50000000000000000000e+03) (81, 1.78750559687614440918e-01) (0, 1.50000000000000000000e+03) (1, 1.50000000000000000000e+03) (2, 1.50000000000000000000e+03) (3, 1.50000000000000000000e+03) (4, 1.50000000000000000000e+03) (5, 1.50000000000000000000e+03) (6, 1.50000000000000000000e+03) (7, 1.50000000000000000000e+03) (8, 1.50000000000000000000e+03) (9, 1.50000000000000000000e+03) (10, 1.50000000000000000000e+03) (11, 1.50000000000000000000e+03) (12, 1.50000000000000000000e+03) (13, 1.50000000000000000000e+03) (14, 1.50000000000000000000e+03) (15, 1.50000000000000000000e+03) (16, 1.50000000000000000000e+03) (17, 1.50000000000000000000e+03) (18, 1.50000000000000000000e+03) (19, 1.50000000000000000000e+03) (20, 1.50000000000000000000e+03) (21, 1.50000000000000000000e+03) (22, 1.50000000000000000000e+03) (23, 1.50000000000000000000e+03) (24, 1.50000000000000000000e+03) (25, 1.50000000000000000000e+03) (26, 1.50000000000000000000e+03) (27, 1.50000000000000000000e+03) (28, 1.50000000000000000000e+03) (29, 1.50000000000000000000e+03) (30, 1.50000000000000000000e+03) (31, 1.50000000000000000000e+03) (32, 1.50000000000000000000e+03) (33, 1.50000000000000000000e+03) (34, 1.50000000000000000000e+03) (35, 1.50000000000000000000e+03) (36, 1.50000000000000000000e+03) (37, 1.50000000000000000000e+03) (38, 1.50000000000000000000e+03) (39, 1.50000000000000000000e+03) (40, 1.50000000000000000000e+03) (41, 1.50000000000000000000e+03) (42, 1.50000000000000000000e+03) (43, 1.50000000000000000000e+03) (44, 1.50000000000000000000e+03) (45, 1.50000000000000000000e+03) (46, 1.50000000000000000000e+03) (47, 1.50000000000000000000e+03) (48, 1.50000000000000000000e+03) (49, 1.50000000000000000000e+03) (50, 1.50000000000000000000e+03) (51, 1.50000000000000000000e+03) (52, 1.50000000000000000000e+03) (53, 1.50000000000000000000e+03) (54, 1.50000000000000000000e+03) (55, 1.50000000000000000000e+03) (56, 1.50000000000000000000e+03) (57, 1.50000000000000000000e+03) (58, 1.50000000000000000000e+03) (59, 1.50000000000000000000e+03) (60, 1.50000000000000000000e+03) (61, 1.50000000000000000000e+03) (62, 1.50000000000000000000e+03) (63, 1.50000000000000000000e+03) (64, 1.50000000000000000000e+03) (65, 1.50000000000000000000e+03) (66, 1.50000000000000000000e+03) (67, 1.50000000000000000000e+03) (68, 1.50000000000000000000e+03) (69, 1.50000000000000000000e+03) (70, 1.50000000000000000000e+03) (71, 1.50000000000000000000e+03) (72, 1.50000000000000000000e+03) (73, 1.50000000000000000000e+03) (74, 1.50000000000000000000e+03) (75, 1.50000000000000000000e+03) (76, 1.50000000000000000000e+03) (77, 1.50000000000000000000e+03) (78, 1.50000000000000000000e+03) (79, 1.50000000000000000000e+03) (80, 1.50000000000000000000e+03) (81, 5.41776344180107116699e-02) (0, -1.74436315894126892090e-01) (1, -1.53582900762557983398e-01) (2, 1.86373330652713775635e-02) (3, 4.54092994332313537598e-02) (4, -1.10767252743244171143e-01) (5, -1.36156067252159118652e-01) (6, -4.50030807405710220337e-03) (7, -1.12773314118385314941e-01) (8, -2.14468732476234436035e-01) (9, -5.81174381077289581299e-02) (10, -8.29876214265823364258e-02) (11, 2.28011254221200942993e-02) (12, -7.22982436418533325195e-02) (13, -1.02117128670215606689e-01) (14, -1.19423978030681610107e-01) (15, -5.21706119179725646973e-02) (16, 2.19435200095176696777e-01) (17, -1.03111959993839263916e-01) (18, -1.30650863051414489746e-01) (19, 4.78428080677986145020e-02) (20, -1.79764091968536376953e-01) (21, -1.17097571492195129395e-01) (22, 1.22745465487241744995e-02) (23, -1.34936925023794174194e-02) (24, -1.50726640224456787109e+00) (25, 3.04654403589665889740e-03) (26, -9.82503741979598999023e-02) (27, -6.21492043137550354004e-02) (28, -6.12941049039363861084e-02) (29, 5.89982829988002777100e-02) (30, -9.46248322725296020508e-03) (31, 1.38667285442352294922e-01) (32, 8.27323092380538582802e-05) (33, -4.51926812529563903809e-02) (34, 2.68378034234046936035e-02) (35, 9.13804117590188980103e-03) (36, -7.49184936285018920898e-02) (37, 3.56449186801910400391e-01) (38, 4.79487180709838867188e-01) (39, -3.48943799734115600586e-01) (40, -1.55500918626785278320e-01) (41, -6.70847520232200622559e-02) (42, -2.65189111232757568359e-01) (43, -5.52642345428466796875e-02) (44, -2.22203731536865234375e-02) (45, -1.60142093896865844727e-01) (46, -1.45889475941658020020e-01) (47, 1.12182181328535079956e-02) (48, -5.67062646150588989258e-02) (49, 1.50000000000000000000e+03) (50, 1.50000000000000000000e+03) (51, 1.50000000000000000000e+03) (52, 1.50000000000000000000e+03) (53, 1.50000000000000000000e+03) (54, 1.50000000000000000000e+03) (55, 1.50000000000000000000e+03) (56, 1.50000000000000000000e+03) (57, 1.50000000000000000000e+03) (58, 1.50000000000000000000e+03) (59, 1.50000000000000000000e+03) (60, 1.50000000000000000000e+03) (61, 1.50000000000000000000e+03) (62, 1.50000000000000000000e+03) (63, 1.50000000000000000000e+03) (64, 1.50000000000000000000e+03) (65, 1.50000000000000000000e+03) (66, 1.50000000000000000000e+03) (67, 1.50000000000000000000e+03) (68, 1.50000000000000000000e+03) (69, 1.50000000000000000000e+03) (70, 1.50000000000000000000e+03) (71, 1.50000000000000000000e+03) (72, 1.50000000000000000000e+03) (73, 1.50000000000000000000e+03) (74, 1.50000000000000000000e+03) (75, 1.50000000000000000000e+03) (76, 1.50000000000000000000e+03) (77, 1.50000000000000000000e+03) (78, 1.50000000000000000000e+03) (79, 1.50000000000000000000e+03) (80, 1.50000000000000000000e+03) (81, 1.30842673778533935547e+00) (0, -3.18347848951816558838e-02) (1, -6.13094717264175415039e-02) (2, 8.87321904301643371582e-02) (3, -1.65043305605649948120e-02) (4, -1.60081405192613601685e-02) (5, -1.52369113638997077942e-02) (6, -4.55818064510822296143e-02) (7, -3.43939177691936492920e-02) (8, -3.63011479377746582031e-01) (9, 5.96326217055320739746e-02) (10, -9.00954827666282653809e-02) (11, 5.71197345852851867676e-02) (12, -4.49515320360660552979e-02) (13, -6.46455660462379455566e-02) (14, 2.06902563571929931641e-01) (15, 6.25587180256843566895e-02) (16, 6.13891631364822387695e-02) (17, -1.11598268151283264160e-01) (18, -2.91277207434177398682e-02) (19, 1.95793826133012771606e-02) (20, -1.63357838988304138184e-01) (21, 3.38043421506881713867e-02) (22, 4.94062416255474090576e-02) (23, -1.38693243265151977539e-01) (24, -2.53865265846252441406e+00) (25, -6.73513635993003845215e-02) (26, 4.75393719971179962158e-02) (27, 8.51325616240501403809e-02) (28, -1.12166531383991241455e-01) (29, -5.82866258919239044189e-02) (30, 3.20611521601676940918e-02) (31, 4.45760637521743774414e-02) (32, 4.72605451941490173340e-02) (33, 1.23648634180426597595e-02) (34, -8.66032466292381286621e-02) (35, 6.30473941564559936523e-02) (36, -1.93735957145690917969e-01) (37, -3.98834384977817535400e-02) (38, -1.19882665574550628662e-01) (39, 1.92692995071411132812e-01) (40, 1.77791848778724670410e-01) (41, 9.35605317354202270508e-02) (42, 9.74880307912826538086e-02) (43, 2.24207602441310882568e-02) (44, -5.23599004372954368591e-03) (45, -1.42598167061805725098e-01) (46, -6.46214559674263000488e-02) (47, 1.78710259497165679932e-02) (48, -3.44627350568771362305e-02) (49, 1.50000000000000000000e+03) (50, 1.50000000000000000000e+03) (51, 1.50000000000000000000e+03) (52, 1.50000000000000000000e+03) (53, 1.50000000000000000000e+03) (54, 1.50000000000000000000e+03) (55, 1.50000000000000000000e+03) (56, 1.50000000000000000000e+03) (57, 1.50000000000000000000e+03) (58, 1.50000000000000000000e+03) (59, 1.50000000000000000000e+03) (60, 1.50000000000000000000e+03) (61, 1.50000000000000000000e+03) (62, 1.50000000000000000000e+03) (63, 1.50000000000000000000e+03) (64, 1.50000000000000000000e+03) (65, 1.50000000000000000000e+03) (66, 1.50000000000000000000e+03) (67, 1.50000000000000000000e+03) (68, 1.50000000000000000000e+03) (69, 1.50000000000000000000e+03) (70, 1.50000000000000000000e+03) (71, 1.50000000000000000000e+03) (72, 1.50000000000000000000e+03) (73, 1.50000000000000000000e+03) (74, 1.50000000000000000000e+03) (75, 1.50000000000000000000e+03) (76, 1.50000000000000000000e+03) (77, 1.50000000000000000000e+03) (78, 1.50000000000000000000e+03) (79, 1.50000000000000000000e+03) (80, 1.50000000000000000000e+03) (81, 1.65099263191223144531e+00) (0, 3.83168384432792663574e-02) (1, -8.52054357528686523438e-02) (2, 7.90954083204269409180e-02) (3, 1.85790419578552246094e-01) (4, -1.34583711624145507812e-01) (5, -5.73292195796966552734e-01) (6, -1.10239557921886444092e-01) (7, -1.01807698607444763184e-01) (8, -1.08760583400726318359e+00) (9, 1.90464019775390625000e-01) (10, 1.37257590889930725098e-01) (11, -8.09358507394790649414e-02) (12, -2.50892221927642822266e-01) (13, -5.33232372254133224487e-03) (14, -4.66009788215160369873e-02) (15, 1.06351390480995178223e-01) (16, 2.22917050123214721680e-01) (17, 1.24559126794338226318e-01) (18, 2.63240128755569458008e-01) (19, -1.44832596182823181152e-01) (20, -4.14666943252086639404e-02) (21, -2.84858673810958862305e-01) (22, 1.27274915575981140137e-01) (23, 1.49831622838973999023e-01) (24, 3.18679118156433105469e+00) (25, 2.08879649639129638672e-01) (26, 2.01391875743865966797e-01) (27, -1.86503548175096511841e-02) (28, 1.25326246023178100586e-01) (29, 1.32630884647369384766e-01) (30, 3.40839773416519165039e-01) (31, -7.19816908240318298340e-02) (32, 2.62091040611267089844e-01) (33, 1.74022778868675231934e-01) (34, -1.04139886796474456787e-01) (35, 1.90432760864496231079e-02) (36, 3.05660277605056762695e-01) (37, 3.00874918699264526367e-01) (38, 1.69726029038429260254e-01) (39, -1.52533695101737976074e-01) (40, -2.69022852182388305664e-01) (41, -9.59527119994163513184e-02) (42, -3.46914567053318023682e-02) (43, 1.05300471186637878418e-01) (44, 8.99669080972671508789e-02) (45, 1.07059683650732040405e-02) (46, 1.31913229823112487793e-01) (47, 1.26250609755516052246e-02) (48, -1.37058839201927185059e-01) (49, 1.50000000000000000000e+03) (50, 1.50000000000000000000e+03) (51, 1.50000000000000000000e+03) (52, 1.50000000000000000000e+03) (53, 1.50000000000000000000e+03) (54, 1.50000000000000000000e+03) (55, 1.50000000000000000000e+03) (56, 1.50000000000000000000e+03) (57, 1.50000000000000000000e+03) (58, 1.50000000000000000000e+03) (59, 1.50000000000000000000e+03) (60, 1.50000000000000000000e+03) (61, 1.50000000000000000000e+03) (62, 1.50000000000000000000e+03) (63, 1.50000000000000000000e+03) (64, 1.50000000000000000000e+03) (65, 1.50000000000000000000e+03) (66, 1.50000000000000000000e+03) (67, 1.50000000000000000000e+03) (68, 1.50000000000000000000e+03) (69, 1.50000000000000000000e+03) (70, 1.50000000000000000000e+03) (71, 1.50000000000000000000e+03) (72, 1.50000000000000000000e+03) (73, 1.50000000000000000000e+03) (74, 1.50000000000000000000e+03) (75, 1.50000000000000000000e+03) (76, 1.50000000000000000000e+03) (77, 1.50000000000000000000e+03) (78, 1.50000000000000000000e+03) (79, 1.50000000000000000000e+03) (80, 1.50000000000000000000e+03) (81, -1.54032206535339355469e+00) (0, -1.57661363482475280762e-01) (1, 2.84362211823463439941e-03) (2, -9.38846264034509658813e-03) (3, -4.47153449058532714844e-02) (4, -6.98784366250038146973e-02) (5, -7.55874514579772949219e-02) (6, -1.00054375827312469482e-01) (7, -3.06937620043754577637e-02) (8, -2.43530929088592529297e-01) (9, -1.08242794871330261230e-01) (10, -1.49727150797843933105e-01) (11, 3.04678622633218765259e-02) (12, -8.13295319676399230957e-03) (13, -2.19430997967720031738e-02) (14, -9.91457253694534301758e-02) (15, 4.16616201400756835938e-02) (16, 1.01360820233821868896e-01) (17, -1.03596575558185577393e-01) (18, -3.93194817006587982178e-02) (19, -8.63112434744834899902e-02) (20, 2.35690195113420486450e-02) (21, 7.34962597489356994629e-02) (22, -6.68596997857093811035e-02) (23, -8.82604792714118957520e-02) (24, -1.63492786884307861328e+00) (25, -9.30475965142250061035e-02) (26, -6.07115700840950012207e-02) (27, -1.12978471443057060242e-02) (28, -6.45189313217997550964e-03) (29, 1.59157589077949523926e-01) (30, 1.92007347941398620605e-01) (31, -1.92066773772239685059e-01) (32, -1.53161749243736267090e-01) (33, 1.80838573724031448364e-02) (34, -8.42823684215545654297e-02) (35, 1.50209084153175354004e-01) (36, -8.36584791541099548340e-02) (37, -1.95996928960084915161e-02) (38, -2.11766958236694335938e-02) (39, -2.81688533723354339600e-02) (40, -1.00757807493209838867e-01) (41, 9.75947268307209014893e-03) (42, -1.44238188862800598145e-01) (43, 4.87449839711189270020e-02) (44, -1.94430515170097351074e-01) (45, -1.72407910227775573730e-01) (46, 6.71665892004966735840e-02) (47, -1.61926634609699249268e-02) (48, -4.44152876734733581543e-02) (49, 1.50000000000000000000e+03) (50, 1.50000000000000000000e+03) (51, 1.50000000000000000000e+03) (52, 1.50000000000000000000e+03) (53, 1.50000000000000000000e+03) (54, 1.50000000000000000000e+03) (55, 1.50000000000000000000e+03) (56, 1.50000000000000000000e+03) (57, 1.50000000000000000000e+03) (58, 1.50000000000000000000e+03) (59, 1.50000000000000000000e+03) (60, 1.50000000000000000000e+03) (61, 1.50000000000000000000e+03) (62, 1.50000000000000000000e+03) (63, 1.50000000000000000000e+03) (64, 1.50000000000000000000e+03) (65, 1.50000000000000000000e+03) (66, 1.50000000000000000000e+03) (67, 1.50000000000000000000e+03) (68, 1.50000000000000000000e+03) (69, 1.50000000000000000000e+03) (70, 1.50000000000000000000e+03) (71, 1.50000000000000000000e+03) (72, 1.50000000000000000000e+03) (73, 1.50000000000000000000e+03) (74, 1.50000000000000000000e+03) (75, 1.50000000000000000000e+03) (76, 1.50000000000000000000e+03) (77, 1.50000000000000000000e+03) (78, 1.50000000000000000000e+03) (79, 1.50000000000000000000e+03) (80, 1.50000000000000000000e+03) (81, 1.31886100769042968750e+00) (0, -4.44190889596939086914e-01) (1, -2.06283330917358398438e+00) (2, 2.05691963434219360352e-01) (3, 1.84890046715736389160e-01) (4, 1.82374632358551025391e+00) (5, 1.68040609359741210938e+00) (6, -9.56073403358459472656e-02) (7, -6.58375680446624755859e-01) (8, -3.81784653663635253906e+00) (9, 2.11589679121971130371e-01) (10, 4.57601368427276611328e-01) (11, 5.31481564044952392578e-01) (12, 1.91732943058013916016e+00) (13, 1.53356826305389404297e+00) (14, -6.28665924072265625000e-01) (15, 6.81417249143123626709e-03) (16, 1.47032305598258972168e-01) (17, 3.28873842954635620117e-01) (18, 3.51760208606719970703e-01) (19, 7.75867605209350585938e+00) (20, 1.01531231403350830078e+00) (21, -8.71884584426879882812e-01) (22, 1.44570261240005493164e-01) (23, 2.81027585268020629883e-01) (24, 5.53067512512207031250e+01) (25, 1.38885669708251953125e+01) (26, 2.62650489807128906250e-01) (27, 2.98735523223876953125e+00) (28, -1.48243331909179687500e+00) (29, 2.22433343529701232910e-01) (30, 3.90074062347412109375e+00) (31, 6.24437749385833740234e-01) (32, 1.50243339538574218750e+01) (33, 3.36285084486007690430e-01) (34, -2.34619677066802978516e-02) (35, 1.33372485637664794922e-01) (36, 4.05882835388183593750e-01) (37, 8.11415958404541015625e+00) (38, 3.74852418899536132812e-01) (39, 2.25211944580078125000e+01) (40, 1.04576234817504882812e+01) (41, 4.08673852682113647461e-01) (42, 1.87804490327835083008e-01) (43, 2.03368172049522399902e-01) (44, 1.36615085601806640625e+01) (45, 2.51956760883331298828e-01) (46, -2.09535911679267883301e-01) (47, -4.26142185926437377930e-01) (48, -4.22871150076389312744e-02) (49, 1.50000000000000000000e+03) (50, 1.50000000000000000000e+03) (51, 1.50000000000000000000e+03) (52, 1.50000000000000000000e+03) (53, 1.50000000000000000000e+03) (54, 1.50000000000000000000e+03) (55, 1.50000000000000000000e+03) (56, 1.50000000000000000000e+03) (57, 1.50000000000000000000e+03) (58, 1.50000000000000000000e+03) (59, 1.50000000000000000000e+03) (60, 1.50000000000000000000e+03) (61, 1.50000000000000000000e+03) (62, 1.50000000000000000000e+03) (63, 1.50000000000000000000e+03) (64, 1.50000000000000000000e+03) (65, 1.50000000000000000000e+03) (66, 1.50000000000000000000e+03) (67, 1.50000000000000000000e+03) (68, 1.50000000000000000000e+03) (69, 1.50000000000000000000e+03) (70, 1.50000000000000000000e+03) (71, 1.50000000000000000000e+03) (72, 1.50000000000000000000e+03) (73, 1.50000000000000000000e+03) (74, 1.50000000000000000000e+03) (75, 1.50000000000000000000e+03) (76, 1.50000000000000000000e+03) (77, 1.50000000000000000000e+03) (78, 1.50000000000000000000e+03) (79, 1.50000000000000000000e+03) (80, 1.50000000000000000000e+03) (81, -1.62826976776123046875e+01) (82, -1.23934912681579589844e+00) (83, 2.04444587230682373047e-01) (84, 1.96062743663787841797e-01) (85, -1.09111833572387695312e+00) (86, -1.10430586338043212891e+00) (87, 1.22959411144256591797e+00) (88, -1.09926521778106689453e+00) (89, 9.44634079933166503906e-01) (90, 1.54598146677017211914e-01) 
