FANN_FLO_2.1
num_layers=4
learning_rate=0.450000
connection_rate=1.000000
network_type=0
learning_momentum=0.000000
training_algorithm=2
train_error_function=1
train_stop_function=0
cascade_output_change_fraction=0.010000
quickprop_decay=-0.000100
quickprop_mu=1.750000
rprop_increase_factor=1.200000
rprop_decrease_factor=0.500000
rprop_delta_min=0.000000
rprop_delta_max=50.000000
rprop_delta_zero=0.100000
cascade_output_stagnation_epochs=12
cascade_candidate_change_fraction=0.010000
cascade_candidate_stagnation_epochs=12
cascade_max_out_epochs=150
cascade_min_out_epochs=50
cascade_max_cand_epochs=150
cascade_min_cand_epochs=50
cascade_num_candidate_groups=2
bit_fail_limit=3.49999994039535522461e-01
cascade_candidate_limit=1.00000000000000000000e+03
cascade_weight_multiplier=4.00000005960464477539e-01
cascade_activation_functions_count=10
cascade_activation_functions=3 5 7 8 10 11 14 15 16 17 
cascade_activation_steepnesses_count=4
cascade_activation_steepnesses=2.50000000000000000000e-01 5.00000000000000000000e-01 7.50000000000000000000e-01 1.00000000000000000000e+00 
layer_sizes=7 5 3 2 
scale_included=0
neurons (num_inputs, activation_function, activation_steepness)=(0, 0, 0.00000000000000000000e+00) (0, 0, 0.00000000000000000000e+00) (0, 0, 0.00000000000000000000e+00) (0, 0, 0.00000000000000000000e+00) (0, 0, 0.00000000000000000000e+00) (0, 0, 0.00000000000000000000e+00) (0, 0, 0.00000000000000000000e+00) (7, 3, 5.00000000000000000000e-01) (7, 3, 5.00000000000000000000e-01) (7, 3, 5.00000000000000000000e-01) (7, 3, 5.00000000000000000000e-01) (0, 3, 0.00000000000000000000e+00) (5, 3, 5.00000000000000000000e-01) (5, 3, 5.00000000000000000000e-01) (0, 3, 0.00000000000000000000e+00) (3, 0, 5.00000000000000000000e-01) (0, 0, 0.00000000000000000000e+00) 
connections (connected_to_neuron, weight)=(0, -1.18662044405937194824e-02) (1, -3.59911888837814331055e-01) (2, 7.91639983654022216797e-01) (3, -3.90946596860885620117e-01) (4, 2.92408084869384765625e+00) (5, 1.93059578537940979004e-01) (6, 6.46980246528983116150e-03) (0, -1.61849677562713623047e-01) (1, 4.69980096817016601562e+00) (2, -5.99103987216949462891e-01) (3, -2.13849142193794250488e-01) (4, 5.56261956691741943359e-01) (5, -1.84870213270187377930e-01) (6, -4.97436165809631347656e-01) (0, -1.50504961609840393066e-01) (1, 8.02324652671813964844e-01) (2, -2.24600887298583984375e+00) (3, 1.71321034431457519531e-01) (4, -1.20664656162261962891e+00) (5, -8.12584400177001953125e-01) (6, -1.37152743339538574219e+00) (0, -1.19929301738739013672e+00) (1, -1.63975772857666015625e+01) (2, 1.50000000000000000000e+03) (3, 1.66710805892944335938e+00) (4, -2.54525947570800781250e+00) (5, 6.99812850952148437500e+01) (6, 5.66679798066616058350e-02) (7, -2.26481509208679199219e+00) (8, -7.73098516464233398438e+00) (9, -1.50000000000000000000e+03) (10, 3.37365484237670898438e+00) (11, -7.65766054391860961914e-02) (7, -4.37236976623535156250e+00) (8, -6.66930007934570312500e+00) (9, -1.39820945262908935547e+00) (10, 5.83488178253173828125e+00) (11, -1.00371681153774261475e-01) (12, 7.06102550029754638672e-01) (13, 2.53951740264892578125e+00) (14, -1.79657968692481517792e-03) 
