FANN_FLO_2.1
num_layers=4
learning_rate=0.300000
connection_rate=1.000000
network_type=0
learning_momentum=0.000000
training_algorithm=2
train_error_function=1
train_stop_function=0
cascade_output_change_fraction=0.010000
quickprop_decay=-0.000100
quickprop_mu=1.750000
rprop_increase_factor=1.200000
rprop_decrease_factor=0.500000
rprop_delta_min=0.000000
rprop_delta_max=50.000000
rprop_delta_zero=0.100000
cascade_output_stagnation_epochs=12
cascade_candidate_change_fraction=0.010000
cascade_candidate_stagnation_epochs=12
cascade_max_out_epochs=150
cascade_min_out_epochs=50
cascade_max_cand_epochs=150
cascade_min_cand_epochs=50
cascade_num_candidate_groups=2
bit_fail_limit=3.49999994039535522461e-01
cascade_candidate_limit=1.00000000000000000000e+03
cascade_weight_multiplier=4.00000005960464477539e-01
cascade_activation_functions_count=10
cascade_activation_functions=3 5 7 8 10 11 14 15 16 17 
cascade_activation_steepnesses_count=4
cascade_activation_steepnesses=2.50000000000000000000e-01 5.00000000000000000000e-01 7.50000000000000000000e-01 1.00000000000000000000e+00 
layer_sizes=2 5 3 3 
scale_included=0
neurons (num_inputs, activation_function, activation_steepness)=(0, 0, 0.00000000000000000000e+00) (0, 0, 0.00000000000000000000e+00) (2, 3, 5.00000000000000000000e-01) (2, 3, 5.00000000000000000000e-01) (2, 3, 5.00000000000000000000e-01) (2, 3, 5.00000000000000000000e-01) (0, 3, 0.00000000000000000000e+00) (5, 3, 5.00000000000000000000e-01) (5, 3, 5.00000000000000000000e-01) (0, 3, 0.00000000000000000000e+00) (3, 0, 5.00000000000000000000e-01) (3, 0, 5.00000000000000000000e-01) (0, 0, 0.00000000000000000000e+00) 
connections (connected_to_neuron, weight)=(0, -8.62238769531250000000e+01) (1, -2.36975455284118652344e+00) (0, -2.05161495208740234375e+01) (1, -1.37150812149047851562e+01) (0, -8.61838989257812500000e+01) (1, -2.54288554191589355469e+00) (0, -8.57379150390625000000e+01) (1, -2.53182196617126464844e+00) (2, 4.54579442739486694336e-01) (3, 9.16931033134460449219e-01) (4, 4.70504164695739746094e-01) (5, 3.75225126743316650391e-01) (6, -2.68147140741348266602e-01) (2, 7.84944474697113037109e-01) (3, 7.33833491802215576172e-01) (4, 8.49011719226837158203e-01) (5, 8.70280325412750244141e-01) (6, -1.27520418167114257812e+00) (7, -2.85034179687500000000e-02) (8, 1.93485781550407409668e-01) (9, -1.05914704501628875732e-01) (7, -9.47861552238464355469e-01) (8, -9.86078262329101562500e-01) (9, -5.51614701747894287109e-01) 
