FANN_FLO_2.1
num_layers=3
learning_rate=0.500000
connection_rate=1.000000
network_type=0
learning_momentum=0.000000
training_algorithm=2
train_error_function=1
train_stop_function=0
cascade_output_change_fraction=0.010000
quickprop_decay=-0.000100
quickprop_mu=1.750000
rprop_increase_factor=1.200000
rprop_decrease_factor=0.500000
rprop_delta_min=0.000000
rprop_delta_max=50.000000
rprop_delta_zero=0.100000
cascade_output_stagnation_epochs=12
cascade_candidate_change_fraction=0.010000
cascade_candidate_stagnation_epochs=12
cascade_max_out_epochs=150
cascade_min_out_epochs=50
cascade_max_cand_epochs=150
cascade_min_cand_epochs=50
cascade_num_candidate_groups=2
bit_fail_limit=3.49999994039535522461e-01
cascade_candidate_limit=1.00000000000000000000e+03
cascade_weight_multiplier=4.00000005960464477539e-01
cascade_activation_functions_count=10
cascade_activation_functions=3 5 7 8 10 11 14 15 16 17 
cascade_activation_steepnesses_count=4
cascade_activation_steepnesses=2.50000000000000000000e-01 5.00000000000000000000e-01 7.50000000000000000000e-01 1.00000000000000000000e+00 
layer_sizes=3 5 4 
scale_included=0
neurons (num_inputs, activation_function, activation_steepness)=(0, 0, 0.00000000000000000000e+00) (0, 0, 0.00000000000000000000e+00) (0, 0, 0.00000000000000000000e+00) (3, 3, 5.00000000000000000000e-01) (3, 3, 5.00000000000000000000e-01) (3, 3, 5.00000000000000000000e-01) (3, 3, 5.00000000000000000000e-01) (0, 3, 0.00000000000000000000e+00) (5, 0, 5.00000000000000000000e-01) (5, 0, 5.00000000000000000000e-01) (5, 0, 5.00000000000000000000e-01) (0, 0, 0.00000000000000000000e+00) 
connections (connected_to_neuron, weight)=(0, -1.50000000000000000000e+03) (1, -1.45652258300781250000e+03) (2, 1.92893581390380859375e+01) (0, -1.50000000000000000000e+03) (1, -2.85947753906250000000e+02) (2, 2.16670074462890625000e+01) (0, -1.50000000000000000000e+03) (1, 1.32624692916870117188e+01) (2, 3.37423095703125000000e+02) (0, -2.46813220977783203125e+01) (1, 1.29408426284790039062e+01) (2, 1.84157352447509765625e+01) (3, 2.01996207237243652344e+00) (4, 1.73627388477325439453e+00) (5, 2.20546674728393554688e+00) (6, 1.78524482250213623047e+00) (7, 2.07783603668212890625e+00) (3, 5.69047164916992187500e+00) (4, 4.28467082977294921875e+00) (5, 5.29821205139160156250e+00) (6, 7.64353704452514648438e+00) (7, 7.37625074386596679688e+00) (3, 1.46801147460937500000e+01) (4, 1.46714410781860351562e+01) (5, 1.67231254577636718750e+01) (6, 2.21686592102050781250e+01) (7, 3.13015346527099609375e+01) 
