FANN_FLO_2.1
num_layers=4
learning_rate=0.500000
connection_rate=1.000000
network_type=0
learning_momentum=0.000000
training_algorithm=2
train_error_function=1
train_stop_function=0
cascade_output_change_fraction=0.010000
quickprop_decay=-0.000100
quickprop_mu=1.750000
rprop_increase_factor=1.200000
rprop_decrease_factor=0.500000
rprop_delta_min=0.000000
rprop_delta_max=50.000000
rprop_delta_zero=0.100000
cascade_output_stagnation_epochs=12
cascade_candidate_change_fraction=0.010000
cascade_candidate_stagnation_epochs=12
cascade_max_out_epochs=150
cascade_min_out_epochs=50
cascade_max_cand_epochs=150
cascade_min_cand_epochs=50
cascade_num_candidate_groups=2
bit_fail_limit=3.49999994039535522461e-01
cascade_candidate_limit=1.00000000000000000000e+03
cascade_weight_multiplier=4.00000005960464477539e-01
cascade_activation_functions_count=10
cascade_activation_functions=3 5 7 8 10 11 14 15 16 17 
cascade_activation_steepnesses_count=4
cascade_activation_steepnesses=2.50000000000000000000e-01 5.00000000000000000000e-01 7.50000000000000000000e-01 1.00000000000000000000e+00 
layer_sizes=4 5 5 2 
scale_included=0
neurons (num_inputs, activation_function, activation_steepness)=(0, 0, 0.00000000000000000000e+00) (0, 0, 0.00000000000000000000e+00) (0, 0, 0.00000000000000000000e+00) (0, 0, 0.00000000000000000000e+00) (4, 3, 5.00000000000000000000e-01) (4, 3, 5.00000000000000000000e-01) (4, 3, 5.00000000000000000000e-01) (4, 3, 5.00000000000000000000e-01) (0, 3, 0.00000000000000000000e+00) (5, 3, 5.00000000000000000000e-01) (5, 3, 5.00000000000000000000e-01) (5, 3, 5.00000000000000000000e-01) (5, 3, 5.00000000000000000000e-01) (0, 3, 0.00000000000000000000e+00) (5, 3, 5.00000000000000000000e-01) (0, 3, 0.00000000000000000000e+00) 
connections (connected_to_neuron, weight)=(0, 1.36403446197509765625e+01) (1, -3.57802772521972656250e+01) (2, 5.70637369155883789062e+00) (3, 1.13795176148414611816e-01) (0, -7.26781845092773437500e+00) (1, -1.65178527832031250000e+01) (2, 3.85274624824523925781e+00) (3, 7.39262390136718750000e+00) (0, -3.89979553222656250000e+00) (1, -9.61770439147949218750e+00) (2, -8.75191688537597656250e+00) (3, 7.26887273788452148438e+00) (0, -9.60872840881347656250e+00) (1, -3.58870582580566406250e+01) (2, 3.54825782775878906250e+01) (3, 2.04526036977767944336e-01) (4, -6.95619344711303710938e+00) (5, 1.30808773040771484375e+01) (6, 2.05442504882812500000e+01) (7, -1.86577129364013671875e+00) (8, -2.60716032981872558594e+00) (4, -4.25725507736206054688e+00) (5, 4.54746170043945312500e+01) (6, 7.57927513122558593750e+00) (7, -5.77128171920776367188e+00) (8, -8.30175590515136718750e+00) (4, -6.77330493927001953125e+00) (5, 2.08072643280029296875e+01) (6, 2.10385875701904296875e+01) (7, -2.37298941612243652344e+00) (8, -4.57819414138793945312e+00) (4, -1.18094530105590820312e+01) (5, 9.97339725494384765625e+00) (6, 2.58495864868164062500e+01) (7, -2.33183097839355468750e+00) (8, -7.72867679595947265625e-01) (9, -3.04518222808837890625e+00) (10, -3.38896870613098144531e-01) (11, -3.61028760671615600586e-01) (12, -8.74717593193054199219e-01) (13, 2.38262391090393066406e+00) 
