FANN_FLO_2.1
num_layers=4
learning_rate=0.300000
connection_rate=1.000000
network_type=0
learning_momentum=0.000000
training_algorithm=2
train_error_function=1
train_stop_function=0
cascade_output_change_fraction=0.010000
quickprop_decay=-0.000100
quickprop_mu=1.750000
rprop_increase_factor=1.200000
rprop_decrease_factor=0.500000
rprop_delta_min=0.000000
rprop_delta_max=50.000000
rprop_delta_zero=0.100000
cascade_output_stagnation_epochs=12
cascade_candidate_change_fraction=0.010000
cascade_candidate_stagnation_epochs=12
cascade_max_out_epochs=150
cascade_min_out_epochs=50
cascade_max_cand_epochs=150
cascade_min_cand_epochs=50
cascade_num_candidate_groups=2
bit_fail_limit=3.49999994039535522461e-01
cascade_candidate_limit=1.00000000000000000000e+03
cascade_weight_multiplier=4.00000005960464477539e-01
cascade_activation_functions_count=10
cascade_activation_functions=3 5 7 8 10 11 14 15 16 17 
cascade_activation_steepnesses_count=4
cascade_activation_steepnesses=2.50000000000000000000e-01 5.00000000000000000000e-01 7.50000000000000000000e-01 1.00000000000000000000e+00 
layer_sizes=2 5 5 3 
scale_included=0
neurons (num_inputs, activation_function, activation_steepness)=(0, 0, 0.00000000000000000000e+00) (0, 0, 0.00000000000000000000e+00) (2, 3, 5.00000000000000000000e-01) (2, 3, 5.00000000000000000000e-01) (2, 3, 5.00000000000000000000e-01) (2, 3, 5.00000000000000000000e-01) (0, 3, 0.00000000000000000000e+00) (5, 3, 5.00000000000000000000e-01) (5, 3, 5.00000000000000000000e-01) (5, 3, 5.00000000000000000000e-01) (5, 3, 5.00000000000000000000e-01) (0, 3, 0.00000000000000000000e+00) (5, 0, 5.00000000000000000000e-01) (5, 0, 5.00000000000000000000e-01) (0, 0, 0.00000000000000000000e+00) 
connections (connected_to_neuron, weight)=(0, -1.18307352066040039062e+01) (1, -5.84600591659545898438e+00) (0, 4.77215881347656250000e+01) (1, -1.32322204113006591797e+00) (0, -2.76720976829528808594e+00) (1, -2.16730928421020507812e+00) (0, 1.35433242797851562500e+02) (1, -1.27371299266815185547e+00) (2, 3.63191604614257812500e+00) (3, 3.04059922695159912109e-01) (4, -4.35405778884887695312e+00) (5, -5.72046458721160888672e-01) (6, -1.08081348240375518799e-01) (2, 3.33613491058349609375e+00) (3, 2.14615082740783691406e+00) (4, 2.12986969947814941406e+00) (5, 2.05797886848449707031e+00) (6, 4.08332586288452148438e+00) (2, 5.56569290161132812500e+00) (3, 1.14314699172973632812e+00) (4, -2.29207825660705566406e+00) (5, 2.40554475784301757812e+00) (6, -9.62296485900878906250e-01) (2, 2.73179244995117187500e+01) (3, 6.09880924224853515625e-01) (4, 5.88065743446350097656e-01) (5, 6.10750317573547363281e-01) (6, -7.78451144695281982422e-01) (7, 1.23183071613311767578e-01) (8, -2.72789299488067626953e-01) (9, -2.28617057204246520996e-01) (10, 5.75401365756988525391e-01) (11, -1.32875040173530578613e-01) (7, -7.98227071762084960938e-01) (8, -3.66732329130172729492e-01) (9, -8.61122131347656250000e-01) (10, -2.24867776036262512207e-01) (11, -2.69212037324905395508e-01) 
