FANN_FLO_2.1
num_layers=3
learning_rate=0.400000
connection_rate=1.000000
network_type=0
learning_momentum=0.000000
training_algorithm=2
train_error_function=1
train_stop_function=0
cascade_output_change_fraction=0.010000
quickprop_decay=-0.000100
quickprop_mu=1.750000
rprop_increase_factor=1.200000
rprop_decrease_factor=0.500000
rprop_delta_min=0.000000
rprop_delta_max=50.000000
rprop_delta_zero=0.100000
cascade_output_stagnation_epochs=12
cascade_candidate_change_fraction=0.010000
cascade_candidate_stagnation_epochs=12
cascade_max_out_epochs=150
cascade_min_out_epochs=50
cascade_max_cand_epochs=150
cascade_min_cand_epochs=50
cascade_num_candidate_groups=2
bit_fail_limit=3.49999994039535522461e-01
cascade_candidate_limit=1.00000000000000000000e+03
cascade_weight_multiplier=4.00000005960464477539e-01
cascade_activation_functions_count=10
cascade_activation_functions=3 5 7 8 10 11 14 15 16 17 
cascade_activation_steepnesses_count=4
cascade_activation_steepnesses=2.50000000000000000000e-01 5.00000000000000000000e-01 7.50000000000000000000e-01 1.00000000000000000000e+00 
layer_sizes=10 3 2 
scale_included=0
neurons (num_inputs, activation_function, activation_steepness)=(0, 0, 0.00000000000000000000e+00) (0, 0, 0.00000000000000000000e+00) (0, 0, 0.00000000000000000000e+00) (0, 0, 0.00000000000000000000e+00) (0, 0, 0.00000000000000000000e+00) (0, 0, 0.00000000000000000000e+00) (0, 0, 0.00000000000000000000e+00) (0, 0, 0.00000000000000000000e+00) (0, 0, 0.00000000000000000000e+00) (0, 0, 0.00000000000000000000e+00) (10, 3, 5.00000000000000000000e-01) (10, 3, 5.00000000000000000000e-01) (0, 3, 0.00000000000000000000e+00) (3, 3, 5.00000000000000000000e-01) (0, 3, 0.00000000000000000000e+00) 
connections (connected_to_neuron, weight)=(0, -5.57832941412925720215e-02) (1, -4.52812239527702331543e-02) (2, -9.73625183105468750000e-02) (3, -1.89299732446670532227e-01) (4, -4.76788207888603210449e-02) (5, -1.18803083896636962891e-01) (6, -7.17680975794792175293e-02) (7, -1.11799001693725585938e-01) (8, -1.66191443800926208496e-01) (9, -1.88887551426887512207e-01) (0, 1.86696439981460571289e-01) (1, 5.41401654481887817383e-02) (2, 1.78596347570419311523e-01) (3, 2.50543281435966491699e-02) (4, 1.85816645622253417969e-01) (5, 1.94362282752990722656e-01) (6, 1.77886605262756347656e-01) (7, 1.86921775341033935547e-01) (8, 3.36796566843986511230e-02) (9, 1.14217579364776611328e-01) (10, -3.82198467850685119629e-02) (11, -1.84012845158576965332e-01) (12, -1.36732965707778930664e-01) 
