FANN_FLO_2.1
num_layers=3
learning_rate=0.500000
connection_rate=1.000000
network_type=0
learning_momentum=0.000000
training_algorithm=2
train_error_function=1
train_stop_function=0
cascade_output_change_fraction=0.010000
quickprop_decay=-0.000100
quickprop_mu=1.750000
rprop_increase_factor=1.200000
rprop_decrease_factor=0.500000
rprop_delta_min=0.000000
rprop_delta_max=50.000000
rprop_delta_zero=0.100000
cascade_output_stagnation_epochs=12
cascade_candidate_change_fraction=0.010000
cascade_candidate_stagnation_epochs=12
cascade_max_out_epochs=150
cascade_min_out_epochs=50
cascade_max_cand_epochs=150
cascade_min_cand_epochs=50
cascade_num_candidate_groups=2
bit_fail_limit=3.49999994039535522461e-01
cascade_candidate_limit=1.00000000000000000000e+03
cascade_weight_multiplier=4.00000005960464477539e-01
cascade_activation_functions_count=10
cascade_activation_functions=3 5 7 8 10 11 14 15 16 17 
cascade_activation_steepnesses_count=4
cascade_activation_steepnesses=2.50000000000000000000e-01 5.00000000000000000000e-01 7.50000000000000000000e-01 1.00000000000000000000e+00 
layer_sizes=7 9 2 
scale_included=0
neurons (num_inputs, activation_function, activation_steepness)=(0, 0, 0.00000000000000000000e+00) (0, 0, 0.00000000000000000000e+00) (0, 0, 0.00000000000000000000e+00) (0, 0, 0.00000000000000000000e+00) (0, 0, 0.00000000000000000000e+00) (0, 0, 0.00000000000000000000e+00) (0, 0, 0.00000000000000000000e+00) (7, 3, 5.00000000000000000000e-01) (7, 3, 5.00000000000000000000e-01) (7, 3, 5.00000000000000000000e-01) (7, 3, 5.00000000000000000000e-01) (7, 3, 5.00000000000000000000e-01) (7, 3, 5.00000000000000000000e-01) (7, 3, 5.00000000000000000000e-01) (7, 3, 5.00000000000000000000e-01) (0, 3, 0.00000000000000000000e+00) (9, 0, 5.00000000000000000000e-01) (0, 0, 0.00000000000000000000e+00) 
connections (connected_to_neuron, weight)=(0, -6.42093658447265625000e-01) (1, -1.55135333538055419922e+00) (2, -1.25754427909851074219e+00) (3, -2.88070470094680786133e-01) (4, 2.13027429580688476562e+00) (5, 7.72725164890289306641e-01) (6, 2.09706377983093261719e+00) (0, -5.69741845130920410156e-01) (1, -6.37959718704223632812e-01) (2, 3.69653433561325073242e-01) (3, -2.53077834844589233398e-01) (4, 1.37725508213043212891e+00) (5, -1.19929873943328857422e+00) (6, -3.83099943399429321289e-01) (0, 2.07290577888488769531e+00) (1, -7.17432737350463867188e-01) (2, -1.33907139301300048828e+00) (3, -3.62394750118255615234e-01) (4, -1.13726224899291992188e+01) (5, 6.24849271774291992188e+00) (6, -1.00751149654388427734e+00) (0, -1.09303736686706542969e+00) (1, 1.49784541130065917969e+00) (2, 1.92132472991943359375e+00) (3, -1.44961690902709960938e+00) (4, -3.29880952835083007812e-01) (5, 1.19358681142330169678e-01) (6, 1.04843544960021972656e+00) (0, -4.33850497007369995117e-01) (1, -2.06383037567138671875e+00) (2, 9.08114165067672729492e-02) (3, -3.51968258619308471680e-01) (4, -8.61585426330566406250e+00) (5, 1.07851886749267578125e+01) (6, -1.95049457550048828125e+01) (0, 1.15894779562950134277e-01) (1, 6.83854520320892333984e-02) (2, 1.06978100585937500000e+03) (3, 2.39165887236595153809e-01) (4, -9.96784642338752746582e-02) (5, 4.22807556152343750000e+02) (6, 1.03132748603820800781e+00) (0, -8.20178151130676269531e-01) (1, -4.57629203796386718750e-01) (2, -4.11196374893188476562e+00) (3, -4.31242108345031738281e-01) (4, 2.60970544815063476562e+00) (5, 3.53589415550231933594e+00) (6, 1.50781428813934326172e+00) (0, 1.00940879821777343750e+02) (1, -1.44799902343750000000e+03) (2, 8.09458984375000000000e+02) (3, -2.18592567443847656250e+01) (4, -1.43116516113281250000e+03) (5, 1.00592053222656250000e+03) (6, -1.48883810043334960938e+01) (7, -3.76858897507190704346e-02) (8, 2.49829590320587158203e-02) (9, 6.33468702435493469238e-02) (10, -8.01501143723726272583e-03) (11, 4.11528944969177246094e-02) (12, 8.97926390171051025391e-02) (13, 1.64354573935270309448e-02) (14, -2.12595687866210937500e+02) (15, -8.02313461899757385254e-02) 
