FANN_FLO_2.1
num_layers=4
learning_rate=0.500000
connection_rate=1.000000
network_type=0
learning_momentum=0.000000
training_algorithm=2
train_error_function=1
train_stop_function=0
cascade_output_change_fraction=0.010000
quickprop_decay=-0.000100
quickprop_mu=1.750000
rprop_increase_factor=1.200000
rprop_decrease_factor=0.500000
rprop_delta_min=0.000000
rprop_delta_max=50.000000
rprop_delta_zero=0.100000
cascade_output_stagnation_epochs=12
cascade_candidate_change_fraction=0.010000
cascade_candidate_stagnation_epochs=12
cascade_max_out_epochs=150
cascade_min_out_epochs=50
cascade_max_cand_epochs=150
cascade_min_cand_epochs=50
cascade_num_candidate_groups=2
bit_fail_limit=3.49999994039535522461e-01
cascade_candidate_limit=1.00000000000000000000e+03
cascade_weight_multiplier=4.00000005960464477539e-01
cascade_activation_functions_count=10
cascade_activation_functions=3 5 7 8 10 11 14 15 16 17 
cascade_activation_steepnesses_count=4
cascade_activation_steepnesses=2.50000000000000000000e-01 5.00000000000000000000e-01 7.50000000000000000000e-01 1.00000000000000000000e+00 
layer_sizes=4 5 5 2 
scale_included=0
neurons (num_inputs, activation_function, activation_steepness)=(0, 0, 0.00000000000000000000e+00) (0, 0, 0.00000000000000000000e+00) (0, 0, 0.00000000000000000000e+00) (0, 0, 0.00000000000000000000e+00) (4, 3, 5.00000000000000000000e-01) (4, 3, 5.00000000000000000000e-01) (4, 3, 5.00000000000000000000e-01) (4, 3, 5.00000000000000000000e-01) (0, 3, 0.00000000000000000000e+00) (5, 3, 5.00000000000000000000e-01) (5, 3, 5.00000000000000000000e-01) (5, 3, 5.00000000000000000000e-01) (5, 3, 5.00000000000000000000e-01) (0, 3, 0.00000000000000000000e+00) (5, 3, 5.00000000000000000000e-01) (0, 3, 0.00000000000000000000e+00) 
connections (connected_to_neuron, weight)=(0, 2.76427507400512695312e+00) (1, -3.51040267944335937500e+01) (2, 1.24988145828247070312e+01) (3, 4.55799341201782226562e-01) (0, -5.32966423034667968750e+00) (1, -2.88862342834472656250e+01) (2, 3.31389846801757812500e+01) (3, -3.33275866508483886719e+00) (0, -3.37390947341918945312e+00) (1, -1.40041866302490234375e+01) (2, 4.46154022216796875000e+00) (3, 2.56666564941406250000e+00) (0, -2.93606209754943847656e+00) (1, -8.79871749877929687500e+00) (2, 4.52189016342163085938e+00) (3, 2.11481189727783203125e+00) (4, -1.16214103698730468750e+01) (5, -4.79517793655395507812e+00) (6, 2.68486003875732421875e+01) (7, 1.92462501525878906250e+01) (8, -6.32658576965332031250e+00) (4, -1.16762561798095703125e+01) (5, -4.22707509994506835938e+00) (6, 2.70481624603271484375e+01) (7, 1.94443702697753906250e+01) (8, -6.69089412689208984375e+00) (4, -1.33565359115600585938e+01) (5, -4.82829332351684570312e+00) (6, 3.12215499877929687500e+01) (7, 1.80248737335205078125e+01) (8, -6.18732976913452148438e+00) (4, -1.52188482284545898438e+01) (5, -6.37680673599243164062e+00) (6, 2.97569789886474609375e+01) (7, 2.63939914703369140625e+01) (8, -7.99068975448608398438e+00) (9, -1.12254953384399414062e+00) (10, -5.11871099472045898438e-01) (11, -1.39580774307250976562e+00) (12, -1.24072659015655517578e+00) (13, 2.02551770210266113281e+00) 
